-9.211428754201903546e-01
3.657307693662464887e-01
8.507734107190452130e-03
-8.802346982601002567e-01
-2.606534375245292967e+00
-2.282125682968005886e+00
-2.448735786895866351e+00
-3.340439418128417604e+00
-3.470661871415559485e+00
-2.475198008230141689e+00
-2.286418647583607022e+00
-3.245198964808654996e+00
-2.941427920849432276e+00
-3.126066506208376339e+00
-2.388592756037516640e+00
-1.730728155330065965e+00
-5.269906997251464498e-01
-1.490121138862255945e+00
-1.991491343480809473e+00
-3.175624506196036645e+00
-3.775747001524628832e+00
-3.564855791747676417e+00
-3.315521775204380184e+00
-3.014708818417580094e+00
-3.917595058249886186e+00
-4.323410989184661268e+00
-3.972655352179366162e+00
-4.284462587731322714e+00
-4.249545094965779590e+00
-4.608072828830982459e+00
-5.256516750412238537e+00
-3.741004292332404280e+00
-2.994032576856022754e+00
-3.069287396756337660e+00
-1.954218903381700789e+00
-2.324718567239139944e+00
-2.624316110231388777e+00
-3.005693328005806020e+00
-3.395713432085953443e+00
-2.777461474836081301e+00
-2.450265340639912193e+00
-3.073993268871192619e+00
-3.625115644931401704e+00
-4.045319013776793149e+00
-4.860715236334959499e+00
-5.382017485923246802e+00
-5.307655363241999602e+00
-4.756612584392643228e+00
-4.378651307318684793e+00
-3.646836371802164134e+00
-2.786731249284283951e+00
-2.243975030960237316e+00
-2.052554873979538286e+00
-1.458964335245793720e+00
-8.122111090637862407e-01
-3.297396022649037306e-01
1.771273735742132927e-01
1.218673832340506635e+00
1.006530074941489827e+00
2.705364313166416235e-01
-3.058033940758461133e-01
-4.691454876742388036e-01
5.487601970257846573e-02
8.702618917009767863e-01
1.696387418421853699e+00
9.512000627060984703e-01
1.313716983298531850e-02
-1.551820482271506929e+00
-2.074421298213125375e+00
-5.969180852435438389e-01
-1.051766735843484790e+00
-2.397787868328071337e+00
-2.613392857809079040e+00
-2.353979420683269819e+00
-7.329182536197509368e-01
-7.169405051644366957e-03
-4.411457639828763044e-01
-1.805389955635527732e+00
-4.227836367806598883e-01
8.932157848148852830e-02
-1.865972597095464591e+00
-2.288973501377342679e+00
-2.069507466415996699e+00
-8.456324350464669015e-01
-1.088521421951926804e+00
-1.041143691849386044e-01
1.156829451467062508e+00
1.873588283207165972e+00
1.643264764778035625e+00
-3.249444561409174370e-01
-1.242841838364271423e+00
1.279969134789860963e+00
1.569665666686828720e+00
7.424722521737036063e-01
6.624016294143475481e-01
6.946061571876416263e-01
2.019754939064826171e-01
5.023144952387798012e-01
-7.912416805955088117e-01
-5.433853974172991874e-01
3.629230009929992895e-01
-2.212029368207401800e-02
-1.017171713737314409e+00
-1.462162789340383684e+00
1.149363411131814727e+00
1.470825248686799536e-01
-2.132051300499472557e+00
-2.657729282093840517e+00
-1.949432930796354491e+00
-7.109478014685860492e-01
-1.344543826641977802e+00
-3.512305206417861925e+00
-1.598609148613969744e+00
-1.832077017847513867e+00
-7.351461605789421094e-01
2.997538037413988721e-01
1.294291514943853860e+00
-3.771370167978752019e-01
-2.019278786907561685e+00
-3.402862079925442984e+00
-3.065791754037335171e+00
-3.894300096581676751e+00
-3.955687777673071004e+00
-3.466876416010737927e+00
-3.395088952309309960e+00
-3.323002785794997305e+00
-2.815317583609977525e+00
-2.435264873376854489e+00
-6.942746871897157446e-01
-1.465418858152782278e+00
-2.385610743442567294e+00
-3.263402293237736007e+00
-3.433813686435253310e+00
-4.246441675232600410e+00
-2.355806032016914298e+00
-1.655516644712860863e+00
-2.424108815878768031e+00
-3.572198901625859957e+00
-3.752709765157238753e+00
-3.760782610479397547e+00
-3.122021263400574842e+00
-3.919556407799825060e+00
-4.105535726652364659e+00
-2.231582271764369185e+00
-2.598000127585291974e+00
-1.035887093216820931e+00
-5.680027715235154151e-01
-7.073247142742767890e-01
-9.163775609133308075e-02
4.223629191915083403e-02
-5.851893993739701871e-01
-7.972316424445792249e-01
-3.334195586445449777e+00
-2.417536356589867097e+00
-7.960033081497587260e-01
-4.138848525780028931e-01
-2.767602734933558017e-01
-2.715374393080403070e-01
-6.897764139712782294e-02
5.927566410044469158e-01
2.282677535619013487e-01
-3.542932876391869934e-01
-8.516125588202859698e-01
1.734109558781680716e-01
-7.384075102781215705e-01
-1.546772674489240718e+00
-2.533793782939806949e+00
-2.633767019264090958e+00
-1.594645821155596277e+00
-1.671064701208208714e+00
-2.024206264722265836e+00
-6.581528740088403717e-01
-1.438260276754525779e-01
3.549831904727309695e-01
-6.813652753103364157e-01
-3.725657960173900940e-01
-1.381308517462679797e+00
-7.972433997411786377e-01
-1.790260792766025677e+00
-2.733156068158295149e+00
-3.094856856310816529e+00
-1.503338987937472115e+00
-1.139340761530948321e+00
-3.520895277226084863e-01
-6.233723601819413096e-01
-4.217482422711554269e-01
-1.433439523608724508e+00
-2.646947282909896337e+00
-3.261614995938475925e+00
-3.889247981291738654e+00
-4.990113513881805574e+00
-4.550509508836182881e+00
-3.047287849059979514e+00
-2.496729282429691832e+00
-5.185184787652449279e-01
-1.117097187830460969e+00
-7.375769727999215153e-01
6.337956450465773162e-02
1.599669847243869070e+00
2.222231441512614314e+00
2.987868898633351922e+00
1.630586402597583362e+00
2.968490293692540583e-01
-9.112068049594757024e-01
-2.290918257373860456e+00
-1.643034365991731693e+00
-2.446786900117563501e+00
-2.870256219059595715e+00
-2.748591139395517580e+00
-2.579746439305962813e+00
-1.988303589709967012e+00
-2.166859395686619560e+00
-1.134816465794744822e+00
-1.403953773481378509e+00
-2.904677000175233559e+00
-1.402555851108026941e+00
-7.694074996165199964e-01
1.888981376707785653e-01
-4.111797490480185169e-01
-1.601288304275467311e+00
-1.853543515334453939e+00
-2.372516113944350025e+00
-1.777792281133898200e+00
-2.758420217767373561e+00
-7.351705283537898206e-01
3.500819357880868843e-01
5.793464025645380655e-01
4.758185907079175159e-02
-1.174623876631316843e+00
-1.454991508233119513e+00
-1.901192422185306485e+00
-3.024913269709481600e+00
-3.458477145569738287e+00
-1.500704642255574761e+00
-1.324129365087631571e+00
-2.279969221201490814e+00
-2.225679056448532034e+00
-2.171490645851450463e+00
-1.488893499368229234e+00
-2.366190381556068645e-01
1.839361826703816427e-01
-4.184322702545494876e-01
-7.269892846089536231e-01
-2.221608358984188403e+00
-3.837872484912937754e+00
-4.582198840299925635e+00
-4.761154632397558650e+00
-3.983126800339743312e+00
-3.399406969050915883e+00
-3.422654385893016737e+00
-3.714188583760520856e+00
-3.129697914941649284e+00
-3.273826258662104305e+00
-3.216999204664482637e+00
-3.959904032672723062e+00
-3.135021268536371863e+00
-2.361814544732161458e+00
-2.862358851368373980e+00
-2.562630937488391325e+00
-2.792343270847483350e+00
-2.089934302848160286e+00
-2.187875263581507301e+00
-2.471360903247045826e+00
-1.777158514377934484e+00
-1.968737273034387281e+00
-2.903509379285375669e+00
-4.095926510567996282e+00
-4.154282597131476074e+00
-3.890145660855111043e+00
-4.141707685423249075e+00
-5.229857569676124029e+00
-5.120749387181418477e+00
-3.275510840804356061e+00
-3.265855572933155315e+00
-2.199965947310396519e+00
-9.226264012510518864e-01
-9.305469545680454813e-01
-9.650527502336714303e-01
-9.163187058256341277e-01
-5.962155829936653939e-01
-1.514681459150866716e-01
5.304032397499800489e-01
6.543893164006074903e-01
3.976182642965148673e-01
3.351743166945858055e-01
-6.096827892860245957e-01
-1.315372478784274879e+00
-8.021491646481194726e-01
-2.952921669096615354e-01
-2.328672998780564884e-01
-6.168329982291979041e-01
-1.981274860503092317e+00
-1.883501538739093650e+00
-8.847214289543271493e-01
-1.395381203078800647e+00
-2.202481387583158146e+00
-2.109773208457639271e+00
-1.257602059332237898e+00
-3.011374634307395146e-02
6.355925920251126460e-01
4.908698109431747780e-01
-5.185265220282040399e-01
-5.193203689898532316e-01
-5.431734179921846595e-01
-1.477356245072153573e+00
-2.099882717075190808e+00
-2.226641827102467275e+00
-5.811556905805953521e-01
-1.097641430356513098e-01
-1.203165907169360810e-01
3.968555938155597929e-01
1.849147919184944033e+00
2.040957093380668219e+00
5.739116565344224430e-01
-7.301537886484131823e-01
9.188873888939028678e-01
1.030339675492331297e+00
1.203228683967806800e+00
1.306545998841043499e+00
1.284095784352349723e+00
1.262973965011427335e+00
1.600049942078991760e+00
7.714485187600625959e-01
7.290931876202058071e-01
6.662314892756413531e-01
4.530742187015792122e-01
-1.789468193303037913e-01
-1.943230794118765425e-01
-3.464545560630626353e-01
-1.067501468275519505e+00
-2.425363423478524183e+00
-1.967092240348661702e+00
-9.912561889709007312e-01
-2.280434254883209610e-01
-1.020146732183905725e+00
-2.498987833500981193e+00
-1.597003787199951785e-01
8.381019377927680439e-03
8.013550763745029559e-02
3.200256134462365343e-01
1.042342688183157895e+00
-5.899111372809624082e-02
-8.832364505532452892e-01
-1.980125184965175755e+00
-1.956156360894920843e+00
-3.297881797823747352e+00
-3.882190761334131324e+00
-3.522628013220329812e+00
-3.369378306292218905e+00
-3.516615596449728098e+00
-2.764773063715546986e+00
-2.815150631651637259e+00
-1.461601717923547650e+00
-2.011921801909536178e+00
-2.478036416420058785e+00
-2.526845773942753226e+00
-2.985275337959097719e+00
-3.883686685816495121e+00
-3.330546625260673910e+00
-2.410940294025496033e+00
-2.342948853141631371e+00
-2.788385285424651805e+00
-2.708465584740435972e+00
-2.087488644974674123e+00
-2.596080216675606067e+00
-3.561865967099026697e+00
-2.559235156190262650e+00
-1.083548106960976698e+00
-4.418037338240945466e-01
6.110508305774986493e-02
6.811643157157887263e-02
-5.130281168193334684e-01
-3.431213232323523932e-01
-2.666645473848419101e-01
-3.004147533669759840e-01
-1.886592543543855194e-01
-3.091327588601946452e+00
-2.042899406976119270e+00
-4.603361246364348069e-01
-1.022932477595483780e+00
-1.152265584541882992e+00
-1.358985415755483928e+00
-1.252601927407019922e+00
-1.139360235180816971e+00
-1.180436006581721209e+00
-1.230948039208255018e+00
-1.725657236530295791e+00
-7.863485251684839694e-01
-1.304536372593669613e+00
-1.503296567483941804e+00
-1.966430486912369879e+00
-1.828031764002116866e+00
-9.554546973905783114e-01
-6.736218199049780475e-01
-6.826870492713998928e-01
-7.846334812967792338e-01
-3.319271754125869833e-01
-9.582153872107269654e-01
-1.479375143960066419e+00
-6.311247270036652868e-01
-1.908080833787250796e+00
-1.557625220737495431e+00
-2.294934000508128680e+00
-3.418127137258464288e+00
-3.032288401045032611e+00
-1.803077422062045132e+00
-1.350623200078792552e+00
-6.905425549917113548e-01
-2.043810696310390251e-01
-1.087035908548086849e-01
-1.876456728941389152e-02
-9.416584473515766662e-01
-1.957579396498294599e+00
-3.118834851521184781e+00
-4.674967004786410030e+00
-5.425981803688689098e+00
-2.434809348476088431e+00
-2.471205876649432032e+00
-1.128636299932705755e+00
-3.557135686633296490e-01
-6.417581593140893048e-01
-4.788448804491330923e-01
1.398533764449304329e+00
2.720785938873192755e+00
3.852921793246866677e+00
1.980807998619772636e+00
7.034366144440019619e-01
-4.653208768418364283e-01
-1.989122985454760961e+00
-2.397818362624632105e+00
-3.956485042288928611e+00
-3.864122519614098916e+00
-3.308598922762868710e+00
-2.634456455861533097e+00
-2.631788561035893093e+00
-1.443538877628434358e+00
-7.437453425833238096e-01
-5.847417492089078683e-01
-1.114398679536022341e+00
-1.482121961436126290e+00
-9.659441543489101223e-01
4.313513036900475939e-01
3.220757101386751975e-01
3.140145257236657272e-01
-3.639635848473935509e-01
-6.082881898441570012e-01
-1.914821062715386990e+00
-1.948752126499000425e+00
-1.399523066860379972e+00
-2.960035095917523673e-01
8.699696040800393160e-01
1.027489080713850145e+00
1.384740352947337050e-01
-8.457843262536132167e-01
-1.988787934358567489e+00
-2.878396455465492387e+00
-3.700791125151612793e+00
-2.334738038620663758e+00
-1.417553770310938210e+00
-2.075109252477293609e+00
-2.656890407192843195e+00
-2.374765114687050538e+00
-1.691758220291440518e+00
-2.093491379454827939e-01
1.504738225922816586e+00
3.260741636107258312e-01
-2.653226038831742462e-01
-1.297607805069704190e+00
-3.177461400058223084e+00
-4.675201136739487673e+00
-4.908924613970868656e+00
-5.159666239878166749e+00
-3.596034525657894054e+00
-3.062573709705583180e+00
-2.943333757537261786e+00
-2.395442468569712435e+00
-1.646417541301144816e+00
-8.846173067487147490e-01
-1.420669319773522066e+00
-1.191444069481821799e+00
-1.454522925683738643e+00
-2.361868248314992869e+00
-3.103129619333082179e+00
-2.636014814937661210e+00
-1.768289328500022073e+00
-1.273447027353253658e+00
-1.298810050534316529e+00
-3.619866672966628451e-01
-8.840155806788743131e-01
-1.737951171699979591e+00
-3.011971080603438544e+00
-3.170320474206929973e+00
-3.211965422024334771e+00
-3.533093647892818545e+00
-4.409881643866931711e+00
-5.101927301905148759e+00
-3.519020057031428284e+00
-3.305286152619839601e+00
-2.136691751561826447e+00
-1.090372757476538723e+00
-5.360958773861954629e-01
-7.810117319014472925e-02
-4.438658406326454614e-02
1.196472122827413331e-01
-2.588949415371356033e-01
1.555193918630767558e-01
3.625643148490196310e-01
1.735902067451297881e-01
7.056661721422403943e-02
-1.075754800975437631e+00
-2.034189570659304280e+00
-1.192014556874888997e+00
-6.486511513279183960e-01
-2.808746169413510185e-01
-5.062528275694849755e-01
-1.669512423455451922e+00
-2.217179520239631163e+00
-1.627508436386511770e+00
-1.588684454834568882e+00
-1.521097169054722142e+00
-1.342840659141274928e+00
-5.134455533293442731e-01
-4.315428060449981729e-01
1.871034695126897185e-01
1.125347151037717319e+00
3.388738524920353878e-01
-2.247825534809783088e-01
3.544011168413985780e-01
-1.885841298872587668e+00
-2.104710020934790204e+00
-1.159548208279210346e+00
-2.940491152113249851e-01
1.264875057692213534e-01
4.105372500925546508e-01
8.458190356667005805e-01
1.839419667981041950e+00
1.497232349670039486e+00
7.308843026383073926e-01
-3.084411341427685249e-01
3.152305868020083834e-01
1.179778434486600802e-01
6.063598187555807595e-01
1.256459862183423093e+00
1.375255653871909400e+00
8.982867654084264464e-01
1.488675054018609112e+00
5.118952767795587055e-01
5.017519382514600279e-01
-3.462373939225440456e-01
-2.573755529848931883e-02
-2.333796097955600501e-01
6.079887353078127638e-02
-1.202398621434867199e+00
-1.864439435944319934e+00
-1.879455949181079388e+00
-1.756443760675069132e+00
-8.292467286091735890e-01
4.060913977859349766e-02
-6.968565501402439466e-01
-1.691808786693798305e+00
-3.714303533929412537e-02
5.611665542591723899e-01
1.140406888341049862e+00
4.934725189583755167e-01
7.907388069539277309e-01
4.509181089993106184e-01
7.959629041680660322e-01
-1.397662979624643143e-01
-3.619703766942539702e-01
-2.264632293734888613e+00
-3.613802960224769212e+00
-2.821536798561237180e+00
-2.465589836439144200e+00
-2.146971533281980093e+00
-1.783546507695247030e+00
-1.908476911367363416e+00
-2.222154643218967163e+00
-1.948659636007890494e+00
-2.125951606109111047e+00
-2.239968686999613823e+00
-2.625333922593891423e+00
-3.663905083532975837e+00
-2.874271504541635824e+00
-1.980313626004172489e+00
-1.848847628854374481e+00
-2.229282253062363939e+00
-2.305645080470458463e+00
-1.536895131853690755e+00
-2.150295096948625417e+00
-3.066587957734526970e+00
-2.183861086920109162e+00
-1.467924949609347163e+00
6.328179561822782073e-01
4.650249262902809155e-01
3.393684846797659915e-01
-5.386993120561398563e-01
-6.012470100063830314e-01
-1.608517192677925145e-01
-1.901093135051705740e-01
3.288040034175790938e-01
-1.605103718494719001e+00
-7.641316247260726557e-01
-5.704513160951488748e-01
-8.993473871019133092e-01
-5.131891456264502382e-01
-5.035465532981430181e-01
-2.046521190887282682e+00
-2.140399952979485931e+00
-1.159527835080486513e+00
-1.309839216466758050e+00
-1.340765570900759540e+00
-1.116054436051635346e+00
-1.468117761962604240e+00
-1.195396295192049596e+00
-1.100862186533446474e+00
-9.533576838190248592e-01
-2.039952362068726266e-01
-1.347192699483376332e-01
-8.507753539032847367e-01
-1.129802330668461030e+00
-3.391786803013025486e-01
-8.335239605117250594e-01
-4.955315905677309951e-01
-1.263506033314453492e-01
-1.393026810983271968e+00
-1.257616193400171500e+00
-1.887748351421722370e+00
-3.106319481313061903e+00
-2.715101599890540118e+00
-8.698486831987533030e-01
-1.266636364534538428e+00
-4.110362097846476659e-01
1.722863482738664354e-01
3.408170087911305823e-01
7.055256269474592390e-01
-2.574704709153682533e-02
-1.289318373705289789e+00
-3.262823022457749911e+00
-5.285545819690574021e+00
-5.261503373100335779e+00
-2.259465302038631052e+00
-2.431936134840867680e+00
-1.579588399524171072e+00
-5.196092308732499498e-01
-6.427599351630708391e-01
-2.350012687719743310e-01
1.638568769513781387e+00
1.550120275635398892e+00
2.110998710618883667e+00
5.204453184081685446e-01
-8.718973945724124708e-02
-7.102397929201551552e-01
-2.599041795815144607e+00
-4.744431229397388705e+00
-4.877401488959637099e+00
-3.790589236074934032e+00
-2.233885021502949986e+00
-3.184479777609911189e+00
-1.790736065647130726e+00
-5.004198182198157374e-01
-1.442188452366375828e-01
1.115905366707575508e-01
-1.264623066903533877e+00
-1.548071077708095933e+00
-1.175606739569700743e+00
7.742303656506965837e-01
1.414165754452183510e+00
1.244936314008304956e+00
-2.361559696964500230e-02
-1.240507129576125633e+00
-1.933887001923101812e+00
-1.217733632377897141e-01
-6.181143449830881487e-01
6.781797315557536177e-02
3.007626446870078629e-01
5.184080392105707702e-01
2.606795082277818532e-01
-9.453515480983514241e-01
-2.430164272360153088e+00
-4.265445613909591316e+00
-3.676919998355582475e+00
-3.373414175740581555e+00
-1.768377651335904188e+00
-1.419831945369921078e+00
-2.685200395062110168e+00
-2.598260096360207605e+00
-1.058755072810249498e+00
1.653672922156401992e-01
1.356069221419841320e+00
3.995958295338009614e-01
-5.040060123429521699e-01
-1.931387728713787721e+00
-3.037922489277967930e+00
-3.197730725361818571e+00
-3.477999445922738353e+00
-3.650099434450369440e+00
-3.222057607792923051e+00
-2.826474981836395006e+00
-2.112970241281795225e+00
-1.795587384263511943e+00
-1.175209256055200768e+00
-8.489052568700075074e-01
-7.955553783878044349e-01
-1.440928072489533918e+00
-1.036581700026305342e+00
-1.527480396483910763e+00
-1.844262662670017150e+00
-1.809387285549886482e+00
-1.354554186154811379e+00
-9.544726239166911874e-01
-9.565975698539416205e-01
-2.881963586152534451e-01
-8.347646490901642347e-01
-9.983755485720932077e-01
-1.127168988972794939e+00
-2.949482684705026170e+00
-3.447575299714622954e+00
-3.625961021798465023e+00
-3.676015051528546795e+00
-3.753396655672985638e+00
-3.155350515366901476e+00
-2.582744853204737900e+00
-2.121998769583931299e+00
-1.234342525530213397e+00
-9.964062183589884603e-01
-5.658982475925898870e-01
-3.182751204856647531e-01
7.862467746999755869e-02
2.350398631728532195e-01
5.388410711479467707e-01
-9.198531170991743056e-02
-1.070870598825248043e+00
-7.603814209706538652e-01
-2.714370726136857703e-01
-1.209918445532548459e+00
-1.489887944264634001e+00
-3.660321754136157124e-01
-3.316142985485310418e-02
4.906395521154398032e-01
-8.547436236946776011e-01
-2.455713039597969605e+00
-1.921578471045150005e+00
-1.016497539884711587e+00
-4.766135722430910326e-01
-7.625899525532648937e-01
-1.307481661664379402e+00
-8.255894603807617527e-01
-2.766785600013268454e-01
1.655227766646333087e+00
4.668155081595606881e-01
-1.978350419384683756e-01
3.914994210969038324e-01
-1.617142213992846411e+00
-1.825408097961890741e+00
-7.739706298535397044e-01
-5.428390574780744826e-01
-8.440593918016012220e-02
4.951810363209203231e-02
4.344180502802508226e-01
1.770286182819211795e+00
8.828327792608927638e-01
1.398875452853915458e-01
-6.637157499727611709e-01
-5.362810260674506502e-01
-5.247018242697947255e-01
-1.868000839334485741e-01
5.476002903718171222e-01
6.377614485117204524e-01
-3.048609556919116836e-01
-1.043053301764865770e-01
-6.064567531269692280e-01
-2.850528026465834475e-01
-9.084951110039309885e-01
-4.794970316077518668e-01
-5.335703824220404679e-01
-3.827666315579358880e-01
-1.098392175290467065e+00
-1.201746060519105042e+00
-1.165093463467596457e+00
-1.712537314770680164e+00
-1.106449138192386883e+00
-9.633739201727804513e-01
-1.164581112732344215e+00
-9.904450954611961899e-01
-5.605740272171876315e-01
2.514569115217183404e-01
1.222090593426194749e+00
1.182108266797992746e+00
3.159978537188087300e-01
1.084915612670934726e+00
1.785789603881287935e+00
1.099924267021988866e+00
2.534001332979014531e-01
-1.463258995658746286e+00
-2.038493738786214315e+00
-1.582947039069410256e+00
-9.299586753957194141e-01
-3.942567206007099867e-02
-2.619737512834432458e-01
-6.950713555833696322e-01
-2.388647624693224003e+00
-1.416573131100742344e+00
-1.832187668952410364e+00
-2.809863948073250572e+00
-3.369178300759939404e+00
-4.114976415912286356e+00
-3.086025455789865646e+00
-2.907360356394006473e+00
-2.256384352941240401e+00
-2.553162257959801895e+00
-1.298524807685733196e+00
-7.177969041504872472e-01
-1.658108237451388023e+00
-2.811754945486300450e+00
-2.446899955812265048e+00
-2.184544499118996175e+00
-6.301847880601770813e-01
-2.580860335382197945e-01
6.580062592656641396e-01
1.811147111657565867e-01
1.468520566000802718e-01
-1.036721128142615023e-01
-1.424278128282894205e-02
3.156014931704971271e-01
-2.172968450208182800e-01
-2.220170740341652349e-02
-7.558605001194014239e-01
-8.340753961074700573e-01
2.935560435976649618e-01
-2.394281880766077342e-01
-2.259865982958306763e+00
-2.930685608214444127e+00
-1.420357269432068081e+00
-1.153212160924911744e+00
-1.242649232204556808e+00
-1.326213686699083683e+00
-1.160165459135793720e+00
-1.380994237983060868e+00
-1.624669778192418867e+00
-1.843671978488624408e+00
-1.865029578532362842e-01
5.233437343617988180e-01
-1.877637970301088977e-01
-2.560496604886758343e-01
1.412435070487637057e-01
3.043451453026763120e-01
5.032172954381831653e-01
2.876507037880507989e-01
-1.945442854596033389e+00
-1.779492061099726685e+00
-1.642213900627599310e+00
-2.304805016034428444e+00
-1.741368853559129626e+00
-2.719664232065459042e-01
-9.243018751328637705e-01
-1.058182359462392780e-01
1.369824189919971236e+00
1.797510057286829666e+00
1.782665804658582820e+00
1.390820613225734803e+00
4.987093101784264015e-01
-2.093238982184193020e+00
-3.892531178623758414e+00
-4.078258293709213333e+00
-2.088175362148374514e+00
-1.855203512959694656e+00
-1.335031489146111694e+00
-4.270025740363777023e-01
-3.294459264543538324e-01
7.371281279138206521e-01
5.054919861187405772e-01
-9.600598871826002689e-01
-5.811956159146567380e-01
-7.909310779832245952e-01
-1.474860573075104542e+00
-1.408823095030154127e+00
-3.928282392122024014e+00
-5.456278843336584750e+00
-5.259290590109787722e+00
-3.329650400086403561e+00
-9.068489021796605210e-01
-1.931299142025378446e+00
-2.150926937440778897e+00
-1.542315024959991732e+00
3.420559135053288236e-01
-6.397603705446171241e-02
-1.791650869655798894e+00
-1.898922692539817270e+00
1.170352748304555046e-01
7.392009654626406912e-01
8.208990953588227724e-01
-3.164097069720285538e-02
-1.020608925377715748e+00
-1.207041038867473048e+00
-5.835782208589784803e-01
-1.225730908534486824e-01
-1.429081470425165590e-01
7.268488587017351010e-01
3.168034593343976302e-01
-5.069162078752403877e-01
-1.493046846425253538e+00
-2.842135131869476972e+00
-3.265118324659618487e+00
-4.699922137071609107e+00
-3.274664720088919179e+00
-2.770999467255521154e+00
-1.326519842219081591e+00
-1.147747987586829499e+00
-1.365121519641055770e+00
-1.175695271233450523e+00
7.730091884229951527e-01
8.266684103005675910e-01
1.280825975543830930e+00
1.789687153213379844e-01
-8.235773423190606568e-02
-4.092887762581463029e-01
-1.966842206748342647e+00
-3.069187162836886529e+00
-3.163790237060111643e+00
-2.850486543057264566e+00
-2.520752991829040113e+00
-2.012785912195449445e+00
-1.365538341883613782e+00
-1.308813196635172593e+00
-2.842420804530159661e-01
-1.173980806606501837e+00
-2.079503108845210058e+00
-2.219372949619853763e+00
-1.709825219983713618e+00
-2.154229194269736247e+00
-2.345621767426437909e+00
-2.145210557738153945e+00
-7.875504938957258450e-01
-9.550996742029510544e-01
-7.497629752703488526e-01
-6.775872831424025744e-01
-1.052752614124725206e+00
-1.288086395364855807e+00
-4.775298770179512986e-01
-2.064933947367016298e+00
-3.556623323497012379e+00
-3.553909011325416145e+00
-3.463213411587275914e+00
-2.967539408721474814e+00
-2.778524828156943016e+00
-3.103378299249564432e+00
-2.811594296742230270e+00
-1.890691997242330169e+00
-1.465859766621401938e+00
-4.892183707994791075e-01
-2.934103613430141255e-01
-6.098397863836281241e-01
3.026950210465996216e-01
5.431767274229361009e-01
1.159399309936085670e-01
-1.435020880841986424e+00
-1.317568129465360505e+00
-7.088532196505384908e-01
-1.236122358725313841e+00
-1.612535260955360483e+00
-1.056901088780801828e-01
5.857488580695500158e-01
1.089912446156214187e+00
-4.035328210701991658e-01
-1.964342435588838365e+00
-1.600700935480989129e+00
-4.447682361664007100e-01
-2.500530184129775568e-01
-6.014616885944180646e-01
-2.402230321524059242e+00
-1.518632560025359179e+00
3.201110252446329185e-01
8.549186265952612995e-01
3.703879051042384130e-01
5.784836745424731808e-01
6.212932793973233725e-01
-5.808717615985199423e-01
-1.221299363010143191e+00
-7.518819617505044794e-01
-1.207569721768374071e+00
-1.118130253183212242e+00
-8.321222464436239807e-01
-5.093542925160420287e-01
-2.879588951233255645e-01
3.114608677562529793e-01
-7.015101374838663695e-01
-9.514275308214458216e-01
-3.444643932320417545e-01
4.065627410749186321e-01
7.074760882823518671e-01
4.876127902772163791e-01
9.955546434008812062e-02
6.930749776648530425e-01
4.199684240860817597e-01
-4.880921948909173191e-01
3.194575580672358028e-01
-9.900796256103177040e-01
-1.853561919083923371e-01
-5.931065422483758898e-01
-7.054101577181336458e-01
5.384852377494132591e-01
4.850926403754751703e-01
3.944123492131320075e-01
-1.531315691745412932e+00
-1.697286238927292690e+00
-1.486398670897232765e+00
-1.133697573252503421e+00
-2.870856898726603657e-01
2.270976776171422795e-01
6.842634538637902830e-01
6.076443607964847615e-01
8.617994112890478009e-01
5.978885623372250796e-02
1.297344268067873063e+00
2.389688627565172307e+00
2.464636693624749686e+00
5.553322377990553838e-01
-4.902318254988474178e-01
-7.847877624028831711e-01
-5.053254092477075243e-01
-1.520839846645615501e-01
1.114519188729536925e+00
8.614356310798672034e-01
-2.212170223538856839e-01
-1.954861254380651614e+00
-1.452878347454545249e+00
-1.799780936510902096e+00
-2.615885214308329321e+00
-3.571637250434783084e+00
-3.971744105533737912e+00
-2.700697714784790371e+00
-2.574419869396620708e+00
-2.767923626202266174e+00
-2.623356952914827733e+00
-7.179239459052179084e-01
3.006348382273293374e-01
-7.972445238482884777e-01
-1.445601430509892982e+00
-1.203160294668758734e+00
-1.094831146700667501e+00
7.082134948380786055e-02
-4.319507042972717814e-01
1.332286811734336163e-01
-5.821291296420521011e-01
-4.417075311814556149e-01
-1.470476029617192038e-01
-9.611963495120727508e-02
4.553021634827255498e-02
-2.030598723327953492e-01
3.911828140471054760e-02
-1.018172985613161385e+00
-2.034588125187668517e+00
-1.074336707446014172e+00
-8.489172234457790234e-01
-2.955831700746711199e+00
-3.492671764273796775e+00
-1.854327134673967814e+00
-1.736263775700612744e+00
-1.240733660901367719e+00
-1.148804685676793946e+00
-1.339209304052355165e+00
-1.170043034213629651e+00
-1.806297322416281048e+00
-2.976285035443976934e+00
-1.217050386383977667e+00
-2.963144965726976013e-02
3.779165724156586248e-01
1.323850147793306509e-01
4.199088144951414470e-01
1.398924032352899971e+00
1.412656168155404401e+00
1.696444244975159110e+00
-2.068190787242500495e+00
-2.357868857676562513e+00
-2.486830238340961952e+00
-1.990087801596354566e+00
7.249758823344356617e-01
1.473035734019113363e+00
1.028903039613732862e+00
1.497040573615232573e+00
2.027175151262555541e+00
2.520026972159882916e+00
2.140254000049707450e+00
1.713207694694526495e+00
1.036689815261860659e+00
-9.148063086160731494e-01
-2.445150841722510293e+00
-3.648010848714410059e+00
-1.912506098062200621e+00
-1.506623223429788050e+00
-7.365793262834450239e-01
-1.920357813768916455e-01
4.768746329291158048e-01
6.736734313260154261e-01
-7.739921719661713162e-01
-1.352759580232292924e+00
-1.600530184410654089e+00
-1.303274885115999648e+00
-4.964287007664397455e-01
-2.000535301335710781e+00
-4.040756462334941013e+00
-4.364663129482109660e+00
-4.102016882958894328e+00
-2.634907768286997243e+00
-9.106604194724445822e-01
-1.810982123492260509e+00
-3.139216358673019069e+00
-2.118517621342476343e+00
-7.408092942702966255e-01
-1.241676867801648765e+00
-1.797128870294886438e+00
5.091164549284423746e-01
3.280245407710857375e+00
1.673296027416848686e+00
-1.339613621718870606e-01
-1.510157775223064824e+00
-1.799062823650066312e+00
-1.146601688750367387e+00
-3.300101073486485515e-01
-1.778446821121164145e+00
-4.685675738484961217e-01
2.250953271641956410e-01
-1.680540329632889962e-01
-1.204196224027463513e+00
-2.426813886845080592e+00
-3.295208978602981453e+00
-3.319192398493766571e+00
-3.979740740492466955e+00
-3.919177181203713722e+00
-2.673760322774726639e+00
-2.234146364807083618e+00
-2.149103378643158813e+00
-1.619747555502240699e+00
-8.949123298778505209e-01
-1.170964381815949723e-01
-8.690438128088389114e-01
5.246945744056160654e-01
3.040256411917923729e-01
4.613979683189817216e-01
-2.111713176829322913e-01
-1.470188858883524130e+00
-3.529671845150828879e+00
-4.237244093502674502e+00
-3.130965247701013254e+00
-2.642929814750363704e+00
-2.669018391884910635e+00
-1.572073046907745075e+00
-9.694017782096651104e-01
-1.749257986538547971e-01
-6.038636902940338613e-01
-9.471486626602172443e-01
-7.207091376087164658e-01
-1.123230665410314577e+00
-1.266757929815740980e+00
-1.933640189596599335e+00
-1.578700744508732434e+00
-1.117284782047122782e+00
-1.673158248096994871e+00
-1.924995836722966924e+00
-1.461965373740788277e+00
-1.835617982917857605e+00
-1.177419063909089125e+00
-9.469500543795816849e-01
-1.800923958878727138e+00
-2.790587349536069794e+00
-2.638862446888439628e+00
-2.780155721117328671e+00
-2.713753998784100396e+00
-2.182856871611829952e+00
-2.643625051765047029e+00
-2.307773966141219546e+00
-2.078650128839365951e+00
-2.371485343292538683e+00
-1.596223005895351044e+00
-3.545215290008040809e-01
1.148922918026871187e-01
7.949508404439001308e-02
5.753068807787204558e-02
-2.946994728866979552e-01
-1.010727448771352677e+00
-1.446781831388727291e+00
-1.079681595786394555e+00
-9.079187038687218658e-01
-5.524237318856255463e-01
3.313910003456005393e-01
1.183129362991083511e+00
1.146749263507709893e+00
-3.199952496216811881e-01
-1.508017104373108319e+00
-1.231695212399266159e+00
-1.166804252131791841e+00
-7.185887836520797878e-01
-1.481035002424290203e+00
-2.434680065997296250e+00
-1.535367396172072185e+00
5.233004435598614945e-01
8.997906657454121659e-02
5.696745353578294147e-01
1.445122858959546619e+00
1.249126897391337421e+00
-9.565571703501642986e-01
-1.490758235398270681e+00
-1.699335858192333015e+00
-1.542031932346173306e+00
-9.006910149002085308e-01
-6.950853624889468119e-01
-4.565207859656781886e-01
-6.573260326512937457e-01
6.986856009641047305e-02
-9.429191724778063222e-01
-6.461990164498545575e-01
2.018728754589337315e-01
7.603768063863335369e-01
9.593949618736160589e-01
5.225018775937658733e-01
2.010705695323551367e-01
1.829469171314406672e+00
4.234414635008041938e-01
1.480260132969059284e-01
9.473358973337185907e-01
1.254031952934969996e-01
-1.665543673691352866e-01
-1.979785971574452574e-01
-4.019268398383233493e-02
6.909720554911231716e-01
1.083159777106397881e+00
8.848799666096670569e-01
-8.286406087471372972e-01
-8.972539717191001518e-01
-8.996812444793275132e-01
-7.008538731948644740e-01
4.188275952556141934e-01
-3.257889674067097896e-02
-6.379915080971618191e-02
5.594473702399943571e-01
1.149472087862333458e+00
9.451508394088463660e-01
1.473924598189665369e+00
1.962282840768586611e+00
2.069606806142354927e+00
3.861995923697427169e-01
-1.974573533060985583e-02
-7.576850780056351153e-01
-1.106060813838508405e+00
4.250860180611816530e-02
1.464093719703879914e+00
1.414394205518014314e+00
4.899098490181545001e-02
-1.630075478063554462e+00
-1.760936145800546138e+00
-1.261229177099212118e+00
-1.796818765632329562e+00
-2.428601503931925087e+00
-3.482102313940365068e+00
-1.670739121828995311e+00
-2.029714562936185462e+00
-1.920207780627909422e+00
-1.702262191890099974e+00
-6.610831927385208973e-01
1.223172241928722342e-01
-8.464600776885725653e-01
-3.482103272745905587e-01
-2.705847229072293192e-02
1.235354301197048033e-01
9.640792894677491232e-01
4.601381495048704751e-01
8.612819880782414117e-01
8.770309864666677724e-01
5.586175764250406184e-01
5.488529333844029967e-01
4.345731825661294234e-01
6.970286724989837035e-01
9.351652558592463693e-01
1.672194216525371147e+00
-3.019504756020639502e-01
-1.424371358232854101e+00
-4.422909226367315316e-01
-2.640580585244699519e-01
-1.573143426974107362e+00
-2.388637245683193466e+00
-8.248201277666501463e-01
-7.883106448629533247e-01
-3.791541957258229290e-01
-4.727128018059563730e-01
3.674268938224695136e-02
-1.282850593814113260e-01
-1.080699121150291875e+00
-2.223642766664470027e+00
-1.756782723233166754e+00
-5.742359319222717362e-01
-5.685662784953520593e-02
4.115850112493190660e-01
8.578764214999926585e-01
2.491236118141264111e+00
2.175163909467450196e+00
1.761544908667336706e+00
-1.729793997046802145e+00
-2.407735254088450016e+00
-2.630224785901994267e+00
-1.183917901758200664e+00
8.133409106812153899e-01
1.136185260108231843e+00
1.333285245002461927e+00
2.648994345762902825e+00
1.987862103330035879e+00
8.779064389647457389e-01
1.356409721979929539e-01
-1.157633908271140516e-01
3.662970155128362215e-01
-1.329948315723167018e-01
-1.829892801397609903e+00
-2.625505868449126812e+00
-1.102183832377471084e+00
-1.536462530929336268e+00
-1.377526557863077761e+00
-4.699257763687541556e-01
1.307176213039805912e+00
-1.366655706910485935e-01
-8.719772202594706645e-01
-9.222668011604505667e-01
-1.253196623686211986e+00
-1.569387983186637303e+00
-6.192632879299468929e-01
-2.068353160555674641e+00
-2.949943411497550461e+00
-2.870906713103272168e+00
-2.247744140995401096e+00
-1.390874112247507233e+00
-2.023173339718369323e+00
-2.845174304616023608e+00
-2.674877863263751543e+00
-1.876927252288041581e+00
-1.345640127437369715e+00
-4.536782515101768221e-01
-8.630937267214287834e-02
2.604557063404154160e+00
1.927942626583245778e+00
-1.176396099489714769e-01
-1.186033423156848343e+00
-1.320205186463588864e+00
-1.677032025995296660e+00
-7.825909560422412703e-01
-7.985427551854461514e-01
-1.277604638099317791e+00
-9.277697505054839366e-01
-6.712802116613579839e-01
-7.457676248007119035e-01
-1.459283684236100109e+00
-2.619410997409545860e+00
-3.084447302373448441e+00
-3.396367236767721565e+00
-3.672943681507381708e+00
-3.518150140751179933e+00
-2.792878126032361408e+00
-2.823778679550728032e+00
-2.852576198533806284e+00
-1.937617480170563233e+00
-1.315278356440578333e+00
-1.089169541027232180e+00
-1.692118595877798004e+00
-8.467671316431288897e-01
1.558847539196364929e-01
-1.323278843675159133e-01
-7.990786612180897919e-01
-1.512965247007228786e+00
-3.193859235350080539e+00
-3.561792671142266276e+00
-2.860884059348224984e+00
-2.340345471430955726e+00
-2.144271152288230731e+00
-1.177663960106963836e+00
-1.172057190560245266e+00
-3.882946804597304236e-01
-2.177408101415694575e-01
-4.126908619170153170e-01
8.049219639609250798e-02
-1.411244326901752499e+00
-7.980198863359688755e-01
-3.427991433596499493e-01
-6.100027435189959713e-01
-1.180346823082142782e+00
-1.727703269526421170e+00
-2.171954906840307231e+00
-1.524040307442946052e+00
-1.199947983234862292e+00
-9.670645256921631683e-01
-7.529436063687923175e-01
-1.819813961958097526e+00
-2.082643571450893294e+00
-2.348893700770641413e+00
-2.049165562170766730e+00
-2.581920763301125188e+00
-1.463789869437819302e+00
-2.016521616991623578e+00
-2.021256620115829516e+00
-2.362342337412616455e+00
-2.755419473283999832e+00
-1.424878298379070207e+00
-3.356710910520606106e-01
-9.550631005814670393e-01
-1.355492906422147925e+00
-8.002749057659039877e-01
-3.395888866646312731e-01
-9.092233639797426825e-01
-1.547204796602208221e+00
-1.029502330460849047e+00
-7.361969886021151321e-01
-6.072201563823453885e-01
1.018162138025348051e+00
1.644750539801150158e+00
1.187627039020819675e+00
5.329396159774483221e-01
-6.242920626852268562e-01
-1.076403516330296961e+00
-1.401785080075912182e+00
-2.356906834334750123e+00
-2.410251383798741820e+00
-1.737111873260114070e+00
-4.505410502105443582e-01
7.565410373802402555e-01
5.529282071718433222e-01
5.972526632812432679e-01
9.385563517257857757e-01
9.775878664575610166e-01
-1.108386977825134567e-01
-9.101829479246522636e-01
-1.061640412222170760e+00
-1.352782876867502093e+00
-1.688568146093818223e+00
-1.210173336355464313e+00
2.702673240057425486e-01
3.906135389424935100e-01
-1.207414366039791659e-01
-4.055562102144127379e-01
3.253641798814369684e-02
1.161836730351184510e-01
-7.865800075756999854e-02
-1.957245848634497631e-01
-1.853937698355899166e-01
4.181346269456903131e-01
1.645249720321275033e+00
7.512503452032676110e-01
5.763125176274296324e-01
9.191784057096494820e-01
6.844138561284042188e-01
8.192600441658373089e-01
-1.163957373642523357e-02
-9.735340778488283942e-01
6.685376985876099187e-01
1.216581542288811102e+00
6.493471253721495584e-01
-6.490285807115739880e-01
-7.940701160917986723e-01
-1.153274864981980841e+00
-8.869504562144420179e-01
-3.484658689783378532e-02
3.355678497603126198e-01
1.377446557435137720e-01
5.307604013710862656e-01
1.139809545494819831e+00
1.489934744343565765e+00
1.217904704376763902e+00
8.951674397167347363e-01
8.811323958123007394e-01
9.618075086241607563e-01
9.894931983768630313e-02
-8.958247859031732707e-01
-9.096339352545581569e-01
1.687584178510926070e-01
1.550629313331780113e+00
1.613694747992467704e+00
-2.489753901727441987e-01
-4.517488044531673963e-01
-1.722293093551168885e+00
-1.485215086109765048e+00
-1.044968482082091032e+00
-1.778865599697952327e+00
-2.260059824078874513e+00
-1.515899836394141831e+00
-1.172450237312042454e+00
-4.288320760695342737e-01
3.486384824132106042e-01
-2.853059910772363233e-02
9.106871618279698266e-01
1.566435413555598566e-01
3.264788590808813118e-01
2.378093179217731223e-01
-2.446581359960361690e-01
2.875925568085164752e-01
1.057187324863078981e+00
2.176677120878077076e+00
1.967940375910678386e+00
1.738900493321720253e+00
1.679958296818301777e+00
1.667751974042786856e+00
2.062753818845161735e+00
1.598715773194336442e+00
1.921988065693006842e+00
3.482652984703494270e-01
-4.538784860677982924e-01
6.073334827754759413e-01
1.286016234369810496e+00
4.107549542388175823e-01
-7.815929026340887598e-01
-3.237435397057286668e-01
-5.206705640691872139e-01
-1.618870281609452733e-01
5.486072231838203805e-01
9.940677742017758334e-01
5.401021431496479952e-01
-7.740265386273448289e-01
-1.782849655651193466e+00
-1.940484777744392764e+00
-9.677860530418502805e-01
-7.587563819132129295e-01
-4.008102809720452686e-02
1.711121188667545479e+00
2.461109558577024625e+00
2.508380055524206398e+00
1.143840461406503417e+00
-1.079050888550291187e+00
-2.236482539107988110e+00
-2.428001120137507129e+00
-1.302879126045066949e+00
1.100633319892865947e+00
2.452419310633714433e-01
3.688961492531224184e-01
1.301583480983506957e+00
1.254696002961782408e+00
5.695575265647847552e-01
3.187195467715042696e-01
-3.475384453203111956e-01
4.435127260386628190e-01
-9.468264909605377255e-01
-2.296383792296111448e+00
-1.604525942750265388e+00
-1.908952994044647578e-01
-1.024396957453108215e+00
-8.663620287064307535e-01
2.441444655538642372e-01
3.324217812485471546e-01
-8.284186961621263778e-01
-8.835691108193115539e-01
-1.440636104851685362e+00
-1.525009404697477366e+00
-1.820461704400006431e+00
-1.803259031614116603e+00
-1.801898127689078200e+00
-2.586356149184552145e+00
-2.061613500109529262e+00
-1.570841489044945583e+00
-1.332784040988415519e+00
-2.240652618408576213e+00
-1.666243784405434747e+00
-1.290684649973993681e+00
-1.385265409406815085e+00
-1.280818104236003396e-01
6.665025041320232768e-01
1.568549894590974603e+00
5.614844121476734173e-01
7.341480514167152138e-02
-1.342927212655736557e+00
-1.454339191846664159e+00
-1.632044591542832990e+00
-1.142839049475806723e+00
-1.341254224881122115e+00
-1.330569661771584755e+00
-1.261359970913501716e+00
4.463917088709343228e-02
-1.281290427770926388e-01
1.642119616686400219e-01
-1.015910985215632723e+00
-1.883478731090021174e+00
-2.355522576216257047e+00
-3.085357695718890625e+00
-3.162389973238164842e+00
-2.890966247073836648e+00
-2.325940911549873480e+00
-1.254529376744028646e+00
-1.465981458698169648e+00
-2.158977662375812123e+00
-2.483550284666330654e+00
-1.680225219598606934e+00
-4.247690710673654446e-01
-1.228838627624471380e+00
-8.947653007425253602e-01
-1.413506997815505706e+00
-1.476911697093287845e+00
-1.403623600674229754e+00
-2.571572465870946456e+00
-3.419492470069239065e+00
-1.989042423521484526e+00
-1.572559938329482820e+00
-1.866436335962955884e+00
-1.663632714082186270e+00
-1.499148172216725028e+00
-1.088760740391872650e+00
-7.740764955865268027e-01
-7.802774502354059560e-02
5.623439900298531358e-01
-6.972204103187387147e-01
-1.232520585535034768e-01
5.872440862174638232e-02
-5.791798807785292214e-01
-6.643601342926313928e-03
4.072500899166839883e-01
-6.948996576098073197e-01
-1.383024110971762255e+00
-6.429973284935704969e-01
-7.987941982847239775e-01
-6.087058569993618606e-01
-1.296183142820730438e+00
-1.707559599426507813e+00
-1.844108259573754571e+00
-1.894467080866421682e+00
-1.744426232461560033e+00
-8.493347159779230937e-01
-1.960753988113265844e+00
-1.953980915042192290e+00
-1.779416456052181461e+00
-1.938271477983807500e+00
-1.067985769002452567e+00
-7.511804127229296801e-01
-1.661281702725899256e+00
-2.102069170455080460e+00
-1.708706777375749608e+00
-6.252114424613861576e-01
-9.570591911546573183e-01
-1.770971985581359487e+00
-1.515904694993326585e+00
-3.505205536149798573e-01
3.566592008713254103e-01
1.745189500452841047e+00
1.936869559563834331e+00
1.070020983437791839e+00
5.655358424064609313e-01
-2.370799489507497970e-01
-7.245282711114620078e-01
-1.198318558718355797e+00
-2.891322650399426042e+00
-3.374808186813764710e+00
-2.109007833671569188e+00
-2.373542055990127686e-01
2.724000388812772844e-01
1.255285721583714320e-01
1.899358119894725694e-02
4.049688443758818757e-01
1.284888580235078459e+00
9.273889439224264342e-02
-1.555923932516540376e+00
-1.820495166735250026e+00
-1.520788082459221480e+00
-1.404461156829590829e+00
-1.397791192026427876e+00
1.199020629081505029e-01
1.137737885099052049e+00
-1.496913038545053531e-01
-1.022974297872805360e+00
1.331473780972568244e-01
-5.520655727882725072e-01
-3.441123875764999229e-01
-7.302216369504055393e-01
2.195339585221331435e-02
6.428440033942571796e-01
1.118365794129402957e+00
1.499636374247678983e-01
-1.046394242199190361e-01
5.579209100699417112e-01
1.206704570076569949e+00
7.172422419517516801e-01
-6.776860305955043629e-01
-1.087289030306524129e+00
-2.067217905656082710e-01
4.750282813222534983e-01
6.089928285683438025e-01
3.289817882957699752e-02
-1.818947049292961027e-01
-8.124282601815471239e-01
-1.040167939597235192e+00
-5.779196856304222862e-01
1.854323304837431685e+00
7.137160774690102238e-01
7.455173669363100997e-01
1.138958268820812858e+00
1.794842619533978612e+00
1.623438517541256010e+00
9.127660217641136997e-01
1.654997605053822873e-01
6.852099564513273178e-01
5.245663229387614868e-01
-7.624284640036976812e-02
-1.514662183134089790e-01
1.029763972743205525e+00
2.074970280336119632e+00
8.696346313049057031e-01
-1.441555285866191305e+00
1.163047146574688467e-01
-2.374178750010978778e+00
-1.355613852639148575e+00
-6.739551888981820671e-01
-6.384510683068786996e-01
-7.020170927798763394e-01
-1.183946179247324260e+00
3.909164369404527495e-01
8.831084897450031113e-01
8.997621832173482437e-01
5.729823982174545582e-01
1.661286132465804144e+00
-2.052237182031180912e-02
-1.937035485082556352e-01
-1.940185920189999580e-01
-8.338223058701273172e-02
6.057160640825642872e-01
2.348965637064067469e+00
2.993504449090316211e+00
1.866879351885550875e+00
1.587418410473984354e+00
1.759899994140634361e+00
2.087276396979522275e+00
1.924040318677100458e+00
3.082114762647025774e+00
3.791670844932875539e+00
1.261030020289293674e+00
6.949596146316159295e-01
2.107239964590263970e-01
1.739605864889775644e+00
1.599520800255057384e+00
2.506473430355354304e-01
-5.264717695811367282e-01
-7.880504661855042281e-01
-2.417497643991247391e-01
1.172428066038052608e+00
1.572570634058311656e+00
9.105987618492424884e-01
-5.893686942148864683e-01
-8.010210730716678107e-01
-1.695006615485727508e+00
1.385310734903801855e-01
5.443284579597789524e-02
4.731088782523232839e-01
1.329054872519281005e+00
2.022913733813244352e+00
2.045779263779532897e+00
1.451961584977410347e+00
-1.276662194330727695e+00
-2.012583610014221591e+00
-2.611721019769213115e+00
-2.374322749124155862e+00
-6.497655608441893493e-01
-8.426881035352916660e-01
-4.993784280301240552e-01
8.010104570899992948e-01
1.751711107796023237e+00
1.397799005097073888e+00
1.848025326390596024e-01
5.174605648039306421e-02
1.056274285670351087e+00
-7.180906785555435379e-01
-2.119573895324123658e+00
-9.308977359567583987e-01
-3.876625272888281626e-01
-6.626692171283045107e-01
-5.467936568821375742e-02
4.488915992832291924e-01
-6.478656809544069972e-01
-1.153502524764684400e+00
-1.561421085825064337e+00
-1.819038699504446965e+00
-1.173279721258385422e+00
-1.268991205756903051e+00
-1.200007555650031588e+00
-8.069716795669253928e-01
-1.187387752535652874e+00
-9.843527981821961204e-01
-1.209090054384050150e+00
-1.658819355735640766e+00
-3.274849253550282224e+00
-2.930970473702280366e+00
-1.935524657969979856e+00
-5.172301704819637358e-01
2.394152766173326119e-01
1.271989606156564534e+00
1.046795994438026733e+00
-1.024689161002787952e+00
5.281026133278339252e-01
-1.239622032046852729e+00
-2.122817452743681166e+00
-1.487579291789503877e+00
-1.275419115850046303e+00
-1.285623137452841735e+00
-2.136625280149917039e+00
-2.907146989348186050e+00
-1.176644018252634982e-01
-1.802700570935968916e-01
-3.256440273510005090e-01
-2.254641984506324526e-01
-7.956443437906255411e-01
-1.811575522813196892e+00
-2.742522500120217366e+00
-2.248164337122635636e+00
-2.786037476711547001e+00
-2.434635760844204189e+00
-9.942049411788449476e-01
-5.114458752614839954e-01
-1.083099897946121271e+00
-2.770369166168262787e+00
-2.797439279549522428e+00
-1.344783578477267261e+00
-1.651246506021583071e+00
-2.103990047045377398e+00
-2.487416590430465035e+00
-1.839935142263494194e+00
-7.121253342881588289e-01
-5.426353015276709213e-01
-7.156047200038959666e-01
-1.283952400169693586e+00
-3.059747546559644094e-01
-9.416792288329202121e-01
-1.609512919840490941e+00
-2.683366215851164527e-01
3.579294980222741396e-01
5.289993354359644462e-01
6.657873786552790385e-01
2.243119757635629319e-01
4.346841323221905529e-01
7.240937535383913659e-02
-1.263848753913526135e+00
-7.936601281513662176e-01
-6.293431997355641849e-01
1.079065397854647862e-01
5.579144926353369893e-01
-7.291298540537604067e-01
6.033537160733384308e-01
5.384421257166475128e-01
-7.975576167942931560e-01
-1.915021820283707266e+00
-2.378415819730911096e+00
-2.488752390603143905e+00
-2.363209962128930197e+00
-1.976549429298083638e+00
-7.313684145457213237e-01
-7.160363175604650410e-01
-7.852319290279926589e-01
-1.105311638233739124e+00
-7.830375887734091211e-01
2.855779362769356525e-02
-5.484500937743090887e-01
-2.340508660502464533e+00
-2.560923642655636989e+00
-2.506074711506074415e+00
-9.335775480356022227e-01
-7.035977605825503023e-01
-1.948993842756417072e+00
-1.011605447363576937e+00
7.481549966669103213e-01
1.106385607284263051e+00
3.348101336180261178e+00
3.091906664493902390e+00
2.290964967664872454e+00
1.463001696466394552e+00
7.729731333661993276e-01
6.238359195274276736e-01
-1.789374844354790772e+00
-3.273016697848419199e+00
-2.218143223572281109e+00
-1.525084759487443709e+00
-1.790028613601979957e-01
1.304291265660630639e-01
8.029655939172765100e-01
1.616217173245545702e+00
2.396401274452573116e+00
1.774530046455876642e+00
-1.331443803913681112e-01
-1.294528006534077624e+00
-1.394214927511507218e+00
-1.331291923883910266e+00
-1.636264212120738248e+00
-1.913755721858468428e+00
5.009817385923114041e-02
3.429873440248970562e-01
-9.508476425726101189e-01
-1.614968068359561526e+00
-1.142272092930280758e+00
-7.147802224932030546e-01
-2.914401074879540698e-01
2.977717358419014748e-01
-1.217557137541533385e-01
9.197928597797707662e-01
-5.757778638754506018e-01
-5.564920068257904751e-01
5.756550323806672864e-01
6.733090099454939192e-01
1.994059474169110224e+00
1.482987678133466325e+00
4.777483530892257524e-01
-9.156266006703805971e-01
-1.586354409739515192e-01
6.145814175522046341e-02
5.410899051162966211e-01
7.859745361100352046e-01
8.671321914342093873e-01
-6.608491175495546932e-02
-3.880742627974453351e-01
-4.199082898626310123e-01
8.330844171789717478e-01
-4.396955689294006486e-01
-8.885829076563108719e-01
5.860165146258312641e-01
1.737094776384169537e+00
1.197925923117813429e+00
8.001405620716497413e-01
-5.774035307043154930e-01
2.315556612935008918e+00
1.412255762033422846e+00
7.740399081982937135e-01
1.441375466896344104e+00
1.627999574420645912e+00
1.873283854071048360e+00
1.348911269295128390e+00
7.332821787628229782e-01
-9.981166003507093709e-01
-1.240158611495155050e+00
-9.509168672371792752e-01
-4.661625893528131837e-01
7.224987952439601568e-02
-6.182388432831442682e-01
3.396198148699996477e-01
8.429016309682262342e-01
1.069274721186137755e+00
2.114815214736379900e+00
1.508744657424015534e+00
7.875685826179805726e-01
-1.349161224276939353e-01
-1.388866976107809847e+00
7.649226974907104015e-01
7.967648158285459692e-01
1.947367651278489209e+00
2.455918024690988855e+00
1.429643590183888646e+00
1.423761354507584453e+00
1.465871754290691609e+00
1.829514348484449604e+00
2.290312506507997892e+00
2.328665753977070096e+00
2.556070869061846107e+00
8.206787331377629613e-01
1.905561252310804254e-01
8.399346203476788786e-02
6.938576471895254727e-01
2.746486331170188144e+00
2.313293247143068943e+00
7.062596434777107524e-01
1.319747504826756235e-01
-8.282939184940499855e-01
-8.115086487740763577e-01
8.814893415919350037e-03
-3.564905058884867278e-02
-5.042512483992798167e-01
-4.700042083267754744e-01
1.577209022948595496e-01
2.344472006823929533e+00
1.207312166378913476e+00
1.011290978755082781e+00
6.989767981753625126e-01
5.826006971037822613e-01
1.810887758471731113e+00
2.153450264472883458e+00
1.077858788807211754e+00
-1.766696795772858763e+00
-2.035256498984063356e+00
-1.796416805937916417e+00
-1.439993044704898084e+00
-2.498951341972213414e-01
-2.778218419196418765e-01
4.395684788308161228e-01
1.808608612197357690e+00
4.475922638263493680e-01
-5.993211468068712078e-01
-7.759227968394691866e-01
3.621989264984464829e-01
1.457942359960165524e+00
-1.928180409294160888e-02
-7.342543278817685870e-01
-1.880662226373759072e-01
7.772645203875642173e-01
3.954949716364215551e-01
-1.437415209533553506e-01
-1.372720312215184313e-01
-1.131582328217254130e+00
-1.643561085819226886e+00
-2.044545306959959063e+00
-1.856341538745388264e-01
-1.664161206568621321e+00
-1.732858025282489223e+00
-1.960793778287733824e+00
-1.095155759480069380e+00
2.986731862972747398e-01
-1.159749008943511683e-01
-1.680364999981249108e+00
-1.911886322970415275e+00
-2.013099841358466424e+00
-1.739964180274182981e+00
-1.638344812662011041e+00
-1.799707977728679964e+00
-8.504422565544593748e-01
-6.750054137048910885e-01
-6.267852555430075689e-01
-1.502736247989160390e-01
-1.421661969209544241e+00
-9.001050420958420784e-01
-3.838570496239512853e-01
-4.609122916590858710e-01
-1.931836702178157283e+00
-2.847480781914587311e+00
-2.833912155897392982e+00
-1.305267847126060587e+00
1.962618932112305314e+00
1.602242831074534912e+00
9.748984127864340765e-01
5.696113945349182694e-01
-3.054805520945949038e-01
-1.056333882638097466e+00
-1.783864611262032662e+00
-1.595717435603406509e+00
-2.600019493682086402e+00
-2.558660439138974230e+00
-2.339606711087570901e+00
-1.259838567582566515e+00
-6.153704054310191740e-01
-3.044049542254275487e+00
-3.501439877565575731e+00
-2.721181939334111455e+00
-1.999823819369912270e+00
-2.205064768734424696e+00
-2.336399291077801976e+00
-1.419016146320281946e+00
-1.781079303796289093e-01
1.744673337787620571e-01
-2.229203870507452667e-01
-8.538935332276109680e-01
-9.571922431583004265e-01
-1.142477345254976351e+00
-1.224561212308221902e+00
-7.200973891003398242e-02
1.188476086338730919e+00
7.022267966856086119e-01
-1.814669501090496462e-01
-4.801382301255163187e-01
-4.844610704575216809e-01
-1.172677778655881964e+00
-1.570326944368413802e+00
-1.207534486257577644e+00
-1.083295281388999554e+00
6.941498707386893618e-02
-9.842290942309596391e-02
-5.656731007608348794e-01
7.535966121421330266e-01
3.373114853297428661e-01
-6.762849742979001322e-01
-1.525034680819244093e+00
-1.370070452411072282e+00
-2.228181767429414428e+00
-2.151052098984321592e+00
-2.035570324522547825e+00
-1.052030876985833169e-01
1.634256468192297473e-01
-4.347622625803736901e-02
-6.604931533735504123e-01
6.095409792029739954e-02
5.976835388350267841e-01
1.395296246481946348e-02
-1.575373932989914572e+00
-2.277200939738384111e+00
-2.290756166876597444e+00
-1.114970608866097557e+00
-6.496096900949240860e-01
-1.811928013814783966e+00
-1.252175236001037417e+00
-2.567693040688537875e-01
6.737467508822287954e-01
2.105391149003531748e+00
3.003768093349325152e+00
2.747876914582975338e+00
1.248750895814157325e+00
2.239701772431314242e-01
-4.290251630866573906e-01
-1.606691113273222671e+00
-2.622095165528369964e+00
-1.625473470583814750e+00
-1.047404419074702053e+00
-1.019522811128948381e-01
-1.190685976677195029e-01
6.354216066206993530e-01
1.352843663669406116e+00
2.054844565180375504e+00
2.038170693856767635e+00
6.909188371404185736e-01
-7.843317704290823089e-01
-1.393555420160532465e+00
-1.984936915849661698e+00
-2.137590328970449427e+00
-1.896875324873352753e+00
-5.504088984961125197e-01
-2.300232654387490139e-01
-4.681847205117936617e-01
-1.903350478638112575e+00
-2.252634501327789085e+00
-1.289981462796007561e+00
-7.228433144215651307e-01
-4.971391971800231957e-01
-7.000822850172344625e-01
8.377786224826916373e-01
3.154388238329277616e-01
-1.953243891370327334e-01
-3.219011015302309930e-01
-5.868691389424706140e-01
5.753285125516816034e-01
6.402318487984518525e-01
1.401538669013281148e-02
-1.032382857441934920e+00
-1.096376428039063766e+00
-7.472611210084044719e-01
-1.030125833818647640e+00
-5.243774938600415103e-01
-3.047295168780226882e-01
-4.331609789517896769e-01
-1.237341081360857908e-01
2.978272615548406277e-01
-1.005809210772719287e-01
-1.633071231811395574e+00
-2.582408291176776061e+00
-1.637899167645633813e+00
-7.449561436571665307e-02
6.753461419117459119e-01
6.707814329404302445e-01
3.189768084573079143e-01
1.491056665157598049e+00
3.847208360995717502e-01
-9.098932382677189790e-02
7.829639677546655907e-01
1.365000952946048507e+00
1.347363921677027232e+00
1.348294818447911769e+00
8.345596694409652683e-01
-1.537660645361118350e+00
-1.446195021348330112e+00
-1.020365285917109288e+00
-5.475478004771734408e-01
-1.296802089708548378e+00
-4.018455849341307506e-01
4.912095022879826578e-01
1.246618585578295413e+00
8.023531064567520632e-01
2.196800763809289236e+00
2.344213678764658582e+00
1.859682654625263831e+00
5.044008453674250214e-01
-5.845019243274010012e-01
5.840886897514867560e-01
4.607974158312347912e-01
5.602636611126085020e-01
1.493606934252760698e+00
1.373325200200672613e+00
1.721888173366427077e+00
1.741243411481987247e+00
1.953790005427579413e+00
1.696004403470620536e+00
2.084842297717588888e+00
2.506488382573038631e+00
1.132767546608278275e+00
9.731344437970314010e-01
3.026196056932255463e-01
9.366494222025152361e-01
2.443467463680650820e+00
2.551624193035590515e+00
1.608058951790523050e+00
1.086275172788699006e+00
2.768610420061462518e-01
9.437164956945448546e-02
5.199307110502344731e-01
4.657107238695123441e-01
-3.989225990956186130e-01
-3.919227198193711015e-01
-2.357484570039644345e-01
7.561898008072264199e-01
-6.115854504265696434e-01
-1.428478435677075886e+00
-8.411432550874534675e-01
-3.288769553864411832e-01
5.496852807948884312e-01
7.082301196153912848e-01
-1.708208618793600753e-01
-1.635257430966020609e+00
-2.015253215805005382e+00
-1.709820425277745137e+00
-1.401676563641771400e+00
-1.188342971923786573e+00
-1.105080038694014277e+00
-6.889759357064367817e-02
1.388410257174922613e+00
6.992193313015530043e-01
-1.935380034169307262e-01
-7.389574030739159971e-01
-1.672640366442607329e-01
9.401154070275308250e-01
-1.177208718143954273e-02
-3.483783209065142161e-01
5.563879947212636567e-01
6.134842455462721222e-01
1.946907239024516789e-01
-1.302753138817451251e-01
-5.955388224841828837e-01
-1.584183569365120725e+00
-2.124132737502665957e+00
-2.095039925110969037e+00
-8.341813772239290437e-01
-4.983609087083333278e-01
-5.684278006246179515e-01
-1.089802579059623078e+00
-2.964974702535695950e-01
2.020637172066061527e-02
-2.810438223819470838e-01
-9.603763511104307371e-02
6.361409372940832196e-02
-5.608038196928656349e-01
-4.141132645473190599e-01
-8.656809483473247857e-01
-1.792932377737091354e+00
-1.888946205569536296e+00
-1.775683535471159979e+00
-1.317360906756949612e+00
-2.524672614549588801e+00
-1.927468539972356565e+00
-1.761830063095834342e+00
-1.299309048585721271e+00
-1.384659145909830746e+00
-2.576598982785699210e+00
-3.194485329910599525e+00
-1.574242408934499071e+00
-1.247300863195213383e+00
2.757950607758682615e+00
1.869464483690423284e+00
6.772336022879770212e-01
-3.486027212113579909e-01
-2.617208142024209927e-01
-6.039190700437914172e-01
-1.076346429051267872e+00
-8.153620064965465541e-01
-1.987383275680424388e+00
-2.058005801150989189e+00
-2.886792433695131610e+00
-1.878912944934014062e+00
-1.112958914020205414e+00
-2.605052913682874394e+00
-3.199970859516998001e+00
-2.955904446825577736e+00
-2.063292006374286114e+00
-2.041642750788301264e+00
-2.006992826870457769e+00
-2.037873073442757921e+00
-1.084597149264459270e+00
-3.420968821656651948e-01
1.978143815554535279e-01
2.424917034762185397e-01
-3.355655194327489821e-01
-4.508797126742971062e-01
-7.932065283823545032e-01
1.217978947598374440e+00
2.208241932020436060e+00
1.221759991406741408e+00
-2.610054144288431188e-01
-1.024943560488392302e+00
-1.825023791299602502e-02
1.434201480283054664e-01
-4.188978204175636266e-01
-6.282185768054719954e-01
-7.634571578203412923e-01
-3.228219999095275489e-02
5.294243872715302945e-01
4.214610982488126156e-01
-3.220433956551712606e-01
-5.876770174695581384e-01
-1.334943793127308931e+00
-1.798463181287105694e+00
-1.503027717690687215e+00
-2.331524770435336791e+00
-2.676208504180043857e+00
-2.432080909263734103e+00
4.681656109203369831e-01
7.944886338317563856e-01
3.094413793834075443e-01
-2.813433868694403261e-01
3.927510685878225494e-01
7.696281771885538081e-01
7.461278323175720706e-01
2.653084204956408509e-01
-6.818590495328056278e-01
-2.360390086636338314e+00
-2.182676069005964781e+00
-1.333051199755530991e+00
-1.557004525439063203e+00
-1.125743810514508336e+00
-7.805532549471364545e-01
2.294758783913386502e-01
1.311104401714283441e+00
2.428839303697152285e+00
2.906975055709656974e+00
1.632457607979681757e+00
-1.428775156573518501e-01
-1.332902480080237151e+00
-3.563991859696302722e-01
-1.276136719207348946e+00
-8.555986326738436176e-01
-3.177038532018789385e-01
5.870915720170124530e-01
1.304148609297326178e-01
2.052673525084072192e-01
8.898561682885054447e-01
8.818384439585809087e-01
7.834583874483912469e-01
-2.118672149229011703e-01
-1.297665747098366129e+00
-1.915523402629982552e+00
-2.837597554022290414e+00
-3.230301563272558241e+00
-2.452043061719916484e+00
-1.485890284341814249e+00
-1.012039742668497500e+00
-7.296163879625061632e-03
-1.385187880906832536e+00
-8.304268529107258212e-01
7.645256904154366928e-02
4.812825837347731173e-01
5.196361164336356087e-01
1.998873384932896846e-01
1.228402280449595096e+00
6.575504117297237272e-01
-7.027108341243080980e-02
-6.219390325045438539e-01
-1.367648801966218963e+00
-1.069010360617064892e+00
-1.555140674644433396e+00
-2.418830879519135113e+00
-2.928682950136077157e+00
-1.669935257837002807e+00
-1.112574918911137356e+00
-2.005988852037125625e+00
-2.286857718725577637e+00
-1.760586993307552195e+00
-1.833374185940254142e+00
-1.278870926207697378e+00
-9.995212221527316476e-01
-1.156942017958052960e+00
-3.096512166682106049e+00
-3.660712948514064813e+00
-2.844070988917903886e+00
-1.028234687928210267e+00
-2.952249572234164621e-01
1.790072788581783536e-01
1.178591956267909024e+00
6.305649353395457180e-01
-1.182477156975028920e-01
2.264208710103501332e-01
6.847301426331077190e-01
1.297716226337151557e+00
1.553792334509920714e+00
2.031571750822620981e+00
1.595123334189834319e+00
-6.412289876906860364e-01
-6.828762527355302092e-01
-3.094835149248458261e-01
-2.473727065822886595e-01
-1.776867690617732309e+00
-3.113399867396787757e-01
9.097455847134796603e-01
1.538942643702498669e+00
9.177221089702292112e-01
1.951283378968574178e+00
1.864726117226743085e+00
2.800744519977206082e+00
1.015301865331198927e+00
1.009786836847519798e+00
2.033612750992727314e+00
1.448256994491434080e+00
-6.233963540837262896e-01
6.287207605071850613e-01
1.082323239946581195e+00
1.920275307546772670e+00
1.933451130348392333e+00
2.356004633770756751e+00
2.668031527526787627e+00
3.024224065890820157e+00
2.563174845604136110e+00
2.553111605040328413e+00
2.749540142636932138e+00
1.526357091975938829e+00
2.016003287688655998e+00
2.752433992905917837e+00
2.185617981144784672e+00
1.870852672256917870e+00
3.782978972031394993e-01
-1.825089840928787177e-01
-1.359479603341760823e-01
-4.775168760303633714e-02
-5.334051541427479171e-01
-1.679976641585899877e+00
-9.879491846075316719e-01
-6.964683974243790487e-01
-1.010320051800561503e+00
-1.566512196715112104e+00
-2.295713867833729882e+00
-1.690708050247437200e+00
-4.223863326004255736e-01
1.331347819187478632e-01
-4.907652385427669350e-01
-1.137317924360279342e+00
-1.708752659761347381e+00
-2.159945605495059429e+00
-1.794717131392159715e+00
-7.878707583581939788e-01
-1.375767913452707880e+00
-1.717590806967989492e+00
-8.143057283098560362e-01
2.193643410709419095e-01
-2.888144162711201446e-01
-1.229332934664945531e+00
-1.565789290332296080e+00
-7.928338890129196237e-01
1.075528573314543879e+00
1.804481304138485787e-01
-4.141279459518719674e-01
-9.858538511806883356e-03
3.435171452663549063e-01
-1.164371589928251405e-01
-4.929064048609813620e-01
-1.087862358504071203e+00
-2.018716341029529460e+00
-1.733758201638359475e+00
-1.041189966169276948e+00
-6.599559698678044706e-01
-9.527638521710302122e-02
-5.745984635998017120e-01
-1.265829976983993355e+00
-1.575613682717194042e+00
-1.290944997093709246e+00
5.779263352592356462e-01
7.989481611554030138e-01
1.250784431716252643e+00
-1.136340540128456977e+00
-1.307468997446113779e+00
-8.926163926989645336e-01
-3.897447074121873078e-01
-1.173516203346832931e+00
-2.650964014821804327e+00
-3.106942474114847030e+00
-3.723137476448831862e+00
-2.841554812147929709e+00
-1.737110155427932900e+00
-2.182858455175418211e+00
-3.025378743935914994e+00
-3.619253453261166875e+00
-2.798895944720340090e+00
-1.711247332419257638e+00
-1.663878803176602528e+00
1.169941515049123693e+00
7.982670931323988528e-01
-4.071683965770557245e-01
-8.274979036278812261e-01
-1.191724891443986412e+00
-1.286253137726601992e+00
-1.030355097501987283e+00
-1.300910183068680670e+00
-1.154658177410220254e+00
-1.675209581150076898e+00
-2.768060180278259175e+00
-2.905644771691499706e+00
-3.102700285836327510e+00
-3.257418069483355438e+00
-2.511814032459391388e+00
-2.344204574022168419e+00
-1.414327782228703922e+00
-1.747143636038780867e+00
-9.345874080080471824e-01
-9.169519107479131570e-01
-1.015704917656528705e+00
-6.457841548151374012e-01
-8.242455981089512329e-02
3.107690654405992903e-01
3.611493465896072341e-01
1.796907521006236852e-01
-1.773667925027560266e-01
1.791232685433053362e+00
2.701320319008122972e+00
1.291555298756479564e+00
3.152858215670052977e-01
-8.318589017107792527e-01
6.791811537804568477e-01
5.214473406834992941e-01
5.208282249971721845e-01
4.431690410254853218e-01
-1.316213623429487133e-02
5.356979876975523913e-01
1.204960487423392346e+00
1.543671841533565070e+00
-8.668617320019700312e-01
-1.007428197663776226e+00
-1.234651640958692509e+00
-1.265581463558829167e+00
-9.579563478604805615e-01
-1.420323777917200880e+00
-2.256372157657146271e+00
-1.857438987428279509e+00
4.580643345935318522e-01
3.449345697757418838e-01
-1.013862333979017594e-01
-3.060654917407277242e-01
2.205594516313977294e-01
8.579201550365611606e-01
6.390391915618796048e-01
7.616766005885935997e-02
2.681377326351737089e-01
-7.723750826683168924e-01
-8.756697106892936677e-01
-4.147049670765037277e-01
-5.812949916522909266e-01
-9.687163163874165095e-01
-9.222184674624749334e-01
-4.367657106727211302e-01
9.413903217974407545e-01
1.324884570325310484e+00
1.347953792564135167e+00
5.264275271225795638e-01
-6.805466600787676290e-01
3.862531903946371803e-01
1.238687033516219671e+00
2.249424253908817450e-01
-2.894898189471725169e-01
9.074511012992751702e-02
2.610848711749880757e-01
3.743208092840662471e-01
9.853222329505746668e-02
7.043699557377279818e-01
8.323667641726074651e-01
9.569556247061432597e-01
-3.738759650696886205e-01
-1.249891236537599815e+00
-2.618596943434026159e+00
-3.267570448936274019e+00
-3.683926385892878574e+00
-2.824650089552243948e+00
-2.116494856183384954e+00
-1.916737074750483494e+00
1.370346996227052583e-01
-1.608357746876809269e-01
6.590036628900824978e-01
1.899896367902621730e+00
2.787643670352119685e+00
1.250801012548809821e+00
-1.630391927144836384e-02
1.139343799921497036e+00
9.324073353721604729e-01
7.823360449338097045e-01
-5.109314904184549810e-01
-2.595167941980482951e-01
-7.469620047708875887e-01
-2.298672158322337289e+00
-3.391906408348867252e+00
-3.140440825593223906e+00
-2.433254449474561820e+00
-2.198983198237216996e+00
-2.231100095686757712e+00
-2.261017429286672709e+00
-1.388797154626413732e+00
-2.527175231569015690e+00
-2.919399173598556718e+00
-2.878437440514690859e+00
-2.581432651681683232e+00
-4.894810214995485964e+00
-4.372816420540355686e+00
-2.507677418448240658e+00
-6.385425539935619677e-01
-1.001180335840136326e+00
-6.854539823304250934e-01
7.363092607861371208e-01
2.399433391702083529e-01
2.306522393329120124e-01
4.506509635734303743e-01
9.913195690168984386e-01
1.756443532895475723e+00
1.105699722297838639e+00
1.104039063621884420e+00
1.198979469361166394e+00
7.482160514014538633e-01
9.383913919693032124e-01
2.293085607961875272e-01
-5.565018882826231091e-03
-1.422435699660385744e+00
-2.270737271603077978e-01
1.331264140144259089e+00
7.642283561301085326e-01
3.274080631318170287e-01
6.297701905044504889e-01
7.596751815247898554e-01
1.896362919841326322e+00
1.164147437429166043e+00
1.881478719355428986e+00
3.077528199696144995e+00
2.568879898864389055e+00
8.293049485028968215e-01
9.495433224073690504e-01
1.143202262728745700e+00
1.781198152179568561e+00
2.071516286157537579e+00
2.317221418269303168e+00
2.950397608430069596e+00
3.643309838177211546e+00
2.590527620231779071e+00
3.070527886430051367e+00
3.340829632826702866e+00
2.999322598898006564e+00
2.767735838445574803e+00
3.221585448948175223e+00
1.749769902954938061e+00
5.171825188721925759e-01
-3.286242237969991820e-01
-7.221038486086448493e-01
-7.365650645662722429e-01
-4.071682286261583128e-01
-7.382608488101533029e-01
-1.228739731714069805e+00
-6.988300708558503604e-01
-3.417177262027550344e-01
-1.824302629619821925e+00
-1.411528451623335956e+00
-1.541197340900834822e+00
-9.503647079827508559e-01
6.756750990536428136e-02
3.202788649634344953e-01
-1.057114713299876385e+00
-1.964713787172182702e+00
-2.117295108002187121e+00
-2.113113860577501057e+00
-1.622322019025663309e+00
-8.762197137415843606e-01
-4.455578926273652818e-01
-8.403767720067198965e-01
-1.132827740289736429e+00
-1.350027210149129298e+00
-1.286614535970984852e+00
-1.564342996184877821e+00
-1.631988551829643974e+00
3.103025971151766038e-01
1.206990049754633088e+00
7.722056411309803359e-01
1.613250388559834270e-01
8.812931221952378102e-01
2.084986168417590768e-02
-6.111314990631606242e-02
1.069135745654196112e-01
-2.417643314279287192e-01
-4.908275152780410822e-01
-1.864474965016057750e-01
1.234512057276798691e-01
-8.141934508099264722e-02
-1.059995554724596722e+00
-3.241466290779842496e-01
-1.303674042653929721e+00
-2.396812782068648229e+00
-7.380198680539871159e-01
5.796917159284178389e-01
1.249099627521007116e+00
1.075178010568206499e+00
-1.617305138973409884e+00
-1.120588352231357110e+00
-5.600067853857048084e-01
5.782961372839054426e-02
-2.197760605412958923e-01
-1.426269090052065147e+00
-2.458455042910864030e+00
-2.098620365717265734e+00
-1.416288355823472900e+00
-1.890504961494128278e+00
-2.737090023060437805e+00
-3.143585119901092462e+00
-3.395256730972941561e+00
-1.764678097195123474e+00
-1.603635312384839029e+00
-2.220265638654153051e+00
-5.727168888237144095e-01
-1.012176126724686487e+00
-7.756499384525002982e-01
-6.664212307236710986e-02
-1.692065030668881698e-01
-1.123036145172299216e+00
-5.572920942459855809e-01
-2.306568300087318835e-01
-1.197859604203859840e+00
-1.741870930698722786e+00
-2.447407079460062640e+00
-2.991332832308267964e+00
-3.029357544404760016e+00
-2.556189203295994528e+00
-1.563987187675300428e+00
-1.492224931678375555e+00
-2.839763299405486108e-01
-8.895085128328511503e-01
-3.627974821426049878e-01
3.785821452662754272e-01
3.486578368568131192e-01
6.882919838846409677e-01
2.369610414763585055e-02
3.137966804847188151e-01
7.984929773437854372e-01
-1.222079275966878875e-01
-2.666793550957968773e-01
1.261568777315296375e+00
2.092051404192854402e+00
1.651950874414466419e+00
1.394801140415973251e+00
4.230661808902657084e-01
1.367125189572211852e+00
1.681581246785791572e+00
1.035146087262765136e+00
7.754125907246990357e-01
2.473601109539442788e-01
-1.049321317326844666e-01
8.865441506173966646e-01
1.253193948255678203e+00
-3.774590789930508672e-01
-9.738513787032482272e-01
-1.255870007307011704e+00
-1.018110195089082293e+00
5.191356978374593589e-02
-5.847127887772882726e-01
-1.599624576150176614e+00
-1.870256469339685257e+00
-2.649299504687016027e-01
3.321988291425325146e-01
-5.634553838385881752e-01
-1.004176856870925727e+00
-1.614932394616408196e-01
1.189755548411265851e+00
1.397741461013934039e+00
7.517000818234370607e-01
1.038468749456609386e+00
9.017387517925545826e-01
2.101681573441413764e-01
3.042437467815158336e-01
-9.321165505475957902e-01
-2.116860330044505911e+00
-2.186841414292863384e+00
-1.153140184755071296e+00
-1.120205807705052098e-01
-6.073138083812804067e-02
-1.481342309481001318e-02
3.023997650298803075e-01
-1.863371305763509289e-01
1.458854136336583895e+00
1.659326984329538623e+00
6.764542445155765638e-01
3.724737948345935301e-01
5.196459562189792436e-01
-1.011770647077284424e-01
3.530494964152408044e-01
3.898905334264468614e-01
-4.205642036669226536e-01
9.728059533209714171e-01
1.821240400257055470e+00
8.986576179050491664e-01
-2.704772340944530118e-01
-2.418017260500162191e+00
-3.149178779941972817e+00
-3.013236724456528570e+00
-1.616327995724455624e+00
-1.204711183276499176e+00
-1.218007438654073349e+00
-2.543515380882643839e-02
-1.690756082568264373e-01
1.244607308890741226e+00
2.609874825096838435e+00
3.306424343256070486e+00
2.389419056569197064e+00
1.609438039078214366e+00
1.810641460247775170e+00
1.049504261014156947e+00
1.011670457232583642e+00
1.562362561913637760e-01
6.454162820265967326e-01
7.125234895787497802e-01
-1.491330644035363751e+00
-2.586396010859901118e+00
-2.316064403774767300e+00
-2.709654690203507688e+00
-2.182074850831361434e+00
-1.844251331423280682e+00
-1.218089959887764362e+00
-8.924456564779811307e-01
-1.565577587015595462e+00
-2.480021203911414229e+00
-2.765798640048962476e+00
-2.840549605039558223e+00
-4.347412026124037432e+00
-4.087766218819971265e+00
-2.261994260612050667e+00
-9.018720452955693023e-01
-2.132589789050669093e+00
-1.178934426950264180e+00
-2.318557345006012627e-01
3.017451441746364926e-01
4.528233383550656077e-01
1.026787876478741257e+00
1.829611887457374131e+00
2.298656355946976149e+00
1.123029863686654695e+00
4.288125124964605184e-01
8.905112411473929956e-01
1.093181815861375084e+00
1.002153670280519160e+00
4.880615989494653806e-01
-6.331048678988791811e-02
-1.037721713434717641e+00
-4.968884172092737916e-01
1.060594617141915830e+00
-8.634170525055747669e-01
-1.333937307560368213e+00
-1.768411760330125926e+00
-1.487224555590642927e+00
8.816383070929151300e-02
1.198106481232067866e+00
1.679776365177286568e+00
2.800801418162399248e+00
2.276055562457593329e+00
1.911003148664027096e+00
1.592128807801602042e+00
6.593906381175691500e-01
1.189612483258233322e+00
1.218505020240203240e+00
1.576643524615884528e+00
1.484366131861895699e+00
1.994731641110346176e+00
1.759359228703017086e+00
2.846887513593373775e+00
2.669768258440913034e+00
3.143905458018388277e+00
3.563431521739782060e+00
4.013211601635384262e+00
2.509704629897066663e+00
1.282963682134700134e+00
5.201446439443698777e-01
-1.698093901413210149e-01
-1.044108393574797677e+00
-6.905778571680183386e-01
-5.830086419748409243e-01
-5.693849315355896668e-01
-3.931781076676349462e-01
-4.698301744253035039e-01
-1.325131119062093799e+00
-1.371689266706442645e+00
-1.227696572950484288e+00
-3.938398131124346002e-01
2.488726620209804619e-01
2.054003918688139529e-01
-1.212638234266763870e+00
-2.222567620524042109e+00
-3.099251349757707441e+00
-2.770639236867876498e+00
-2.145031038631866949e+00
-1.091274037870159308e+00
-1.122504057648523901e+00
-2.929710744596330518e-01
3.478443022505862264e-02
-6.375155661808932228e-01
-8.508850197103060564e-01
-1.722122336210369253e+00
-1.630610358567057716e+00
-2.065509863074327379e-01
8.952219432412705791e-01
1.139393009329140893e+00
4.198717498157878980e-01
8.392805810709372816e-01
6.581432284660014842e-01
7.706163291494575462e-01
2.369894388188635292e-01
-1.273049676264277341e-01
2.597912847007218251e-01
1.171593502318332702e-01
-3.239037214002813414e-01
-6.279972398447344339e-01
-1.716767375902952697e+00
-2.212716231074730366e+00
-3.034335535963094799e+00
-1.941170786085382627e+00
2.555850658503700662e-02
6.069267734829129068e-01
6.322077445942365648e-01
6.700140963124365800e-01
-2.313777859478979571e-01
-4.957598297431569656e-01
-1.560708900847373348e+00
-1.113404090461586504e+00
1.354718368395709804e-01
8.169292168024043510e-02
-8.617136756604925063e-01
-6.574910532524387285e-01
-1.752124773529820434e+00
-1.953166542837468267e+00
-2.572147249000945823e+00
-1.825855355817327164e+00
-1.583694963533270217e+00
-1.219818686344731784e+00
-8.636152741700494628e-01
-1.703765357157213556e+00
3.043417634881865341e-01
-2.901351846976838456e-01
-6.417482933589175875e-01
-2.758718793310986905e-01
-1.320749844407008988e-01
-2.871942917177220389e-01
5.222818088134953962e-01
5.260075504224399623e-01
-4.865782464454406764e-01
-1.397241650458724838e+00
-2.402419834245164587e+00
-3.760432595870100592e+00
-3.135330599730745238e+00
-2.329935572822616763e+00
-1.744694760553099355e+00
-8.073256098627709099e-01
2.103282548256281762e-02
-7.363004911152191134e-01
-8.205639673080802332e-01
-5.241143242162713545e-01
1.513594661908835293e-01
1.172394722065835809e-02
-3.340613111252997425e-01
3.209465571414538143e-01
9.904849516643244867e-01
7.708253330992664853e-01
4.286454518329691488e-01
4.677193036705217799e-01
4.830628591041721820e-01
8.253736268562188449e-01
1.043323687455410154e+00
1.676082360672742633e+00
1.240874927311711451e+00
1.486449538108714385e+00
1.135570030126383800e+00
7.046495595184908423e-01
5.376344251186871565e-02
1.728064508124723397e-01
3.166608512443419010e-01
3.407664977069000400e-01
4.027699333404512194e-02
-2.934231837346993887e-01
-3.946283734890538852e-01
-1.187065284237907248e+00
-4.808615123588729223e-01
-6.308734317142641324e-01
-1.219703145922989229e+00
-1.278326179264294149e+00
-7.991705987624487806e-01
3.387350822587797960e-01
-3.204006634524143582e-01
-9.922770062219343767e-01
-4.465528478613008945e-01
4.976526007907394744e-01
1.639271224804112137e+00
1.677502632365808877e+00
2.976793684249759986e-01
1.432131037604116974e+00
1.179854272225973499e+00
4.021291259582958355e-02
-1.193163372008923195e+00
-2.176861734231513523e+00
-1.990261369970221406e+00
-1.130166998322329253e+00
9.740865888479781354e-02
1.051687141231777423e-01
4.469751822345266468e-02
4.570451073592143310e-01
1.039136987934279777e+00
2.601583972682091961e+00
1.706762963549137924e+00
1.298472639245871862e+00
3.311310222405875470e-01
9.538951979205111120e-02
-2.904300726369683436e-02
8.145581487463924297e-01
1.399140499160479445e+00
2.639298738642794143e-02
6.201026086564598305e-01
9.523907568582290484e-01
6.169447367810781957e-01
3.539370814582993435e-02
-9.027206186349010508e-01
-1.383483295090877085e+00
-1.463085602537896213e+00
-4.649504822622819167e-01
-7.738498087232804634e-01
-1.424752666901316189e+00
1.825479803742268703e-01
9.551608504685789036e-01
1.271134937235141482e+00
1.459700370825158355e+00
3.172891706217735308e+00
3.501695906277342729e+00
2.934141019272520357e+00
2.346753484584430005e+00
1.035891828360499201e+00
1.063726960504310481e+00
4.448760355493314861e-02
7.469694110647648877e-01
9.347981071144747522e-01
-1.335959526081388793e+00
-2.522389299382434835e+00
-2.061622638167152299e+00
-2.218952496338959079e+00
-1.566886912889206007e+00
-1.446187745723678253e+00
-1.162521539722433328e+00
-8.596598463174810467e-01
-8.534462515965343110e-01
-1.687187998557149404e+00
-2.145210159647166659e+00
-1.908051924982654635e+00
-3.412699090096177557e+00
-3.557738668312520947e+00
-2.311364114033102712e+00
-1.706846703461637915e+00
-2.381512577965377186e+00
-1.326972714486520877e+00
-3.363737914162212017e-01
-2.975190899641930176e-01
4.083473521406698059e-01
8.265341005556923193e-01
2.169373806981827801e+00
2.000470245605102892e+00
8.146314743675334702e-01
2.621733935539450888e-01
4.604928651526199457e-01
1.000111019206015195e+00
8.881532700811959335e-01
-1.775109398371739478e-01
-8.452426665449431775e-01
-1.162251622743163182e+00
-1.549397603409227719e-01
-4.086657054261760291e-01
-8.595070067363309585e-01
-1.770566657802973065e+00
-2.867013309034236457e+00
-2.017062683072166962e+00
-3.871220561372670232e-01
2.417422012375149531e+00
2.597521408730929959e+00
3.285524108158035972e+00
2.750386341398829870e+00
1.572485324854289823e+00
1.090346521036772653e+00
5.846084867770299232e-01
4.973568123193659041e-01
-1.463738917923602945e-02
4.624655288972721601e-01
9.135693127150330550e-01
6.030442105486896187e-01
1.766778978048752835e+00
1.992552795292462875e+00
2.455132798352563928e+00
2.866959280788197173e+00
3.330843864128184340e+00
3.756466846150201988e+00
3.476870088178603879e+00
2.563879563658661986e+00
2.014642962761182599e+00
4.893704460024632663e-01
-8.094041045654921940e-02
-2.978556128335714814e-01
2.420977870269571119e-01
1.100498930033574352e+00
9.606297394400284961e-01
2.904779112991365819e-01
-5.218143154916641269e-01
-8.208723138858716739e-01
-9.643925577040223240e-01
-5.103209785118605346e-01
-4.879406849547217595e-01
-1.273766648098570153e-01
-9.265043083252676448e-01
-2.300839236739354643e+00
-3.744765443533592197e+00
-3.761450718486603506e+00
-2.450740674833585597e+00
-1.603119244630827112e+00
-8.426738018138065778e-01
-3.424332701587529670e-01
6.492692058937395982e-01
-6.793997488915101135e-01
-1.335277859846746518e+00
-2.207133620201237267e+00
-1.824721142550635333e+00
-1.001987216018479510e+00
-4.349393642577401714e-02
3.586307539211816640e-03
-7.969876427128419483e-01
-9.638323783675751821e-01
1.675538127849453218e+00
1.655088644686058874e+00
8.129836303123818553e-01
2.076313053879715043e-01
1.574265090387956534e-01
-1.114419468240525735e+00
-1.337048847448284228e+00
-1.576381959715549508e+00
-2.924702271154879352e+00
-3.518305057216104981e+00
-2.609488342341172551e+00
-2.103501387356093488e+00
-1.237712754551977046e+00
-5.531390768879115294e-01
3.988279155055274305e-01
2.778983263754200017e-01
1.486062690147854859e+00
-6.986335326048892513e-01
-2.085578490075048919e+00
-1.441168974126211921e+00
1.239460046943685390e+00
1.164533464132418761e+00
-1.517733734281915825e-01
-9.612670446764516319e-01
-3.483956194951992824e+00
-2.501609507845839353e+00
-1.974657884165585964e+00
-1.076704981996903232e+00
-8.155176794216014713e-01
-1.161089757600161976e+00
-5.571213728837902668e-01
-4.572606987758973673e-01
1.608078970786704254e+00
1.307334742178439813e+00
5.005521776475220230e-01
-1.432628697832299514e+00
-1.143582018818895873e+00
-4.245287191151897455e-01
6.450114591572829459e-02
5.529606788563778963e-01
-6.825561567756797121e-01
-1.248078920308103523e+00
-2.039100722890220041e+00
-3.400271544137426716e+00
-2.853525699649544389e+00
-2.769964902870773127e+00
-3.278801129957630511e+00
-1.899701557363500992e+00
-2.971732166864403113e-01
-3.861013258182773855e-01
-1.450433311557796090e+00
-1.530310607262747924e+00
-3.690967571078462295e-01
2.402681627099124417e-01
-2.356094925151033456e-02
1.044295105196841877e+00
1.342769094021733611e+00
5.769853892704815967e-01
1.404211012544025750e-01
-5.763253642396150012e-01
-4.936867823423718993e-01
-7.009715986294566825e-01
-3.384250388351776051e-01
3.011832489546837355e-01
5.667333914187164812e-01
1.169950934764489858e+00
1.024342115893875915e+00
1.032628501033893142e+00
6.750903759261879244e-01
5.566305242594933311e-01
1.101946483076414740e+00
2.116926883088020989e-02
-8.192918280001537656e-01
-9.948031859679895561e-01
-8.922697856108957604e-01
-1.260569088492710099e+00
-8.576952861121939220e-01
-6.684917935966800950e-01
-2.502691418505404997e-01
-4.383042350097934858e-01
-6.180851052324226602e-01
7.293515123921843202e-01
9.170615587088750686e-01
5.904316445011920100e-01
6.674886953212442187e-01
5.286894167956802670e-01
9.612618398031024247e-01
1.114856452423038657e+00
-4.574985587802871678e-01
2.601690009550223226e-01
1.925990919111515709e-01
-6.223793407836019087e-01
-1.609187173946482030e+00
-2.053978878033535072e+00
-9.954591062274542601e-01
-4.874702693654814345e-01
-1.675447952583968558e-01
-7.139804703588915891e-02
6.972309286244260385e-02
1.472677729803428370e+00
1.406419969102475687e+00
1.777200999268494286e+00
9.079789121217471948e-01
6.305159494374227291e-01
3.234748589833824073e-01
-6.951191462727303039e-01
-5.113562475843388411e-01
1.241978093956111334e-01
4.341277442252665653e-01
5.992510229764641538e-01
1.887041626909387926e+00
2.619291030447857604e+00
1.566769597394949587e+00
9.994088511796058727e-01
2.232497201975773282e-01
-7.202932975423037565e-02
-3.902134543260337707e-01
1.496497794680175242e-01
-9.197999822172484713e-03
-5.175267061084994902e-01
9.475786869638489485e-01
1.000986146752700368e+00
6.452109446901576062e-01
5.804241851667168994e-01
2.280859849052744970e+00
3.344006575811392157e+00
3.470195078100486885e+00
3.170763037979800636e+00
1.027017856459046419e+00
6.037734335495534843e-01
-1.986244815326611013e-01
1.456770383335011798e-01
-8.210831407664715975e-01
-2.202204865007069134e+00
-2.694767965596839510e+00
-2.246391197006000873e+00
-2.379843154489885482e+00
-1.955310448177248084e+00
-1.421488816985384540e+00
-6.851078406770716445e-01
-7.243669802160733751e-01
-1.160481829831410794e+00
-1.473308990754143677e+00
-1.874968410332083169e+00
-1.691025872328385748e+00
-2.073016923182140481e+00
-3.485832472108524538e+00
-2.484820950890323399e+00
-2.318994529112584413e+00
-2.082819740375446038e+00
-1.029906607945656694e+00
-5.497346737026470587e-01
-8.214428494909263856e-01
-4.513474774653460919e-01
-1.421364458705587086e-01
5.436862939333120259e-01
7.258927776128870635e-01
7.075218576672482884e-01
-7.490396252791045040e-01
-1.212912166202407160e+00
5.007152717515269552e-02
-4.066665265623599645e-01
-5.463285887817561637e-01
-4.909218296524851533e-01
-5.690486694910410481e-01
2.365448521835344237e-02
-6.223562255196825044e-01
-3.085771541904402393e-01
2.248691786294937101e-01
-7.877195442240975121e-01
-1.333387099128823472e+00
-2.351833484575119315e-02
2.331359301474190016e+00
2.957915865039446146e+00
3.660460395096116315e+00
3.538913382048024303e+00
1.348535615030736157e+00
1.685908427807052856e+00
9.779114512552312677e-01
7.151642717093297241e-01
9.818885268192935056e-01
5.340698472688437670e-01
5.546224481955089880e-01
4.808998262181712890e-01
1.751116542268083442e+00
1.526252557348200423e+00
2.793595286259075383e+00
3.198007570118108323e+00
3.171545474493060013e+00
3.050379328236522358e+00
2.623758372613972600e+00
2.459402929816248751e+00
1.163180884232488443e+00
3.528129042509002278e-01
2.172222297691756010e-01
-3.505862418423909554e-01
5.645425442375748837e-01
1.761511443324814241e+00
1.794120860185696831e+00
1.329097128021204277e+00
2.847159806532182924e-01
-5.176339005721362213e-02
-2.962642706315819496e-01
-6.418417088998750186e-01
-1.447033708384503348e-01
2.930571019681667555e-01
-6.009250675851409706e-01
-1.828605137591556185e+00
-2.919389362028369739e+00
-2.269893674408822282e+00
-1.678806955818356705e+00
-8.164845834743164055e-01
-9.004463882092984539e-01
-3.653549161957233560e-01
3.829121704965157136e-01
-6.438074571928973366e-01
-1.482362169618079317e+00
-1.710548512747224192e+00
-1.167659882258205828e+00
-9.007263505764449008e-01
-2.775769563130360829e-01
-3.484934037515878824e-01
-1.529560903742130273e+00
-1.211946270007260296e+00
8.803652966245991696e-01
7.413690993333026391e-01
8.066831670453366021e-01
3.005648045496455145e-01
-3.915023084161340927e-01
-1.422305845184810513e+00
-1.432778943450744080e+00
-1.790826325810980224e+00
-3.669426280138226470e+00
-2.404595549964345658e+00
-1.792200098187337831e+00
-1.393011839591635770e+00
-1.760190793775634255e+00
-1.570811694285084270e+00
-3.441101038419402403e-01
-3.801541678508622152e-02
1.106490628644117180e+00
-5.305904999006099132e-01
-5.114112973981892463e-01
-2.474161276321878711e-01
1.579155315507547508e+00
1.187792854112909469e+00
-9.699458084875596520e-02
-1.566450211030318451e+00
-2.648554344969336061e+00
-2.538123052108205879e+00
-1.759595093480799344e+00
-1.230597905657837776e+00
-1.671893911078115247e+00
-1.083168474520563862e+00
-2.317847836161821828e-01
-1.137786498243742034e-01
2.727040050102696789e+00
2.537396817729779652e+00
1.336530274828599207e+00
-1.511445501395438651e+00
-1.546183243368419502e+00
-7.112796667180071308e-01
-2.230287326429528372e-01
-1.702192888378780966e-01
-4.249767420898593606e-01
-1.147735732013943410e+00
-1.715451287734741648e+00
-3.418563992447524846e+00
-3.069127873422319297e+00
-2.719789002955688151e+00
-3.309086131576854051e+00
-2.188255514482930320e+00
-1.164908025761676846e+00
-6.283557297743259662e-01
-1.219364769929092374e+00
-1.293799320663037156e+00
-9.330275571634970982e-03
6.741807569078719364e-01
1.201259051303902536e+00
1.736308428176283281e+00
1.318470754178128201e+00
2.726865755815550130e-01
-1.003585423696599532e+00
-1.941558060284469311e+00
-1.480533001009347149e+00
-1.269950203224755159e+00
-9.754905466826414573e-01
-6.263731896401936172e-01
-2.233301211107180662e-01
1.267902362714484088e+00
1.078947163461776437e+00
9.651613029565321300e-01
9.705809488784175043e-01
8.746957443874989746e-01
8.398148621592188556e-01
-3.048867920220137973e-01
-8.190232713421623512e-01
-7.589524611109266239e-01
-2.808906266579261346e-01
1.233394357355150073e-01
6.269906654943480095e-01
5.089810578570704847e-01
9.443214325507798268e-01
9.982134084258349471e-01
1.214609422285856555e+00
1.286786771869915746e+00
1.242259768158342714e+00
1.118804945804536377e+00
1.230720120459621647e+00
1.217398290047887466e+00
9.181570436591780515e-01
-8.259214558943230033e-02
-4.334230068857952145e-01
1.133760865974104415e-01
7.418182831148255330e-02
-7.604322045241123096e-01
-1.160758398250917978e+00
-1.595430634131323577e+00
-1.036993732819728731e+00
-1.262011925558108816e+00
1.044003891369851056e+00
3.879264752414610107e-02
1.481351846503828673e+00
2.172183465070454123e+00
1.820157349645933342e+00
1.363624813525005974e+00
4.070147828799259293e-01
-7.734025356111238203e-01
-2.960491994676225924e-01
-1.266680482478472314e+00
-5.439715757132719265e-01
7.626703524022290237e-01
8.137137407425120150e-01
9.499974241473808645e-01
2.146101294229430856e+00
3.570970509075941823e+00
2.311137716791867636e+00
9.924871769791101528e-01
6.900781739064054676e-01
1.737591345451295066e-01
-3.463388190148999346e-01
-4.369262087383488091e-01
4.772986301154643618e-01
1.248167612490490297e-01
2.025392103439943026e-01
3.896578866985780376e-01
5.242328256204874526e-01
8.019582454052913700e-01
1.591264190705098835e+00
1.996000601487040171e+00
2.835053247856206049e+00
2.761349079029888465e+00
1.403839950212990351e+00
-1.452892279959429322e-01
-5.174387947287408807e-01
-5.904169813012936086e-01
-1.764135089454369920e+00
-1.718022893407729290e+00
-1.461412738917214682e+00
-1.404920040669390913e+00
-3.389256688537709117e+00
-2.256593708547124599e+00
-1.029229903612655539e+00
2.228711270323616433e-01
-4.047151673875782896e-01
-1.420879789437249130e+00
-1.286099744409490375e+00
-2.203388692188808839e+00
-2.751983100818641059e+00
-2.509104605762182860e+00
-3.716868326633795849e+00
-2.928065158129965262e+00
-2.965861437629006669e+00
-1.497152531402209386e+00
2.584318726100885977e-01
9.381421170060998405e-01
-7.026543612988407350e-01
-7.319604315035360687e-01
-8.453698603404194989e-01
-4.478276060466769848e-01
7.838859851600768480e-02
-5.543248619481403461e-01
-2.296427200028084314e+00
-3.197205548150269472e+00
-1.161037874482963472e+00
-1.264584458462773009e+00
2.959985129498524659e-01
3.260056703217751872e-01
4.512456499627096052e-01
-4.028563219084756453e-01
-1.104329141086161648e-01
-1.519633692744199183e-01
1.031033256086365979e+00
1.972540955039248645e-01
-1.599219507340831958e+00
-1.308497775809698505e+00
-1.681031220092625220e-02
1.468692859358336156e+00
3.006130780074316444e+00
3.839836723581840694e+00
2.210718687398157467e+00
2.794983673265013291e+00
2.520822087293324909e+00
1.691738422127039509e+00
1.359940813249178149e+00
7.518548863913563363e-01
6.825476194863263624e-01
-6.643454965383750466e-01
1.442209338498492421e+00
1.936561896517095205e+00
3.906733816318684660e+00
3.996720229484605369e+00
2.506222774764234718e+00
1.819591823919473716e+00
1.283104059801694730e+00
4.397638285971267602e-01
1.030675413168850474e+00
6.683091876901247064e-01
1.257904567018358843e+00
3.766386094272880514e-01
4.901541702625126784e-01
1.965012066514886024e+00
1.473348408607350057e+00
9.453833007803450483e-01
8.261141228656293523e-01
4.670757880765264436e-01
2.087565403888251223e-02
-1.274001589364809561e+00
-5.320415602070458494e-01
-1.077609657375247498e-01
-5.919338070004074304e-01
-1.347531624148832874e+00
-1.903837158581365818e+00
-1.211842882554553968e+00
-5.671727637959170787e-01
-4.300855303370837990e-01
-7.572554434005551727e-01
-5.718256692083877324e-01
3.454974402531176825e-01
-1.340737485862416867e-01
-1.054930527271076279e+00
-7.668460038070799012e-01
-2.352529177458732856e-02
1.387977432904426156e-01
6.628779063532913574e-01
6.761828166396957052e-01
-7.129650570293533107e-01
9.451726188171372112e-02
-2.171174589224811602e-01
3.896979843345370342e-02
1.058716123058550895e+00
5.391663832183991589e-01
-7.809611574042133464e-01
-1.414329756892104495e+00
-1.608932684464148721e+00
-2.381141890974839193e+00
-2.868225410603121084e+00
-1.917976206132956163e+00
-1.101493205316385282e+00
-1.146534777294810459e+00
-1.613071321146203330e+00
-1.783990877002526121e+00
-7.833365228783928380e-01
-7.805122509399775588e-01
-3.285239861122081773e-01
5.555833127006077482e-02
-9.808638953345232003e-02
1.172796797406875813e+00
1.737918956904055401e+00
6.197183875714068479e-01
-7.475914520600535074e-02
-1.076795586927588255e+00
-2.325449877935158227e+00
-1.237324367287650384e+00
-1.090424932316448769e+00
-1.722920903989454189e+00
-1.699390331717396174e+00
-6.103241911107407658e-01
-8.025864473253858933e-02
-8.580656131148168830e-01
1.162612838345715272e+00
1.544754609419317415e+00
1.340152800068381556e+00
-6.079086652295458970e-01
-2.011497802360871390e+00
-2.074507382790620635e+00
-1.497777715725564784e-01
3.224219336981450912e-01
1.368542876216233051e+00
2.167434012071762506e-01
-1.464196380625563676e-01
3.583412231085503774e-01
1.135255335919837238e-01
1.130323195130783276e+00
1.163129552999466076e+00
1.052485450346915652e+00
4.001010084461076310e-02
2.213063976042895786e-01
1.482739989123341429e-01
1.723518876436509473e-01
3.929758421898988940e-01
7.364960777022454552e-01
1.582429567357058087e+00
2.499574113248156593e+00
6.360765337100193761e-01
-3.152009823491600526e-01
-1.808379295393584441e+00
-2.280242679216804902e+00
-2.873260634461503926e+00
-1.990031056715549473e+00
-9.051324451848505870e-01
-9.618450138670338045e-01
-6.771762169480767257e-01
-3.358266749184664335e-02
8.329770037005803651e-01
2.392113836116245007e-01
-5.843276021633369011e-01
-1.660721321263657346e+00
-1.943190448458535169e+00
-3.535087757519358997e-01
-1.848596883850645023e+00
-3.787599062885991241e-01
8.224134856257940829e-01
2.025778472052552015e+00
2.185878450195867462e+00
1.646885170192684544e+00
3.008463977820576396e+00
3.915814245091686630e+00
2.901597750315174196e+00
1.713257537942913133e+00
2.045775335590199973e+00
3.453914832902012927e-02
-1.088125502489173613e+00
-4.480077940771068357e-01
3.913650037971208584e-01
-1.304434329993769126e-01
-1.623606243852055153e-01
-5.951665217641196604e-01
-5.255097674770652372e-01
-4.586170593404335638e-01
-3.554700785572102451e-01
-1.167436315396051978e-02
-7.675701294616279480e-01
-1.012353239809076211e+00
4.810551015226673388e-01
8.418363723129755616e-02
1.116281507642740589e+00
1.960173155890536867e+00
1.652529786426077729e+00
2.040308231219598589e+00
1.095370297491540690e+00
3.554723736612276919e-01
-8.875286991498104738e-01
-6.446134474591950214e-01
-1.001689717546070169e+00
-6.773985625248667430e-01
-1.012994970379851867e-01
8.796304722342939142e-01
2.082681998233731679e+00
3.167142750084130487e+00
1.271359048203473119e+00
4.973897079552396239e-01
5.614470366507648968e-01
-1.602041862417407092e-01
-3.396478590894678740e-01
-6.741018710602532105e-01
-8.806053012506576128e-01
-1.423557557834845555e-01
-1.680098653520945007e+00
-1.514344509870001021e+00
-8.999570166972720164e-01
6.774294805502121264e-01
-4.029263169264425404e-01
-6.306853804267755770e-01
1.266931993262699341e-01
8.142072418420694957e-01
1.328369542919098367e-01
-2.101974024825873921e-01
-7.234927735155430861e-01
-1.132827698538989347e+00
-1.037752168163213806e+00
-4.992364801412952358e-01
9.551225656748755233e-01
2.238191734569416447e+00
-1.553369768313917765e-01
-5.511184154947467162e-01
4.487693760300706103e-01
-2.687408552554940155e-02
-9.756515596156407621e-01
-4.200644547671544826e-01
-1.329993221867212583e+00
-2.796558359826935902e+00
-1.860206676110088830e+00
-2.725084957198028235e+00
-4.167285316380588966e+00
-3.773872822781887404e+00
-2.429367035165308497e+00
-1.573620883736802867e+00
-1.057901901533904399e+00
1.148039131579500438e+00
2.458583571280461566e+00
1.997263458975910400e+00
7.039679759492712963e-01
-3.708884709791965273e-01
6.954717663973140063e-01
-8.366987696205915315e-01
-1.513030190164884381e+00
-2.452027053602209516e+00
-2.103249586975480145e+00
-9.344513406594217031e-01
-1.017126811165850242e+00
-1.553681374011398608e+00
-9.249478865564094709e-01
-8.631283761170915891e-01
-5.698142551660455579e-01
3.656531849797318712e-01
8.309546943645766959e-01
4.029721826170284404e-01
-1.258846980915504288e+00
-1.733705799908277001e+00
-9.848736524090739852e-01
-3.386023367253644945e-01
-2.008667753628438912e-01
-8.671481739019520907e-01
2.714245791222827275e+00
2.174839555866413310e+00
1.164651213583848932e+00
6.969195116979326476e-01
1.547035732590628321e+00
1.390601545503818759e+00
1.299794569379421949e+00
1.674679662751032971e+00
2.295482715744205926e+00
2.246324274809211818e+00
3.142366497777462797e+00
2.797370675636864590e+00
2.005888401262524212e+00
9.231816313570313515e-01
6.429936419354104205e-01
1.474520410184546881e-01
-8.161804607349087970e-01
-1.294310753881401377e+00
4.134507752411146209e-01
1.042016129658698942e+00
2.279001858287279525e+00
3.308337493565864040e+00
2.272787123825294131e+00
2.091761255871807279e+00
4.213049829109645761e-01
-6.492266162348047098e-01
-4.770083371331959587e-01
3.468935500830901408e-01
3.929245283000872280e-01
-1.193771994648638035e+00
-1.155876239089733026e+00
-1.148878358118866183e+00
-6.044080938636987588e-01
4.658508326168295938e-02
7.541214916360352571e-01
1.380379030462301204e-01
4.094593163816889758e-02
2.004691109290912543e+00
2.940800604400256812e+00
2.904551592118861159e+00
1.192078168452351816e+00
4.301470197751633973e-01
4.102318091392546107e-01
9.085391850172580552e-01
7.880817969652642585e-01
5.113060833946504458e-01
-2.058419286440324181e-01
-8.054901769222491681e-02
3.838618126266347685e-01
-4.082954857630487489e-01
-3.545292481344888835e-01
-2.102502337316253911e+00
-2.213724913947044293e+00
-3.027906437509516380e+00
-2.889373769162734362e+00
-2.299757205219371770e+00
-7.905561803094934836e-01
-1.671195819479832867e+00
-1.931213431745097964e+00
-1.674958757138164778e+00
-2.411476812656473623e+00
-1.125558931175650423e+00
-1.188060551671231146e-01
-6.664867321327797578e-01
-1.234704958826017718e+00
-9.800091884908337381e-01
-3.094875620630593294e-01
-1.299704034749697146e-01
-8.648369933314479230e-01
-1.852339228973035157e+00
-1.943694074720378140e+00
-2.426104449201442748e+00
-2.509042259919540108e+00
-2.307935852560931700e+00
-3.901437609196372502e+00
-3.960337050744001441e+00
-1.650327791923792198e+00
-5.005009831947521137e-01
-6.189076441826218966e-01
-9.384460908233561716e-01
-1.256963676774372762e-01
6.974862247463163578e-02
8.457760092841619670e-01
1.836827030683989004e-01
-4.836569659210016026e-01
-6.557715689595668973e-01
2.543389348158187624e-01
8.764432535134147884e-01
5.818336986101174668e-01
7.201860590353165170e-01
3.576397553093451642e-01
1.007299218665943297e+00
7.974740024923608894e-01
1.230737699809671515e+00
1.569098769550612005e+00
1.942259297329393508e+00
1.428477076185625583e+00
4.608195087891706065e-01
1.730524753754117961e-01
-5.832667661488636149e-03
3.004363959009665463e-01
1.385936350159060249e+00
1.134191746040236204e+00
1.396349031520086603e+00
1.337734260543612663e+00
7.490032225362315277e-01
-2.401228678416195417e-01
-1.169842376329289335e+00
-2.407599479014330690e+00
-2.370062914632215190e+00
-1.922016613223055614e+00
-2.313510416590730756e+00
-5.407129450038796747e-01
4.411177061311647579e-02
6.125416744520009171e-01
-2.478298977632153316e-02
-8.713987800462246192e-01
-1.914033928666409423e+00
-3.095446562055681028e+00
-2.914650626142498702e+00
-2.787383681561875104e+00
8.011585411440182158e-02
6.425848646501970685e-02
1.015288625192656724e+00
1.588757560234288047e+00
1.443464117990748363e+00
2.173125217970415246e+00
2.676024908895573873e+00
1.981105646177084179e+00
1.609984262820031820e+00
2.156812503507630208e+00
9.617872738504685826e-01
-1.340266624310137711e-01
3.696988039410515348e-01
9.626466432644050775e-01
7.323104451662991732e-01
-4.129936437316373277e-01
-6.281594789790163613e-01
-7.528962161507580797e-01
-4.399423110239673029e-01
2.560575517776014776e-01
6.139676652929541845e-02
-8.096101653249569707e-02
-9.203772078355262343e-01
-3.349249373805067709e-01
1.886050568768644353e-01
1.463596144296087420e+00
1.242130956445376189e+00
9.188241004263926204e-01
6.380872947585571886e-01
7.497001073298195650e-02
4.682084653613672875e-01
-9.648551771025080104e-01
-1.097413551173406665e+00
-5.495736873357235375e-01
-5.435551485284288720e-02
2.871795533176327297e-01
5.644967273902491423e-01
8.937318592998801936e-01
7.111217538247971426e-01
1.315516090612387945e+00
6.523693714869690519e-01
2.745918484082753852e-01
7.027936394513294160e-02
-3.554629390605686390e-01
-1.019634513199128456e+00
-2.083108387852103949e-01
1.887725664912845089e-03
-1.208587109645386404e+00
-1.134260680501063323e+00
-7.291566809279828032e-01
