1.128047139967398360e+00
2.533028712309072894e+00
2.116012290634405435e+00
1.561387213866963553e+00
-1.123531219938567714e-02
5.305736413464854362e-01
5.413912316729005969e-01
-6.050087306357022215e-02
-1.173705548232316931e-01
8.741300644377244522e-01
1.063568666669673091e+00
5.124913828587807085e-01
5.162987728230190587e-01
3.874904221170737961e-01
1.150462567914556145e+00
1.707643636096139339e+00
1.962190238817599131e+00
1.193772485805911776e+00
8.549299272109815995e-01
6.449563305737807117e-02
-3.494754154080679798e-01
4.560720086754373459e-01
9.465487055167323138e-01
1.527918510881472347e+00
6.300077155930857709e-01
1.306409074479789323e-01
3.950774291340339306e-01
-3.670804051466829143e-02
-2.046294896013066966e-01
-5.028368557483560153e-01
-1.154980367411197140e+00
1.801043644698942792e-01
9.414622011024473269e-02
9.539121965139067683e-02
1.178736953641499108e+00
5.992135280198660485e-01
6.505819731866914202e-01
2.258243576820692933e-01
-1.208093748222585084e-01
5.485331148186162187e-01
1.013335930244528171e+00
4.005233506918025599e-01
-2.146436068452072521e-01
-4.492508003147971385e-01
-1.384910426467075739e+00
-2.207781013572639672e+00
-1.982845737888943027e+00
-1.280644397750701824e+00
-1.253232165171963564e+00
-4.695674841239833031e-01
3.121892571231625335e-01
8.163836563070456798e-01
1.144869109225501891e+00
1.291130283799599043e+00
1.414093576298047328e+00
1.815265542333188931e+00
2.311334957028108761e+00
2.749260602430134703e+00
2.638742961989450020e+00
2.026895425464615652e+00
1.214701314607347760e+00
8.729657695265898854e-01
1.593922465873060190e+00
2.340331092108233424e+00
3.100667135451204981e+00
2.352562957977471392e+00
1.368482060534374600e+00
-1.006284384092293593e-01
-4.479615879059696826e-01
7.882849447915225571e-01
-1.564645585591456500e-02
-1.284497444383060349e+00
-1.959687792576913834e+00
-2.039390619734409160e+00
-5.590722922297486353e-01
-1.702148722957577964e-01
-8.296379695508074859e-01
-1.992200456214961779e+00
-8.822925358419539954e-01
-3.769498082126033212e-01
-4.752955465394694268e-01
-9.943287787864524274e-01
-6.907206408816907173e-01
3.526720918122895898e-01
2.715824571687079914e-01
9.522578362907124783e-01
2.048262064281686001e+00
2.617287522809285338e+00
2.090703060873697616e+00
1.335371972550311592e-02
-9.924495707513477649e-01
1.079515593251930916e+00
1.549832304012503492e+00
8.742849575676139295e-01
1.016207144990866063e+00
1.049529569717061683e+00
6.061383698379949614e-01
8.769417301771945672e-01
-2.242581315098240435e-01
2.225291885209914333e-01
9.442695771539454386e-01
6.848889811115439485e-01
-2.750792356932151295e-01
-7.968472140320064234e-01
1.393605417296633009e+00
7.870532563784348179e-01
-1.616072117419671494e+00
-2.145882777550141007e+00
-1.164791808915296878e+00
4.241809301136525434e-01
7.652492932597139419e-02
-1.844919946106038156e+00
-7.306145864385427124e-01
-9.766614942195029903e-01
1.714142782164453094e-01
1.042594027299124981e+00
2.245925099001677250e+00
5.727080392174287438e-01
-8.637204261806917804e-01
-2.260755252402078863e+00
-1.879083803230814809e+00
-2.539667490336539935e+00
-2.795493269753411614e+00
-2.660387863541886055e+00
-2.900770609942620482e+00
-3.083740895728307230e+00
-2.579386442105671584e+00
-2.274785621702084093e+00
-2.591615817372104336e-01
-9.915985312638044835e-01
-1.769648528356088990e+00
-2.507170414342684506e+00
-2.358096159216317211e+00
-2.724528760824783014e+00
-7.752438042509329774e-01
2.455900508151564465e-01
-1.388252358122226415e-01
-1.642128398650890775e+00
-1.954110234572242311e+00
-1.853863729374722880e+00
-1.589029840433123120e+00
-2.386341228884426346e+00
-2.763640408037900009e+00
-7.664949263548379577e-01
-2.539683051069969277e+00
-1.047821042584172968e+00
-6.166413719588152986e-01
-6.378959304358110538e-01
-5.138764503217605473e-01
-2.313874592258412799e-01
-1.015502138088221651e+00
-9.516030446497839579e-01
-3.446092323265320889e+00
-2.268112618993564311e+00
-1.744789024123075682e-01
4.763040909275252366e-01
1.093347129569999687e+00
1.395096214416520652e+00
1.767640992635785002e+00
2.580728459447950041e+00
3.266399550951516462e-01
-2.086790773089389206e-01
-4.744787483260078931e-01
7.475135737606494191e-01
2.580066704960528035e-01
-2.260180910237693519e-01
-8.749129596678986154e-01
-6.767737004808864754e-01
3.309828856460702573e-01
1.330830807065629118e-01
-3.012280056900283332e-01
7.342250503104096326e-01
1.205748982377037981e+00
1.349154610740180393e+00
1.229403796781539243e-01
2.513290333394156417e-01
9.174351807133376280e-01
1.357474781161084110e+00
6.359974314787476546e-01
-7.258509362842398005e-01
-1.147025375267401559e+00
3.148625494142241465e-01
3.855995967024551385e-01
9.360587664002640862e-01
7.327690502984741672e-01
8.896920704156602300e-01
3.683901544654265559e-01
-5.918210454247306851e-01
-7.389948190355497548e-01
-1.209740346674135658e+00
-1.902628972651286832e+00
-1.405679767769923316e+00
-5.989927476690508346e-02
2.993247727125815105e-01
1.859174372787024465e+00
8.944556515316985923e-01
6.706677392543878291e-01
1.302722754429114005e+00
2.881241522650380471e+00
3.402806987533093963e+00
4.455296502150837057e+00
3.320509209105190429e+00
2.299847145025025075e+00
1.335783445138963188e+00
5.772265782812434631e-01
1.740389832512587054e+00
1.311024805052419584e+00
1.059855344282265133e+00
-1.146351175039101999e+00
-9.022245817590514028e-01
-2.488533074352122787e-01
-4.612831457176983507e-01
9.278360888831204134e-01
5.409523112181990889e-01
-8.785331464113220745e-01
6.144252541818637781e-01
1.671901623227251665e+00
2.607723702828255607e+00
2.105104714454453685e+00
7.585180008480775227e-01
6.314859048664157593e-01
1.884212405753081798e-01
7.964315222113730330e-01
-1.489210372141155370e-01
1.301585965240026121e+00
2.405768422985075983e+00
2.631720928230087964e+00
2.538125545317807319e+00
1.370484070959832712e+00
1.219314996671037266e+00
8.875516699576302404e-01
2.664978243704517191e-01
-7.488749581304121605e-02
1.726067165047568963e+00
2.084767961365703304e+00
1.201158989388262155e+00
1.207347825805730190e+00
1.310232678489165359e+00
1.930142844924517709e+00
3.148063814268192484e+00
2.755299768639712266e+00
2.273812947483633273e+00
2.079539623692798322e+00
1.020854869904937567e+00
-3.958142299156778843e-01
-4.949230912352692302e-01
-3.887323038497680350e-01
5.464736755086162523e-01
1.255986046206757356e+00
9.612541068844274728e-01
6.403532390696832222e-01
1.234954142216988071e+00
9.077713239650233579e-01
9.195641434676994352e-01
-9.868064705573716122e-02
4.552245112878130495e-01
6.699993340187498925e-01
1.807023890439951042e-01
4.469535475610724173e-01
1.028699768641369583e-01
1.043268540984764847e+00
1.042932252261989268e+00
7.569170749415154997e-01
1.475085334772203938e+00
1.461974478474667105e+00
4.307388094687154556e-01
-7.441538145425798945e-01
-6.321458878504109258e-01
-5.180205630460819055e-01
-9.558783169058286955e-01
-2.003737225146995371e+00
-2.009307658105681682e+00
-2.033476875876200074e-01
-1.142006992454975695e-01
9.274910942593846963e-01
2.085476732212867113e+00
2.188609485514992237e+00
1.891307917501668934e+00
1.394371590833502372e+00
1.676924780467099918e+00
2.025964129674182601e+00
2.177946905693870949e+00
2.296519059677082364e+00
2.328369234259803022e+00
1.921032115366603232e+00
8.416648682128148318e-01
2.301789318088750536e-01
7.896847379186207050e-01
1.196851285088449846e+00
1.209951643611352878e+00
6.722532463562421734e-01
-5.045856905811738624e-01
-2.715866440166392337e-01
4.947936362910513863e-01
-2.987431640013356593e-01
-1.135180062933013767e+00
-1.362165591958514499e+00
-8.329261194978769822e-01
2.859369174814217485e-01
5.241874875786256549e-01
1.194328648142417154e-01
-8.263675241184259557e-01
-8.866620558202168434e-01
-1.019372500945276760e+00
-3.383809958805623630e-01
-7.803055661589470837e-01
-8.411635458358118766e-01
7.353067025342219232e-01
1.150792197781121740e+00
8.533007481405631145e-01
1.321959395002262116e+00
2.500045155659079033e+00
2.422510709898187287e+00
1.019722706352978792e+00
-5.012712330221558155e-01
9.263682617488139259e-01
1.181883909729938065e+00
1.388797003001400965e+00
1.833477379247263173e+00
1.795315441853929439e+00
1.526486193984193163e+00
1.898909525858509806e+00
1.260134715337543732e+00
1.187920647550101627e+00
1.263160980304682379e+00
1.128060736318141632e+00
4.970868445495104093e-01
2.856701791582790251e-01
-1.459982342702088876e-01
-4.157499136142822072e-01
-1.714617794295461239e+00
-1.443253899393188711e+00
-1.738064454756539645e-01
9.805170801604803366e-01
4.501961798149269889e-01
-9.862725359300870132e-01
4.868764683066152399e-01
7.313595940916477467e-01
1.014525540814703586e+00
1.357893357718086280e+00
1.992138742900886994e+00
9.047702824913149700e-01
2.095855109082670475e-01
-8.045602906945309440e-01
-9.029327808113726261e-01
-1.989705776851152796e+00
-2.794655132378816020e+00
-2.834243573280673445e+00
-2.954519432003138046e+00
-3.255201984528875325e+00
-2.764761998982407487e+00
-2.816073604007402587e+00
-1.030483118492127925e+00
-1.599353679102703651e+00
-1.830768538633904541e+00
-1.582250815418575485e+00
-1.819155577693964743e+00
-2.397227518374864808e+00
-1.578146700943294123e+00
-3.921910201660844808e-01
-1.809472396948623441e-01
-9.659912554917494676e-01
-9.475052872266582771e-01
-4.042981412388401696e-01
-1.012479726083490794e+00
-2.021170951452365916e+00
-1.265064856305380125e+00
1.778800302551205026e-01
-4.817522301050101707e-01
7.243034387595236046e-02
-1.048962832857662508e-01
-7.535262734298687759e-01
-7.464819420471410227e-01
-6.264757485697800554e-01
-5.974117837822436883e-01
-3.800906659711411062e-01
-3.284784720574440708e+00
-1.877268332776760529e+00
8.181084276561832735e-02
-2.800738109576812462e-01
-2.562688966981317359e-02
1.741135369006790445e-01
4.703273121195149509e-01
6.397381345482244797e-01
-1.152927442898181942e+00
-1.097290229459198185e+00
-1.285420942540911327e+00
-2.095294123631581407e-01
-3.450922087579051944e-01
-1.912311969937740760e-02
-3.290008422449507974e-01
2.126396786979217399e-02
8.992983686118017905e-01
9.884641250660967104e-01
9.931358114922376190e-01
6.383747262975267844e-01
9.000484834354028907e-01
-7.646140402703800742e-02
-8.411018290770685413e-01
4.926742217873172902e-02
3.265220595719315888e-01
5.367189384616818382e-01
1.327790569366890383e-01
-1.411654511617240315e+00
-1.112395925968726607e+00
-1.743821296366309531e-02
3.232470181763373307e-01
7.671172775922789899e-01
1.021569497272905691e+00
1.330981028076224426e+00
1.599632478040362349e+00
8.558486268808066511e-01
3.127880498959620947e-01
-4.665828708228616506e-01
-1.766992884237961858e+00
-2.254166837677876511e+00
2.845594097159483971e-01
2.604092377709306128e-01
1.204570250402470899e+00
1.542223468366841876e+00
8.513070845946547616e-01
1.106698404529866009e+00
2.776188632269350087e+00
3.902213297692782135e+00
5.275786103778557390e+00
3.521350354408971040e+00
2.763888639701081118e+00
1.842988662232247332e+00
9.679947444504907184e-01
9.457314622291220774e-01
-1.954868614087937884e-01
-3.296295905060599857e-02
-1.628834340287129478e+00
-8.322657639511226169e-01
-1.029198215031437824e+00
3.248779380642261572e-01
1.271396791489050937e+00
1.324724650074924570e+00
8.191348545205583420e-01
5.214320116739458166e-01
1.510200968193644133e+00
2.783114446097294081e+00
2.732847105603597893e+00
2.564060851427965027e+00
2.218369515541451786e+00
1.971239438384552622e+00
5.656052014838878206e-01
3.524883083961699026e-01
5.716851795891809696e-01
1.661615910409829588e+00
2.864721780516221727e+00
3.409258067343843734e+00
2.666540009762805585e+00
1.871434131469719153e+00
9.295443063927263383e-01
1.061070329709927762e-01
-5.455617346351148145e-01
9.219817172139205264e-01
1.885170362641644060e+00
1.276473787290578921e+00
8.282391759048398638e-01
1.002004528719771415e+00
1.635440850971499271e+00
3.150346152297101909e+00
3.902254294884947683e+00
2.835568717528656357e+00
2.429198311435119439e+00
1.786883137037813540e+00
1.248600667360532518e-01
-1.027024805306897104e+00
-8.732992985854718393e-01
-7.728377507819784720e-01
7.910946052415998020e-01
8.885530933360986650e-01
1.103498721417392137e+00
1.637903471668205491e+00
2.389720502837272331e+00
2.833123582461366752e+00
2.073884154481222097e+00
2.165058120120089136e+00
1.474382161839007832e+00
6.474492431654198521e-01
-2.744701471266023374e-01
1.990990162581792733e-01
1.239666307650984622e+00
1.760104605576255254e+00
1.684337306173151250e+00
2.697235793811137317e+00
2.473908997187268977e+00
1.456320049505322123e+00
1.554562705094524044e-01
-2.629215285092159973e-02
-7.876016014105467755e-02
-4.026827438608453491e-01
-1.270920213960208045e+00
-2.182700547580838091e+00
-4.510711679161355514e-01
-2.364727322051052016e-01
6.893256564596405012e-01
2.033056221232788285e+00
2.579566958214996486e+00
2.525460247663965152e+00
2.097471456975874560e+00
2.479766240896658758e+00
2.090976822186052964e+00
1.762791822558133825e+00
2.185456832109061498e+00
1.913338698719336373e+00
1.679270995426545232e+00
6.311014934524519226e-01
-2.781409228188078675e-01
5.694047547649611074e-01
3.339771126831762582e-01
9.186864834145307412e-01
5.552655099036268860e-01
-4.243793114802901223e-01
-1.008448832991462707e+00
-4.021928423526593965e-01
-6.575593368899294022e-01
-4.760898839659607473e-01
-7.763146895489970722e-01
-1.691532816232495240e-01
-2.593929021744040275e-01
-2.286884117719531137e-02
7.703270119624967549e-01
-7.001190316557942550e-02
-7.444992493371517250e-01
-3.029955840251430388e-01
-9.320122098007207478e-01
-1.132055048030609523e+00
-1.749766182057235497e-01
7.914106274690169140e-01
1.129730290159618677e+00
1.150206736342755942e+00
1.481895992095119130e+00
2.419850754971678342e+00
1.730395215274683540e+00
9.208063384038221999e-01
3.048911359505418125e-03
1.592930624016099528e-01
5.478005235846025028e-02
5.787047829844557123e-01
1.577800057577066317e+00
1.590842679129708115e+00
1.088651432165118171e+00
1.709047862118388661e+00
8.570213949621323657e-01
9.145699158670932416e-01
2.540582078594409987e-01
6.362751982693809483e-01
3.440318074780970847e-01
6.455026545516338032e-01
-8.763031832721187575e-01
-1.307825891106713989e+00
-1.325601459723352971e+00
-1.175823257268201694e+00
-1.071009171568305801e-01
1.016459751637032172e+00
4.414193350675828520e-01
-4.681092741422776538e-01
6.266793923326955396e-01
1.236877012616063753e+00
1.900460068874269215e+00
1.605132486404774683e+00
1.655258843339022512e+00
1.351935619058067362e+00
1.765645063368805667e+00
9.610092362427000712e-01
6.069030259445526987e-01
-1.357800726728135121e+00
-2.633843777406074782e+00
-2.319594343865940100e+00
-2.083769727850310893e+00
-2.081757826093626473e+00
-1.826660546178739741e+00
-2.109400756119756082e+00
-1.910710597145723666e+00
-1.454864600428420029e+00
-1.551520384150644194e+00
-1.554063136364082665e+00
-1.555789301267260116e+00
-2.221259097580927655e+00
-1.298694506526713255e+00
-3.622240198000228895e-02
1.806848506402939647e-01
-5.106011177589704353e-01
-7.039521085485966889e-01
-4.499617098241108092e-04
-7.005175649137442839e-01
-1.814806397557100270e+00
-1.187107817061131332e+00
-4.782571043439298730e-01
5.678705234122907175e-01
3.718643978270814721e-01
6.810400018918918996e-02
-8.955775371336319735e-01
-1.145600504790411200e+00
-5.829861492758799946e-01
-4.959253265081452478e-01
1.085423050029975895e-03
-2.000816465268729694e+00
-7.833796692276034923e-01
-7.580338322697952047e-02
-1.917482930791246376e-01
3.603827340841723181e-01
7.123728939721400977e-01
-2.933944127694080861e-01
-3.521316092538026576e-01
-1.193707025822196233e+00
-1.134296166775634829e+00
-9.251225259543969237e-01
-6.464299418308820933e-01
-7.520654124294310350e-01
1.544602811434542533e-01
4.296984805237006877e-01
7.079071800703934381e-01
1.621372101530856646e+00
1.652668415726257667e+00
7.819567140721793708e-01
2.323746526956902564e-02
7.583968240429670438e-01
-1.253848275518396060e-01
3.890780746853474831e-02
4.169258386933148430e-01
1.192059255117474903e+00
1.264005780013330416e+00
4.847497136919526328e-01
-8.591944222061362879e-01
-4.225340390938135404e-01
1.070038780144208612e+00
6.701520879973537070e-01
1.278147660216093717e+00
1.544492374075542962e+00
2.059489664741396275e+00
2.435031060507740541e+00
2.026697914818536894e+00
1.064144725578148654e+00
-5.933656095689987531e-01
-2.287793463696822016e+00
-2.373945315462383299e+00
3.783291868621562193e-01
7.895984719612865466e-02
8.183556263371872808e-01
1.526121251460295092e+00
9.385187058559190110e-01
1.290961963637630383e+00
3.076776265946797206e+00
2.781536269362281821e+00
3.725086963273257723e+00
2.105788795025240301e+00
1.907889984992737098e+00
1.519717452368773092e+00
2.591799200118460877e-01
-1.340371517849006544e+00
-1.299208484097247540e+00
-2.187472633504400354e-01
-6.578342119395557130e-01
-1.534219111706549565e+00
-2.752968029291991137e-01
1.136906016260675667e+00
1.562333679511954010e+00
1.808068730468087582e+00
3.842725630560320238e-01
4.656772252994585415e-01
1.079301527643556247e+00
2.849856534917731388e+00
3.672645668441428146e+00
3.287629020072315278e+00
2.180554311692467717e+00
9.556515603866673203e-01
4.686622985448316708e-02
1.979733412209803589e+00
1.303311118967898974e+00
2.049853381807369868e+00
2.202821330619916917e+00
2.871220324875948915e+00
2.777707353678898539e+00
1.855983569448722559e+00
3.825964210946491972e-01
-1.321803304856663752e+00
-7.099869965899845425e-01
-1.972138194915951104e-01
1.350268488486188634e+00
1.456842892340596274e+00
5.268315709157892490e-01
3.634297555585472295e-01
2.044043219413149703e+00
3.104516114937495352e+00
3.874243460899934544e+00
3.180918319255880089e+00
2.529478348298332069e+00
1.326558549173644685e+00
2.826511351983049258e-01
5.542327761048029267e-01
6.609268069125351364e-01
5.461918695895450204e-01
1.060812537869686656e+00
1.143361626979972900e+00
1.843099174313122868e+00
2.045934669549330565e+00
2.560615434791473799e+00
2.692857763513137215e+00
2.717591601641055288e+00
2.164761101105608709e+00
1.519732906393162386e+00
1.141264858865360887e+00
6.707311961283261015e-01
5.996725562195254211e-01
1.446865548340026120e+00
1.720753892038547450e+00
1.762886606314289395e+00
2.412823759088835285e+00
2.060117251495624302e+00
1.890320693941542673e+00
1.614252266437992134e+00
5.825951787595369524e-02
-3.644680734342359840e-01
-6.803340621860677340e-01
-8.760943205513486154e-01
-1.008989562146761720e+00
-4.227020882033956095e-01
1.491800466075328662e-03
5.959570508765511532e-01
1.514887601234666592e+00
1.567668766401148384e+00
1.908426823072014944e+00
1.850620029641863562e+00
2.243381380053489416e+00
2.192953054118104372e+00
2.162798365203159268e+00
1.879553489584831150e+00
7.014304835033350338e-01
1.007842166748623480e+00
1.412168279104145663e+00
5.291000594614874153e-01
3.229207829868702140e-01
7.137579158512127320e-01
1.093623888744413852e+00
1.511805319224312605e+00
4.997878749014139643e-01
-1.177811032091943044e+00
-7.644164153591126443e-01
5.191885505430240966e-02
7.025835527393539115e-01
1.793726095466966208e-01
-7.082520947624403318e-01
-4.960347904608041758e-01
-1.671838479247634013e-01
1.279506648839412009e+00
6.028462164721749145e-02
-7.579092192532704830e-01
-1.435360766834581636e-01
-7.205078882912961946e-01
-7.968204361235952105e-01
3.247843443140973618e-01
5.318972017191616608e-01
7.629392182391820931e-01
9.145804132348079873e-01
1.103156232640165157e+00
2.225944001696096297e+00
1.149825272656340047e+00
2.425977894050819761e-01
-4.957782563834584044e-01
-4.358340203486357756e-01
-3.598855903052775029e-01
7.444433829631692812e-02
9.998674087186499859e-01
1.015828996174080512e+00
-1.769539490735412002e-01
2.572269922791014518e-01
-2.249611018753377434e-01
2.071977298809212498e-01
-5.186881068104614023e-01
1.813649656559034040e-01
7.681213192054617278e-02
-3.945980005755386766e-02
-6.421474864963150342e-01
-7.901920128309644076e-01
-4.469645840210457188e-01
-1.123190360148440758e+00
-3.827722898549169028e-01
9.273228223949409044e-02
9.554564508342518192e-02
2.217426788538955640e-01
2.652102493747287015e-01
1.219188956496742193e+00
2.049614036176351739e+00
2.076061232197425444e+00
1.406347958308765023e+00
1.898012423786831215e+00
2.812368712436387863e+00
2.237399044178474572e+00
1.040534855823843863e+00
-5.377454054969906805e-01
-1.210386084779279336e+00
-9.933817890515567184e-01
-6.412363384276874578e-01
-9.004645081990403366e-02
-2.842804473148002331e-01
-9.699566877010573629e-01
-2.151035889216867947e+00
-1.051429096450856582e+00
-1.277380453861172604e+00
-1.927540818349313900e+00
-2.614044209284967835e+00
-2.876112639948375183e+00
-1.548303422284415198e+00
-1.171829643887569716e+00
-6.084355417333865423e-01
-9.811508336266144825e-01
1.187922708529583482e-01
4.934981579917966377e-01
-6.112179793897617452e-01
-1.788061895778547905e+00
-1.679453053949681918e+00
-1.406583305392533401e+00
-7.245314110240597127e-01
-4.478375904558606901e-01
3.834910878465367934e-01
-1.604314903049257612e-01
-5.429279707664892429e-01
-6.180443142042347793e-01
-6.989579043568210359e-01
-4.303743121515208880e-01
-8.245995960543476277e-01
-3.130988446715682882e-01
-7.151693142949701043e-01
-3.975405132843456979e-01
1.154726622461009544e+00
8.990374633895493739e-01
-9.951713727538648024e-01
-1.579645750462321807e+00
-1.332268750939624047e+00
-9.666997633421127167e-01
-9.590547859358314886e-01
-9.320540258107989917e-01
-5.516509895593896262e-01
-1.470558283788989951e-01
-7.215318938968792728e-02
-3.034591335239821275e-01
1.438760251343583318e+00
2.066184029699390301e+00
1.236810389071785199e+00
1.053458618580451978e+00
1.250500427236821199e+00
1.132900770505251176e+00
1.113394561198689070e+00
7.761143741053904144e-01
4.051302161959264847e-01
6.005721685706640889e-01
6.681628758166243687e-01
-3.201851933795071825e-02
4.374077570598506881e-01
1.484470759040821930e+00
9.001990147157901134e-01
1.508206045294494535e+00
2.830445584931688963e+00
3.326356436367655434e+00
3.331758548495160621e+00
3.163084654632978054e+00
2.540296176872566480e+00
1.754059604383052251e-01
-1.308977104139644965e+00
-1.448567271653182331e+00
2.794732726111668342e-01
4.351078232700993365e-01
8.211381645325507295e-01
1.459815978389577662e+00
1.251564805619376664e+00
2.140846983728978969e+00
1.817011725487752249e+00
3.281548459684314745e-01
9.929267449831842285e-01
7.002180302693672420e-01
3.569873752154499313e-01
7.362093825451044848e-01
-1.350489098673899768e+00
-2.614673867028961762e+00
-2.036400606403787616e+00
-7.280036933683581291e-02
2.123557839655213220e-01
-6.084092009022626923e-01
-7.384544418373096830e-01
-1.271246467428822913e-01
1.877416071814359544e+00
1.402625638386073570e+00
-1.798037100960860335e-01
-1.965515690890383971e-01
1.974853300894057417e+00
2.576022860411528281e+00
2.872221503033160594e+00
1.776429767617478062e+00
8.216194874065394504e-01
4.837540602640742482e-01
9.990645903021531105e-01
1.619465086495263328e+00
1.870934502289240964e+00
2.638296739601598162e+00
2.199059128900622273e+00
1.641289734097465036e+00
8.206599588143047574e-01
-5.934224948066564587e-02
-7.319711879430709223e-01
-1.956207579495294224e+00
-3.375713862580171365e-01
2.848297024910478870e-01
1.651990377206151495e+00
1.935108094313922944e+00
1.633826414435304741e+00
1.842147302639657092e+00
3.672400648501347398e+00
3.626113824987296841e+00
3.979562604729747655e+00
2.965651300477111896e+00
2.865250882539146282e+00
2.765084085140355086e+00
1.437793731273715236e+00
4.590464491306761041e-01
7.199893526802590982e-01
9.734046134290497143e-01
1.380948520519404976e+00
1.869403471899481195e+00
2.383099108615802653e+00
2.423599353617619023e+00
3.165543939832894615e+00
2.163535985897981018e+00
1.211363252264587631e+00
1.057163271351376554e+00
8.258340320905254162e-01
2.553883735251413767e-01
1.755958351496301204e-03
2.262411787624559190e-01
1.671320195380116891e+00
1.644082960500013346e+00
1.741430935112936451e+00
1.842374382023823642e+00
1.538157695545352865e+00
1.403527964157018193e+00
2.123038005177722454e+00
7.788903856771218770e-01
-7.182113907006442144e-01
-7.109867913196019629e-01
-4.943958206077230244e-01
-2.082264781413226407e-01
-1.894621298937502196e-01
-6.085394287282308579e-01
-1.955523903489453930e-01
4.869024977411721133e-01
1.031309364627614356e+00
1.940731596460148811e+00
2.005282226530906708e+00
1.570265860983838913e+00
2.448689112909676169e+00
2.339763239479647261e+00
1.997893028593830778e+00
3.966931757326004337e-01
5.695136200156721840e-01
1.069938898725369736e+00
7.703224280549535452e-01
4.786151563104911189e-01
1.030378943704107542e+00
1.559954188193149127e+00
2.299952492333429355e+00
1.000234876733831380e+00
-4.502226637720654345e-01
-1.909969840086808354e-02
8.868445649267283626e-01
1.072730133674004493e+00
4.607358354454529903e-01
-1.607487257524064406e+00
-1.050720934573339704e+00
4.620235120749081603e-01
6.647204537867841267e-01
2.545353504612848372e-01
2.251758248303831755e-01
1.733407444791779939e-01
2.510200017879465340e-01
-3.676718370624592058e-01
1.140741747159801228e-01
-2.692613991879232449e-01
-2.706055513028704507e-01
-3.695449728802768091e-02
4.755457328723481508e-02
2.678866633764528382e-01
5.000075862549627770e-01
-5.813764446134387365e-01
-5.997046405196527763e-01
-4.823148622592252077e-02
4.870350423654594696e-01
8.639672165429415074e-01
9.873400414752421250e-01
5.474445692223764981e-01
6.715271800630483456e-01
5.750742578074116151e-01
-1.923531457263388533e-01
5.065009058344409620e-01
-6.086385539725257532e-01
2.388345254985897725e-01
-9.051616484969977547e-03
-1.185498591838238802e-01
8.519850619896672805e-01
1.117101010650861648e+00
7.828417216710277238e-01
-1.034550270637864644e+00
-1.027224514145998358e+00
-6.069055458630683297e-01
-1.184742268226202516e-01
9.420459235951141874e-01
1.056523271617105575e+00
1.650196478350197449e+00
1.389597769147175921e+00
1.831612187897880606e+00
1.054586461050222246e+00
2.122885067626096411e+00
3.340744614514323363e+00
3.442605230011086093e+00
1.178657678991000823e+00
3.218626355765775160e-01
7.454618400109926102e-02
-3.561980117696300630e-01
-6.123491150741903338e-02
1.069668473380943841e+00
6.083105740422318775e-01
-6.386518745410909581e-01
-1.918390940405173994e+00
-1.195149558082141183e+00
-1.349035215344829952e+00
-2.104811054412158544e+00
-2.844024556743076637e+00
-3.038893171243391311e+00
-1.299687868929768397e+00
-1.309137127420390900e+00
-1.365328669657357219e+00
-1.476419861378508003e+00
2.280193664982917146e-01
1.140743902710362967e+00
-9.279225073870722706e-02
-7.251816982070989903e-01
-4.970506977794744152e-01
-5.681000217548103359e-01
-7.399840955630151984e-02
-5.845574872325095539e-01
-3.638615423598012266e-01
-9.876125536151687534e-01
-1.051087954217194032e+00
-8.889132038525413559e-01
-9.523567622913375885e-01
-6.798662283208261048e-01
-7.217540585157360411e-01
-3.781485732960073176e-01
-9.926605598790435581e-01
-1.682636778510759212e+00
-2.765945955744116835e-01
-7.172635874154249802e-02
-1.823477390975774215e+00
-2.282302371168840160e+00
-1.687401003298009350e+00
-1.518454085775714946e+00
-8.196597850438088750e-01
-6.334582471586555075e-01
-4.371174867815519893e-01
-5.548577452952623001e-02
-4.450039511918148505e-01
-1.426450548113535222e+00
3.973244048624776092e-01
1.483611431980995432e+00
2.008027591611370788e+00
1.538597021811222598e+00
1.603337834210432522e+00
2.345610633537923206e+00
2.231130966207882427e+00
2.407221077176457502e+00
2.588460315876807694e-01
-2.019237878729949198e-01
-2.747906112538656687e-01
2.223943757648605135e-01
2.587241743155482165e+00
3.158087029465848961e+00
2.697203199344798463e+00
3.114679206558157887e+00
3.555251078746829663e+00
3.838978964732295385e+00
3.710704853440885298e+00
3.204756927610005413e+00
3.039135412469064601e+00
1.224249733221423719e+00
-1.218539725318752848e-01
-1.240663753659410951e+00
3.807253381765709488e-01
7.377641478053417190e-01
1.241112055004564452e+00
1.585988472181191433e+00
2.125714331497394305e+00
2.201328513512068152e+00
7.825278125507967308e-01
1.955137074382475582e-01
3.631233037781841921e-02
2.260706580366133034e-01
1.378415781898836068e+00
1.401755817063711496e-01
-1.642317917013170092e+00
-1.740578740346490294e+00
-1.264360658048739872e+00
2.308193329548075268e-01
7.334524216726650003e-01
-2.819440897386770728e-01
-1.827611295458689167e+00
-6.163098524943616541e-01
7.053718631838816755e-01
5.560527208310976632e-02
-2.568357986041975849e-01
2.192809206770343078e+00
4.913337577538823275e+00
3.503339382208287667e+00
1.755090090363572886e+00
-5.352997299751950655e-02
-1.404651736675007756e-01
4.819336281974919700e-01
1.291225205524489272e+00
6.276854257718837704e-02
1.246296672676054484e+00
1.928996386241429217e+00
1.710120350054041394e+00
8.476277145648182243e-01
-2.016394923216392465e-01
-8.471610406065754884e-01
-7.346790423334353948e-01
-1.322301158191336645e+00
-9.781611909127893023e-01
2.904225707314845306e-01
5.419858169317063323e-01
6.580093742052294248e-01
1.306842008953172707e+00
1.846459242258748690e+00
2.816450830405178518e+00
1.875325792058671226e+00
3.361673142850265972e+00
3.212458249252465592e+00
3.497522097307256939e+00
3.053928411393584064e+00
2.020380519985216061e+00
1.085577601807484610e-01
-3.283853055197761828e-01
6.662118104890485393e-01
9.315818961273081289e-01
1.051073463685664233e+00
1.959925335272048708e+00
2.223637234775872606e+00
3.195802368027087059e+00
2.495448837685175558e+00
2.107573128779147265e+00
2.398493905242412794e+00
1.249169487781517596e+00
1.075104792155923583e+00
3.713751621374927203e-01
4.461720734699100577e-01
1.186037102165033330e+00
5.986050360955885719e-01
3.577537607704912581e-01
7.864566031453772421e-01
7.140074443910695567e-01
1.229844173625819659e+00
1.616627375958022972e+00
8.605445598897288884e-01
-1.358480847179937834e-01
-2.623232817421115026e-01
-2.605911774553456572e-01
-2.651537484370072861e-01
1.157497363577059471e-02
-5.188699634051485710e-01
-1.420558842310513936e-01
1.267228895841413516e-01
3.948396205444772156e-02
7.487557445338749451e-01
1.711528879708449358e+00
2.359942242677354862e+00
2.049510450497698422e+00
1.736317396459473139e+00
1.451437787682648750e+00
6.726511917990061207e-01
6.282527949351145446e-01
9.055693653795447995e-01
1.102995069126240679e+00
1.493446816750116479e+00
1.392693635684390863e+00
2.043793625276661086e+00
2.067642346635792272e+00
6.076120373772420091e-01
-2.210560724537043997e-01
1.010933690543414781e-01
3.449149771307974954e-01
4.828673285746510890e-01
-5.737364817620435042e-01
-1.560594366438234903e+00
-1.050844418564143012e+00
7.018507600320447182e-01
-1.088562278676054595e-01
5.332383791483213953e-01
1.055172363770859878e+00
7.826953815686725768e-01
-6.480729658757106160e-01
-9.807430627772834031e-01
-1.166542777675773301e+00
-8.656693629709036886e-01
-4.303392215251224395e-01
-2.545402431824585476e-01
1.240311504605254855e-01
-2.606991788457808101e-01
3.374852688075409279e-01
-7.980149051786692427e-01
-5.135214011313856686e-01
8.035267844556619188e-02
7.408636306601262822e-01
1.068540376175728834e+00
8.345803592429420492e-01
4.126875111211318892e-01
1.345082137039659065e+00
2.822995568484105641e-02
-2.798684745073566349e-01
7.850854933999408258e-01
1.432338636796962605e-01
1.200188032385185039e-01
9.592414133084935235e-02
2.551445382637455017e-01
8.637147499029236286e-01
1.363993346881394508e+00
1.204991365215886567e+00
-6.930559179187329999e-01
-6.289408407527891098e-01
-3.319115155978672460e-01
-8.600556016078769739e-02
1.053721715886156485e+00
8.079626667544268503e-01
8.649134659066444186e-01
1.137851379113839601e+00
1.717724201875184153e+00
1.520613965120442002e+00
2.168684749825150249e+00
2.712965963816503567e+00
2.840499466203329160e+00
1.105879586074224763e+00
4.742228033303430568e-01
-2.855540073559619807e-01
-1.082558711048389188e+00
-6.610306588804480687e-02
1.156880794489679953e+00
1.019948062769285180e+00
-5.310311777502138009e-01
-1.693014055056698108e+00
-1.603240497728819269e+00
-9.995413495833910256e-01
-1.356078069701562194e+00
-1.777457038263145161e+00
-2.486214917080162845e+00
-5.420720911191010405e-01
-7.769802025174643578e-01
-8.029583867155706267e-01
-7.267648454953924420e-01
1.743298973939438612e-01
7.284221384271036825e-01
-1.312690852243035555e-01
-5.386412122889678439e-02
2.327283047641850733e-01
2.770517880444893777e-01
7.575011785310068468e-01
8.511379535133399565e-02
5.310220564435895740e-01
3.956371212226583167e-01
-2.449897468518947019e-01
-3.390554335349176274e-01
-5.178963547138889512e-01
-1.289617582743337876e-01
6.530776774660893014e-02
1.038964845718218788e+00
-5.508302490986504152e-01
-1.459472722272828538e+00
-2.083072310418462858e-02
3.551844910660963417e-01
-8.608475767802667988e-01
-1.421956242123569636e+00
-6.620367227605933325e-01
-4.587029278604315419e-01
-2.398345512702350704e-02
2.244937470191208650e-01
8.772668649081558634e-01
8.056316850970305365e-01
-1.090911762613998477e-02
-9.526128239190083669e-01
-1.751829587255837872e-01
8.826329544112597736e-01
1.436651597694809546e+00
1.824698996201538082e+00
1.860141113849370198e+00
3.241894042051051361e+00
2.822450862266390637e+00
2.404853066952389984e+00
4.478616989135119075e-01
-2.251513767085090989e-01
-5.012122977851559691e-01
7.169112575214212635e-01
2.629546761877084027e+00
2.753534056460565704e+00
3.015589328143091663e+00
4.159554060555698207e+00
3.070185187387778569e+00
2.186367845923085973e+00
1.507055893382545309e+00
1.315300296432934779e+00
1.843701203297602786e+00
1.694024260907204926e+00
-8.437848615161379698e-03
-6.579167694983923953e-01
9.280452570610415730e-01
6.139739566465435283e-01
5.735944459877280188e-01
1.184193699959030566e+00
2.640369081038324683e+00
1.287528014684628852e+00
5.425088517731395665e-01
3.837613663385518459e-01
2.528418473015895951e-01
-1.639157627400345540e-01
9.903995937117212600e-01
-5.302072527215232478e-01
-1.196717362104035454e+00
-7.833785673337161359e-01
-2.558956144584665499e-02
7.918471206326146428e-01
-2.788891077255606366e-01
-1.090849015289037549e+00
-1.074483770092193646e+00
-3.739080283963561735e-01
2.876898403438296614e-01
8.383256776395259235e-01
1.391554621235143507e+00
4.204395692162250953e+00
3.621270961442228487e+00
1.643057938048463340e+00
7.300671691434604815e-01
1.058985883520371513e-01
-5.663236913896644437e-03
7.598342775604995936e-01
6.071110485449687788e-01
2.417242511769818192e-01
6.111955225210916609e-01
7.896804384274499489e-01
8.381579303356860855e-01
5.052709068512710733e-01
-4.581421912991388568e-01
-8.097568598151175800e-01
-1.080359233002905706e+00
-1.002478041665728625e+00
-8.244722234818941953e-01
-1.926083042539305790e-01
-1.873969875910812821e-01
5.965898281914935181e-02
8.957422988181327206e-01
1.319603892151979485e+00
1.548200418278047774e+00
8.666940601021363433e-01
1.945601236279291824e+00
2.942862167634751724e+00
2.818396356860167540e+00
2.487508806598528022e+00
1.817625686864130730e+00
2.645885861585940968e-01
-1.716481807739113630e-01
6.055489419479385127e-01
9.418901811400823831e-01
9.757010267467842723e-01
1.966859627744520944e+00
1.719511452970229559e+00
2.437135527360080101e+00
2.461658343649840042e+00
2.232499191537849370e+00
2.527721132316280706e+00
7.950484672396950225e-01
1.502276875154930025e+00
1.663147529052708462e+00
1.235578957142111411e+00
1.018452162680897111e+00
1.739468858573450516e-01
-2.062098867920525991e-01
4.929739061523915611e-01
9.717872321551440651e-01
1.150919115843037410e+00
1.365316912707063679e+00
6.434146563764214788e-01
3.795425875567768337e-01
-1.103081912273786019e-01
2.701408424271763420e-01
-2.293135219448586282e-01
3.655110896486978289e-01
-1.829999547497090651e-01
-2.365040938246137092e-01
-2.192033004887699588e-01
-5.070161126132358698e-01
7.291772280018727903e-01
1.635960702250754517e+00
1.212358289042724024e+00
7.466941608347407167e-01
1.071819081783878858e+00
1.739174110339027024e+00
1.147538492910100016e+00
5.368536993107598798e-01
9.699259571943189551e-01
1.413280288105438265e+00
1.480831406646811121e+00
1.183890690725302175e+00
2.038502017149864010e+00
1.645944741304575576e+00
1.251236847845665023e+00
2.190971744970682811e-01
2.071811432701197234e-02
-5.106963398036843405e-01
-1.254528820417327495e+00
-1.799216914857846961e+00
-1.197022244473252117e+00
-2.334137879529684378e-01
5.864093675562027652e-01
2.561197931967785224e-01
1.337425150726579970e-01
2.508298995107136609e-01
1.442944546161067376e-01
-2.938028842701936177e-02
-9.380391510436164593e-01
-8.911516717362391038e-01
-1.384790308346685705e+00
-1.554918440197119667e+00
-8.782151765403092281e-01
5.623298363967926816e-01
5.186645394177840096e-01
-1.147887191246164951e-01
-6.216177394103359344e-01
2.881533771807150493e-02
-1.996235030964709986e-02
-1.982774874915202434e-01
-1.666738176090899748e-01
7.085262322382673839e-02
8.017683770665401388e-01
1.002637725699768056e+00
3.123068968240726440e-01
1.313826607920564049e-01
7.793244023676201282e-01
5.749683187764027537e-01
1.007892126388486131e+00
4.024253388445595547e-01
-6.402442662559995057e-01
6.741727568384878744e-01
1.417100055389649560e+00
8.999836660767214225e-01
-6.015384462740429594e-01
-6.980165445650590161e-01
-7.245176339566457013e-01
-3.530916141421495125e-01
5.282345170999467321e-01
1.135373787599164297e+00
8.713842652667332933e-01
1.225176005950122882e+00
1.812128327458786936e+00
1.848475693634491490e+00
1.669388983405971860e+00
1.484168880002348923e+00
1.390053614830740081e+00
1.187868123653873953e+00
3.092186649081211658e-01
-7.975070328606106429e-01
-1.273485229102422789e+00
-2.827539236263718614e-01
1.167281571610564006e+00
1.011232364215132185e+00
-8.610059273512837841e-01
-6.831687133058302885e-01
-1.730258491352856032e+00
-1.333876652941339946e+00
-8.611997796912697067e-01
-1.248788580956557537e+00
-1.455247906099797151e+00
-6.600513103332107390e-01
-3.566336706372192494e-02
5.931008812538952624e-01
1.206719462156178757e+00
5.004588422082841825e-01
1.410352398158109644e+00
2.661043414351974556e-01
2.037011527608887929e-01
-5.148819813315884050e-03
-5.760433967797560229e-01
-1.815150375481156264e-01
6.413319074636444350e-01
1.732258719200687302e+00
1.447958955701393213e+00
9.666944859215017560e-01
6.121163145886600043e-01
7.327773259724954524e-01
1.255703753294255653e+00
5.186992909244926286e-01
1.213169618141203054e+00
-8.437005503249618565e-02
-6.883596310486534975e-01
6.339472001032827597e-01
1.506762288960320939e+00
9.693369604970840658e-01
-2.105836093192166303e-01
-3.426638300171858109e-01
-4.466841179961677510e-01
1.225400161209232314e-01
9.064369560299184725e-01
1.485206469875508084e+00
1.304615310581334287e+00
1.995521463224496084e-01
-7.841570506463244605e-01
-8.307365840423415193e-01
1.962050522148938991e-01
4.121899448371980634e-01
9.650012361428602636e-01
2.446444481710249974e+00
3.011146683950602920e+00
3.187377128182105945e+00
1.726175334362346936e+00
9.340416755699657569e-01
-1.650546694574783757e-01
-3.401416378528969164e-01
7.384663171520318148e-01
3.005271820741545419e+00
2.094265375418312480e+00
2.231923667161206382e+00
2.765881291492166216e+00
2.443674427056917509e+00
1.815196037315440103e+00
1.750595987036612566e+00
1.032148748727660381e+00
2.044010461881310636e+00
7.280755421513372960e-01
-5.566781033482671726e-01
3.138636703626790925e-01
1.480288437449197358e+00
7.911977060282445740e-01
6.152695906567087203e-01
1.543713912510350950e+00
1.556174208296624339e+00
3.505181984982941312e-01
4.776973354032247876e-01
-6.019357169309683814e-02
-5.383206580839636907e-02
-5.011332303108103625e-01
-4.122374507017931844e-01
-4.028298691294492362e-01
-1.159223033392086100e+00
-4.285474603833446805e-01
1.909276854033190030e-01
4.408158829467936357e-01
-8.502545211017127347e-01
-2.753025898072786193e-01
-6.695364138537542205e-03
4.362921034951310062e-02
1.041833944291599146e+00
1.877392749990271836e+00
2.662994360469232547e+00
1.771106221642435807e+00
1.348090908072798522e+00
-1.515856704460757376e-01
-2.836525046277004192e-01
-7.158582882692248184e-01
-5.633294318350405561e-02
-2.078645069690353286e-01
-4.167109580441870631e-01
-2.290218819994210009e-01
1.431814617844971327e+00
1.319653182432416028e+00
1.630370350041136174e+00
6.074330720476972534e-01
-2.171545989358457732e-02
-1.378046855066749343e-01
-8.543542740171559124e-01
-6.218040307110503928e-01
-5.108604472688764719e-01
2.192648199907108464e-01
1.265378677944332564e+00
1.220783402891137959e+00
5.304580507440292969e-01
-2.674952795250113563e-02
9.611212365059770280e-01
2.169043945867531686e+00
1.774710714821854829e+00
2.145867844039216266e+00
1.709631983690268697e+00
1.659563281512406618e+00
1.800176270563676351e+00
7.704365980376574052e-01
8.322068918156882988e-02
1.610334607265482054e+00
1.740474413708568369e+00
1.242559577153452333e+00
1.184625073834501663e+00
1.124838740843225215e+00
1.525288236780337536e+00
1.774134940833682839e+00
2.365277542425233026e+00
3.148447584088256868e+00
1.484128088225239672e+00
2.079987049099100815e+00
1.970650505540487041e+00
1.154584126599472071e+00
1.785848871498463053e+00
2.141715152447429826e+00
9.773624169114196736e-01
3.685741525066913993e-01
1.297814417946067334e+00
1.090993974973933023e+00
1.246884243978057860e+00
8.021028413896228448e-01
4.952775939899721203e-01
3.420889306214630610e-01
2.033853699209507981e-01
3.410749374865638672e-01
7.726403238660225492e-01
-3.113137111144309577e-01
-1.953399560501800081e-01
1.869329385782716180e-01
1.141055441246055235e-01
8.624894067743772430e-01
1.142511425645591272e+00
3.486733481208731389e-02
-2.051819888455468643e-01
1.280647904383949709e-01
1.218357230548031245e+00
1.097705490693486219e+00
4.134340561917951851e-01
5.697077062526474389e-01
1.894664934292578984e+00
2.640911077990573563e+00
2.112262948198126988e+00
2.372026559110185229e+00
1.632363931807370827e+00
1.523966217040920945e+00
7.694911676544350376e-01
5.404417142023436593e-01
6.282599017960065202e-02
-1.599760305981727138e+00
-2.328474860902842725e+00
-1.308977278645346631e+00
3.397048993715877652e-01
5.698860450145621925e-01
-2.207052203960940123e-02
-1.947498124105807027e-01
-5.391555805541592764e-03
9.013523027530752074e-01
-1.720845676801966567e-02
-1.548044796911453247e+00
-1.831342422810675608e+00
-1.536691344532215897e+00
-1.252854768869822832e+00
-1.035438132178169379e+00
3.501782126810998319e-01
1.342373134936339696e+00
-7.801509371336022569e-02
-8.030161237381961969e-01
2.630045788342676993e-01
-3.880913984555928731e-01
-1.519715764636462574e-01
-4.534589071471047395e-01
3.752462035410594754e-01
9.545004688992591024e-01
6.460037154351707667e-01
-2.380254882838312436e-01
-3.073852230582694856e-01
5.527465310618180361e-01
1.331167896100770687e+00
1.056000310873945525e+00
-2.573723357228553943e-01
-7.594185297137377999e-01
-1.546587836234331569e-02
5.777663948595859189e-01
8.539799498598412697e-01
1.000962217009651739e-01
-7.454351240560146141e-02
-5.871166231736864027e-01
-6.889566851916116841e-01
-2.402117900299849118e-01
2.719086816833057085e+00
1.487849383719970220e+00
1.466737112791213660e+00
1.844175636282417097e+00
2.544215013873237119e+00
1.893885088622120350e+00
1.349637853308961466e+00
6.151043418029737975e-01
8.481014311802617112e-01
7.538098162263066060e-01
-1.633788496089849385e-01
-2.710958039466420111e-01
6.068411507318929310e-01
1.622226649888045769e+00
4.467245394984533657e-01
-2.133968178588450559e+00
-1.013883889244846376e-01
-2.302808365623843834e+00
-1.179222204007310593e+00
-3.986343958332692616e-01
-3.515363810853585069e-01
5.982769930487665845e-03
-3.388190365235672075e-01
1.183715466116189718e+00
1.556323230742709063e+00
1.435595716119142606e+00
1.102212474887718896e+00
1.763295220082339521e+00
-7.175795701953857630e-02
-4.707242142753967906e-01
-6.372447507143840228e-01
-6.941790908617661016e-01
-1.295763527318402331e-01
1.570450371269706658e+00
2.244265584470905850e+00
1.186800660740974900e+00
8.341817219895555358e-01
1.049496758178194877e+00
1.125636065413151199e+00
9.841030922998557084e-01
2.055630100030227947e+00
2.790804410795574508e+00
7.639515750096687041e-01
1.855227527494157647e-01
-1.063638645335470735e-02
1.758811534225779072e+00
1.730677089329138774e+00
5.529201346620996604e-01
-3.292067328017720951e-01
-4.567419959992728429e-01
2.060754536967328021e-01
1.416576693091212924e+00
2.177218262949701888e+00
1.630189912770469096e+00
2.847243099817924894e-01
1.575401311419561134e-01
-4.115215223061563510e-01
1.315429462832779395e+00
1.186001772480833383e+00
1.542236338779424898e+00
2.316023865476425136e+00
2.785535126112853366e+00
3.009046689762699511e+00
2.108553914785401329e+00
7.397847835657392901e-01
4.675675491499863001e-02
-6.960265747416570781e-01
-5.169644016187192603e-01
1.276917348197042612e+00
1.085305324294814966e+00
1.330532920480758552e+00
2.257596435883735264e+00
2.851191360859997470e+00
2.694767717777488247e+00
1.548482288765193005e+00
1.212067734986312484e+00
2.433763530338359793e+00
5.828905249713042247e-01
-5.779185649115090584e-01
6.592491796077059041e-01
7.209820714989947366e-01
4.959453244400621741e-01
1.000860884992813782e+00
1.652751428847535120e+00
4.774911799478508967e-01
1.084899776538948007e-01
-4.344612916005651249e-01
-7.733671253579700311e-01
7.497484299819819065e-02
-1.063908112296593628e-01
-6.442705302460097205e-02
3.664621233498468467e-01
1.205097746531155062e-02
2.780944575183157963e-01
9.306469987353747919e-02
-3.561417364972452315e-01
-1.798454897498634963e+00
-1.669130557106206947e+00
-6.498374462791178807e-01
6.379357682820886444e-01
1.405089643764546148e+00
2.265190109528425477e+00
2.054340593815187077e+00
-1.049964455890153719e-01
1.348277091931988414e+00
-2.934622714271138966e-01
-1.056364027037864695e+00
-6.756873236027191032e-01
-3.477257956350764956e-01
-3.893417953011072963e-01
-1.252981093703473769e+00
-2.051171142968098771e+00
1.116424158520868071e+00
1.174412895583315297e+00
9.455054651235715868e-01
1.148562570292350538e+00
7.433735493103046377e-01
-1.855124466013216913e-02
-8.075042377612119404e-01
-4.412999093500503262e-02
-5.333054840208052427e-01
-1.136900853859165172e-01
1.217001873964921987e+00
1.854493611732707770e+00
1.385037171952491875e+00
-2.590549542984819098e-01
-3.076772130913473791e-01
1.138358715737006754e+00
1.233106265189017670e+00
9.007141758231276274e-01
6.397112062989571690e-01
1.166552483813519281e+00
2.319991381752407378e+00
2.309125514638682652e+00
2.436125704697982286e+00
1.865321132037901286e+00
2.531829385738292082e+00
1.619677760682915801e+00
7.838655857303965524e-01
1.928780752031515222e+00
2.588789873570263023e+00
2.584900326989005848e+00
2.777779439239929982e+00
2.332632752794150388e+00
2.266041970446684317e+00
1.852614291223791287e+00
4.017443577027681734e-01
5.785953787883318933e-01
8.609421834048461841e-01
1.659072744954332990e+00
1.888764174510870752e+00
6.366296151986607921e-01
2.116080060416088759e+00
1.986956657240640967e+00
8.391734731417269666e-01
1.403421739592685680e-01
-2.156223218830257971e-01
-4.639866548704363880e-01
-1.233137068878650544e-01
8.538780923767141928e-02
4.335729945554923637e-01
5.642897118746376117e-01
6.297828612508193924e-01
4.521402366280166674e-01
8.849777563674492420e-01
1.534734260220327773e+00
8.652013592999989733e-01
-8.028317714751552758e-01
-1.025370614556455839e+00
-9.107519286311174245e-01
6.435794145436557478e-01
8.884837799681982728e-01
-2.583157843205127202e-01
7.712976933856710016e-01
2.509598915024930932e+00
3.064683336226035948e+00
3.772289962320452883e+00
3.531549201539952776e+00
2.802153920355387129e+00
2.392984536303705223e+00
2.078671569796521901e+00
1.908021151616036581e+00
-5.475586349367345118e-01
-2.011958506217906173e+00
-1.186797612703115457e+00
-4.339877218871152076e-01
5.219423521723689507e-01
4.560136885506588800e-01
8.764935417233132853e-01
1.490978857214664721e+00
2.294867166090654997e+00
1.521248567154737552e+00
-7.569328930550427437e-01
-2.037493637476557762e+00
-1.976541296889534616e+00
-1.572283581675145259e+00
-1.720196877031826554e+00
-2.020117419786140900e+00
-1.008603916971698156e-02
3.221244304904706812e-01
-1.171784869120462425e+00
-1.738341285042797724e+00
-1.199170260188165305e+00
-1.024905717506229053e+00
-2.601653916473095074e-01
1.438087626311104483e-01
-2.356128047922920188e-01
8.988345039518360613e-01
-8.586205516821505679e-01
-8.396604240702236766e-01
2.843512846344441458e-01
5.381554838181569211e-01
2.006503933398172901e+00
1.732114372975497085e+00
6.765727823556880738e-01
-7.572134230648426279e-01
5.473744878317966800e-02
5.201714472658712507e-02
2.258082294571659432e-01
6.077822474835223865e-01
8.791987105278744608e-01
6.780955768605836931e-02
-1.743216881585882283e-01
-3.072153734081516929e-01
1.583362035001951940e+00
1.695197254537816611e-01
-5.158003985181007778e-01
1.048944198672736139e+00
1.969325846952147296e+00
1.410725682869041986e+00
8.156439820451838463e-01
-3.788933569568740389e-01
2.233849512661069348e+00
1.225158707473551045e+00
4.391857409839529658e-01
8.918626051010521971e-01
8.942066834732945724e-01
1.094799157100726950e+00
5.626018190925771156e-01
-2.491395875728813214e-01
-1.174318906281742736e+00
-1.429459987427744494e+00
-1.004763028556682647e+00
-2.028666866014885717e-01
2.834713659298129795e-01
3.983180209286898282e-02
8.654625597737277687e-01
1.592866650422715136e+00
1.877095736650915780e+00
2.463159158362401957e+00
1.616280938617844720e+00
7.251292637547319675e-01
-5.646169527449931141e-02
-1.767336102164053901e+00
-1.072410860024687954e-02
-1.039571652871648377e-01
1.300207509514926141e+00
1.707793490593721764e+00
8.834949069601781835e-01
7.178955810048104347e-01
5.643707024828232832e-01
8.319180352722231886e-01
1.251720215897054400e+00
1.415502858019389576e+00
1.464218535092279172e+00
-1.407001349069289531e-01
-5.844040122279013927e-01
-6.131680967314689923e-01
2.906584502853117868e-01
2.505659609089401663e+00
2.284807340359125138e+00
6.636515276624846971e-01
2.345889984806228679e-01
-7.856656634592577015e-01
-6.242008431844262573e-01
3.417967586957956216e-01
7.326759542042476925e-01
2.922646138490228584e-01
3.411690287126148413e-01
1.225964806503729632e+00
3.608629298240527916e+00
2.462118935747350967e+00
2.277406430021124528e+00
1.905505409424916419e+00
1.544932253372848452e+00
2.752943791098402482e+00
3.067659702472606664e+00
1.807587129333721787e+00
-2.024087546450564212e-01
-4.802990492037336190e-01
2.135142607018729669e-02
4.555122313821401980e-01
1.624980879770113296e+00
1.311718205319633457e+00
1.912152189143587755e+00
3.233000036582370118e+00
1.382563209989189135e+00
3.599605357412713480e-01
2.767741435633150893e-01
1.346418227972169035e+00
2.445745547499849515e+00
1.028043082214147752e+00
4.270435612999263220e-01
9.539110963043909708e-01
1.810255044191544815e+00
1.546971223323302169e+00
9.461347799650071666e-01
7.027652319696122696e-01
-1.622626488120229582e-01
-5.485772611055329540e-01
-7.533810235457664151e-01
7.369899492938289942e-01
-5.835538352544314966e-01
-5.909869902208840786e-01
-8.055072144391849376e-01
-1.655644054210562433e-01
1.062101162022712098e+00
9.425144110010135190e-01
-5.123651498848743602e-01
-9.361325914483301647e-01
-5.188478169595547307e-01
-2.967873630249127648e-01
-3.971770343270231152e-01
-6.149453794001159546e-01
1.698731705572278650e-01
2.412274270674478749e-01
1.620126491290995729e-01
4.902296505800751714e-01
-5.865499815757611035e-01
-1.771195899335431360e-03
4.077939922770129622e-01
7.188192602308277057e-02
-1.147545496320538705e+00
-1.968978258292829464e+00
-1.900988764615738624e+00
-4.253631824584059307e-01
2.698038342209130747e+00
2.454951923010682435e+00
1.854541079120456626e+00
1.661991752711499348e+00
1.136507835793069798e+00
4.988273875470705665e-01
-1.191140567742228207e-01
4.000838172182073493e-01
-4.041511178515327929e-01
-6.894439441786044398e-01
-2.931694568470166740e-01
9.712317865141223416e-01
1.659873204411162595e+00
-8.098490398846909244e-01
-1.200363294632585065e+00
-5.026465581670340743e-01
8.374825074902479960e-01
5.946811477236003673e-01
5.167420021951576459e-01
1.521367543254373844e+00
2.689849941354303553e+00
3.093083560638745677e+00
2.572785420472236240e+00
1.839524176689449231e+00
1.616467657911493827e+00
1.201633478376927355e+00
9.904567213859404307e-01
1.778724270118321682e+00
3.080968298315482468e+00
2.481100940124523202e+00
1.603381395792916386e+00
1.237858523689136181e+00
1.283940080983537069e+00
5.564914502815945241e-01
1.906403382313423892e-02
-7.481999427114126864e-04
3.836278642152236573e-01
1.204652660556089661e+00
1.062203474430007732e+00
4.119925158384626362e-01
1.767701169208389489e+00
1.459647771114761294e+00
8.439657025304604376e-01
2.886626176380125419e-01
3.826918433535845820e-01
-4.035796318817628237e-01
-6.955749233246469321e-02
3.018870977189572896e-02
8.251002641191707010e-01
1.298237674918502060e+00
1.038480345324564347e+00
7.897321272446690132e-01
1.701653262854360582e+00
2.024354077006200736e+00
1.246111342207315120e+00
6.996037382701249252e-02
-6.800806053779210325e-01
-1.015757468619157500e+00
3.409939634028462674e-01
9.322528892255703692e-01
-2.569875343114862432e-01
-7.592989209138326090e-03
1.382641448691041441e+00
2.321325015395150348e+00
2.383961665254145768e+00
3.300824447958461416e+00
3.057168852166997297e+00
2.105050627377703876e+00
1.594000753594907449e+00
8.282161544370639783e-01
-3.914060734008679709e-01
-1.164408139993379665e+00
-4.255498976873675065e-01
2.380466586485276148e-02
7.646788482562999478e-01
4.015632390191113399e-01
8.077914269473284170e-01
1.165956110457624595e+00
1.619553312810444679e+00
1.450755106937456684e+00
-9.207818064925386847e-02
-1.346335120785440154e+00
-1.871428811164343120e+00
-2.370307502711627823e+00
-2.446385989934956040e+00
-2.008819901154260457e+00
-6.335704256750642749e-01
-3.529470847286266810e-01
-6.752153828337681407e-01
-2.086300388668941519e+00
-2.243900452474465901e+00
-1.583949372945360645e+00
-1.020715473569125509e+00
-7.691847497924837462e-01
-7.091287512137564031e-01
7.819276809533326489e-01
1.055843132812307322e-01
-3.726835745368955455e-01
-3.113603555906185871e-01
-5.306237166212528500e-01
4.458714370017884954e-01
8.182850122696729844e-01
3.245258458404892687e-01
-8.101369937944160604e-01
-9.109833914613415518e-01
-5.361044179645926278e-01
-7.803059968400393176e-01
-7.038142773813299558e-01
-3.211925390884795561e-01
-2.892422592917554547e-01
3.117867888394747489e-01
5.180105517586462982e-01
9.300493774678741943e-01
-6.284825410565062498e-01
-1.849454981366034145e+00
-1.253277194261208871e+00
2.030728066252038555e-01
9.175309588413997908e-01
7.959056489220989183e-01
5.094663665277222586e-01
1.327800772642461880e+00
4.025076139599577663e-01
-4.361573530213674887e-01
4.257528836530184435e-01
7.988885898769042537e-01
8.938727506730927974e-01
7.134351464178979585e-01
7.286371767378506392e-02
-1.932655157454274519e+00
-1.726876892056680601e+00
-1.156478245453833154e+00
-6.979846797283111304e-01
-9.763780697718867918e-01
5.215866320582241561e-02
1.085706473154157026e+00
1.881002785054510129e+00
1.428517018029865415e+00
2.572220128271534456e+00
2.366530117474872519e+00
1.868626586700848469e+00
2.210616878353839354e-01
-1.024937384660932427e+00
-1.621415007008125131e-01
-5.077607763620618497e-01
3.261276363444664400e-02
1.055221523192735766e+00
8.059137327265383233e-01
1.019097338924577878e+00
8.598631454896044080e-01
1.073438315148197653e+00
8.648062738611786981e-01
1.120393739953599477e+00
1.289340578162915252e+00
4.901862187761626966e-02
1.461561250006796486e-01
-5.530322441324799776e-01
2.850453626001412943e-01
2.233449452717002792e+00
2.417326558168899631e+00
1.562116571986520208e+00
1.211110353785891158e+00
3.484187455495071917e-01
5.045289713487308703e-01
8.568794349944254263e-01
9.973736005433621044e-01
5.380466450675578383e-01
6.183775917703343561e-01
9.493393671558166824e-01
2.088794644109885468e+00
7.866528886956388744e-01
-4.224801407688104360e-02
3.218972677323092002e-01
7.764950076370512599e-01
1.509103782911261682e+00
1.602150116071462405e+00
7.185382529534702911e-01
-1.065085938130295173e-01
-4.510965129269009499e-01
1.219108987244437031e-01
3.131262358759870912e-01
7.082325093106393021e-01
5.813187113849693777e-01
1.688091302690942985e+00
2.783465736598350393e+00
2.032159413583110474e+00
8.581506960077679436e-01
3.091446606043324330e-01
7.829906243866318061e-01
1.856025407649334324e+00
8.953068709916170986e-01
7.033016358713343186e-01
1.693732712687548103e+00
1.387421373825662663e+00
1.001253821685069267e+00
6.540568709556201510e-01
1.590439666315231759e-01
-1.018812274583257738e+00
-1.274360508364109190e+00
-1.158194603656837796e+00
1.317476186310206632e-01
4.493057319166480212e-01
2.097520751461556532e-01
-2.842090613301698765e-01
3.455551718658199101e-01
6.535680116229054537e-01
4.551565002589606501e-01
7.672227435415950314e-01
8.400002857896465835e-01
9.059963968252909838e-01
9.729306070097710757e-01
3.773510753256449912e-01
-5.408908760446300423e-01
-8.096721704673850439e-01
-8.104915361531792595e-01
-7.465279167746249334e-01
-1.789489600340187669e+00
-1.119069701778975912e+00
-1.179578698780611834e+00
-6.478578528836390626e-01
-8.106844645038684405e-01
-1.853597176920040557e+00
-2.521079216906247922e+00
-8.132075289268571039e-01
-5.208587984032235774e-01
3.340654639504678336e+00
2.359231147493350278e+00
1.203771959074133369e+00
5.827036726316699999e-01
6.070273402619739134e-01
6.054648377499655121e-01
2.798226134757956785e-01
7.956942354242374504e-01
-3.327345490755914681e-01
-3.197326892392181596e-01
-1.027022226218870626e+00
-3.600631035508503053e-02
1.004632481858693360e+00
-7.352737936209150504e-01
-1.090050459401766814e+00
-8.443547958925146091e-01
6.242499573659938683e-01
5.864782462612631031e-01
7.297984618475769070e-01
7.617483766188156702e-01
1.556901578446615808e+00
2.018641389265820596e+00
2.784898089356228290e+00
2.858905375283976369e+00
1.909914412667753192e+00
1.485721926580674701e+00
1.085692490270218524e+00
2.847836405462304210e+00
3.962347404820638630e+00
2.774336699800167061e+00
1.213185182316618205e+00
6.153700038333781430e-01
1.214986867424197703e+00
1.296317994382067074e+00
6.293289860895513455e-01
2.838362034326130656e-01
3.858467224095048498e-01
9.949028400737399691e-01
1.368516359959085937e+00
1.106399818824232106e+00
5.826917942529969974e-01
3.442621583870082991e-01
-2.229389559990333225e-01
-3.423213872341445141e-01
2.926829943619689914e-02
-7.319327997309876821e-01
-9.406905512724588192e-01
-6.679157675053906118e-01
1.282647510225139342e+00
1.603848675234758270e+00
1.424356319691319150e+00
8.207183994675574246e-01
1.740961138419685694e+00
2.085203565928411162e+00
1.931588165265333279e+00
1.406238166082166341e+00
6.113937519234837747e-01
-1.201366321653152935e+00
-8.231670454446731178e-01
-7.283084918330420821e-02
-2.870628274355099263e-01
2.503025277469514975e-01
6.074289891174126099e-01
1.670127408302460426e+00
1.316195265259010538e+00
2.534323348584262892e+00
3.164960458245156261e+00
2.413534565299058077e+00
1.066582735910440727e+00
7.051721808749594755e-02
1.085654969966224792e+00
3.838290513703602747e-01
5.648426325613399301e-01
9.153566961798991208e-01
1.477947015438012324e+00
7.530084041965129371e-01
2.117051268989818824e-01
7.841495213748695958e-01
4.578588425169798914e-01
2.855140755422382881e-01
-8.478993538089631965e-01
-1.697428816524869877e+00
-2.346028411865061170e+00
-2.899913691974539631e+00
-3.333209472259672790e+00
-2.662622771180632064e+00
-1.448711289846196459e+00
-9.559236831282645896e-01
-2.647259106203297407e-01
-1.500474752429928005e+00
-9.425547644425303906e-01
-1.210993351717224026e-01
3.238022697889195722e-01
2.002471346876021074e-01
1.400596929938494051e-01
1.134122248468596883e+00
6.797402698007460886e-01
1.094016523248914768e-01
-2.982518324634103601e-01
-8.348392035607089534e-01
-5.339676402908420938e-01
-1.201466757991004330e+00
-1.578776899821083823e+00
-2.064488932642562613e+00
-1.307414037154527309e+00
-6.435968503299737131e-01
-1.578459525352719162e+00
-1.999106681749964309e+00
-1.460921230982439756e+00
-1.299148244875889979e+00
-6.141907872271263891e-01
-1.829687518709062488e-01
-1.062058132593638321e-01
-2.155341074435390691e+00
-3.040498979878535568e+00
-2.237307204680452077e+00
-6.067623635769724411e-01
-1.142707169458728328e-01
3.116964163672630295e-01
1.303983164708521825e+00
5.316970201323910628e-01
-1.638104860799792228e-01
-1.358063928266306508e-02
2.903743108728691902e-01
8.178928958013710337e-01
1.087570543914004872e+00
1.405536652237360906e+00
9.471935746788815447e-01
-1.302522536596771641e+00
-1.091891514166132060e+00
-5.822826395836270263e-01
-3.069776250741100276e-01
-1.759926157941728686e+00
-1.699031548261845659e-01
1.363048643330564413e+00
2.364995246759754366e+00
1.404084039275427020e+00
2.270279800311878482e+00
2.299460743164521759e+00
2.675774092898653311e+00
7.192313162809481630e-01
5.025660090825144755e-01
1.307423780496175691e+00
6.511378479972252942e-01
-9.113603184714160754e-01
2.268286496351566706e-01
7.654859352485536839e-01
1.565895219649509951e+00
1.453335320587585411e+00
1.745628878636318770e+00
1.896482810650366391e+00
1.835724674339897389e+00
1.680515923285106572e+00
1.509819725224897047e+00
2.074872493462559309e+00
9.435028667002551828e-01
1.456844695337601969e+00
2.350853619229349878e+00
1.845912606781634491e+00
1.581887580238571234e+00
5.103532051575370154e-01
1.858933880179691744e-01
1.621232973231652164e-01
2.553394034222588593e-01
6.093512123557010690e-02
-5.996963956686085506e-01
1.743602133520480990e-01
5.404617919743754939e-01
4.755532002554027637e-01
-1.347798410691325444e-01
-8.670324191777728506e-01
-3.302665753902407908e-01
6.973166814631481802e-01
1.166196998411092256e+00
6.701010353648602091e-01
-1.527643419606906916e-02
5.397183055390633588e-02
-4.300723847776267705e-01
8.790495001375241146e-02
9.692583639016607577e-01
7.026599281685819154e-01
1.866463267541751681e-01
1.083808762797940917e+00
1.886975420509416468e+00
1.107942586577348232e+00
2.620858324390563099e-01
-3.940387834734062067e-01
3.236759247198999767e-01
2.197616366410748423e+00
1.350408590377695228e+00
8.872073552048415079e-01
1.211644611454126386e+00
8.270255376127366720e-01
4.998543661640252322e-01
9.107508500830752141e-02
-3.400041153842784936e-01
-1.162574162081394080e+00
-8.535351372712405293e-01
-1.549053374013876772e-01
2.691630841657717821e-01
8.170311966246472934e-01
9.685090147823338658e-02
-3.105416338261031695e-01
-7.623342877683324526e-01
-6.660126414533638073e-01
1.115286191094700285e+00
1.392232178861835701e+00
1.822572111247026561e+00
2.127297044761958800e-01
2.425248023144655971e-02
3.797849543873410560e-01
8.567858039437410422e-01
-1.098921270019092844e-01
-1.951355394380993369e+00
-2.542459558217339488e+00
-3.143959481915268306e+00
-2.273802864086937880e+00
-1.315720769310578797e+00
-1.596419890794452456e+00
-2.633059581974395158e+00
-2.895990250917478637e+00
-2.128627136517846186e+00
-1.059818815166570172e+00
-8.525799667096031209e-01
1.525945846333019551e+00
1.149482997469804202e+00
-4.536079045382506933e-03
-2.871856273714635810e-01
-3.999388805854762197e-01
-6.781528661025876259e-02
1.767081157438272765e-01
-7.886517856072891575e-02
4.138561636628056428e-01
4.984658775140420051e-03
-1.212669199061464642e+00
-1.119517232778038718e+00
-1.175706156800530033e+00
-1.082555624939766092e+00
-3.591679416921332857e-01
-3.127974596529773388e-01
1.012476742483893410e+00
7.776875322902695453e-01
1.596618513399208794e+00
1.506904631228792590e+00
1.536966873243952536e+00
1.825424212236129717e+00
2.449393910832217358e+00
2.404167183167830402e+00
2.368965755674986351e+00
2.006344496137692612e+00
1.416445560593654562e+00
3.279272942363915533e+00
4.106609038762575103e+00
2.691032233023075371e+00
1.685713658287573358e+00
6.350139890333791337e-01
1.869623881158833267e+00
1.683025741404638564e+00
1.362671819028960396e+00
1.073005712672570500e+00
7.481809828991969891e-01
1.270964807300059896e+00
1.815942690150648797e+00
1.864430327571439117e+00
-5.439164201867795895e-02
-3.615279219660537668e-01
-3.971762034360213356e-01
1.030614269790480902e-01
6.162413540559908975e-01
-3.484617980042589713e-02
-6.807399065972141727e-01
-3.049143944942571682e-01
1.195630996270237612e+00
1.156045389422917014e+00
8.090218539669897790e-01
5.571578865752555565e-01
1.107266098450228720e+00
1.723219884534927138e+00
1.648819798251836444e+00
9.823338606898636138e-01
1.018921684565729624e+00
-8.683621841976860156e-02
-1.333898728303346548e-01
3.813904358113512361e-01
4.277796502019912128e-01
-1.207969118951670584e-01
2.220011927341320468e-01
6.134588579810812403e-01
9.826678507783146443e-01
1.526441135283218342e+00
1.752131327849232978e+00
1.350008804287927022e+00
6.181540706803699825e-01
1.968451078129269449e+00
2.773921851240487957e+00
2.102966877073576768e+00
1.274280846413026191e+00
1.557295122919155173e+00
1.351506806772471592e+00
1.107683505554464043e+00
3.800767836929369037e-01
8.344640505565461552e-01
6.779104008476904975e-01
6.165803514494571091e-01
-9.888974086724714452e-01
-1.793020215894819636e+00
-3.053069353239558748e+00
-3.765918774495551791e+00
-3.914931364537618919e+00
-3.323180196394414310e+00
-2.417397042634992221e+00
-2.025211646204843952e+00
-2.158562284234409046e-01
-5.824175808887392947e-01
3.596256261374638497e-01
1.695925228487052294e+00
2.336137290539510136e+00
7.621515974423469508e-01
-4.534236663417303137e-01
6.671523285833337313e-01
1.219251172675652084e+00
9.970777125160071863e-01
3.766054659894271794e-02
2.227217632891272114e-01
4.506895592218828489e-02
-1.630497112303438190e+00
-2.527829888451025742e+00
-2.337467819478772579e+00
-1.865115411403261980e+00
-1.424246747783784794e+00
-1.722189969931681386e+00
-1.678925986930302372e+00
-1.014747230933636946e+00
-1.661691935205406478e+00
-1.922742406101700441e+00
-2.115638466396801309e+00
-1.325905258760535554e+00
-3.612198495969529688e+00
-3.305440560009663464e+00
-1.712112828383096863e+00
-6.990717122238278292e-02
-6.318110577030224828e-01
-4.069118000308420413e-01
8.941187335822412541e-01
2.378811991136886572e-01
4.078881980745286961e-01
4.684262362426284132e-01
8.792398929615142800e-01
1.553465175763304007e+00
1.052737026256827413e+00
1.151192252594355425e+00
1.179493171681127439e+00
3.513940350197688328e-02
3.930343560218661492e-01
-8.119324748182596418e-02
-2.379280293805098034e-01
-1.581952593324651435e+00
4.025200952387883446e-02
1.916562825210065046e+00
1.360314140707775232e+00
9.132942359431797108e-01
9.699731863298427514e-01
9.049243520095887616e-01
1.763225371625632310e+00
7.961306354457807766e-01
1.283551463085256250e+00
2.301458876119481189e+00
1.658155824847486803e+00
4.222973311082925396e-01
6.497981152038178054e-01
6.251495369838084848e-01
1.560962181589505171e+00
1.594929643413924403e+00
1.904970335444713836e+00
2.035415510917424342e+00
2.746285699693751248e+00
1.877739495138478487e+00
2.111779197419311416e+00
2.629940240877996160e+00
2.196841942488405586e+00
2.161330759155325243e+00
2.631029430082404197e+00
1.251086346998268040e+00
5.019928526156625104e-02
-1.803956088114530842e-01
-5.337528575750136728e-01
-3.349571385159559878e-01
8.562257528703946796e-02
1.031828201852457404e-02
-1.582908092932482358e-01
4.759404674804852409e-01
1.188360981308397069e+00
-1.234377429575063828e-01
1.039686665961866846e-01
2.834895509573127637e-01
6.593265990052692427e-01
1.652914411074098977e+00
1.556662106870642770e+00
3.278605022473284336e-01
-6.502420310175131002e-01
-5.117788441521312626e-01
-6.515225672527705791e-01
2.878885187733953299e-01
9.679909607857253295e-01
1.317191309854626624e+00
9.438280017015826528e-01
7.985631827215313727e-01
4.557120270272678741e-01
1.882181895022854712e-01
-2.928688304984605750e-01
-2.566007944919096451e-01
1.534478298177851086e+00
2.400899363958264310e+00
1.828286501162687427e+00
1.319007650433288381e+00
2.027259456042107555e+00
3.963484930520686511e-01
4.840506398280257638e-01
6.359351185471594503e-01
2.926645813451234091e-01
4.928326894659543905e-02
5.828970413375973436e-01
8.619293747758758339e-01
6.877622043354996162e-01
-7.500991570035026035e-02
3.013729140926799666e-01
-7.234636014088597911e-01
-1.743817632358057201e+00
7.722079784234982258e-02
1.198748529259093809e+00
1.960293189537398950e+00
1.726087281551263342e+00
-3.496328696266989278e-01
6.838476891129867397e-02
5.126759468582569035e-01
9.351083106770579079e-01
5.334876329414194318e-01
-8.524725359165030714e-01
-2.022176848131138183e+00
-1.836805872652483407e+00
-1.111525051555400712e+00
-1.502936010683866508e+00
-2.457324838181194959e+00
-2.968962472134859087e+00
-2.906123275273498674e+00
-1.152071372275663919e+00
-1.005268944902095285e+00
-1.562672451067453672e+00
-6.273702589353299386e-01
-1.035083512214911128e+00
-9.445797931116364232e-01
4.280200897946600386e-02
1.615401159291946220e-01
-2.801969032685874827e-01
3.587826357790239173e-01
5.873683940983256413e-01
-6.496195611822107308e-02
-5.310380299829914330e-01
-1.124168141044030733e+00
-1.546656219236919538e+00
-1.368340143972768708e+00
-6.841087126847824607e-01
2.953148910157579188e-01
2.610498762761813141e-01
1.757883346296992721e+00
1.360286610280398545e+00
1.708141687271541587e+00
2.719672266529608695e+00
2.343915101199493645e+00
2.582027562940067522e+00
1.899377869737306046e+00
2.159386344957334725e+00
2.217302348340264295e+00
1.147270110146799915e+00
7.759195434798529245e-01
2.326885241889930178e+00
2.982651547588811791e+00
2.575925048945384432e+00
2.535260918775112060e+00
1.279627257623006553e+00
2.300833174973410333e+00
2.381328090907025352e+00
1.739401060568706914e+00
1.395143733051852353e+00
7.386055017345577456e-01
1.461067530493674049e-01
9.274981548978310508e-01
1.230193058657851557e+00
4.474714368748623078e-02
-4.880377652812791789e-01
-4.455822826581948282e-01
3.078324513001610696e-01
1.470598796001225450e+00
6.241494510771626869e-01
-1.697533999716021313e-01
-3.734805127882660503e-01
1.915152808040947452e-01
8.028445536939533556e-01
-1.078019735013782954e-01
-3.059471147516609757e-01
6.182695949604265495e-01
1.743737125034821922e+00
1.764518888782831141e+00
1.311379326012084956e+00
1.515636393443537511e+00
1.244628422192891826e+00
5.912466563028503375e-01
7.628371486003696633e-01
-3.678743582269299872e-01
-1.665037387021643722e+00
-1.824670231496199557e+00
-6.896216025658646886e-01
-8.587880459476585071e-02
1.075305023662140314e-01
2.981432986697895582e-01
1.257860245470797445e+00
1.138071587978388477e+00
3.097784310617462289e+00
3.438563772315676559e+00
2.466778819743170814e+00
2.151370601627594858e+00
1.979795666830712841e+00
1.220947360885183297e+00
9.952622932454883165e-01
7.990362517218947414e-01
-1.920417936561111816e-01
7.918920868433445559e-01
1.573223962112936025e+00
9.844647984487529813e-02
-1.002081076007578231e+00
-3.080686999760956279e+00
-3.746585822217689543e+00
-3.445911885391818252e+00
-2.031972777587678802e+00
-1.557892645530056797e+00
-1.645325721288770859e+00
-6.401260388618028596e-01
-6.624742717275423631e-01
7.254006793528479102e-01
1.852718040769012475e+00
2.589185630430574481e+00
1.469020377830396962e+00
7.896317318871484137e-01
1.089505965068923388e+00
1.162619797350382900e+00
1.072497006521490936e+00
2.366663911490868855e-01
9.550044974995915981e-01
1.159242908208244272e+00
-7.706828581525216881e-01
-2.004685424100519420e+00
-1.710822965990221878e+00
-2.140687279382881503e+00
-1.658942802246054837e+00
-1.487489128940858718e+00
-5.386840184448120628e-01
-1.471310915018851362e-01
-7.427338340055906762e-01
-1.683464437617726794e+00
-2.210087747759238219e+00
-1.675312933938361670e+00
-3.290031920862218850e+00
-3.181516815146664179e+00
-1.592121916692089911e+00
-4.882672264999772249e-01
-1.521076921918516955e+00
-9.565409962108047948e-01
6.268607969073497488e-02
2.223696506940270878e-01
5.020332744414849335e-01
9.760583517683030230e-01
1.725697805985535460e+00
2.071424021629897361e+00
8.125638766773362054e-01
3.222318679028511323e-01
7.068048492029894714e-01
2.837394270667876750e-01
2.886575866216696817e-01
1.116522997212418371e-02
-5.677126038292755750e-01
-1.314119126755465272e+00
-1.049580401546666153e-01
1.196280862045954185e+00
-3.286755552528318747e-01
-6.739667092801426840e-01
-1.622887592075003660e+00
-1.199202873649288348e+00
1.384323630272558114e-01
1.068073198142485802e+00
1.182224444764606197e+00
2.076700801034861765e+00
1.560921757216811923e+00
1.729444995165148935e+00
1.258868400467054061e+00
4.073312453979093251e-01
9.647543377931729891e-01
1.007496950247149137e+00
1.311393019084685641e+00
1.061721393073225661e+00
1.139688131559009943e+00
1.033797074812499384e+00
2.163866977039338835e+00
1.966899017424732943e+00
2.203716054085182563e+00
2.687246165954113142e+00
3.344005930625422618e+00
1.832766403265737587e+00
7.504971626044778521e-01
4.662789304638227383e-01
-2.079715461380264863e-01
-9.164210685191237493e-01
-2.689061683260132729e-01
2.072388308201360829e-01
5.804515984978064758e-01
6.482532551054065451e-01
9.271287166113013622e-01
2.408347136088413443e-01
3.174719004207035566e-01
4.654611049158121072e-01
1.246741701969620753e+00
1.475846412169555588e+00
1.419699713628676419e+00
1.485123760273562021e-01
-1.087906708894232244e+00
-1.929311249614918511e+00
-1.579797168347034653e+00
-4.555431859723947374e-01
5.659105426120316640e-01
6.845170381148197869e-01
1.321999130261902966e+00
1.859225763472748039e+00
1.008188494595473994e+00
5.037205729817522126e-01
-4.873121650388545500e-01
-3.839044159207725682e-01
1.075439292137664760e+00
2.092090137199819733e+00
2.152080842091209867e+00
1.349909817883309993e+00
1.853321217628065343e+00
7.713938635838252234e-01
1.074075961372608745e+00
5.623976956980184516e-01
3.409413388781856180e-01
5.459331571815683182e-01
5.814006085910019550e-01
1.702227997603758258e-01
-1.164504750533665728e-01
-1.198270525139371490e+00
-1.642895776379110551e+00
-2.523244639472133510e+00
-1.462253378592646369e+00
3.731361373352369837e-01
1.073443849129082528e+00
1.322590116090159862e+00
1.345785770606389820e+00
9.831045963539600807e-01
7.639718218986323306e-01
-3.659507959145285039e-01
-1.163013377241011725e-01
8.152480570156768191e-01
5.655123524099973098e-01
-6.256789076955058260e-01
-5.426470863411495538e-01
-1.569790905147191662e+00
-1.749905920951026150e+00
-2.321692496576853948e+00
-1.742318071249583822e+00
-1.180586566759547207e+00
-5.245908482899438452e-01
-6.148466683131172811e-02
-7.995785287636687499e-01
-9.782431325881374429e-02
-5.975122853035563786e-01
-8.808221506159479297e-01
-7.116205555948469652e-02
1.748644266335492026e-01
1.109480491718256995e-01
9.763623662936008474e-01
1.297256594905824123e+00
2.720488852429335802e-01
-4.463987270902946558e-01
-1.368432588583522680e+00
-2.308337620868305962e+00
-1.766114776852902413e+00
-9.016775653542765667e-01
-6.960928735339774742e-02
6.433250832034844713e-01
1.950651974220444673e+00
1.213050654848461418e+00
9.995238542695248363e-01
1.195479940285122389e+00
1.949291108243138781e+00
1.769642451964905661e+00
1.359441255044142371e+00
1.970198005620083848e+00
2.319951557656836361e+00
1.767150442070596128e+00
1.002926135061639412e+00
1.195104201354147078e+00
1.278528807563138026e+00
1.442622601294980988e+00
1.886456228722171335e+00
2.473876762473412150e+00
1.717758864237280747e+00
2.053434032830775191e+00
1.539077498108394559e+00
6.556355642070648138e-01
3.267231913149548639e-01
8.535663336181380234e-02
3.635260056801604186e-03
-1.374637559555518251e-01
-1.568885298660523675e-01
-7.529945812803041927e-02
6.721459253462144789e-02
-2.951503935894068120e-01
4.958399006031207201e-01
4.865395458560939357e-01
1.667383749276456495e-01
1.824977739121836362e-01
-5.429127774103706949e-01
6.410116660315040571e-01
1.197654416694605983e-01
-6.410977297758368998e-01
2.087420564867198125e-01
8.352390269802580924e-01
1.882701669859391247e+00
2.177466753502328434e+00
6.428833028220769519e-01
1.288298595785352330e+00
1.091662613827862449e+00
5.423094232531010528e-01
-1.115202841627090491e+00
-2.148368936151894282e+00
-1.839130861429099317e+00
-9.651234023949455398e-01
-9.175864791868051928e-02
-9.180294918529853521e-02
1.596392133730303864e-01
1.142316198198478183e+00
2.243581227284952018e+00
3.861095032709243036e+00
3.387654908424732270e+00
3.159804167865221114e+00
2.132605130598924870e+00
1.644634921223495638e+00
1.177673635593758927e+00
1.879654233638797800e+00
1.765039353393885957e+00
1.558905861296835671e-01
3.755233860372038657e-01
7.679936436430286895e-01
-3.322884297828217481e-01
-7.122683927696662476e-01
-1.597743326323369795e+00
-2.247487593761727354e+00
-2.080933964368945510e+00
-1.036625093408743536e+00
-1.247284994793449009e+00
-2.057665555615006081e+00
-5.894111024967303436e-01
5.285179839428864185e-02
3.044989967065352410e-01
2.124953549759120985e-01
1.931076676848854312e+00
2.071692515291617909e+00
1.732658338798396036e+00
1.062287238688565338e+00
1.228125775316903923e+00
1.354474347031045633e+00
3.615042586805640168e-01
1.297185525228602199e+00
1.229862706569745168e+00
-7.692467848572762668e-01
-1.777045674666370312e+00
-1.414254565726384083e+00
-1.765910337413156395e+00
-9.491053180119661814e-01
-7.921561642590173591e-01
-6.043567224670350901e-01
-8.361914307757140064e-02
9.153747727105075727e-02
-7.728902666710215641e-01
-1.136706219414403529e+00
-4.493762802691181335e-01
-1.960346190889442175e+00
-2.352397284387278020e+00
-1.295795213960894587e+00
-1.117431024997601829e+00
-1.763152247426286845e+00
-7.253409318599476352e-01
1.273264262907525812e-01
-6.779806784961549260e-02
6.622695652279866341e-01
1.044398008907670317e+00
2.114740864896589745e+00
2.070944147588436479e+00
1.185468712667853364e+00
5.513079326901987320e-01
8.824226307504797751e-01
-1.346397553996526303e-02
4.383879250242619929e-02
-7.907454850368094146e-01
-1.481994623340299633e+00
-1.270661910811091477e+00
-1.192354216345722223e-01
-9.645650697360495796e-02
-3.648396235089909623e-01
-1.039166969288843223e+00
-2.444558143295754160e+00
-1.962548717630723250e+00
-3.020837537556234076e-01
2.198033740724699037e+00
2.124306460777781513e+00
2.408977444910002319e+00
1.686418178801763812e+00
1.545805908192880107e+00
1.122122907016990023e+00
5.885411429233641245e-01
5.457439119980619369e-01
-2.514622704543840737e-01
2.987420380375568896e-01
5.382437509517262741e-01
-2.077608861606093302e-02
1.173799738852512098e+00
1.229672391139518428e+00
1.880651970639782844e+00
2.131603698075760001e+00
2.695616776701984740e+00
3.092038404726666911e+00
3.143970466633501104e+00
2.095575517749385330e+00
1.727723932443757660e+00
2.663363954568178094e-01
-3.904465501169402386e-01
-2.115476174846894764e-01
7.062256123792399753e-01
2.243319092391736547e+00
1.837269669453501120e+00
1.570697408585207011e+00
1.034314438373806322e+00
6.851685419172849345e-01
7.219861833880063529e-01
1.145282535013465219e+00
9.044604588433586834e-01
1.110113812572147918e+00
2.184547814826461321e-01
-1.254582659758320284e+00
-2.603603674001136348e+00
-2.498289256730843455e+00
-8.013098938810887528e-01
1.312343773844365513e-02
1.029743794169369897e+00
1.559550023587318757e+00
2.689899914048465401e+00
1.176431904689882124e+00
2.435589736780905401e-01
-7.176876976268995456e-01
-4.066952786593718283e-01
2.391119922951408794e-01
1.016040273304764430e+00
1.031278019162537252e+00
1.996429849814566060e-01
1.068151302651404733e-01
1.603309949346095609e+00
1.573131934775233054e+00
8.684027929543466362e-01
2.499097136648309736e-01
2.030887679263752160e-02
-8.011826712783411963e-01
-9.302664760334821148e-01
-1.311807630727834795e+00
-2.682398694142221096e+00
-3.168473502507473061e+00
-2.269360025538156300e+00
-1.966320426946517763e+00
-6.277513638895941828e-01
7.445367115106042710e-02
1.208479134616707418e+00
1.127285232176209684e+00
2.753526788408219073e+00
3.264323251633529099e-01
-1.097133174839759917e+00
-7.865119941269350656e-01
1.862393242969791585e+00
1.481911038944138337e+00
1.292265119627374059e-01
-9.771765698453688254e-01
-3.261027428632312652e+00
-2.379173378474686018e+00
-1.823792477431327219e+00
-9.401845895889960891e-01
-4.473252273345839636e-01
-4.124293297019642757e-01
2.246711931851640420e-01
5.275541902508146253e-01
1.088534689337651296e+00
8.783618793748132481e-01
2.136705984881832193e-02
-1.333174492412431356e+00
-9.427904277229202101e-01
-4.339104820589925054e-02
4.473733959724383036e-01
1.176297966197366707e+00
-2.101020316221344775e-01
-5.685164910866619126e-01
-9.974776578161401730e-01
-2.141276181110808086e+00
-1.524233478843143086e+00
-1.480271945553260471e+00
-1.783932263701656362e+00
-4.318356460805738983e-01
1.512351415552714018e+00
1.230672373831237731e+00
1.333521034388940492e-02
1.268658928980082312e-01
1.369944490775545587e+00
1.881217454275544654e+00
1.405879375872561621e+00
2.315465242437824145e+00
2.455525993047014133e+00
1.545334077121024663e+00
8.113030002313608158e-01
8.361661101612542779e-02
1.599511138707601920e-01
-1.191462291109553762e-01
3.047060254068536533e-01
8.943814569837338357e-01
9.551132612782362585e-01
1.485159941051390264e+00
1.247461275543966686e+00
8.874477902862404344e-01
4.960943143302337655e-01
3.590655752354102725e-01
6.195633090142798061e-01
-5.480681791321728724e-01
-8.621878330650053490e-01
-8.373869676291815223e-01
-6.392348021361341504e-01
-5.667395399687230606e-01
2.274724917622421641e-02
3.358178852740960618e-01
9.573113071331038615e-01
8.028500230021466955e-01
-6.857240026486526030e-02
1.102741450690846836e+00
1.226852040947399081e+00
9.301029450212680016e-01
1.073822716644186492e+00
8.419815860774638727e-01
1.114713447224308540e+00
1.484158167100033232e+00
-2.342807394971096469e-01
1.777487836523982401e-01
2.633400672752771454e-01
-5.219984442283809312e-01
-1.693484733027180500e+00
-2.170079338911736766e+00
-1.085452312646900452e+00
-5.292419127596538209e-01
-5.295584616407820189e-01
-3.091376738342540009e-01
5.666259368666075324e-02
2.197819888658541831e+00
2.340029751922763523e+00
3.173904466325839557e+00
2.411701625584269149e+00
2.595325821351078588e+00
2.014943240137617497e+00
9.934767640962139934e-01
5.850536609956151768e-01
1.097759209827562588e+00
9.023122254574452716e-01
5.698702982975990539e-01
1.669230270260618099e+00
2.383248659003033065e+00
6.419621343262313928e-01
1.665739465749351556e-01
-3.906527767437700249e-01
-7.252586901750840420e-01
-1.057486383649708594e+00
-4.871167256336135787e-01
-4.886185347187985140e-01
-1.179265954926573823e+00
-1.977623164840218786e-02
-1.350509225459129055e-02
-4.039673109182210786e-01
-5.106697376867167515e-01
7.743306026627155836e-01
1.861525493324547309e+00
2.160214636812750832e+00
1.710144931599330453e+00
1.256918411077791342e+00
8.978693128750597774e-01
1.664796600549748318e-01
7.101469115560112844e-01
-2.996514464993454419e-01
-1.404272296828600330e+00
-1.701981326533760441e+00
-1.420364720266898750e+00
-1.967560651179560693e+00
-1.042872328174361707e+00
-5.415839483614439676e-01
2.225365847714247947e-01
9.946848286330149669e-02
-7.940601594364235516e-02
-3.481650326941080342e-01
-5.851601394506028564e-01
-1.540058188770838110e-01
-9.212868836032178654e-01
-2.128690670869366031e+00
-1.470264467200047331e+00
-1.699291338293746234e+00
-1.540822139742382690e+00
-5.001546273648400653e-01
-3.575776188983855602e-02
-6.352655340840563936e-01
-1.197018496164858753e-01
9.035485652664404510e-02
6.178826468462893517e-01
9.515879760596022141e-01
9.156242585977315551e-01
-5.320993866500326464e-01
-7.299788062531140653e-01
-1.018286870649232512e+00
-1.486493233555724380e+00
-1.203648925278773429e+00
-1.015586090243480122e+00
-7.044148099761087245e-01
-9.701739544402021576e-02
-3.409523570836828221e-01
1.181881249594362027e-01
5.873785493073254704e-01
-6.219202388248682434e-01
-1.058858667578222779e+00
5.100054785239677840e-02
2.131403044909284450e+00
2.357967732391113014e+00
2.888801831455228175e+00
2.689053667405848280e+00
1.456575592139814024e+00
1.911723387586697687e+00
1.180635117995596950e+00
7.769885870571977549e-01
9.237103452192294561e-01
3.812977355813396696e-01
4.452074297228655331e-01
9.261256831632246056e-02
1.009736401030114417e+00
1.047660171382447603e+00
2.331365254107661933e+00
2.494035037542641220e+00
2.357989628571419694e+00
2.339187194632540212e+00
2.136228176928724132e+00
1.986451072501133952e+00
7.026072351481493783e-01
1.323947734590746050e-01
1.845573573128527489e-01
-2.160629838224815968e-01
8.308439914638784396e-01
2.581342017937962030e+00
2.909024518499567336e+00
2.654526642950532533e+00
1.763515001996506681e+00
1.580566653123986809e+00
1.565910731883396245e+00
1.072222989110646507e+00
1.217547663331631780e+00
1.436282414906799643e+00
7.730028941827945532e-01
-4.400330848031098752e-01
-1.642214101745250066e+00
-7.929581274529181600e-01
-1.401827099759014525e-02
1.055762295254381478e+00
1.111915304217775402e+00
1.740340448168762544e+00
2.702191674725818782e+00
1.386764059357569856e+00
2.633683139155536534e-01
-5.416736404073656946e-02
4.170869712763939363e-01
4.795092305320898252e-01
8.661938923183361005e-01
9.315787198666833913e-01
-3.700211790878904505e-01
5.419605039804572394e-02
8.832537960211159778e-01
7.034168878616481324e-01
8.210696962472914251e-01
2.400767490157349193e-01
-4.419507346551437288e-01
-1.267167827868705077e+00
-1.127229644822147714e+00
-1.497623659806232688e+00
-3.234112101401125816e+00
-1.952707427475805835e+00
-1.468085024910365854e+00
-9.441998196597661819e-01
-1.116668941930124559e+00
-8.388677261820640663e-01
5.733956493012554168e-01
1.004708759186996536e+00
2.101150517783288763e+00
4.570797686421775308e-01
2.909028122466933985e-01
4.934374099908071520e-01
2.159974171790229658e+00
1.590050857521954297e+00
-7.216975066579203735e-02
-1.610946826078782257e+00
-2.773013396310212375e+00
-2.514958567961512070e+00
-1.580105275132023701e+00
-9.558298234004525273e-01
-1.299459365175883452e+00
-5.109697348604116396e-01
5.270390787584257053e-01
6.777371063190094080e-01
2.088106197619649329e+00
2.033081618625564246e+00
8.736090459092179517e-01
-1.642483882975244613e+00
-1.545485749942014042e+00
-4.650030476288966597e-01
1.863314481451950611e-01
3.527696440919384502e-01
-1.936593130484634551e-02
-4.101645380546025121e-01
-7.019598072113726328e-01
-2.114414040300600206e+00
-1.782033125536460982e+00
-1.422345591676509535e+00
-1.885019086838793045e+00
-6.372788438569741976e-01
3.196229382445104350e-01
8.481649354846544364e-01
2.692741114630618493e-01
3.903316767838966861e-01
1.665994195849614279e+00
2.224729576952773069e+00
2.598704211266683384e+00
3.137235667790129412e+00
2.240625388588219469e+00
1.000797934204161521e+00
-4.017963229624751387e-01
-1.363499683712387611e+00
-8.068341571904468212e-01
-6.965298371150464574e-01
-3.436255827732989099e-01
-3.905509432965952044e-02
2.163997677712924950e-01
1.568712269861123110e+00
1.094471562727616032e+00
7.633991321297759480e-01
8.355472054412677041e-01
5.555235624089832625e-01
3.864051770769446614e-01
-9.122608673230845344e-01
-9.862756928889003794e-01
-7.050729812099862936e-01
1.157260405648827678e-01
7.722041948397705413e-01
1.498972586750300318e+00
1.488278579359701315e+00
2.212519560150772335e+00
2.249148200975710665e+00
1.616318373873879999e+00
1.631674287406567947e+00
1.505605517646389835e+00
1.527910200671940055e+00
1.717600954675394309e+00
1.373118702197390739e+00
9.128886076185519505e-01
2.849071804837167710e-01
-2.152101758950208388e-01
-1.766395148631470235e-01
1.473926864379417612e-01
-6.917856125545042145e-01
-1.398607567213538738e+00
-1.925901303821414334e+00
-1.250447885934431236e+00
-1.384996303304287579e+00
6.874331574343055529e-01
-1.794961541933111082e-01
1.403180366476072249e+00
2.770344513878905790e+00
2.986432535876282657e+00
2.755279095658261568e+00
2.204269992990417482e+00
1.174697653225058591e+00
1.337186891337256878e+00
2.428855173326260053e-01
7.484786214967791285e-01
1.811093302228619306e+00
1.261751304706021148e+00
1.077906085108763401e+00
1.997648361107250192e+00
3.123497538421601050e+00
1.344815712436204791e+00
1.005385710577102465e-01
-5.770880165143130874e-02
-4.386372437469743812e-01
-9.634392366769246596e-01
-1.029374850601217917e+00
-1.583883044749871682e-01
-4.619243528359806561e-01
-8.037333568763990188e-01
-6.782078379807843227e-01
-6.187244408798817652e-01
-4.369013969978932654e-01
9.057120334790233832e-03
4.642866034775139372e-01
1.149181305319127544e+00
9.630655486812155219e-01
1.577211033086711733e+00
6.274123383349540506e-02
-3.169355257277879923e-01
-2.220285927081120103e-01
-1.223103834936303924e+00
-1.068078543616701293e+00
-5.471278559258735408e-01
-4.029146702180756434e-01
-2.897609069980230601e+00
-1.607353432737140375e+00
7.669571337116000420e-02
1.322821943511377052e+00
7.290129463840652191e-01
-3.583724841265523153e-01
6.427930470626662396e-02
-9.945326205222106974e-01
-1.006982312627952458e+00
-9.892380753598374321e-01
-2.367218939810789902e+00
-1.643764888936608104e+00
-2.147599833737450226e+00
-6.527937612949464841e-01
7.958760043650984217e-01
1.400141295294726307e+00
-3.190846125004567768e-01
-3.518702573526833466e-01
-3.781150172947822519e-01
-2.214381925081835567e-01
5.312522135178874283e-01
-1.700922451283538028e-01
-1.814540783966388293e+00
-2.740271776824393157e+00
-2.255332777842487868e+00
-2.281636335941038762e+00
-4.047447231718223626e-01
-3.475184559423835640e-01
3.091936224040383041e-01
-3.889911294142010534e-01
1.027040244203279717e-01
2.777293461853054257e-01
1.534530808721399131e+00
4.491121960026163706e-01
-1.306127405405355546e+00
-1.184907139674070020e+00
-2.717645091531433743e-01
1.026969337415544414e+00
2.279797052151427028e+00
3.040238186418893207e+00
2.543916562162439110e+00
3.177549324444464585e+00
2.880791972335950746e+00
1.885603133974877776e+00
1.353309187507464539e+00
6.431088948556519247e-01
6.110303864505107763e-01
-8.481864594312249483e-01
8.894038283517909926e-01
1.512716262703589498e+00
3.489507641371582203e+00
3.475098601529693632e+00
1.837950001221078544e+00
1.368350463603537071e+00
9.381329487958237623e-01
1.550207108777263976e-01
7.359860686722892176e-01
3.215532571379362548e-01
1.279681697731452239e+00
4.553654616958667800e-01
8.528794989625111400e-01
2.821803425075788851e+00
2.541036534800395597e+00
2.275834718642989696e+00
2.491845664657993620e+00
2.191993138839454236e+00
1.932527687439385966e+00
5.000333453604903777e-01
9.448644296248666086e-01
1.292286890277356992e+00
9.115904431577048772e-01
1.358301700773982823e-01
-3.081985291545572547e-01
4.227972193512771759e-01
1.342674749854539051e+00
1.407540920942388363e+00
1.467308114337516622e+00
1.643813933599588495e+00
2.662471455360674977e+00
1.972314186508820288e+00
9.396301339415426002e-01
1.095149176099829980e+00
1.754867030626633850e+00
1.668287201229403438e+00
2.090189097221372361e+00
2.117346165074665887e+00
7.750286790151292848e-01
1.492331010811148717e+00
-3.409054969901837429e-01
-1.197646145744341306e-01
9.749316792103233098e-01
5.433116540976602460e-01
-7.545338866101251041e-01
-1.399761217290193427e+00
-1.433114555920857125e+00
-2.029826987623513990e+00
-2.508406606341919698e+00
-1.324489924640618543e+00
-4.616321627825201168e-01
-3.434328710276289831e-01
-8.708937330692216872e-01
-1.116507967076416419e+00
1.654926224100145282e-01
3.566293460793182879e-01
8.169074092229008377e-01
1.095039828579513985e+00
6.662932455421581857e-01
1.838069892511337677e+00
2.270412832565024797e+00
9.759591829790721373e-01
-2.136305153689665171e-01
-1.068779644203269319e+00
-2.412503869139674517e+00
-1.185265567442180590e+00
-9.811644369535899024e-01
-1.511860167249551523e+00
-1.277683855332002461e+00
4.761082885613231869e-03
6.499444424808032972e-01
-2.352566444711449711e-01
1.748597074678276408e+00
2.349089543416387649e+00
1.988693997983919104e+00
2.681560178072427969e-01
-7.870692018121883127e-01
-5.152628701844831349e-01
9.519607447687005175e-01
1.244619187269143001e+00
2.443866111287020360e+00
7.923681147936730840e-01
1.252729945820335589e-01
6.093854024999787455e-01
-7.745999519922028287e-02
5.974727740365984863e-01
2.953921107313066674e-01
6.711226054342481206e-02
1.770537250912220806e-01
1.651037513664075917e-01
2.413577251603078178e-01
5.193341195613824235e-01
9.509976449739103721e-01
1.536071858535337675e+00
2.610001758026045060e+00
3.414538529205767059e+00
2.045487221460179139e+00
7.916174971769844859e-01
-5.148527794663310120e-01
-1.096817152254784933e+00
-1.563066837156351196e+00
-7.248519786271389043e-01
2.712747517194126490e-02
-7.707993258815545867e-02
-4.043295451433102650e-01
2.052553564846465450e-01
1.051454645152682499e+00
4.993230654286234249e-01
-2.066311107267455593e-01
-1.170803389840840314e+00
-1.406518165405412413e+00
-9.643577281885876151e-02
-1.527134385083708468e+00
4.027561833659362017e-02
9.820415686375116859e-01
1.875603898864877328e+00
2.126690665899933830e+00
1.790591815722650137e+00
2.997247190578329334e+00
3.868091383746217637e+00
2.581418241795730317e+00
1.409967076266357422e+00
1.625333305166419162e+00
6.131862159507680578e-03
-1.088162002819500929e+00
-2.860576238077742195e-01
2.338451804005045320e-01
-1.419612961993775291e-01
-4.789344072091362980e-02
-6.649760345473219036e-01
-7.260241904774680233e-01
-3.149186835497821413e-01
-4.715300611177870027e-01
-8.009133843438442923e-02
-8.829913063504490900e-01
-1.153924650988169542e+00
-2.244882300421156551e-01
-3.633173357969022854e-01
7.862485776222125633e-01
1.830588729126527037e+00
1.799657531524585519e+00
2.418018718347338059e+00
1.571799155371440992e+00
8.235108301419411525e-01
-2.380001666176653763e-01
4.005776376166889780e-02
-3.800350228474587144e-01
1.554234979701056563e-01
6.624854562352752163e-01
1.806281511526238059e+00
3.097263385579441586e+00
4.111584825993864101e+00
1.238895916090480442e+00
4.193558765423856527e-01
3.761965728298919398e-01
-2.965381747542503721e-01
-8.789300425745691925e-01
-8.650466151723842367e-01
-1.082499799463465973e+00
-3.477592210992300203e-01
-1.812655750407491162e+00
-1.755322189885264450e+00
-1.160084345447465415e+00
3.325097089030312203e-01
-7.228145858561071391e-01
-9.298150884675204786e-01
-1.696879710239017902e-01
5.048316826918274325e-01
4.337900421874756884e-01
-5.485265241216459586e-02
-8.008628597231312041e-01
-1.052765242255894407e+00
-1.248598629043308206e+00
-1.023700285933505372e+00
1.781513201907357347e-01
1.455057367090395681e+00
-7.907168420634390626e-01
-1.377963972908064827e+00
-3.441059252556519232e-01
-1.994697817601159273e-01
-7.261082086881750497e-01
-1.021311516163292410e-01
-4.677432140730428123e-01
-1.758948739621578827e+00
-8.722252444658723514e-02
-1.005066462017546458e+00
-2.399471159149027866e+00
-1.858341048914050608e+00
-6.992581687280491343e-01
-1.307830924884010038e-01
1.918870448125341577e-01
2.086492367458043340e+00
2.851528276816769569e+00
2.151236159950948412e+00
6.397811256921197565e-01
-2.496194908282516611e-01
7.595378201920441885e-01
-5.914122815640255881e-01
-1.257289975995941056e+00
-2.133866043873092977e+00
-1.482607725678461330e+00
-3.448332362369275206e-01
-3.152685037585498673e-01
-9.397783059089898083e-01
-3.733605002824381680e-01
-2.914771359944632878e-01
-7.945639563601536448e-02
8.472131002325109517e-01
1.398040540466928938e+00
1.116835944036667971e+00
-5.709308911690381683e-01
-9.436251461189835155e-01
2.763449842085933250e-01
1.379938630217229178e+00
1.429137241700422445e+00
1.024083350801954673e+00
2.751755783852486204e+00
1.980121723634315378e+00
8.689992318621163614e-01
5.163676299353015670e-02
6.016265901478624611e-01
3.005942969395929421e-01
-1.121091617838380905e-01
2.660862407182028044e-01
9.003561651340747929e-01
1.231959907789256681e+00
2.091716206332930650e+00
1.710596125196487405e+00
9.752758387374259597e-01
2.767710372733606095e-01
-2.659142716485697888e-01
-5.750750179630589320e-01
-1.342735599358352738e+00
-1.836490456793920201e+00
-1.377184748310535667e-01
9.260711197101210157e-01
2.143366382275161186e+00
3.560449082349719241e+00
2.614025268744948338e+00
2.782463295014255600e+00
1.327844796060562160e+00
2.140920975969383133e-01
6.617889645274503962e-01
1.535145098509916650e+00
1.462780706834687416e+00
-2.122348162142235484e-01
-3.052498307631573149e-01
-2.363675229306367587e-01
7.634868520941158476e-02
7.270382059065678693e-01
1.333759521277220861e+00
8.431416290129974955e-01
7.542823695603888545e-01
2.779958509873243777e+00
3.762585355544048937e+00
3.665307352917048789e+00
1.976127951109990732e+00
1.254347100927616809e+00
1.303182341846221615e+00
2.051895188029299710e+00
2.066444333704477554e+00
1.669769815542885505e+00
1.142361447195638258e+00
1.222846793169887647e+00
1.033368186857414495e+00
4.759425230206624224e-01
3.152126479534313463e-01
-1.476878168188030527e+00
-1.614757291972188424e+00
-2.222087421491599102e+00
-2.157972523443442814e+00
-1.720632013422513040e+00
-2.680121535384482057e-01
-1.135646418722921824e+00
-1.730080407290958799e+00
-1.393944435356383238e+00
-2.007478071831733324e+00
-4.973665640914352593e-01
4.211335280559399541e-01
-7.722178722672766449e-02
9.324585243640901022e-02
3.188205382666429721e-01
8.662606266012393696e-01
1.229398191730230794e+00
4.163772900494555618e-01
-8.009607152649785844e-01
-7.821060518322257016e-01
-8.644402400217700011e-01
-1.010158543025591493e+00
-8.606871200432236746e-01
-2.208676024169883068e+00
-2.384580875868520522e+00
-4.324024506297619586e-01
5.664850570531447804e-01
1.394780136076791688e-01
-2.724444442769052288e-01
3.185430371253863413e-01
6.387146417306023283e-01
1.746877538762463100e+00
8.759121508819189827e-01
5.815888931372167336e-01
6.070423688217911895e-01
1.261248302408951361e+00
1.768046226439132118e+00
1.570673049206528393e+00
1.264181596921760020e+00
6.872344188837414825e-01
1.178739769449354213e+00
4.483761520424953684e-01
5.859331264058247335e-01
7.360293057777147485e-01
1.061714533211409295e+00
1.397983730129505053e+00
4.042856566968164866e-01
3.077396892705487330e-01
2.591626944613660832e-01
8.382212158854203121e-01
2.067249827697570375e+00
2.002476683646571054e+00
2.314176300928464602e+00
2.726496748984613028e+00
1.983403110166085170e+00
8.614397121809470592e-01
-3.452810076574270529e-03
-1.231800028481455200e+00
-1.248745969616614548e+00
-1.059630915561090791e+00
-1.380276077187739148e+00
-4.244978079564125095e-01
2.661253169387439166e-01
8.295051151843199078e-01
3.088089756254891460e-01
-4.249357557274284769e-01
-1.436844368005197214e+00
-2.634976907995056461e+00
-2.623089423151262700e+00
-2.427799435957857632e+00
3.290881048697736899e-01
8.047529682860109224e-02
9.080594577211421603e-01
1.345606536615860049e+00
1.533912563673860641e+00
2.170557439983581638e+00
2.479954962992265699e+00
1.593829554263507475e+00
1.245301190813002945e+00
1.789796339310293360e+00
8.051076996385362339e-01
-1.146917755557718271e-01
4.616832600338015014e-01
8.735822513852455895e-01
7.277808992638076235e-01
-3.478291585415122511e-01
-7.703485834727997750e-01
-6.233157460064235877e-01
-3.012844182003686644e-01
1.359470856056103627e-01
4.488429572934438810e-02
-1.911960478482648551e-01
-1.017289267221838545e+00
-7.249538543385904976e-01
-1.849148446293449044e-01
1.301058311777360865e+00
1.100063138312521005e+00
1.090470557765854664e+00
9.441182641174757917e-01
7.486028465621846761e-01
1.117534274377332659e+00
-1.167604020303594503e-01
-1.207126057437834105e-01
2.219490136504286559e-01
7.703717506247718116e-01
1.002800894159970868e+00
1.407377143125050578e+00
1.867446211275353374e+00
1.367979069978186857e+00
1.063868504272815319e+00
4.523340446910574242e-01
1.771641659217103315e-01
-8.286458215113354231e-02
-8.668031974785037619e-01
-1.020400630454935342e+00
-5.530780477749126511e-01
-1.027884453290261457e-01
-1.255217762147722516e+00
-1.292540629644598038e+00
-9.895231562227341238e-01
-1.160201289343254921e-01
-1.108269636928061352e+00
-8.323766918130864889e-01
-2.399543255919962259e-01
2.447666552434682730e-01
-5.676844877093852881e-01
-3.134272195817170981e-01
-2.239313294351130135e-01
8.778999894046617125e-02
1.295537626765770334e-01
-2.391847580886426183e-01
-7.745856048553696749e-02
4.723431568844174006e-02
-6.999649400496308349e-01
2.480095405228376331e-03
5.225862713115287939e-01
5.438369617619240870e-01
1.743217817105037828e-02
3.649985939151764169e-01
-5.014890210473401666e-01
-1.616843441363216671e+00
3.197671466621081204e-02
-2.828056011440147066e-01
-1.282734099177891718e+00
-1.366951860929217277e+00
-8.008886702406650127e-01
-1.973383023471437236e-01
4.823400960140026283e-01
2.360359567798142599e+00
2.046148070885339454e+00
1.541160894192328490e+00
5.489827795108344066e-01
1.406097363732759398e+00
1.623298479468858080e+00
2.361196159640533698e-01
-5.950673756136252157e-01
-1.661307163681101873e+00
-2.958969083165060021e-01
1.001734068360194130e-01
-2.121982660648436825e-01
-6.225637437718806178e-01
