1.884406310753427016e+00
1.128047139967398360e+00
-9.211428754201903546e-01
3.129816870316462829e+00
2.533028712309072894e+00
3.657307693662464887e-01
3.036923781169127423e+00
2.116012290634405435e+00
8.507734107190452130e-03
2.336503600373226686e+00
1.561387213866963553e+00
-8.802346982601002567e-01
8.648338473820208483e-01
-1.123531219938567714e-02
-2.606534375245292967e+00
1.005467650991474171e+00
5.305736413464854362e-01
-2.282125682968005886e+00
1.035316070961045387e+00
5.413912316729005969e-01
-2.448735786895866351e+00
4.090050367250289143e-01
-6.050087306357022215e-02
-3.340439418128417604e+00
1.497690314786602472e-02
-1.173705548232316931e-01
-3.470661871415559485e+00
9.839151156992923530e-01
8.741300644377244522e-01
-2.475198008230141689e+00
7.502564822978035064e-01
1.063568666669673091e+00
-2.286418647583607022e+00
-1.748449481302454811e-01
5.124913828587807085e-01
-3.245198964808654996e+00
-3.799571474914096858e-01
5.162987728230190587e-01
-2.941427920849432276e+00
-9.186217974101404948e-01
3.874904221170737961e-01
-3.126066506208376339e+00
-1.244377286434191210e-01
1.150462567914556145e+00
-2.388592756037516640e+00
2.929040571943277715e-01
1.707643636096139339e+00
-1.730728155330065965e+00
1.764370574478004716e-01
1.962190238817599131e+00
-5.269906997251464498e-01
-6.410282650875896993e-01
1.193772485805911776e+00
-1.490121138862255945e+00
-7.081639423328411898e-01
8.549299272109815995e-01
-1.991491343480809473e+00
-1.304915067351802849e+00
6.449563305737807117e-02
-3.175624506196036645e+00
-1.292088596568583769e+00
-3.494754154080679798e-01
-3.775747001524628832e+00
-5.544857475799387370e-01
4.560720086754373459e-01
-3.564855791747676417e+00
-7.918800826998870571e-03
9.465487055167323138e-01
-3.315521775204380184e+00
6.800116269948579539e-01
1.527918510881472347e+00
-3.014708818417580094e+00
-1.248696101623765070e-01
6.300077155930857709e-01
-3.917595058249886186e+00
-5.690927677597608092e-01
1.306409074479789323e-01
-4.323410989184661268e+00
-2.363000788296137356e-01
3.950774291340339306e-01
-3.972655352179366162e+00
-9.403069276513175145e-01
-3.670804051466829143e-02
-4.284462587731322714e+00
-1.247733263977369944e+00
-2.046294896013066966e-01
-4.249545094965779590e+00
-1.893174433110381027e+00
-5.028368557483560153e-01
-4.608072828830982459e+00
-2.717377389969570789e+00
-1.154980367411197140e+00
-5.256516750412238537e+00
-1.327862651003794747e+00
1.801043644698942792e-01
-3.741004292332404280e+00
-2.932407396183041026e-01
9.414622011024473269e-02
-2.994032576856022754e+00
-4.734511300753185825e-01
9.539121965139067683e-02
-3.069287396756337660e+00
5.026202430202730831e-01
1.178736953641499108e+00
-1.954218903381700789e+00
-1.980198576932671595e-01
5.992135280198660485e-01
-2.324718567239139944e+00
-4.976129988917076807e-01
6.505819731866914202e-01
-2.624316110231388777e+00
-9.093227964602309532e-01
2.258243576820692933e-01
-3.005693328005806020e+00
-1.250925895701221702e+00
-1.208093748222585084e-01
-3.395713432085953443e+00
-6.241946608442031641e-01
5.485331148186162187e-01
-2.777461474836081301e+00
-3.004334604991394930e-01
1.013335930244528171e+00
-2.450265340639912193e+00
-6.116962229792832773e-01
4.005233506918025599e-01
-3.073993268871192619e+00
-7.998292154875242810e-01
-2.146436068452072521e-01
-3.625115644931401704e+00
-6.379209943077076561e-01
-4.492508003147971385e-01
-4.045319013776793149e+00
-1.289559237851956919e+00
-1.384910426467075739e+00
-4.860715236334959499e+00
-1.685533913329422928e+00
-2.207781013572639672e+00
-5.382017485923246802e+00
-1.173470382224282682e+00
-1.982845737888943027e+00
-5.307655363241999602e+00
-4.822405330918065336e-01
-1.280644397750701824e+00
-4.756612584392643228e+00
-2.503519107117222475e+00
-1.253232165171963564e+00
-4.378651307318684793e+00
-1.765476098438311992e+00
-4.695674841239833031e-01
-3.646836371802164134e+00
-8.285444945113417115e-01
3.121892571231625335e-01
-2.786731249284283951e+00
-4.720090287374670290e-01
8.163836563070456798e-01
-2.243975030960237316e+00
-2.266083017387869603e-01
1.144869109225501891e+00
-2.052554873979538286e+00
-1.921026894697393239e-01
1.291130283799599043e+00
-1.458964335245793720e+00
-1.071220776033667554e-01
1.414093576298047328e+00
-8.122111090637862407e-01
1.126400885729926804e-01
1.815265542333188931e+00
-3.297396022649037306e-01
7.354284964779627121e-01
2.311334957028108761e+00
1.771273735742132927e-01
1.075584020393221873e+00
2.749260602430134703e+00
1.218673832340506635e+00
9.893539245909438451e-01
2.638742961989450020e+00
1.006530074941489827e+00
2.056392634390012686e-01
2.026895425464615652e+00
2.705364313166416235e-01
-2.418360936659617322e-01
1.214701314607347760e+00
-3.058033940758461133e-01
-4.053074978211212431e-01
8.729657695265898854e-01
-4.691454876742388036e-01
2.054243615775558085e-01
1.593922465873060190e+00
5.487601970257846573e-02
9.287623216237933521e-01
2.340331092108233424e+00
8.702618917009767863e-01
2.320417236963332464e+00
3.100667135451204981e+00
1.696387418421853699e+00
1.565428837454032829e+00
2.352562957977471392e+00
9.512000627060984703e-01
4.316446343806489838e-01
1.368482060534374600e+00
1.313716983298531850e-02
-1.319642019909599062e+00
-1.006284384092293593e-01
-1.551820482271506929e+00
-1.867284207915762329e+00
-4.479615879059696826e-01
-2.074421298213125375e+00
-6.572821727611778408e-01
7.882849447915225571e-01
-5.969180852435438389e-01
-1.420046607901358504e+00
-1.564645585591456500e-02
-1.051766735843484790e+00
-2.679897072169449945e+00
-1.284497444383060349e+00
-2.397787868328071337e+00
-3.428219314717653621e+00
-1.959687792576913834e+00
-2.613392857809079040e+00
-3.435674591420693424e+00
-2.039390619734409160e+00
-2.353979420683269819e+00
-1.913103677922364909e+00
-5.590722922297486353e-01
-7.329182536197509368e-01
-1.313558416285834474e+00
-1.702148722957577964e-01
-7.169405051644366957e-03
-2.040643675099242493e+00
-8.296379695508074859e-01
-4.411457639828763044e-01
-3.318140408529885121e+00
-1.992200456214961779e+00
-1.805389955635527732e+00
-2.355457004713961133e+00
-8.822925358419539954e-01
-4.227836367806598883e-01
-1.782322076116587661e+00
-3.769498082126033212e-01
8.932157848148852830e-02
-1.437857292371567119e+00
-4.752955465394694268e-01
-1.865972597095464591e+00
-1.847232619186965907e+00
-9.943287787864524274e-01
-2.288973501377342679e+00
-1.444038288302907258e+00
-6.907206408816907173e-01
-2.069507466415996699e+00
-1.215054187985327022e-01
3.526720918122895898e-01
-8.456324350464669015e-01
-4.039379570504960659e-01
2.715824571687079914e-01
-1.088521421951926804e+00
3.258723793338636487e-01
9.522578362907124783e-01
-1.041143691849386044e-01
1.557596298313915106e+00
2.048262064281686001e+00
1.156829451467062508e+00
2.325065324306862191e+00
2.617287522809285338e+00
1.873588283207165972e+00
1.985505885297356388e+00
2.090703060873697616e+00
1.643264764778035625e+00
-2.465636471549403630e-01
1.335371972550311592e-02
-3.249444561409174370e-01
-9.913350293054078444e-01
-9.924495707513477649e-01
-1.242841838364271423e+00
1.261019247530120735e+00
1.079515593251930916e+00
1.279969134789860963e+00
1.723516538212353399e+00
1.549832304012503492e+00
1.569665666686828720e+00
1.216773456409610876e+00
8.742849575676139295e-01
7.424722521737036063e-01
1.367587686134226432e+00
1.016207144990866063e+00
6.624016294143475481e-01
1.562118760428440112e+00
1.049529569717061683e+00
6.946061571876416263e-01
2.059818816447021306e-01
6.061383698379949614e-01
2.019754939064826171e-01
5.981881627197993545e-01
8.769417301771945672e-01
5.023144952387798012e-01
-3.476966918178599486e-01
-2.242581315098240435e-01
-7.912416805955088117e-01
2.552415640377222461e-01
2.225291885209914333e-01
-5.433853974172991874e-01
1.120786874669386091e+00
9.442695771539454386e-01
3.629230009929992895e-01
1.054960912996801170e+00
6.848889811115439485e-01
-2.212029368207401800e-02
1.829165157755880955e-01
-2.750792356932151295e-01
-1.017171713737314409e+00
-1.595772744431768128e-02
-7.968472140320064234e-01
-1.462162789340383684e+00
2.548720615087611385e+00
1.393605417296633009e+00
1.149363411131814727e+00
1.816876929266752372e+00
7.870532563784348179e-01
1.470825248686799536e-01
-1.650707528536796143e-01
-1.616072117419671494e+00
-2.132051300499472557e+00
5.043949508168359130e-02
-2.145882777550141007e+00
-2.657729282093840517e+00
1.150323009201980273e+00
-1.164791808915296878e+00
-1.949432930796354491e+00
2.987452726766822497e+00
4.241809301136525434e-01
-7.109478014685860492e-01
3.054740007918827160e+00
7.652492932597139419e-02
-1.344543826641977802e+00
1.256984239363232669e+00
-1.844919946106038156e+00
-3.512305206417861925e+00
1.389637306656600346e+00
-7.306145864385427124e-01
-1.598609148613969744e+00
1.229286638338559667e+00
-9.766614942195029903e-01
-1.832077017847513867e+00
2.347625091285381771e+00
1.714142782164453094e-01
-7.351461605789421094e-01
3.592545580387226156e+00
1.042594027299124981e+00
2.997538037413988721e-01
4.654207015023310134e+00
2.245925099001677250e+00
1.294291514943853860e+00
3.018467520835065976e+00
5.727080392174287438e-01
-3.771370167978752019e-01
1.256632014458813673e+00
-8.637204261806917804e-01
-2.019278786907561685e+00
-1.531974328914096350e-01
-2.260755252402078863e+00
-3.402862079925442984e+00
1.909543936503180495e-01
-1.879083803230814809e+00
-3.065791754037335171e+00
-7.008925221558351959e-01
-2.539667490336539935e+00
-3.894300096581676751e+00
-8.956785825307199689e-01
-2.795493269753411614e+00
-3.955687777673071004e+00
-7.475658730652325890e-01
-2.660387863541886055e+00
-3.466876416010737927e+00
-9.589576810493398717e-01
-2.900770609942620482e+00
-3.395088952309309960e+00
-1.209505935815828881e+00
-3.083740895728307230e+00
-3.323002785794997305e+00
-6.205474880917096758e-01
-2.579386442105671584e+00
-2.815317583609977525e+00
-4.157952323006091633e-01
-2.274785621702084093e+00
-2.435264873376854489e+00
1.267547685605408869e+00
-2.591615817372104336e-01
-6.942746871897157446e-01
7.115098072041406985e-01
-9.915985312638044835e-01
-1.465418858152782278e+00
3.618735833692876330e-04
-1.769648528356088990e+00
-2.385610743442567294e+00
-1.030779047329647202e+00
-2.507170414342684506e+00
-3.263402293237736007e+00
-9.376898237229597255e-01
-2.358096159216317211e+00
-3.433813686435253310e+00
-1.582493229138977497e+00
-2.724528760824783014e+00
-4.246441675232600410e+00
1.506538282991394806e-01
-7.752438042509329774e-01
-2.355806032016914298e+00
9.193033269942109120e-01
2.455900508151564465e-01
-1.655516644712860863e+00
1.882428906913763758e-02
-1.388252358122226415e-01
-2.424108815878768031e+00
-1.239681192602966497e+00
-1.642128398650890775e+00
-3.572198901625859957e+00
-2.035178352633781440e+00
-1.954110234572242311e+00
-3.752709765157238753e+00
-1.916807596749084741e+00
-1.853863729374722880e+00
-3.760782610479397547e+00
-1.951233827844830904e+00
-1.589029840433123120e+00
-3.122021263400574842e+00
-2.493519729729994694e+00
-2.386341228884426346e+00
-3.919556407799825060e+00
-2.856275260912109815e+00
-2.763640408037900009e+00
-4.105535726652364659e+00
-1.013909284133818423e+00
-7.664949263548379577e-01
-2.231582271764369185e+00
-1.694800615705293056e+00
-2.539683051069969277e+00
-2.598000127585291974e+00
-2.749724160130480044e-01
-1.047821042584172968e+00
-1.035887093216820931e+00
4.581899606206549791e-01
-6.166413719588152986e-01
-5.680027715235154151e-01
4.112031394782351690e-01
-6.378959304358110538e-01
-7.073247142742767890e-01
5.971596253397787324e-01
-5.138764503217605473e-01
-9.163775609133308075e-02
6.880371551253827711e-01
-2.313874592258412799e-01
4.223629191915083403e-02
-1.791247601267777489e-01
-1.015502138088221651e+00
-5.851893993739701871e-01
-2.082489382519816801e-01
-9.516030446497839579e-01
-7.972316424445792249e-01
-2.916131006138555470e+00
-3.446092323265320889e+00
-3.334195586445449777e+00
-1.884398672001381225e+00
-2.268112618993564311e+00
-2.417536356589867097e+00
-7.067398789340670340e-02
-1.744789024123075682e-01
-7.960033081497587260e-01
5.064887830531301649e-01
4.763040909275252366e-01
-4.138848525780028931e-01
4.913884537466139957e-01
1.093347129569999687e+00
-2.767602734933558017e-01
9.501974328098101719e-01
1.395096214416520652e+00
-2.715374393080403070e-01
1.465869460614109832e+00
1.767640992635785002e+00
-6.897764139712782294e-02
2.142715952021283954e+00
2.580728459447950041e+00
5.927566410044469158e-01
1.982086646706492372e-01
3.266399550951516462e-01
2.282677535619013487e-01
-5.061011731227100796e-01
-2.086790773089389206e-01
-3.542932876391869934e-01
-8.336017579262444688e-01
-4.744787483260078931e-01
-8.516125588202859698e-01
1.998664859186030096e-01
7.475135737606494191e-01
1.734109558781680716e-01
-6.245191997352466107e-01
2.580066704960528035e-01
-7.384075102781215705e-01
-1.722730161941529392e+00
-2.260180910237693519e-01
-1.546772674489240718e+00
-2.951573272757621158e+00
-8.749129596678986154e-01
-2.533793782939806949e+00
-2.832978704566043060e+00
-6.767737004808864754e-01
-2.633767019264090958e+00
-1.906708821377113505e+00
3.309828856460702573e-01
-1.594645821155596277e+00
-2.167059306229283777e+00
1.330830807065629118e-01
-1.671064701208208714e+00
-2.199453337589735380e+00
-3.012280056900283332e-01
-2.024206264722265836e+00
-1.094655929175811115e+00
7.342250503104096326e-01
-6.581528740088403717e-01
1.163011605153263517e-01
1.205748982377037981e+00
-1.438260276754525779e-01
4.748196517061313848e-01
1.349154610740180393e+00
3.549831904727309695e-01
-4.331905366722178519e-01
1.229403796781539243e-01
-6.813652753103364157e-01
6.787375771262788449e-04
2.513290333394156417e-01
-3.725657960173900940e-01
5.775932282288581687e-01
9.174351807133376280e-01
-1.381308517462679797e+00
7.367782093509798180e-01
1.357474781161084110e+00
-7.972433997411786377e-01
-1.920673079740592704e-01
6.359974314787476546e-01
-1.790260792766025677e+00
-1.774777336088815272e+00
-7.258509362842398005e-01
-2.733156068158295149e+00
-2.493526665708154955e+00
-1.147025375267401559e+00
-3.094856856310816529e+00
-1.215714764875543530e+00
3.148625494142241465e-01
-1.503338987937472115e+00
-1.174994427127624697e+00
3.855995967024551385e-01
-1.139340761530948321e+00
-9.889918533581740778e-01
9.360587664002640862e-01
-3.520895277226084863e-01
-1.252887181588793863e+00
7.327690502984741672e-01
-6.233723601819413096e-01
-8.883642500832419353e-01
8.896920704156602300e-01
-4.217482422711554269e-01
-1.506817593650408016e+00
3.683901544654265559e-01
-1.433439523608724508e+00
-2.147282153993517628e+00
-5.918210454247306851e-01
-2.646947282909896337e+00
-1.873778235113729318e+00
-7.389948190355497548e-01
-3.261614995938475925e+00
-1.795492727740833239e+00
-1.209740346674135658e+00
-3.889247981291738654e+00
-2.337505228882714725e+00
-1.902628972651286832e+00
-4.990113513881805574e+00
-1.609805069762185736e+00
-1.405679767769923316e+00
-4.550509508836182881e+00
-1.063670093125687055e+00
-5.989927476690508346e-02
-3.047287849059979514e+00
-8.202820917583846239e-01
2.993247727125815105e-01
-2.496729282429691832e+00
8.489087565937610824e-01
1.859174372787024465e+00
-5.185184787652449279e-01
1.276215261482629704e-01
8.944556515316985923e-01
-1.117097187830460969e+00
1.504799347515868302e-01
6.706677392543878291e-01
-7.375769727999215153e-01
9.123787707682640136e-01
1.302722754429114005e+00
6.337956450465773162e-02
2.692219759135742851e+00
2.881241522650380471e+00
1.599669847243869070e+00
3.581450505673572149e+00
3.402806987533093963e+00
2.222231441512614314e+00
4.631035195770350832e+00
4.455296502150837057e+00
2.987868898633351922e+00
3.890892100170052270e+00
3.320509209105190429e+00
1.630586402597583362e+00
3.303914160462505301e+00
2.299847145025025075e+00
2.968490293692540583e-01
2.637389183927151048e+00
1.335783445138963188e+00
-9.112068049594757024e-01
1.717698208530640036e+00
5.772265782812434631e-01
-2.290918257373860456e+00
3.033696660961922920e+00
1.740389832512587054e+00
-1.643034365991731693e+00
2.567304705493921535e+00
1.311024805052419584e+00
-2.446786900117563501e+00
2.359118998502920839e+00
1.059855344282265133e+00
-2.870256219059595715e+00
1.639254780160470215e+00
-1.146351175039101999e+00
-2.748591139395517580e+00
1.534870432956059405e+00
-9.022245817590514028e-01
-2.579746439305962813e+00
1.925381193716045214e+00
-2.488533074352122787e-01
-1.988303589709967012e+00
1.360436820809466596e+00
-4.612831457176983507e-01
-2.166859395686619560e+00
1.889461171545082419e+00
9.278360888831204134e-01
-1.134816465794744822e+00
1.231677955635038568e+00
5.409523112181990889e-01
-1.403953773481378509e+00
-3.982935610820224626e-01
-8.785331464113220745e-01
-2.904677000175233559e+00
7.757310661637342175e-01
6.144252541818637781e-01
-1.402555851108026941e+00
1.787918800450525314e+00
1.671901623227251665e+00
-7.694074996165199964e-01
2.780460319070539921e+00
2.607723702828255607e+00
1.888981376707785653e-01
2.431292893194354932e+00
2.105104714454453685e+00
-4.111797490480185169e-01
1.260804042007132031e+00
7.585180008480775227e-01
-1.601288304275467311e+00
1.371805499465349909e+00
6.314859048664157593e-01
-1.853543515334453939e+00
1.330654527259965914e+00
1.884212405753081798e-01
-2.372516113944350025e+00
2.212437834974513073e+00
7.964315222113730330e-01
-1.777792281133898200e+00
1.448494142050108513e+00
-1.489210372141155370e-01
-2.758420217767373561e+00
1.993763900083376450e+00
1.301585965240026121e+00
-7.351705283537898206e-01
3.048103751107683390e+00
2.405768422985075983e+00
3.500819357880868843e-01
3.440313473784591292e+00
2.631720928230087964e+00
5.793464025645380655e-01
3.344105638512437473e+00
2.538125545317807319e+00
4.758185907079175159e-02
2.204418052098255476e+00
1.370484070959832712e+00
-1.174623876631316843e+00
1.571630978794232636e+00
1.219314996671037266e+00
-1.454991508233119513e+00
1.391912996580759287e+00
8.875516699576302404e-01
-1.901192422185306485e+00
6.079974601682426316e-01
2.664978243704517191e-01
-3.024913269709481600e+00
-3.936929428128608556e-03
-7.488749581304121605e-02
-3.458477145569738287e+00
1.639816242604797747e+00
1.726067165047568963e+00
-1.500704642255574761e+00
1.702415568377702026e+00
2.084767961365703304e+00
-1.324129365087631571e+00
5.351926873939558682e-01
1.201158989388262155e+00
-2.279969221201490814e+00
3.409703648276947718e-01
1.207347825805730190e+00
-2.225679056448532034e+00
2.274194398110557930e-02
1.310232678489165359e+00
-2.171490645851450463e+00
4.923828787397064310e-01
1.930142844924517709e+00
-1.488893499368229234e+00
1.683681053795021754e+00
3.148063814268192484e+00
-2.366190381556068645e-01
7.727540110319380817e-01
2.755299768639712266e+00
1.839361826703816427e-01
2.941636700375880320e-01
2.273812947483633273e+00
-4.184322702545494876e-01
4.307900798823118826e-01
2.079539623692798322e+00
-7.269892846089536231e-01
-5.037592048192875982e-01
1.020854869904937567e+00
-2.221608358984188403e+00
-1.563217938263870233e+00
-3.958142299156778843e-01
-3.837872484912937754e+00
-1.624562096828915836e+00
-4.949230912352692302e-01
-4.582198840299925635e+00
-1.494103656020208115e+00
-3.887323038497680350e-01
-4.761154632397558650e+00
-5.504186683372774835e-01
5.464736755086162523e-01
-3.983126800339743312e+00
2.548686285545418428e-01
1.255986046206757356e+00
-3.399406969050915883e+00
1.593999243986606307e-01
9.612541068844274728e-01
-3.422654385893016737e+00
-1.420582357325478329e-01
6.403532390696832222e-01
-3.714188583760520856e+00
1.514974272786492049e-01
1.234954142216988071e+00
-3.129697914941649284e+00
-3.515362257056800499e-01
9.077713239650233579e-01
-3.273826258662104305e+00
-5.172300062794086273e-01
9.195641434676994352e-01
-3.216999204664482637e+00
-1.681342749178211138e+00
-9.868064705573716122e-02
-3.959904032672723062e+00
-1.059401035698981586e+00
4.552245112878130495e-01
-3.135021268536371863e+00
3.790929437383335210e-01
6.699993340187498925e-01
-2.361814544732161458e+00
-3.667451165510156041e-01
1.807023890439951042e-01
-2.862358851368373980e+00
-6.916441862500893878e-02
4.469535475610724173e-01
-2.562630937488391325e+00
-6.047882831995644581e-01
1.028699768641369583e-01
-2.792343270847483350e+00
-1.399736620843147206e-01
1.043268540984764847e+00
-2.089934302848160286e+00
-1.201700743028966401e-01
1.042932252261989268e+00
-2.187875263581507301e+00
-3.278884646019486482e-01
7.569170749415154997e-01
-2.471360903247045826e+00
2.265961123122083032e-01
1.475085334772203938e+00
-1.777158514377934484e+00
4.702625369715504600e-02
1.461974478474667105e+00
-1.968737273034387281e+00
-3.742072538328098941e-01
4.307388094687154556e-01
-2.903509379285375669e+00
-1.343385816225461937e+00
-7.441538145425798945e-01
-4.095926510567996282e+00
-8.972682670008040873e-01
-6.321458878504109258e-01
-4.154282597131476074e+00
-4.209745531650639916e-01
-5.180205630460819055e-01
-3.890145660855111043e+00
-4.788005048709691458e-01
-9.558783169058286955e-01
-4.141707685423249075e+00
-1.251018784544014606e+00
-2.003737225146995371e+00
-5.229857569676124029e+00
-1.107917835164521136e+00
-2.009307658105681682e+00
-5.120749387181418477e+00
-1.397932497245899075e+00
-2.033476875876200074e-01
-3.275510840804356061e+00
-1.393308404302539438e+00
-1.142006992454975695e-01
-3.265855572933155315e+00
-4.482265691471653546e-01
9.274910942593846963e-01
-2.199965947310396519e+00
7.759717467487915465e-01
2.085476732212867113e+00
-9.226264012510518864e-01
7.525710318763063622e-01
2.188609485514992237e+00
-9.305469545680454813e-01
4.817734264709980785e-01
1.891307917501668934e+00
-9.650527502336714303e-01
-1.028562776828373521e-01
1.394371590833502372e+00
-9.163187058256341277e-01
7.857037285028647955e-02
1.676924780467099918e+00
-5.962155829936653939e-01
3.805382300514915106e-01
2.025964129674182601e+00
-1.514681459150866716e-01
5.069039900632151818e-01
2.177946905693870949e+00
5.304032397499800489e-01
9.363184020658376072e-01
2.296519059677082364e+00
6.543893164006074903e-01
5.234682452315689849e-01
2.328369234259803022e+00
3.976182642965148673e-01
5.572173553656207812e-01
1.921032115366603232e+00
3.351743166945858055e-01
-6.651665563516101498e-01
8.416648682128148318e-01
-6.096827892860245957e-01
-1.167551035179692942e+00
2.301789318088750536e-01
-1.315372478784274879e+00
-5.738751505947083942e-01
7.896847379186207050e-01
-8.021491646481194726e-01
3.071125174974390082e-01
1.196851285088449846e+00
-2.952921669096615354e-01
2.828415496374628302e-01
1.209951643611352878e+00
-2.328672998780564884e-01
-1.272655356390288706e-01
6.722532463562421734e-01
-6.168329982291979041e-01
-1.756993111833249799e+00
-5.045856905811738624e-01
-1.981274860503092317e+00
-1.674333027911278027e+00
-2.715866440166392337e-01
-1.883501538739093650e+00
-8.776459058617173126e-01
4.947936362910513863e-01
-8.847214289543271493e-01
-1.695890099997566569e+00
-2.987431640013356593e-01
-1.395381203078800647e+00
-2.449310821672121996e+00
-1.135180062933013767e+00
-2.202481387583158146e+00
-2.772191661608284452e+00
-1.362165591958514499e+00
-2.109773208457639271e+00
-2.185200264855604591e+00
-8.329261194978769822e-01
-1.257602059332237898e+00
-1.098273353592119417e+00
2.859369174814217485e-01
-3.011374634307395146e-02
-4.657315137187171272e-01
5.241874875786256549e-01
6.355925920251126460e-01
-1.107506373731771854e+00
1.194328648142417154e-01
4.908698109431747780e-01
-2.067628579720709681e+00
-8.263675241184259557e-01
-5.185265220282040399e-01
-2.432720263841054997e+00
-8.866620558202168434e-01
-5.193203689898532316e-01
-2.517272113429792846e+00
-1.019372500945276760e+00
-5.431734179921846595e-01
-1.008856401520046520e+00
-3.383809958805623630e-01
-1.477356245072153573e+00
-1.522718378698095121e+00
-7.803055661589470837e-01
-2.099882717075190808e+00
-1.469126227739468327e+00
-8.411635458358118766e-01
-2.226641827102467275e+00
1.900715898939175919e-01
7.353067025342219232e-01
-5.811556905805953521e-01
5.856067005757934485e-01
1.150792197781121740e+00
-1.097641430356513098e-01
4.098285662259396056e-01
8.533007481405631145e-01
-1.203165907169360810e-01
1.022159720184987464e+00
1.321959395002262116e+00
3.968555938155597929e-01
2.265189069767539198e+00
2.500045155659079033e+00
1.849147919184944033e+00
2.210656696698951151e+00
2.422510709898187287e+00
2.040957093380668219e+00
4.911173629977286792e-01
1.019722706352978792e+00
5.739116565344224430e-01
-4.162912323486749888e-01
-5.012712330221558155e-01
-7.301537886484131823e-01
9.515899408940232673e-01
9.263682617488139259e-01
9.188873888939028678e-01
1.168773370788202426e+00
1.181883909729938065e+00
1.030339675492331297e+00
1.679461330959120646e+00
1.388797003001400965e+00
1.203228683967806800e+00
2.111916548385804671e+00
1.833477379247263173e+00
1.306545998841043499e+00
2.244343329375287688e+00
1.795315441853929439e+00
1.284095784352349723e+00
1.119295558173520444e+00
1.526486193984193163e+00
1.262973965011427335e+00
1.648046366151899367e+00
1.898909525858509806e+00
1.600049942078991760e+00
1.029108180329260103e+00
1.260134715337543732e+00
7.714485187600625959e-01
1.231944803431495261e+00
1.187920647550101627e+00
7.290931876202058071e-01
1.448180701581108565e+00
1.263160980304682379e+00
6.662314892756413531e-01
1.426106680613784095e+00
1.128060736318141632e+00
4.530742187015792122e-01
8.984436244791087489e-01
4.970868445495104093e-01
-1.789468193303037913e-01
1.007293491006872932e+00
2.856701791582790251e-01
-1.943230794118765425e-01
9.446136482867942830e-01
-1.459982342702088876e-01
-3.464545560630626353e-01
5.381988679378831852e-01
-4.157499136142822072e-01
-1.067501468275519505e+00
-5.621924962193370900e-01
-1.714617794295461239e+00
-2.425363423478524183e+00
3.632190920945549406e-01
-1.443253899393188711e+00
-1.967092240348661702e+00
1.977714426975318407e+00
-1.738064454756539645e-01
-9.912561889709007312e-01
3.382430102134049932e+00
9.805170801604803366e-01
-2.280434254883209610e-01
3.235172934893571384e+00
4.501961798149269889e-01
-1.020146732183905725e+00
2.044979214870335849e+00
-9.862725359300870132e-01
-2.498987833500981193e+00
2.766480303482331760e+00
4.868764683066152399e-01
-1.597003787199951785e-01
2.953326233617672880e+00
7.313595940916477467e-01
8.381019377927680439e-03
3.183482801833896314e+00
1.014525540814703586e+00
8.013550763745029559e-02
3.716686245020106139e+00
1.357893357718086280e+00
3.200256134462365343e-01
4.279367803682183613e+00
1.992138742900886994e+00
1.042342688183157895e+00
3.276044411144749979e+00
9.047702824913149700e-01
-5.899111372809624082e-02
2.305382649660617123e+00
2.095855109082670475e-01
-8.832364505532452892e-01
1.285933098798556662e+00
-8.045602906945309440e-01
-1.980125184965175755e+00
1.282773901338304157e+00
-9.029327808113726261e-01
-1.956156360894920843e+00
-3.690011468660581717e-01
-1.989705776851152796e+00
-3.297881797823747352e+00
-9.917921576039084863e-01
-2.794655132378816020e+00
-3.882190761334131324e+00
-8.939853912302586636e-01
-2.834243573280673445e+00
-3.522628013220329812e+00
-1.117242418708428442e+00
-2.954519432003138046e+00
-3.369378306292218905e+00
-1.461845912960823890e+00
-3.255201984528875325e+00
-3.516615596449728098e+00
-8.067625057397824762e-01
-2.764761998982407487e+00
-2.764773063715546986e+00
-9.565265803745998108e-01
-2.816073604007402587e+00
-2.815150631651637259e+00
3.998251055140951138e-01
-1.030483118492127925e+00
-1.461601717923547650e+00
1.734386823766638497e-01
-1.599353679102703651e+00
-2.011921801909536178e+00
-1.221231328911732694e-01
-1.830768538633904541e+00
-2.478036416420058785e+00
-1.965439360499098009e-01
-1.582250815418575485e+00
-2.526845773942753226e+00
-4.217701624222542911e-01
-1.819155577693964743e+00
-2.985275337959097719e+00
-1.176674256139418118e+00
-2.397227518374864808e+00
-3.883686685816495121e+00
-7.259441848472515391e-01
-1.578146700943294123e+00
-3.330546625260673910e+00
2.100884054386244204e-01
-3.921910201660844808e-01
-2.410940294025496033e+00
-2.422493792741989629e-02
-1.809472396948623441e-01
-2.342948853141631371e+00
-5.876041646232252891e-01
-9.659912554917494676e-01
-2.788385285424651805e+00
-8.940679039115773108e-01
-9.475052872266582771e-01
-2.708465584740435972e+00
-5.904143192565481923e-01
-4.042981412388401696e-01
-2.087488644974674123e+00
-1.476284568267387298e+00
-1.012479726083490794e+00
-2.596080216675606067e+00
-2.318116379707165553e+00
-2.021170951452365916e+00
-3.561865967099026697e+00
-1.371173104958578248e+00
-1.265064856305380125e+00
-2.559235156190262650e+00
2.913443844934547264e-02
1.778800302551205026e-01
-1.083548106960976698e+00
3.379320915290684457e-01
-4.817522301050101707e-01
-4.418037338240945466e-01
9.456127735933731460e-01
7.243034387595236046e-02
6.110508305774986493e-02
8.252175174283683523e-01
-1.048962832857662508e-01
6.811643157157887263e-02
3.672352841359463049e-01
-7.535262734298687759e-01
-5.130281168193334684e-01
3.503011647730405742e-01
-7.464819420471410227e-01
-3.431213232323523932e-01
3.675129157093535714e-01
-6.264757485697800554e-01
-2.666645473848419101e-01
2.154205320899918105e-02
-5.974117837822436883e-01
-3.004147533669759840e-01
2.314179702850881759e-01
-3.800906659711411062e-01
-1.886592543543855194e-01
-2.579168008347995755e+00
-3.284784720574440708e+00
-3.091327588601946452e+00
-1.518409954795854278e+00
-1.877268332776760529e+00
-2.042899406976119270e+00
2.505160177651510889e-01
8.181084276561832735e-02
-4.603361246364348069e-01
-1.923457533337033232e-01
-2.800738109576812462e-01
-1.022932477595483780e+00
-3.532813140406622088e-01
-2.562688966981317359e-02
-1.152265584541882992e+00
-2.989220851833143122e-01
1.741135369006790445e-01
-1.358985415755483928e+00
1.788607534940034327e-01
4.703273121195149509e-01
-1.252601927407019922e+00
1.690929059276084778e-01
6.397381345482244797e-01
-1.139360235180816971e+00
-1.238119096549327169e+00
-1.152927442898181942e+00
-1.180436006581721209e+00
-1.236580071934360481e+00
-1.097290229459198185e+00
-1.230948039208255018e+00
-1.597936351098128149e+00
-1.285420942540911327e+00
-1.725657236530295791e+00
-7.191586639317523177e-01
-2.095294123631581407e-01
-7.863485251684839694e-01
-1.234183336528031916e+00
-3.450922087579051944e-01
-1.304536372593669613e+00
-1.583472583708294357e+00
-1.912311969937740760e-02
-1.503296567483941804e+00
-2.301281004386245055e+00
-3.290008422449507974e-01
-1.966430486912369879e+00
-2.069020807343380230e+00
2.126396786979217399e-02
-1.828031764002116866e+00
-1.523930681598795189e+00
8.992983686118017905e-01
-9.554546973905783114e-01
-1.547895424788855889e+00
9.884641250660967104e-01
-6.736218199049780475e-01
-1.052678455805949209e+00
9.931358114922376190e-01
-6.826870492713998928e-01
-1.025482392024055667e+00
6.383747262975267844e-01
-7.846334812967792338e-01
-3.568186087473445567e-01
9.000484834354028907e-01
-3.319271754125869833e-01
-9.860733803503585193e-01
-7.646140402703800742e-02
-9.582153872107269654e-01
-1.393109816612616569e+00
-8.411018290770685413e-01
-1.479375143960066419e+00
-3.749848995609799673e-01
4.926742217873172902e-02
-6.311247270036652868e-01
-9.091377664886073073e-02
3.265220595719315888e-01
-1.908080833787250796e+00
-3.753592846922373244e-02
5.367189384616818382e-01
-1.557625220737495431e+00
-7.057486082304490482e-01
1.327790569366890383e-01
-2.294934000508128680e+00
-2.375184121432572848e+00
-1.411654511617240315e+00
-3.418127137258464288e+00
-2.463212126039947325e+00
-1.112395925968726607e+00
-3.032288401045032611e+00
-1.403249162335073130e+00
-1.743821296366309531e-02
-1.803077422062045132e+00
-1.492300267953119430e+00
3.232470181763373307e-01
-1.350623200078792552e+00
-1.288650751948308359e+00
7.671172775922789899e-01
-6.905425549917113548e-01
-8.073948842094184064e-01
1.021569497272905691e+00
-2.043810696310390251e-01
-5.918548247233983428e-01
1.330981028076224426e+00
-1.087035908548086849e-01
-1.346737884342316949e-01
1.599632478040362349e+00
-1.876456728941389152e-02
-5.992614419365692724e-01
8.558486268808066511e-01
-9.416584473515766662e-01
-9.173028789786682458e-01
3.127880498959620947e-01
-1.957579396498294599e+00
-1.171357203535200009e+00
-4.665828708228616506e-01
-3.118834851521184781e+00
-2.287205279204698627e+00
-1.766992884237961858e+00
-4.674967004786410030e+00
-2.518852706439322464e+00
-2.254166837677876511e+00
-5.425981803688689098e+00
-6.910318545257253531e-01
2.845594097159483971e-01
-2.434809348476088431e+00
-7.187898604804542346e-01
2.604092377709306128e-01
-2.471205876649432032e+00
3.331496397509829954e-01
1.204570250402470899e+00
-1.128636299932705755e+00
7.863941679503809734e-01
1.542223468366841876e+00
-3.557135686633296490e-01
3.639294263304076460e-01
8.513070845946547616e-01
-6.417581593140893048e-01
7.594092806912371429e-01
1.106698404529866009e+00
-4.788448804491330923e-01
2.751024684537629383e+00
2.776188632269350087e+00
1.398533764449304329e+00
4.200294308459239012e+00
3.902213297692782135e+00
2.720785938873192755e+00
5.636264400423503851e+00
5.275786103778557390e+00
3.852921793246866677e+00
4.298438419779627928e+00
3.521350354408971040e+00
1.980807998619772636e+00
3.823839213800794834e+00
2.763888639701081118e+00
7.034366144440019619e-01
2.944345060466765585e+00
1.842988662232247332e+00
-4.653208768418364283e-01
2.089431532265189961e+00
9.679947444504907184e-01
-1.989122985454760961e+00
2.195622592000617601e+00
9.457314622291220774e-01
-2.397818362624632105e+00
1.210380386180176737e+00
-1.954868614087937884e-01
-3.956485042288928611e+00
1.410372407544359108e+00
-3.296295905060599857e-02
-3.864122519614098916e+00
9.310886963817502915e-01
-1.628834340287129478e+00
-3.308598922762868710e+00
1.489542804460324499e+00
-8.322657639511226169e-01
-2.634456455861533097e+00
1.035990953614394305e+00
-1.029198215031437824e+00
-2.631788561035893093e+00
1.924700550673021926e+00
3.248779380642261572e-01
-1.443538877628434358e+00
2.150884365467491843e+00
1.271396791489050937e+00
-7.437453425833238096e-01
1.904619938756091813e+00
1.324724650074924570e+00
-5.847417492089078683e-01
1.180354052493161943e+00
8.191348545205583420e-01
-1.114398679536022341e+00
6.600129587307682621e-01
5.214320116739458166e-01
-1.482121961436126290e+00
1.436500975176853379e+00
1.510200968193644133e+00
-9.659441543489101223e-01
2.860155635636031146e+00
2.783114446097294081e+00
4.313513036900475939e-01
3.028166287306942817e+00
2.732847105603597893e+00
3.220757101386751975e-01
3.092258121012759542e+00
2.564060851427965027e+00
3.140145257236657272e-01
2.972532549179144556e+00
2.218369515541451786e+00
-3.639635848473935509e-01
3.175637882131411516e+00
1.971239438384552622e+00
-6.082881898441570012e-01
1.998151132399688779e+00
5.656052014838878206e-01
-1.914821062715386990e+00
1.835931496112962913e+00
3.524883083961699026e-01
-1.948752126499000425e+00
1.289698381349416056e+00
5.716851795891809696e-01
-1.399523066860379972e+00
2.351365785182045087e+00
1.661615910409829588e+00
-2.960035095917523673e-01
3.659412594429404475e+00
2.864721780516221727e+00
8.699696040800393160e-01
4.244630775145206592e+00
3.409258067343843734e+00
1.027489080713850145e+00
3.371849749647994887e+00
2.666540009762805585e+00
1.384740352947337050e-01
2.355112212117039583e+00
1.871434131469719153e+00
-8.457843262536132167e-01
1.364547278778493133e+00
9.295443063927263383e-01
-1.988787934358567489e+00
5.095620181566075102e-01
1.061070329709927762e-01
-2.878396455465492387e+00
-3.484909036577300556e-01
-5.455617346351148145e-01
-3.700791125151612793e+00
8.690201472364131874e-01
9.219817172139205264e-01
-2.334738038620663758e+00
1.499928732336490045e+00
1.885170362641644060e+00
-1.417553770310938210e+00
4.964650936168877871e-01
1.276473787290578921e+00
-2.075109252477293609e+00
-2.233896826894299081e-01
8.282391759048398638e-01
-2.656890407192843195e+00
-3.220255883475314218e-01
1.002004528719771415e+00
-2.374765114687050538e+00
1.489161061739784075e-01
1.635440850971499271e+00
-1.691758220291440518e+00
1.553112408620137996e+00
3.150346152297101909e+00
-2.093491379454827939e-01
2.009477996335395034e+00
3.902254294884947683e+00
1.504738225922816586e+00
1.023968463004687246e+00
2.835568717528656357e+00
3.260741636107258312e-01
7.978922247963178283e-01
2.429198311435119439e+00
-2.653226038831742462e-01
1.089520997410978603e-01
1.786883137037813540e+00
-1.297607805069704190e+00
-1.106982772386704728e+00
1.248600667360532518e-01
-3.177461400058223084e+00
-2.126168679136630324e+00
-1.027024805306897104e+00
-4.675201136739487673e+00
-2.028532520032099828e+00
-8.732992985854718393e-01
-4.908924613970868656e+00
-1.795398177932355344e+00
-7.728377507819784720e-01
-5.159666239878166749e+00
-7.615001477377310313e-02
7.910946052415998020e-01
-3.596034525657894054e+00
3.177114415263253278e-02
8.885530933360986650e-01
-3.062573709705583180e+00
1.893283853898937164e-01
1.103498721417392137e+00
-2.943333757537261786e+00
5.734055854528787854e-01
1.637903471668205491e+00
-2.395442468569712435e+00
1.007384455987863747e+00
2.389720502837272331e+00
-1.646417541301144816e+00
1.200278002499919117e+00
2.833123582461366752e+00
-8.846173067487147490e-01
6.539656102977146057e-01
2.073884154481222097e+00
-1.420669319773522066e+00
7.844507204263033717e-01
2.165058120120089136e+00
-1.191444069481821799e+00
1.143972748392730443e+00
1.474382161839007832e+00
-1.454522925683738643e+00
4.537551614377675901e-02
6.474492431654198521e-01
-2.361868248314992869e+00
-7.285710479165660169e-01
-2.744701471266023374e-01
-3.103129619333082179e+00
-3.319103630282481121e-01
1.990990162581792733e-01
-2.636014814937661210e+00
2.032217236023242390e-01
1.239666307650984622e+00
-1.768289328500022073e+00
4.929820692200176380e-01
1.760104605576255254e+00
-1.273447027353253658e+00
6.338895497324327222e-01
1.684337306173151250e+00
-1.298810050534316529e+00
1.543470382688840736e+00
2.697235793811137317e+00
-3.619866672966628451e-01
1.047960026742967399e+00
2.473908997187268977e+00
-8.840155806788743131e-01
4.432991741222451210e-01
1.456320049505322123e+00
-1.737951171699979591e+00
-2.190131206144384224e-01
1.554562705094524044e-01
-3.011971080603438544e+00
-1.572485003091112776e-01
-2.629215285092159973e-02
-3.170320474206929973e+00
-6.924864412136846892e-02
-7.876016014105467755e-02
-3.211965422024334771e+00
-5.285733947293670687e-02
-4.026827438608453491e-01
-3.533093647892818545e+00
-6.415673553672692764e-01
-1.270920213960208045e+00
-4.409881643866931711e+00
-1.478966101410036149e+00
-2.182700547580838091e+00
-5.101927301905148759e+00
-1.497120732611484595e+00
-4.510711679161355514e-01
-3.519020057031428284e+00
-1.361802635278797968e+00
-2.364727322051052016e-01
-3.305286152619839601e+00
-6.621267360692475457e-01
6.893256564596405012e-01
-2.136691751561826447e+00
7.165258803098094598e-01
2.033056221232788285e+00
-1.090372757476538723e+00
1.152634414434383636e+00
2.579566958214996486e+00
-5.360958773861954629e-01
1.119821801196306588e+00
2.525460247663965152e+00
-7.810117319014472925e-02
7.958765833855855343e-01
2.097471456975874560e+00
-4.438658406326454614e-02
8.965547956405176544e-01
2.479766240896658758e+00
1.196472122827413331e-01
5.026055541545420002e-01
2.090976822186052964e+00
-2.588949415371356033e-01
2.365984969316294872e-01
1.762791822558133825e+00
1.555193918630767558e-01
8.612812728611349833e-01
2.185456832109061498e+00
3.625643148490196310e-01
5.397776686923805300e-01
1.913338698719336373e+00
1.735902067451297881e-01
3.709637519712411513e-01
1.679270995426545232e+00
7.056661721422403943e-02
-8.068190507965272706e-01
6.311014934524519226e-01
-1.075754800975437631e+00
-1.655530867372348780e+00
-2.781409228188078675e-01
-2.034189570659304280e+00
-8.721470330464664578e-01
5.694047547649611074e-01
-1.192014556874888997e+00
-3.608944585729031984e-01
3.339771126831762582e-01
-6.486511513279183960e-01
1.454682627046471610e-01
9.186864834145307412e-01
-2.808746169413510185e-01
-2.354047697048790022e-01
5.552655099036268860e-01
-5.062528275694849755e-01
-1.325378854868297429e+00
-4.243793114802901223e-01
-1.669512423455451922e+00
-1.936974896347239516e+00
-1.008448832991462707e+00
-2.217179520239631163e+00
-1.402086044443316748e+00
-4.021928423526593965e-01
-1.627508436386511770e+00
-1.756788548624824475e+00
-6.575593368899294022e-01
-1.588684454834568882e+00
-1.636967606382229379e+00
-4.760898839659607473e-01
-1.521097169054722142e+00
-1.749111863812147671e+00
-7.763146895489970722e-01
-1.342840659141274928e+00
-1.223305790872528886e+00
-1.691532816232495240e-01
-5.134455533293442731e-01
-1.452328753520599536e+00
-2.593929021744040275e-01
-4.315428060449981729e-01
-1.082123084153643111e+00
-2.286884117719531137e-02
1.871034695126897185e-01
-3.159505289309397780e-01
7.703270119624967549e-01
1.125347151037717319e+00
-1.163871548517461774e+00
-7.001190316557942550e-02
3.388738524920353878e-01
-2.138134344595519654e+00
-7.444992493371517250e-01
-2.247825534809783088e-01
-1.617130786606193693e+00
-3.029955840251430388e-01
3.544011168413985780e-01
-1.674818793698502173e+00
-9.320122098007207478e-01
-1.885841298872587668e+00
-1.854207173934430353e+00
-1.132055048030609523e+00
-2.104710020934790204e+00
-7.831969978444366376e-01
-1.749766182057235497e-01
-1.159548208279210346e+00
2.125349554874210734e-01
7.914106274690169140e-01
-2.940491152113249851e-01
7.472960363405858342e-01
1.129730290159618677e+00
1.264875057692213534e-01
8.603962176170089071e-01
1.150206736342755942e+00
4.105372500925546508e-01
1.207329930336062507e+00
1.481895992095119130e+00
8.458190356667005805e-01
2.453855899166863974e+00
2.419850754971678342e+00
1.839419667981041950e+00
1.728976953608625022e+00
1.730395215274683540e+00
1.497232349670039486e+00
7.502092024411229909e-01
9.208063384038221999e-01
7.308843026383073926e-01
-1.528700260977359504e-01
3.048911359505418125e-03
-3.084411341427685249e-01
2.656835169152267917e-01
1.592930624016099528e-01
3.152305868020083834e-01
2.238471022005574795e-01
5.478005235846025028e-02
1.179778434486600802e-01
8.829062615253219226e-01
5.787047829844557123e-01
6.063598187555807595e-01
1.919956867432811798e+00
1.577800057577066317e+00
1.256459862183423093e+00
1.925335857576096377e+00
1.590842679129708115e+00
1.375255653871909400e+00
5.617859698679906755e-01
1.088651432165118171e+00
8.982867654084264464e-01
1.314791717855623210e+00
1.709047862118388661e+00
1.488675054018609112e+00
6.888640869275816092e-01
8.570213949621323657e-01
5.118952767795587055e-01
8.127330940250385716e-01
9.145699158670932416e-01
5.017519382514600279e-01
5.083064788883914220e-01
2.540582078594409987e-01
-3.462373939225440456e-01
8.399440726723927941e-01
6.362751982693809483e-01
-2.573755529848931883e-02
5.812307930118312260e-01
3.440318074780970847e-01
-2.333796097955600501e-01
1.283382093353085285e+00
6.455026545516338032e-01
6.079887353078127638e-02
5.723056272475371409e-02
-8.763031832721187575e-01
-1.202398621434867199e+00
-4.466899784266317730e-01
-1.307825891106713989e+00
-1.864439435944319934e+00
-3.667793914026068469e-01
-1.325601459723352971e+00
-1.879455949181079388e+00
5.364812652475853261e-01
-1.175823257268201694e+00
-1.756443760675069132e+00
1.979285429923850259e+00
-1.071009171568305801e-01
-8.292467286091735890e-01
3.236681484165330414e+00
1.016459751637032172e+00
4.060913977859349766e-02
2.828229259457536227e+00
4.414193350675828520e-01
-6.968565501402439466e-01
2.153543509863580674e+00
-4.681092741422776538e-01
-1.691808786693798305e+00
2.827093543068964543e+00
6.266793923326955396e-01
-3.714303533929412537e-02
3.496044808204341159e+00
1.236877012616063753e+00
5.611665542591723899e-01
4.130560677177756546e+00
1.900460068874269215e+00
1.140406888341049862e+00
3.665502859843234873e+00
1.605132486404774683e+00
4.934725189583755167e-01
3.864062221724151591e+00
1.655258843339022512e+00
7.907388069539277309e-01
3.767893531140587005e+00
1.351935619058067362e+00
4.509181089993106184e-01
3.850545331266236548e+00
1.765645063368805667e+00
7.959629041680660322e-01
2.916715650947388383e+00
9.610092362427000712e-01
-1.397662979624643143e-01
2.645175200259962889e+00
6.069030259445526987e-01
-3.619703766942539702e-01
4.005692991070717301e-01
-1.357800726728135121e+00
-2.264632293734888613e+00
-9.618839500440041768e-01
-2.633843777406074782e+00
-3.613802960224769212e+00
-4.765290096178897428e-01
-2.319594343865940100e+00
-2.821536798561237180e+00
-1.504798302728899695e-01
-2.083769727850310893e+00
-2.465589836439144200e+00
-2.304518450806105068e-01
-2.081757826093626473e+00
-2.146971533281980093e+00
1.091481932390990367e-01
-1.826660546178739741e+00
-1.783546507695247030e+00
-1.532352111894740854e-01
-2.109400756119756082e+00
-1.908476911367363416e+00
-6.540084615334430529e-01
-1.910710597145723666e+00
-2.222154643218967163e+00
-6.949285391349062369e-02
-1.454864600428420029e+00
-1.948659636007890494e+00
-8.196156058741873793e-03
-1.551520384150644194e+00
-2.125951606109111047e+00
-2.503413466834273349e-01
-1.554063136364082665e+00
-2.239968686999613823e+00
-3.280946057760226742e-01
-1.555789301267260116e+00
-2.625333922593891423e+00
-1.269568826410047091e+00
-2.221259097580927655e+00
-3.663905083532975837e+00
-6.186459747758495942e-01
-1.298694506526713255e+00
-2.874271504541635824e+00
4.800510327281713452e-01
-3.622240198000228895e-02
-1.980313626004172489e+00
1.287583781245120462e-01
1.806848506402939647e-01
-1.848847628854374481e+00
-4.390867954558720920e-01
-5.106011177589704353e-01
-2.229282253062363939e+00
-7.448410145925743464e-01
-7.039521085485966889e-01
-2.305645080470458463e+00
-3.198058983214567830e-01
-4.499617098241108092e-04
-1.536895131853690755e+00
-1.239870664273335699e+00
-7.005175649137442839e-01
-2.150295096948625417e+00
-2.105185540999472416e+00
-1.814806397557100270e+00
-3.066587957734526970e+00
-1.444323937398439783e+00
-1.187107817061131332e+00
-2.183861086920109162e+00
-6.784515787789238139e-01
-4.782571043439298730e-01
-1.467924949609347163e+00
1.242282629011048467e+00
5.678705234122907175e-01
6.328179561822782073e-01
1.074325689858955490e+00
3.718643978270814721e-01
4.650249262902809155e-01
6.991051759739145277e-01
6.810400018918918996e-02
3.393684846797659915e-01
2.706793526885271223e-02
-8.955775371336319735e-01
-5.386993120561398563e-01
-3.998393201844820388e-01
-1.145600504790411200e+00
-6.012470100063830314e-01
2.720086850142137136e-01
-5.829861492758799946e-01
-1.608517192677925145e-01
8.536508066893425117e-02
-4.959253265081452478e-01
-1.901093135051705740e-01
5.762233108805223658e-01
1.085423050029975895e-03
3.288040034175790938e-01
-1.383674811170955588e+00
-2.000816465268729694e+00
-1.605103718494719001e+00
-6.210456126098754526e-01
-7.833796692276034923e-01
-7.641316247260726557e-01
-1.874439608077687058e-01
-7.580338322697952047e-02
-5.704513160951488748e-01
-3.453666340664011680e-01
-1.917482930791246376e-01
-8.993473871019133092e-01
2.618691546769162382e-01
3.603827340841723181e-01
-5.131891456264502382e-01
2.908892249580447564e-01
7.123728939721400977e-01
-5.035465532981430181e-01
-8.471556351463044310e-01
-2.933944127694080861e-01
-2.046521190887282682e+00
-9.421890727429714785e-01
-3.521316092538026576e-01
-2.140399952979485931e+00
-8.448087113653203195e-01
-1.193707025822196233e+00
-1.159527835080486513e+00
-1.037079379861779005e+00
-1.134296166775634829e+00
-1.309839216466758050e+00
-1.190398784464397952e+00
-9.251225259543969237e-01
-1.340765570900759540e+00
-1.080837476776964623e+00
-6.464299418308820933e-01
-1.116054436051635346e+00
-1.447183114160792261e+00
-7.520654124294310350e-01
-1.468117761962604240e+00
-1.367108902758698230e+00
1.544602811434542533e-01
-1.195396295192049596e+00
-1.310717548716489045e+00
4.296984805237006877e-01
-1.100862186533446474e+00
-1.222869529156650259e+00
7.079071800703934381e-01
-9.533576838190248592e-01
-6.526795329409582624e-01
1.621372101530856646e+00
-2.039952362068726266e-01
-5.929684829573591553e-01
1.652668415726257667e+00
-1.347192699483376332e-01
-1.190906834894431832e+00
7.819567140721793708e-01
-8.507753539032847367e-01
-1.589310816717037778e+00
2.323746526956902564e-02
-1.129802330668461030e+00
-7.062760171375354057e-01
7.583968240429670438e-01
-3.391786803013025486e-01
-1.114285255983757494e+00
-1.253848275518396060e-01
-8.335239605117250594e-01
-6.209609869639720614e-01
3.890780746853474831e-02
-4.955315905677309951e-01
-8.417369573790524362e-02
4.169258386933148430e-01
-1.263506033314453492e-01
4.994658684766257184e-01
1.192059255117474903e+00
-1.393026810983271968e+00
4.417574935783687984e-01
1.264005780013330416e+00
-1.257616193400171500e+00
-4.617150635149736559e-01
4.847497136919526328e-01
-1.887748351421722370e+00
-1.996128198478743343e+00
-8.591944222061362879e-01
-3.106319481313061903e+00
-2.118871286609361526e+00
-4.225340390938135404e-01
-2.715101599890540118e+00
-3.939968873611585098e-01
1.070038780144208612e+00
-8.698486831987533030e-01
-1.139767975586986504e+00
6.701520879973537070e-01
-1.266636364534538428e+00
-7.089543614584610243e-01
1.278147660216093717e+00
-4.110362097846476659e-01
-3.803923088419957632e-01
1.544492374075542962e+00
1.722863482738664354e-01
1.177877576651544939e-01
2.059489664741396275e+00
3.408170087911305823e-01
5.610904913510778025e-01
2.435031060507740541e+00
7.055256269474592390e-01
4.713746514966728474e-01
2.026697914818536894e+00
-2.574704709153682533e-02
-2.083743976234662953e-01
1.064144725578148654e+00
-1.289318373705289789e+00
-1.294207021575929595e+00
-5.933656095689987531e-01
-3.262823022457749911e+00
-2.884150967985506409e+00
-2.287793463696822016e+00
-5.285545819690574021e+00
-2.680633927043316156e+00
-2.373945315462383299e+00
-5.261503373100335779e+00
-8.215872029316310110e-01
3.783291868621562193e-01
-2.259465302038631052e+00
-9.551897184042584810e-01
7.895984719612865466e-02
-2.431936134840867680e+00
-8.386532105701265116e-02
8.183556263371872808e-01
-1.579588399524171072e+00
7.778945224242361789e-01
1.526121251460295092e+00
-5.196092308732499498e-01
3.377741603862508546e-01
9.385187058559190110e-01
-6.427599351630708391e-01
9.507537507986454361e-01
1.290961963637630383e+00
-2.350012687719743310e-01
2.980180717054526696e+00
3.076776265946797206e+00
1.638568769513781387e+00
3.110458240979246280e+00
2.781536269362281821e+00
1.550120275635398892e+00
4.071329769634686180e+00
3.725086963273257723e+00
2.110998710618883667e+00
2.756063237431531476e+00
2.105788795025240301e+00
5.204453184081685446e-01
2.971322865475787722e+00
1.907889984992737098e+00
-8.718973945724124708e-02
2.602336796118999374e+00
1.519717452368773092e+00
-7.102397929201551552e-01
1.347457716896007129e+00
2.591799200118460877e-01
-2.599041795815144607e+00
-3.881481155196819799e-01
-1.340371517849006544e+00
-4.744431229397388705e+00
7.782264329933813451e-03
-1.299208484097247540e+00
-4.877401488959637099e+00
1.092466969500910823e+00
-2.187472633504400354e-01
-3.790589236074934032e+00
1.951057909499564591e+00
-6.578342119395557130e-01
-2.233885021502949986e+00
9.738962734341231053e-01
-1.534219111706549565e+00
-3.184479777609911189e+00
2.068354534597450112e+00
-2.752968029291991137e-01
-1.790736065647130726e+00
2.778263588392319239e+00
1.136906016260675667e+00
-5.004198182198157374e-01
2.613952928343084015e+00
1.562333679511954010e+00
-1.442188452366375828e-01
2.734711507957881871e+00
1.808068730468087582e+00
1.115905366707575508e-01
9.542765826784324057e-01
3.842725630560320238e-01
-1.264623066903533877e+00
6.732406106862016681e-01
4.656772252994585415e-01
-1.548071077708095933e+00
1.255771141533586821e+00
1.079301527643556247e+00
-1.175606739569700743e+00
3.206674195126181459e+00
2.849856534917731388e+00
7.742303656506965837e-01
4.020669999640158920e+00
3.672645668441428146e+00
1.414165754452183510e+00
4.085320800748639236e+00
3.287629020072315278e+00
1.244936314008304956e+00
3.248469973843878034e+00
2.180554311692467717e+00
-2.361559696964500230e-02
2.383537218758379428e+00
9.556515603866673203e-01
-1.240507129576125633e+00
1.672736217353775201e+00
4.686622985448316708e-02
-1.933887001923101812e+00
3.769139416596989367e+00
1.979733412209803589e+00
-1.217733632377897141e-01
1.928393165695644784e+00
1.303311118967898974e+00
-6.181143449830881487e-01
2.598510388190602427e+00
2.049853381807369868e+00
6.781797315557536177e-02
2.946922551764828757e+00
2.202821330619916917e+00
3.007626446870078629e-01
3.294517433033126164e+00
2.871220324875948915e+00
5.184080392105707702e-01
3.252440698508731742e+00
2.777707353678898539e+00
2.606795082277818532e-01
2.107488838270508591e+00
1.855983569448722559e+00
-9.453515480983514241e-01
7.807500644501477183e-01
3.825964210946491972e-01
-2.430164272360153088e+00
-1.051215263777310449e+00
-1.321803304856663752e+00
-4.265445613909591316e+00
-5.365487125012988745e-01
-7.099869965899845425e-01
-3.676919998355582475e+00
-4.014052092333830757e-01
-1.972138194915951104e-01
-3.373414175740581555e+00
8.510700021512129787e-01
1.350268488486188634e+00
-1.768377651335904188e+00
8.388205684935409190e-01
1.456842892340596274e+00
-1.419831945369921078e+00
-4.259132113331138836e-01
5.268315709157892490e-01
-2.685200395062110168e+00
-7.492154811441331663e-01
3.634297555585472295e-01
-2.598260096360207605e+00
5.371033549638527527e-01
2.044043219413149703e+00
-1.058755072810249498e+00
1.661427090415628305e+00
3.104516114937495352e+00
1.653672922156401992e-01
1.881477393551574950e+00
3.874243460899934544e+00
1.356069221419841320e+00
1.122828236828313342e+00
3.180918319255880089e+00
3.995958295338009614e-01
5.959738655392857742e-01
2.529478348298332069e+00
-5.040060123429521699e-01
-4.866660508874408597e-01
1.326558549173644685e+00
-1.931387728713787721e+00
-1.268996160791179273e+00
2.826511351983049258e-01
-3.037922489277967930e+00
-8.856331209157389805e-01
5.542327761048029267e-01
-3.197730725361818571e+00
-8.208512839577430942e-01
6.609268069125351364e-01
-3.477999445922738353e+00
-7.407773237080930162e-01
5.461918695895450204e-01
-3.650099434450369440e+00
-2.361105101978437093e-01
1.060812537869686656e+00
-3.222057607792923051e+00
-3.209097544565123888e-02
1.143361626979972900e+00
-2.826474981836395006e+00
7.527358643177743946e-01
1.843099174313122868e+00
-2.112970241281795225e+00
7.831200730345236893e-01
2.045934669549330565e+00
-1.795587384263511943e+00
1.074758909693484865e+00
2.560615434791473799e+00
-1.175209256055200768e+00
1.087551295605836410e+00
2.692857763513137215e+00
-8.489052568700075074e-01
8.388234521943904731e-01
2.717591601641055288e+00
-7.955553783878044349e-01
4.691639885841119018e-01
2.164761101105608709e+00
-1.440928072489533918e+00
1.077395210426220995e+00
1.519732906393162386e+00
-1.036581700026305342e+00
9.711516184096211646e-01
1.141264858865360887e+00
-1.527480396483910763e+00
4.135063944794144519e-01
6.707311961283261015e-01
-1.844262662670017150e+00
1.828749508086090492e-01
5.996725562195254211e-01
-1.809387285549886482e+00
6.667723419703168730e-01
1.446865548340026120e+00
-1.354554186154811379e+00
6.926653523698648174e-01
1.720753892038547450e+00
-9.544726239166911874e-01
1.042826393115240169e+00
1.762886606314289395e+00
-9.565975698539416205e-01
1.388211861330665986e+00
2.412823759088835285e+00
-2.881963586152534451e-01
1.033083081979075502e+00
2.060117251495624302e+00
-8.347646490901642347e-01
1.026063871368353198e+00
1.890320693941542673e+00
-9.983755485720932077e-01
1.209491964102238581e+00
1.614252266437992134e+00
-1.127168988972794939e+00
-1.698173216202991664e-01
5.825951787595369524e-02
-2.949482684705026170e+00
-4.750767309801622318e-01
-3.644680734342359840e-01
-3.447575299714622954e+00
-4.388973519296004433e-01
-6.803340621860677340e-01
-3.625961021798465023e+00
-2.168423640571520428e-01
-8.760943205513486154e-01
-3.676015051528546795e+00
-1.614330100733787632e-01
-1.008989562146761720e+00
-3.753396655672985638e+00
-1.524639102857931583e+00
-4.227020882033956095e-01
-3.155350515366901476e+00
-1.258270446394537556e+00
1.491800466075328662e-03
-2.582744853204737900e+00
-6.796034666260373225e-01
5.959570508765511532e-01
-2.121998769583931299e+00
1.808635586191105482e-01
1.514887601234666592e+00
-1.234342525530213397e+00
5.937459198097780333e-02
1.567668766401148384e+00
-9.964062183589884603e-01
2.824065518431685962e-01
1.908426823072014944e+00
-5.658982475925898870e-01
1.960859208121998598e-01
1.850620029641863562e+00
-3.182751204856647531e-01
6.164397988743479662e-01
2.243381380053489416e+00
7.862467746999755869e-02
7.424497873246110879e-01
2.192953054118104372e+00
2.350398631728532195e-01
8.345247706652563213e-01
2.162798365203159268e+00
5.388410711479467707e-01
5.236860216214954677e-01
1.879553489584831150e+00
-9.198531170991743056e-02
-7.971833724154773204e-01
7.014304835033350338e-01
-1.070870598825248043e+00
-2.408551646526441714e-01
1.007842166748623480e+00
-7.603814209706538652e-01
1.630489285763553065e-01
1.412168279104145663e+00
-2.714370726136857703e-01
-9.142934088213618971e-01
5.291000594614874153e-01
-1.209918445532548459e+00
-8.829711035117991935e-01
3.229207829868702140e-01
-1.489887944264634001e+00
-1.112020923811559148e-01
7.137579158512127320e-01
-3.660321754136157124e-01
2.563814892232471054e-01
1.093623888744413852e+00
-3.316142985485310418e-02
5.061995531472691656e-01
1.511805319224312605e+00
4.906395521154398032e-01
-6.193581819391579257e-01
4.997878749014139643e-01
-8.547436236946776011e-01
-2.100704273593230198e+00
-1.177811032091943044e+00
-2.455713039597969605e+00
-1.623951523474068015e+00
-7.644164153591126443e-01
-1.921578471045150005e+00
-8.595845579472087827e-01
5.191885505430240966e-02
-1.016497539884711587e+00
-2.296528066523091660e-01
7.025835527393539115e-01
-4.766135722430910326e-01
-6.634575335680961139e-01
1.793726095466966208e-01
-7.625899525532648937e-01
-1.512227232425862544e+00
-7.082520947624403318e-01
-1.307481661664379402e+00
-1.394165486542556120e+00
-4.960347904608041758e-01
-8.255894603807617527e-01
-1.077662404466822377e+00
-1.671838479247634013e-01
-2.766785600013268454e-01
3.364185540969896748e-01
1.279506648839412009e+00
1.655227766646333087e+00
-7.429475944185239822e-01
6.028462164721749145e-02
4.668155081595606881e-01
-1.813394754864146918e+00
-7.579092192532704830e-01
-1.978350419384683756e-01
-1.419437433358788470e+00
-1.435360766834581636e-01
3.914994210969038324e-01
-1.456962538726884526e+00
-7.205078882912961946e-01
-1.617142213992846411e+00
-1.483797622480364620e+00
-7.968204361235952105e-01
-1.825408097961890741e+00
-3.224346823055563305e-01
3.247843443140973618e-01
-7.739706298535397044e-01
-1.339125806207990812e-03
5.318972017191616608e-01
-5.428390574780744826e-01
6.101445328704717674e-01
7.629392182391820931e-01
-8.440593918016012220e-02
5.637771236358265492e-01
9.145804132348079873e-01
4.951810363209203231e-02
9.841550095641180551e-01
1.103156232640165157e+00
4.344180502802508226e-01
2.289470348728375626e+00
2.225944001696096297e+00
1.770286182819211795e+00
1.224054245330872481e+00
1.149825272656340047e+00
8.828327792608927638e-01
2.924902245214220931e-01
2.425977894050819761e-01
1.398875452853915458e-01
-4.646312706282347826e-01
-4.957782563834584044e-01
-6.637157499727611709e-01
-3.308130793060697905e-01
-4.358340203486357756e-01
-5.362810260674506502e-01
-1.485764912098410662e-01
-3.598855903052775029e-01
-5.247018242697947255e-01
4.771546226652740308e-01
7.444433829631692812e-02
-1.868000839334485741e-01
1.174246156266761432e+00
9.998674087186499859e-01
5.476002903718171222e-01
1.382088092379212485e+00
1.015828996174080512e+00
6.377614485117204524e-01
-7.650866275829008023e-01
-1.769539490735412002e-01
-3.048609556919116836e-01
-4.909927548712190726e-01
2.572269922791014518e-01
-1.043053301764865770e-01
-8.957528231695985887e-01
-2.249611018753377434e-01
-6.064567531269692280e-01
-1.092183221251013664e-01
2.071977298809212498e-01
-2.850528026465834475e-01
-5.009200083503748679e-01
-5.186881068104614023e-01
-9.084951110039309885e-01
2.820642903143385505e-01
1.813649656559034040e-01
-4.794970316077518668e-01
1.385093070809046145e-01
7.681213192054617278e-02
-5.335703824220404679e-01
4.879759875129166535e-01
-3.945980005755386766e-02
-3.827666315579358880e-01
-8.991557658015800203e-02
-6.421474864963150342e-01
-1.098392175290467065e+00
-1.497982680195567018e-01
-7.901920128309644076e-01
-1.201746060519105042e+00
7.738539856212624246e-02
-4.469645840210457188e-01
-1.165093463467596457e+00
-3.297022439824522089e-02
-1.123190360148440758e+00
-1.712537314770680164e+00
1.209684970738751586e+00
-3.827722898549169028e-01
-1.106449138192386883e+00
1.871602512721698197e+00
9.273228223949409044e-02
-9.633739201727804513e-01
2.035080140956949002e+00
9.554564508342518192e-02
-1.164581112732344215e+00
2.233987434761492530e+00
2.217426788538955640e-01
-9.904450954611961899e-01
2.193683773337094411e+00
2.652102493747287015e-01
-5.605740272171876315e-01
2.941306225741023628e+00
1.219188956496742193e+00
2.514569115217183404e-01
3.953196448906246108e+00
2.049614036176351739e+00
1.222090593426194749e+00
4.092326266526423062e+00
2.076061232197425444e+00
1.182108266797992746e+00
3.283463651187537025e+00
1.406347958308765023e+00
3.159978537188087300e-01
3.987904928032292684e+00
1.898012423786831215e+00
1.084915612670934726e+00
4.635744922944926572e+00
2.812368712436387863e+00
1.785789603881287935e+00
3.853472846401753582e+00
2.237399044178474572e+00
1.099924267021988866e+00
2.909052110277813963e+00
1.040534855823843863e+00
2.534001332979014531e-01
1.080980721727546001e+00
-5.377454054969906805e-01
-1.463258995658746286e+00
2.398282599012698801e-01
-1.210386084779279336e+00
-2.038493738786214315e+00
6.979354507743549263e-01
-9.933817890515567184e-01
-1.582947039069410256e+00
1.048091375964746996e+00
-6.412363384276874578e-01
-9.299586753957194141e-01
1.529710958183003067e+00
-9.004645081990403366e-02
-3.942567206007099867e-02
1.276629145091944917e+00
-2.842804473148002331e-01
-2.619737512834432458e-01
8.796430461209380214e-01
-9.699566877010573629e-01
-6.950713555833696322e-01
-1.092560798102426123e+00
-2.151035889216867947e+00
-2.388647624693224003e+00
1.853605610715958474e-01
-1.051429096450856582e+00
-1.416573131100742344e+00
-5.904247711747569877e-02
-1.277380453861172604e+00
-1.832187668952410364e+00
-9.736627585673568452e-01
-1.927540818349313900e+00
-2.809863948073250572e+00
-1.553399690054137583e+00
-2.614044209284967835e+00
-3.369178300759939404e+00
-1.859886118386188780e+00
-2.876112639948375183e+00
-4.114976415912286356e+00
-7.442358263460964185e-01
-1.548303422284415198e+00
-3.086025455789865646e+00
-9.730960592150488253e-01
-1.171829643887569716e+00
-2.907360356394006473e+00
-4.792949915751958945e-01
-6.084355417333865423e-01
-2.256384352941240401e+00
-9.112408067380302068e-01
-9.811508336266144825e-01
-2.553162257959801895e+00
-2.964834354493433577e-01
1.187922708529583482e-01
-1.298524807685733196e+00
-9.625418194297384600e-02
4.934981579917966377e-01
-7.177969041504872472e-01
-1.233146831164193769e+00
-6.112179793897617452e-01
-1.658108237451388023e+00
-2.273861960080864275e+00
-1.788061895778547905e+00
-2.811754945486300450e+00
-1.975285420975455342e+00
-1.679453053949681918e+00
-2.446899955812265048e+00
-1.755070265550024322e+00
-1.406583305392533401e+00
-2.184544499118996175e+00
-5.863962548834808497e-02
-7.245314110240597127e-01
-6.301847880601770813e-01
2.928518982712710605e-01
-4.478375904558606901e-01
-2.580860335382197945e-01
9.661572556429192105e-01
3.834910878465367934e-01
6.580062592656641396e-01
6.758666826779491377e-01
-1.604314903049257612e-01
1.811147111657565867e-01
2.345032620124276879e-01
-5.429279707664892429e-01
1.468520566000802718e-01
2.959664809575579536e-02
-6.180443142042347793e-01
-1.036721128142615023e-01
-5.452279845832992689e-02
-6.989579043568210359e-01
-1.424278128282894205e-02
3.909830102957826403e-01
-4.303743121515208880e-01
3.156014931704971271e-01
-3.119690489129393618e-01
-8.245995960543476277e-01
-2.172968450208182800e-01
-4.699955656956891076e-02
-3.130988446715682882e-01
-2.220170740341652349e-02
-5.736481631478761445e-01
-7.151693142949701043e-01
-7.558605001194014239e-01
-4.542502249321163643e-01
-3.975405132843456979e-01
-8.340753961074700573e-01
7.988290046639113795e-01
1.154726622461009544e+00
2.935560435976649618e-01
4.079527236328522322e-01
8.990374633895493739e-01
-2.394281880766077342e-01
-1.303997364986021257e+00
-9.951713727538648024e-01
-2.259865982958306763e+00
-1.943867508997024318e+00
-1.579645750462321807e+00
-2.930685608214444127e+00
-1.318405473706884656e+00
-1.332268750939624047e+00
-1.420357269432068081e+00
-1.254738309129262097e+00
-9.666997633421127167e-01
-1.153212160924911744e+00
-1.128454343536703375e+00
-9.590547859358314886e-01
-1.242649232204556808e+00
-1.447799415949568624e+00
-9.320540258107989917e-01
-1.326213686699083683e+00
-1.366174414008358928e+00
-5.516509895593896262e-01
-1.160165459135793720e+00
-1.547456540285619964e+00
-1.470558283788989951e-01
-1.380994237983060868e+00
-2.010421742928947708e+00
-7.215318938968792728e-02
-1.624669778192418867e+00
-2.324376283652246133e+00
-3.034591335239821275e-01
-1.843671978488624408e+00
-9.422083547321861152e-01
1.438760251343583318e+00
-1.865029578532362842e-01
-2.932995369555470577e-01
2.066184029699390301e+00
5.233437343617988180e-01
-9.100447746012626515e-01
1.236810389071785199e+00
-1.877637970301088977e-01
-1.001370935222602787e+00
1.053458618580451978e+00
-2.560496604886758343e-01
-5.491581914530004882e-01
1.250500427236821199e+00
1.412435070487637057e-01
-3.922529633149861028e-01
1.132900770505251176e+00
3.043451453026763120e-01
-2.622743811339015366e-02
1.113394561198689070e+00
5.032172954381831653e-01
-1.282203209668278943e-01
7.761143741053904144e-01
2.876507037880507989e-01
-3.487332130269609198e-01
4.051302161959264847e-01
-1.945442854596033389e+00
-3.105679788591714230e-01
6.005721685706640889e-01
-1.779492061099726685e+00
-4.557462752939537842e-01
6.681628758166243687e-01
-1.642213900627599310e+00
-1.321200278964819175e+00
-3.201851933795071825e-02
-2.304805016034428444e+00
-1.186094544014154151e+00
4.374077570598506881e-01
-1.741368853559129626e+00
-1.464276040401486789e-01
1.484470759040821930e+00
-2.719664232065459042e-01
-1.076160817333976727e+00
9.001990147157901134e-01
-9.243018751328637705e-01
-3.858941364675768093e-01
1.508206045294494535e+00
-1.058182359462392780e-01
8.242688440467942357e-01
2.830445584931688963e+00
1.369824189919971236e+00
1.295659092934491108e+00
3.326356436367655434e+00
1.797510057286829666e+00
1.454642032616155989e+00
3.331758548495160621e+00
1.782665804658582820e+00
1.590347490226144300e+00
3.163084654632978054e+00
1.390820613225734803e+00
1.299503034155422121e+00
2.540296176872566480e+00
4.987093101784264015e-01
-5.483031891079012121e-01
1.754059604383052251e-01
-2.093238982184193020e+00
-1.978493171266343387e+00
-1.308977104139644965e+00
-3.892531178623758414e+00
-1.992728297182634778e+00
-1.448567271653182331e+00
-4.078258293709213333e+00
-7.263780661553197460e-01
2.794732726111668342e-01
-2.088175362148374514e+00
-4.838315443266842930e-01
4.351078232700993365e-01
-1.855203512959694656e+00
9.867243838397801725e-02
8.211381645325507295e-01
-1.335031489146111694e+00
8.407998302389363410e-01
1.459815978389577662e+00
-4.270025740363777023e-01
7.699913992030112952e-01
1.251564805619376664e+00
-3.294459264543538324e-01
1.966547710301875362e+00
2.140846983728978969e+00
7.371281279138206521e-01
1.819101927314936251e+00
1.817011725487752249e+00
5.054919861187405772e-01
6.837695307394013877e-01
3.281548459684314745e-01
-9.600598871826002689e-01
1.593047609024269340e+00
9.929267449831842285e-01
-5.811956159146567380e-01
1.493411844640064823e+00
7.002180302693672420e-01
-7.909310779832245952e-01
1.559626599737833352e+00
3.569873752154499313e-01
-1.474860573075104542e+00
2.172973498849277707e+00
7.362093825451044848e-01
-1.408823095030154127e+00
-9.277965475776066284e-02
-1.350489098673899768e+00
-3.928282392122024014e+00
-1.394617411955167530e+00
-2.614673867028961762e+00
-5.456278843336584750e+00
-8.047387895756729081e-01
-2.036400606403787616e+00
-5.259290590109787722e+00
1.228666313031621105e+00
-7.280036933683581291e-02
-3.329650400086403561e+00
2.920738060026395910e+00
2.123557839655213220e-01
-9.068489021796605210e-01
1.859229555378559606e+00
-6.084092009022626923e-01
-1.931299142025378446e+00
1.345441940914080314e+00
-7.384544418373096830e-01
-2.150926937440778897e+00
1.468210467357613513e+00
-1.271246467428822913e-01
-1.542315024959991732e+00
2.930126951360836784e+00
1.877416071814359544e+00
3.420559135053288236e-01
2.235698647204487077e+00
1.402625638386073570e+00
-6.397603705446171241e-02
1.676737933214099696e-01
-1.798037100960860335e-01
-1.791650869655798894e+00
-7.233527901577252971e-03
-1.965515690890383971e-01
-1.898922692539817270e+00
1.943361283250671923e+00
1.974853300894057417e+00
1.170352748304555046e-01
2.789943035257335779e+00
2.576022860411528281e+00
7.392009654626406912e-01
3.178793568769368694e+00
2.872221503033160594e+00
8.208990953588227724e-01
2.425941664027803757e+00
1.776429767617478062e+00
-3.164097069720285538e-02
1.777383467680316631e+00
8.216194874065394504e-01
-1.020608925377715748e+00
1.812980789221546596e+00
4.837540602640742482e-01
-1.207041038867473048e+00
2.662098986214810559e+00
9.990645903021531105e-01
-5.835782208589784803e-01
3.308725350811461574e+00
1.619465086495263328e+00
-1.225730908534486824e-01
2.254229565023932569e+00
1.870934502289240964e+00
-1.429081470425165590e-01
2.943885296848823163e+00
2.638296739601598162e+00
7.268488587017351010e-01
2.648683288112396284e+00
2.199059128900622273e+00
3.168034593343976302e-01
2.074939961598113669e+00
1.641289734097465036e+00
-5.069162078752403877e-01
1.139088121312156421e+00
8.206599588143047574e-01
-1.493046846425253538e+00
4.506457239598422176e-02
-5.934224948066564587e-02
-2.842135131869476972e+00
-4.166146447335644654e-01
-7.319711879430709223e-01
-3.265118324659618487e+00
-1.759348295155964692e+00
-1.956207579495294224e+00
-4.699922137071609107e+00
-4.235762666294654033e-01
-3.375713862580171365e-01
-3.274664720088919179e+00
-8.464907998278045978e-03
2.848297024910478870e-01
-2.770999467255521154e+00
1.234812470111203986e+00
1.651990377206151495e+00
-1.326519842219081591e+00
1.232015382203293319e+00
1.935108094313922944e+00
-1.147747987586829499e+00
5.513113582311938154e-01
1.633826414435304741e+00
-1.365121519641055770e+00
5.437006227043623685e-01
1.842147302639657092e+00
-1.175695271233450523e+00
1.993805030825180236e+00
3.672400648501347398e+00
7.730091884229951527e-01
2.029922348103199159e+00
3.626113824987296841e+00
8.266684103005675910e-01
1.768521952076563153e+00
3.979562604729747655e+00
1.280825975543830930e+00
7.898772988990616639e-01
2.965651300477111896e+00
1.789687153213379844e-01
8.528600637070132828e-01
2.865250882539146282e+00
-8.235773423190606568e-02
9.661722514404808004e-01
2.765084085140355086e+00
-4.092887762581463029e-01
-3.620008796724539790e-01
1.437793731273715236e+00
-1.966842206748342647e+00
-1.106125105754167448e+00
4.590464491306761041e-01
-3.069187162836886529e+00
-8.215515824672302569e-01
7.199893526802590982e-01
-3.163790237060111643e+00
-4.551691420477563255e-01
9.734046134290497143e-01
-2.850486543057264566e+00
6.450170980971549339e-02
1.380948520519404976e+00
-2.520752991829040113e+00
4.399199980248345576e-01
1.869403471899481195e+00
-2.012785912195449445e+00
8.920245752122011318e-01
2.383099108615802653e+00
-1.365538341883613782e+00
7.307584199165886307e-01
2.423599353617619023e+00
-1.308813196635172593e+00
1.441689854992388664e+00
3.165543939832894615e+00
-2.842420804530159661e-01
5.239765842557554398e-01
2.163535985897981018e+00
-1.173980806606501837e+00
-5.428928976761261405e-01
1.211363252264587631e+00
-2.079503108845210058e+00
-6.751726937900660586e-01
1.057163271351376554e+00
-2.219372949619853763e+00
6.690899283815822107e-01
8.258340320905254162e-01
-1.709825219983713618e+00
2.290612264178559787e-01
2.553883735251413767e-01
-2.154229194269736247e+00
-1.375537908318103242e-01
1.755958351496301204e-03
-2.345621767426437909e+00
6.522245058118683603e-02
2.262411787624559190e-01
-2.145210557738153945e+00
1.148408722068041454e+00
1.671320195380116891e+00
-7.875504938957258450e-01
1.011926827795024186e+00
1.644082960500013346e+00
-9.550996742029510544e-01
9.353065700342910738e-01
1.741430935112936451e+00
-7.497629752703488526e-01
8.826004270789473694e-01
1.842374382023823642e+00
-6.775872831424025744e-01
7.758317245822237140e-01
1.538157695545352865e+00
-1.052752614124725206e+00
7.436939764171417444e-01
1.403527964157018193e+00
-1.288086395364855807e+00
1.561721996158636161e+00
2.123038005177722454e+00
-4.775298770179512986e-01
3.782258128819367404e-01
7.788903856771218770e-01
-2.064933947367016298e+00
-7.682790146492726180e-01
-7.182113907006442144e-01
-3.556623323497012379e+00
-4.552285445366878736e-01
-7.109867913196019629e-01
-3.553909011325416145e+00
-7.408210510636840940e-02
-4.943958206077230244e-01
-3.463213411587275914e+00
3.701674116553456129e-01
-2.082264781413226407e-01
-2.967539408721474814e+00
-1.235326457847102599e+00
-1.894621298937502196e-01
-2.778524828156943016e+00
-1.682603547848002146e+00
-6.085394287282308579e-01
-3.103378299249564432e+00
-1.424573663162866932e+00
-1.955523903489453930e-01
-2.811594296742230270e+00
-7.712068054202655398e-01
4.869024977411721133e-01
-1.890691997242330169e+00
-3.591939351933538527e-01
1.031309364627614356e+00
-1.465859766621401938e+00
4.343508763569189912e-01
1.940731596460148811e+00
-4.892183707994791075e-01
3.503979551570468032e-01
2.005282226530906708e+00
-2.934103613430141255e-01
1.048452254416497587e-01
1.570265860983838913e+00
-6.098397863836281241e-01
1.072740182996768654e+00
2.448689112909676169e+00
3.026950210465996216e-01
1.083497342021138454e+00
2.339763239479647261e+00
5.431767274229361009e-01
9.521836019545182328e-01
1.997893028593830778e+00
1.159399309936085670e-01
-6.505708853896786659e-01
3.966931757326004337e-01
-1.435020880841986424e+00
-4.016081550838251912e-01
5.695136200156721840e-01
-1.317568129465360505e+00
9.145020178192551918e-02
1.069938898725369736e+00
-7.088532196505384908e-01
-4.032119940812411429e-01
7.703224280549535452e-01
-1.236122358725313841e+00
-7.126109957555970542e-01
4.786151563104911189e-01
-1.612535260955360483e+00
2.639929197204878009e-02
1.030378943704107542e+00
-1.056901088780801828e-01
5.702623288263022339e-01
1.559954188193149127e+00
5.857488580695500158e-01
1.231044911901520988e+00
2.299952492333429355e+00
1.089912446156214187e+00
1.070942911265055225e-01
1.000234876733831380e+00
-4.035328210701991658e-01
-1.508998077943985772e+00
-4.502226637720654345e-01
-1.964342435588838365e+00
-9.591728808036075193e-01
-1.909969840086808354e-02
-1.600700935480989129e+00
4.196032048300351452e-02
8.868445649267283626e-01
-4.447682361664007100e-01
2.354440239471557172e-01
1.072730133674004493e+00
-2.500530184129775568e-01
-3.379938269852335586e-01
4.607358354454529903e-01
-6.014616885944180646e-01
-2.340470554546425941e+00
-1.607487257524064406e+00
-2.402230321524059242e+00
-1.817540263279675106e+00
-1.050720934573339704e+00
-1.518632560025359179e+00
-3.511426751820332370e-01
4.620235120749081603e-01
3.201110252446329185e-01
-9.807541158911910195e-02
6.647204537867841267e-01
8.549186265952612995e-01
-8.914725705639613418e-01
2.545353504612848372e-01
3.703879051042384130e-01
-7.194313913656852355e-01
2.251758248303831755e-01
5.784836745424731808e-01
-8.683497973319963537e-01
1.733407444791779939e-01
6.212932793973233725e-01
-3.027463136574070623e-01
2.510200017879465340e-01
-5.808717615985199423e-01
-9.597661395236163351e-01
-3.676718370624592058e-01
-1.221299363010143191e+00
-3.263569030383685621e-01
1.140741747159801228e-01
-7.518819617505044794e-01
-5.025821840916973038e-01
-2.692613991879232449e-01
-1.207569721768374071e+00
-4.314655347149649600e-01
-2.706055513028704507e-01
-1.118130253183212242e+00
-4.126682674796487010e-02
-3.695449728802768091e-02
-8.321222464436239807e-01
2.440822207539930788e-01
4.755457328723481508e-02
-5.093542925160420287e-01
3.952982037629678147e-01
2.678866633764528382e-01
-2.879588951233255645e-01
8.675670988527652838e-01
5.000075862549627770e-01
3.114608677562529793e-01
-4.924783520138207304e-01
-5.813764446134387365e-01
-7.015101374838663695e-01
-4.388882374718343637e-01
-5.997046405196527763e-01
-9.514275308214458216e-01
8.988290646689128804e-02
-4.823148622592252077e-02
-3.444643932320417545e-01
8.500344872482341607e-01
4.870350423654594696e-01
4.065627410749186321e-01
1.117673147785522625e+00
8.639672165429415074e-01
7.074760882823518671e-01
1.191437859461733417e+00
9.873400414752421250e-01
4.876127902772163791e-01
6.770648318002439048e-01
5.474445692223764981e-01
9.955546434008812062e-02
-1.317646522502119444e-01
6.715271800630483456e-01
6.930749776648530425e-01
-2.549551958639776905e-01
5.750742578074116151e-01
4.199684240860817597e-01
-8.496581601453989663e-01
-1.923531457263388533e-01
-4.880921948909173191e-01
3.858718930763434946e-02
5.065009058344409620e-01
3.194575580672358028e-01
-7.679267879181217449e-01
-6.086385539725257532e-01
-9.900796256103177040e-01
5.987492007239442887e-02
2.388345254985897725e-01
-1.853561919083923371e-01
2.414993591136217060e-02
-9.051616484969977547e-03
-5.931065422483758898e-01
-3.386324033967771929e-02
-1.185498591838238802e-01
-7.054101577181336458e-01
1.112598059006475903e+00
8.519850619896672805e-01
5.384852377494132591e-01
1.360681475744479396e+00
1.117101010650861648e+00
4.850926403754751703e-01
1.309769200957799917e+00
7.828417216710277238e-01
3.944123492131320075e-01
-1.853214697468141270e-01
-1.034550270637864644e+00
-1.531315691745412932e+00
-4.437279046073956852e-03
-1.027224514145998358e+00
-1.697286238927292690e+00
8.132003912208601859e-01
-6.069055458630683297e-01
-1.486398670897232765e+00
1.334148886882589258e+00
-1.184742268226202516e-01
-1.133697573252503421e+00
2.526448317595291648e+00
9.420459235951141874e-01
-2.870856898726603657e-01
2.847514586326072017e+00
1.056523271617105575e+00
2.270976776171422795e-01
3.382006484538842894e+00
1.650196478350197449e+00
6.842634538637902830e-01
3.219857247818117330e+00
1.389597769147175921e+00
6.076443607964847615e-01
3.512530390700206784e+00
1.831612187897880606e+00
8.617994112890478009e-01
2.804919749176990162e+00
1.054586461050222246e+00
5.978885623372250796e-02
4.012297648580704035e+00
2.122885067626096411e+00
1.297344268067873063e+00
4.948741731188801118e+00
3.340744614514323363e+00
2.389688627565172307e+00
4.795767750888236591e+00
3.442605230011086093e+00
2.464636693624749686e+00
2.876687797051274753e+00
1.178657678991000823e+00
5.553322377990553838e-01
1.647036997153077387e+00
3.218626355765775160e-01
-4.902318254988474178e-01
1.219808342410911850e+00
7.454618400109926102e-02
-7.847877624028831711e-01
1.238408997962668456e+00
-3.561980117696300630e-01
-5.053254092477075243e-01
1.606632891375895156e+00
-6.123491150741903338e-02
-1.520839846645615501e-01
2.693159766890868667e+00
1.069668473380943841e+00
1.114519188729536925e+00
2.306408027336244615e+00
6.083105740422318775e-01
8.614356310798672034e-01
1.030476889386562345e+00
-6.386518745410909581e-01
-2.212170223538856839e-01
-8.757559283471745282e-01
-1.918390940405173994e+00
-1.954861254380651614e+00
-1.360646212461594229e-01
-1.195149558082141183e+00
-1.452878347454545249e+00
-3.407659789590083976e-01
-1.349035215344829952e+00
-1.799780936510902096e+00
-1.231406289182658265e+00
-2.104811054412158544e+00
-2.615885214308329321e+00
-1.771923257316963651e+00
-2.844024556743076637e+00
-3.571637250434783084e+00
-2.007196812641583339e+00
-3.038893171243391311e+00
-3.971744105533737912e+00
-7.281096822281093450e-01
-1.299687868929768397e+00
-2.700697714784790371e+00
-9.755338954484732428e-01
-1.309137127420390900e+00
-2.574419869396620708e+00
-1.209254750188685668e+00
-1.365328669657357219e+00
-2.767923626202266174e+00
-1.469137943046121109e+00
-1.476419861378508003e+00
-2.623356952914827733e+00
-2.272818629691580605e-01
2.280193664982917146e-01
-7.179239459052179084e-01
6.000651059479513716e-01
1.140743902710362967e+00
3.006348382273293374e-01
-6.992998337843595591e-01
-9.279225073870722706e-02
-7.972445238482884777e-01
-1.295968299398778667e+00
-7.251816982070989903e-01
-1.445601430509892982e+00
-1.169069683556631212e+00
-4.970506977794744152e-01
-1.203160294668758734e+00
-1.197658478593357501e+00
-5.681000217548103359e-01
-1.094831146700667501e+00
4.228545582345678566e-01
-7.399840955630151984e-02
7.082134948380786055e-02
-6.590377497977586985e-02
-5.845574872325095539e-01
-4.319507042972717814e-01
3.020482293356207548e-01
-3.638615423598012266e-01
1.332286811734336163e-01
-2.280907179969312581e-01
-9.876125536151687534e-01
-5.821291296420521011e-01
-3.128045060108516351e-01
-1.051087954217194032e+00
-4.417075311814556149e-01
-2.768435975760698553e-01
-8.889132038525413559e-01
-1.470476029617192038e-01
-3.612163187219393223e-01
-9.523567622913375885e-01
-9.611963495120727508e-02
-1.837221778268266215e-01
-6.798662283208261048e-01
4.553021634827255498e-02
-3.720470688878410037e-01
-7.217540585157360411e-01
-2.030598723327953492e-01
-1.591135363719814177e-01
-3.781485732960073176e-01
3.911828140471054760e-02
-1.051726983183075781e+00
-9.926605598790435581e-01
-1.018172985613161385e+00
-1.867375308536799006e+00
-1.682636778510759212e+00
-2.034588125187668517e+00
-6.649573583732454329e-01
-2.765945955744116835e-01
-1.074336707446014172e+00
-4.792705540769920391e-01
-7.172635874154249802e-02
-8.489172234457790234e-01
-2.262876089137295654e+00
-1.823477390975774215e+00
-2.955831700746711199e+00
-2.762385669629501717e+00
-2.282302371168840160e+00
-3.492671764273796775e+00
-1.864868299271151164e+00
-1.687401003298009350e+00
-1.854327134673967814e+00
-1.677350081770698553e+00
-1.518454085775714946e+00
-1.736263775700612744e+00
-1.166765184787741161e+00
-8.196597850438088750e-01
-1.240733660901367719e+00
-1.236477127310608326e+00
-6.334582471586555075e-01
-1.148804685676793946e+00
-1.380786613382491979e+00
-4.371174867815519893e-01
-1.339209304052355165e+00
-1.514301833703325384e+00
-5.548577452952623001e-02
-1.170043034213629651e+00
-2.182240565097703477e+00
-4.450039511918148505e-01
-1.806297322416281048e+00
-3.396071106469624290e+00
-1.426450548113535222e+00
-2.976285035443976934e+00
-2.086339967003141727e+00
3.973244048624776092e-01
-1.217050386383977667e+00
-8.848776494072565502e-01
1.483611431980995432e+00
-2.963144965726976013e-02
-4.100205776215100628e-01
2.008027591611370788e+00
3.779165724156586248e-01
-6.495929096380780310e-01
1.538597021811222598e+00
1.323850147793306509e-01
-6.414881365860929385e-01
1.603337834210432522e+00
4.199088144951414470e-01
5.463432115650159737e-01
2.345610633537923206e+00
1.398924032352899971e+00
5.358632218420790183e-01
2.231130966207882427e+00
1.412656168155404401e+00
9.273948085153584930e-01
2.407221077176457502e+00
1.696444244975159110e+00
-4.164276371604128668e-01
2.588460315876807694e-01
-2.068190787242500495e+00
-1.019326589484559786e+00
-2.019237878729949198e-01
-2.357868857676562513e+00
-1.241261702141936540e+00
-2.747906112538656687e-01
-2.486830238340961952e+00
-9.967922141648963841e-01
2.223943757648605135e-01
-1.990087801596354566e+00
1.127521595830824230e+00
2.587241743155482165e+00
7.249758823344356617e-01
1.688079245406474360e+00
3.158087029465848961e+00
1.473035734019113363e+00
9.160568309236044593e-01
2.697203199344798463e+00
1.028903039613732862e+00
1.172083810508562918e+00
3.114679206558157887e+00
1.497040573615232573e+00
1.645040186995553100e+00
3.555251078746829663e+00
2.027175151262555541e+00
1.952617815457586836e+00
3.838978964732295385e+00
2.520026972159882916e+00
1.866100058530320016e+00
3.710704853440885298e+00
2.140254000049707450e+00
1.783149265181036336e+00
3.204756927610005413e+00
1.713207694694526495e+00
1.938253616073118968e+00
3.039135412469064601e+00
1.036689815261860659e+00
3.413914856609245319e-01
1.224249733221423719e+00
-9.148063086160731494e-01
-9.736877752454954349e-01
-1.218539725318752848e-01
-2.445150841722510293e+00
-2.027449408080748583e+00
-1.240663753659410951e+00
-3.648010848714410059e+00
-6.014697590716792108e-01
3.807253381765709488e-01
-1.912506098062200621e+00
-6.529755023147906789e-02
7.377641478053417190e-01
-1.506623223429788050e+00
4.608993972632073333e-01
1.241112055004564452e+00
-7.365793262834450239e-01
7.340614082905144722e-01
1.585988472181191433e+00
-1.920357813768916455e-01
1.682234078160480983e+00
2.125714331497394305e+00
4.768746329291158048e-01
2.058275352992322560e+00
2.201328513512068152e+00
6.736734313260154261e-01
7.755022386480114882e-01
7.825278125507967308e-01
-7.739921719661713162e-01
3.515668035586588247e-01
1.955137074382475582e-01
-1.352759580232292924e+00
6.669830015271370760e-01
3.631233037781841921e-02
-1.600530184410654089e+00
1.232857074211057169e+00
2.260706580366133034e-01
-1.303274885115999648e+00
2.479241615469131688e+00
1.378415781898836068e+00
-4.964287007664397455e-01
1.347718341576681578e+00
1.401755817063711496e-01
-2.000535301335710781e+00
-3.508497569604583921e-01
-1.642317917013170092e+00
-4.040756462334941013e+00
-5.153635060789421019e-01
-1.740578740346490294e+00
-4.364663129482109660e+00
-7.142382142737604966e-02
-1.264360658048739872e+00
-4.102016882958894328e+00
1.398704104908628398e+00
2.308193329548075268e-01
-2.634907768286997243e+00
2.926978137160320514e+00
7.334524216726650003e-01
-9.106604194724445822e-01
1.767182313692702733e+00
-2.819440897386770728e-01
-1.810982123492260509e+00
6.120647739815164579e-02
-1.827611295458689167e+00
-3.139216358673019069e+00
7.906768597058190240e-01
-6.163098524943616541e-01
-2.118517621342476343e+00
1.617521945071089373e+00
7.053718631838816755e-01
-7.408092942702966255e-01
8.351455337770750109e-01
5.560527208310976632e-02
-1.241676867801648765e+00
7.259037145181844453e-02
-2.568357986041975849e-01
-1.797128870294886438e+00
2.141792290301979484e+00
2.192809206770343078e+00
5.091164549284423746e-01
4.795102384200482071e+00
4.913337577538823275e+00
3.280245407710857375e+00
3.374506849816187870e+00
3.503339382208287667e+00
1.673296027416848686e+00
2.042405826820580028e+00
1.755090090363572886e+00
-1.339613621718870606e-01
5.982082646315609598e-01
-5.352997299751950655e-02
-1.510157775223064824e+00
8.285223765862035350e-01
-1.404651736675007756e-01
-1.799062823650066312e+00
1.604391014855173214e+00
4.819336281974919700e-01
-1.146601688750367387e+00
2.687394477670546067e+00
1.291225205524489272e+00
-3.300101073486485515e-01
1.416668891626699178e+00
6.276854257718837704e-02
-1.778446821121164145e+00
1.551226424534164039e+00
1.246296672676054484e+00
-4.685675738484961217e-01
2.274071386837748232e+00
1.928996386241429217e+00
2.250953271641956410e-01
1.989547858948515602e+00
1.710120350054041394e+00
-1.680540329632889962e-01
1.240167259434685088e+00
8.476277145648182243e-01
-1.204196224027463513e+00
8.516218357375276993e-02
-2.016394923216392465e-01
-2.426813886845080592e+00
-7.183117893160857470e-01
-8.471610406065754884e-01
-3.295208978602981453e+00
-6.749998973868457375e-01
-7.346790423334353948e-01
-3.319192398493766571e+00
-1.115585225459375218e+00
-1.322301158191336645e+00
-3.979740740492466955e+00
-1.214747301662050916e+00
-9.781611909127893023e-01
-3.919177181203713722e+00
-1.085077659851400589e-01
2.904225707314845306e-01
-2.673760322774726639e+00
2.133017621835561206e-01
5.419858169317063323e-01
-2.234146364807083618e+00
-4.006232739383104591e-02
6.580093742052294248e-01
-2.149103378643158813e+00
3.210099914637594698e-01
1.306842008953172707e+00
-1.619747555502240699e+00
5.040334479708327153e-01
1.846459242258748690e+00
-8.949123298778505209e-01
1.391400130108289224e+00
2.816450830405178518e+00
-1.170964381815949723e-01
3.492158300503074853e-01
1.875325792058671226e+00
-8.690438128088389114e-01
1.175085086418362179e+00
3.361673142850265972e+00
5.246945744056160654e-01
1.073474524072692393e+00
3.212458249252465592e+00
3.040256411917923729e-01
1.467493511875045620e+00
3.497522097307256939e+00
4.613979683189817216e-01
1.108650238888998718e+00
3.053928411393584064e+00
-2.111713176829322913e-01
1.944216483154557751e-01
2.020380519985216061e+00
-1.470188858883524130e+00
-1.633650993449695665e+00
1.085577601807484610e-01
-3.529671845150828879e+00
-2.281639866950272211e+00
-3.283853055197761828e-01
-4.237244093502674502e+00
-1.096350242564686717e+00
6.662118104890485393e-01
-3.130965247701013254e+00
-6.050090931663818505e-01
9.315818961273081289e-01
-2.642929814750363704e+00
-6.554715751510373778e-01
1.051073463685664233e+00
-2.669018391884910635e+00
2.623518504715653954e-01
1.959925335272048708e+00
-1.572073046907745075e+00
6.121758565228233584e-01
2.223637234775872606e+00
-9.694017782096651104e-01
1.229715909699707677e+00
3.195802368027087059e+00
-1.749257986538547971e-01
6.675962170954026220e-01
2.495448837685175558e+00
-6.038636902940338613e-01
1.998725591289051973e-01
2.107573128779147265e+00
-9.471486626602172443e-01
3.864919234303624274e-01
2.398493905242412794e+00
-7.207091376087164658e-01
1.279321659584459425e+00
1.249169487781517596e+00
-1.123230665410314577e+00
8.675935283022638833e-01
1.075104792155923583e+00
-1.266757929815740980e+00
1.463217647392215381e-01
3.713751621374927203e-01
-1.933640189596599335e+00
2.144180741277909585e-01
4.461720734699100577e-01
-1.578700744508732434e+00
6.229009508356730951e-01
1.186037102165033330e+00
-1.117284782047122782e+00
1.270855406451557729e-02
5.986050360955885719e-01
-1.673158248096994871e+00
-3.817265021793549984e-01
3.577537607704912581e-01
-1.924995836722966924e+00
-9.402288756764955180e-02
7.864566031453772421e-01
-1.461965373740788277e+00
-1.763180909986601097e-01
7.140074443910695567e-01
-1.835617982917857605e+00
5.354171406035750369e-01
1.229844173625819659e+00
-1.177419063909089125e+00
1.119651282221997279e+00
1.616627375958022972e+00
-9.469500543795816849e-01
4.865072107853691818e-01
8.605445598897288884e-01
-1.800923958878727138e+00
-2.882778622955294301e-01
-1.358480847179937834e-01
-2.790587349536069794e+00
4.520353704138725670e-02
-2.623232817421115026e-01
-2.638862446888439628e+00
1.837334024708900948e-01
-2.605911774553456572e-01
-2.780155721117328671e+00
4.187170485339611337e-01
-2.651537484370072861e-01
-2.713753998784100396e+00
-9.178832900624640523e-01
1.157497363577059471e-02
-2.182856871611829952e+00
-1.478407006616660802e+00
-5.188699634051485710e-01
-2.643625051765047029e+00
-1.195038874816169994e+00
-1.420558842310513936e-01
-2.307773966141219546e+00
-9.871618286269698839e-01
1.267228895841413516e-01
-2.078650128839365951e+00
-1.146996788616136964e+00
3.948396205444772156e-02
-2.371485343292538683e+00
-4.691026041901019683e-01
7.487557445338749451e-01
-1.596223005895351044e+00
2.583014670429080173e-01
1.711528879708449358e+00
-3.545215290008040809e-01
8.696740446636771482e-01
2.359942242677354862e+00
1.148922918026871187e-01
1.061430579345198577e+00
2.049510450497698422e+00
7.949508404439001308e-02
9.693189596166876809e-01
1.736317396459473139e+00
5.753068807787204558e-02
8.188447813423114230e-01
1.451437787682648750e+00
-2.946994728866979552e-01
-1.190607007524687316e-01
6.726511917990061207e-01
-1.010727448771352677e+00
-1.585092483985665185e-02
6.282527949351145446e-01
-1.446781831388727291e+00
2.192823468665222320e-01
9.055693653795447995e-01
-1.079681595786394555e+00
4.794831987543740071e-01
1.102995069126240679e+00
-9.079187038687218658e-01
7.041402352210970328e-01
1.493446816750116479e+00
-5.524237318856255463e-01
3.120421181743512906e-01
1.392693635684390863e+00
3.313910003456005393e-01
1.434328088294520409e+00
2.043793625276661086e+00
1.183129362991083511e+00
1.301170136202100425e+00
2.067642346635792272e+00
1.146749263507709893e+00
-6.698818315671736801e-02
6.076120373772420091e-01
-3.199952496216811881e-01
-8.526890010527801156e-01
-2.210560724537043997e-01
-1.508017104373108319e+00
-7.567072895555491119e-01
1.010933690543414781e-01
-1.231695212399266159e+00
-3.963797413696443783e-01
3.449149771307974954e-01
-1.166804252131791841e+00
-4.860911948944906386e-02
4.828673285746510890e-01
-7.185887836520797878e-01
-9.820032630539936580e-01
-5.737364817620435042e-01
-1.481035002424290203e+00
-1.966732252012949100e+00
-1.560594366438234903e+00
-2.434680065997296250e+00
-1.642741433065315837e+00
-1.050844418564143012e+00
-1.535367396172072185e+00
4.219591404657046380e-02
7.018507600320447182e-01
5.233004435598614945e-01
-7.102816012262455070e-01
-1.088562278676054595e-01
8.997906657454121659e-02
-3.355609621836076473e-01
5.332383791483213953e-01
5.696745353578294147e-01
4.622535302391153622e-01
1.055172363770859878e+00
1.445122858959546619e+00
-1.210620268464551591e-01
7.826953815686725768e-01
1.249126897391337421e+00
-9.163203196672653483e-01
-6.480729658757106160e-01
-9.565571703501642986e-01
-1.361229994973739421e+00
-9.807430627772834031e-01
-1.490758235398270681e+00
-1.248351936011697916e+00
-1.166542777675773301e+00
-1.699335858192333015e+00
-9.938520137774107255e-01
-8.656693629709036886e-01
-1.542031932346173306e+00
-3.090828098429386772e-01
-4.303392215251224395e-01
-9.006910149002085308e-01
1.570979924036813302e-01
-2.545402431824585476e-01
-6.950853624889468119e-01
3.535413621165710563e-01
1.240311504605254855e-01
-4.565207859656781886e-01
6.890968778463492372e-03
-2.606991788457808101e-01
-6.573260326512937457e-01
6.130565989046589115e-01
3.374852688075409279e-01
6.986856009641047305e-02
-4.121358293615601243e-01
-7.980149051786692427e-01
-9.429191724778063222e-01
-2.597559250491486282e-01
-5.135214011313856686e-01
-6.461990164498545575e-01
2.950997248701125453e-01
8.035267844556619188e-02
2.018728754589337315e-01
9.125580743424371866e-01
7.408636306601262822e-01
7.603768063863335369e-01
1.243215270533005512e+00
1.068540376175728834e+00
9.593949618736160589e-01
1.066508708556309193e+00
8.345803592429420492e-01
5.225018775937658733e-01
6.401578825736478073e-01
4.126875111211318892e-01
2.010705695323551367e-01
5.635507341773912104e-01
1.345082137039659065e+00
1.829469171314406672e+00
-6.163793788900623349e-01
2.822995568484105641e-02
4.234414635008041938e-01
-8.049674882805185616e-01
-2.798684745073566349e-01
1.480260132969059284e-01
3.632694435187135973e-01
7.850854933999408258e-01
9.473358973337185907e-01
-1.691792338442618393e-01
1.432338636796962605e-01
1.254031952934969996e-01
-4.264746163837517152e-03
1.200188032385185039e-01
-1.665543673691352866e-01
-8.369674476680255548e-02
9.592414133084935235e-02
-1.979785971574452574e-01
4.525531270163680730e-01
2.551445382637455017e-01
-4.019268398383233493e-02
1.110638290325089317e+00
8.637147499029236286e-01
6.909720554911231716e-01
1.458009360834987334e+00
1.363993346881394508e+00
1.083159777106397881e+00
1.646721625076808193e+00
1.204991365215886567e+00
8.848799666096670569e-01
-2.483378965863389937e-02
-6.930559179187329999e-01
-8.286406087471372972e-01
2.539890139170136729e-01
-6.289408407527891098e-01
-8.972539717191001518e-01
6.547802651722758327e-01
-3.319115155978672460e-01
-8.996812444793275132e-01
1.148854990080684368e+00
-8.600556016078769739e-02
-7.008538731948644740e-01
2.279480666709929437e+00
1.053721715886156485e+00
4.188275952556141934e-01
2.478204883794554725e+00
8.079626667544268503e-01
-3.257889674067097896e-02
2.436646019448046374e+00
8.649134659066444186e-01
-6.379915080971618191e-02
2.755672032249549819e+00
1.137851379113839601e+00
5.594473702399943571e-01
3.615936782281408579e+00
1.717724201875184153e+00
1.149472087862333458e+00
3.228470380908065707e+00
1.520613965120442002e+00
9.451508394088463660e-01
3.881849346194337524e+00
2.168684749825150249e+00
1.473924598189665369e+00
4.189525488611784532e+00
2.712965963816503567e+00
1.962282840768586611e+00
4.231469987371635710e+00
2.840499466203329160e+00
2.069606806142354927e+00
2.459253400820236468e+00
1.105879586074224763e+00
3.861995923697427169e-01
1.677978831549286065e+00
4.742228033303430568e-01
-1.974573533060985583e-02
8.629511703992374105e-01
-2.855540073559619807e-01
-7.576850780056351153e-01
3.102435411665570575e-01
-1.082558711048389188e+00
-1.106060813838508405e+00
1.387195819570620658e+00
-6.610306588804480687e-02
4.250860180611816530e-02
2.509050540025166587e+00
1.156880794489679953e+00
1.464093719703879914e+00
2.414460288960103007e+00
1.019948062769285180e+00
1.414394205518014314e+00
8.900576506324942017e-01
-5.310311777502138009e-01
4.899098490181545001e-02
-9.520359614824442929e-01
-1.693014055056698108e+00
-1.630075478063554462e+00
-7.959575566002018432e-01
-1.603240497728819269e+00
-1.760936145800546138e+00
-2.014183935864261310e-01
-9.995413495833910256e-01
-1.261229177099212118e+00
-5.426782504349727532e-01
-1.356078069701562194e+00
-1.796818765632329562e+00
-8.650752962404042457e-01
-1.777457038263145161e+00
-2.428601503931925087e+00
-1.676152653314167962e+00
-2.486214917080162845e+00
-3.482102313940365068e+00
-1.611448864403133008e-01
-5.420720911191010405e-01
-1.670739121828995311e+00
-5.102814532259480895e-01
-7.769802025174643578e-01
-2.029714562936185462e+00
-7.852138640395673885e-01
-8.029583867155706267e-01
-1.920207780627909422e+00
-8.813127497386804565e-01
-7.267648454953924420e-01
-1.702262191890099974e+00
-2.910725858900471974e-01
1.743298973939438612e-01
-6.610831927385208973e-01
2.718230928301714200e-01
7.284221384271036825e-01
1.223172241928722342e-01
-7.324892723323337407e-01
-1.312690852243035555e-01
-8.464600776885725653e-01
-7.951305827692753958e-01
-5.386412122889678439e-02
-3.482103272745905587e-01
-4.887915478166530714e-01
2.327283047641850733e-01
-2.705847229072293192e-02
-3.110716091037720732e-01
2.770517880444893777e-01
1.235354301197048033e-01
9.412879926599300173e-01
7.575011785310068468e-01
9.640792894677491232e-01
3.575406706614452368e-01
8.511379535133399565e-02
4.601381495048704751e-01
7.959771236886180601e-01
5.310220564435895740e-01
8.612819880782414117e-01
7.928151244257202190e-01
3.956371212226583167e-01
8.770309864666677724e-01
2.488025312356240970e-01
-2.449897468518947019e-01
5.586175764250406184e-01
-8.529368535718474809e-02
-3.390554335349176274e-01
5.488529333844029967e-01
-4.106130053035145222e-02
-5.178963547138889512e-01
4.345731825661294234e-01
2.728649176633007323e-01
-1.289617582743337876e-01
6.970286724989837035e-01
2.098605441988632692e-01
6.530776774660893014e-02
9.351652558592463693e-01
9.672879320452159035e-01
1.038964845718218788e+00
1.672194216525371147e+00
-5.913807159157419280e-01
-5.508302490986504152e-01
-3.019504756020639502e-01
-1.599244411367203966e+00
-1.459472722272828538e+00
-1.424371358232854101e+00
-4.700261034955978690e-01
-2.083072310418462858e-02
-4.422909226367315316e-01
-4.375263019058069358e-01
3.551844910660963417e-01
-2.640580585244699519e-01
-1.512794000611132672e+00
-8.608475767802667988e-01
-1.573143426974107362e+00
-2.215697755963449644e+00
-1.421956242123569636e+00
-2.388637245683193466e+00
-5.769475891714235249e-01
-6.620367227605933325e-01
-8.248201277666501463e-01
-7.525597129514033368e-01
-4.587029278604315419e-01
-7.883106448629533247e-01
-4.376495494964220967e-01
-2.398345512702350704e-02
-3.791541957258229290e-01
-4.205909913673369638e-01
2.244937470191208650e-01
-4.727128018059563730e-01
1.857396171263326901e-01
8.772668649081558634e-01
3.674268938224695136e-02
-4.780333426115560558e-01
8.056316850970305365e-01
-1.282850593814113260e-01
-1.661656674473955375e+00
-1.090911762613998477e-02
-1.080699121150291875e+00
-2.887924127285597997e+00
-9.526128239190083669e-01
-2.223642766664470027e+00
-2.377902631964865954e+00
-1.751829587255837872e-01
-1.756782723233166754e+00
-1.676185911036862430e+00
8.826329544112597736e-01
-5.742359319222717362e-01
-1.204642334931850467e+00
1.436651597694809546e+00
-5.685662784953520593e-02
-5.952516474462632434e-01
1.824698996201538082e+00
4.115850112493190660e-01
-1.888417274292409909e-01
1.860141113849370198e+00
8.578764214999926585e-01
1.360769038729431557e+00
3.241894042051051361e+00
2.491236118141264111e+00
9.211397298252339549e-01
2.822450862266390637e+00
2.175163909467450196e+00
5.906277515459559257e-01
2.404853066952389984e+00
1.761544908667336706e+00
-5.068064441637198936e-02
4.478616989135119075e-01
-1.729793997046802145e+00
-8.012684881217359001e-01
-2.251513767085090989e-01
-2.407735254088450016e+00
-1.216844844340920773e+00
-5.012122977851559691e-01
-2.630224785901994267e+00
-2.245648342972875466e-01
7.169112575214212635e-01
-1.183917901758200664e+00
1.508307548341148996e+00
2.629546761877084027e+00
8.133409106812153899e-01
1.495748904420499237e+00
2.753534056460565704e+00
1.136185260108231843e+00
1.701412233575426924e+00
3.015589328143091663e+00
1.333285245002461927e+00
2.540598254587344229e+00
4.159554060555698207e+00
2.648994345762902825e+00
1.539620320352919736e+00
3.070185187387778569e+00
1.987862103330035879e+00
