2.109541098142631022e+00
1.661513498593154781e+00
-3.859357205890510678e-01
3.130749051133364436e+00
2.817358425678321066e+00
6.794417984028442437e-01
3.033231694229002517e+00
2.387048652133527238e+00
3.127730039426640518e-01
2.487025927835766481e+00
1.955068509011748334e+00
-3.622788137545551734e-01
8.493543249697593778e-01
1.686434247418560628e-01
-2.181806960949178364e+00
8.879569571432295305e-01
5.403319396480935621e-01
-1.990919299753326710e+00
1.060779397777153354e+00
5.552025137720237868e-01
-2.006706247340261484e+00
8.276642673917345983e-01
3.619553188983680725e-01
-2.542979318936882560e+00
5.670493782464582910e-01
3.434882183995824345e-01
-2.551311563249247349e+00
1.339771555187176499e+00
1.081244499808850845e+00
-1.811494860357183434e+00
6.309456097138081976e-01
9.218881792656684615e-01
-2.118751639121174701e+00
-4.028088653466038171e-01
2.436961643120717225e-01
-3.281814354501841446e+00
-7.899638637184927537e-02
7.148610825700623117e-01
-2.672245409544032224e+00
-6.326846578491769346e-01
6.725607302034974921e-01
-2.865858388837461135e+00
-3.202559469799415304e-02
1.308262343224872115e+00
-2.330588477667804082e+00
-4.901349375495039906e-02
1.479579021150414064e+00
-2.082931438788811374e+00
-1.369032782772955092e-01
1.908518004585547212e+00
-4.523559489625751939e-01
-6.806215601445326779e-01
1.355371806270982082e+00
-1.232078153137260212e+00
-2.868338070904276060e-01
1.500886203284758968e+00
-1.318485978248646662e+00
-1.106636949916550705e+00
4.292043929975826733e-01
-2.797007713720074840e+00
-8.646775968262869760e-01
1.956596292304623730e-01
-3.114055145327777829e+00
4.211900130990296476e-01
1.537846080335159460e+00
-2.359818310470839897e+00
5.702148659905116324e-01
1.663707660502369068e+00
-2.580856101009225689e+00
1.010300785114661704e+00
1.977614784223117317e+00
-2.591612797819477176e+00
-6.538331903193284056e-02
7.575559251687340456e-01
-3.815371688826533880e+00
-3.832879876807458452e-01
4.214719315324023108e-01
-4.099980390149927878e+00
-3.823697487629331149e-01
2.866106446234211180e-01
-4.244333422057028571e+00
-1.301214176013727242e+00
-3.924945438873792547e-01
-4.906707338215861469e+00
-1.388009560565632183e+00
-3.783056038797749654e-01
-4.726181670220018560e+00
-2.156512205577512109e+00
-8.528580510586937224e-01
-5.243927858858482338e+00
-3.170379205197872974e+00
-1.703096723554911929e+00
-6.225478884770356380e+00
-1.487456064149248025e+00
-7.658430461918759591e-02
-4.456330053865357854e+00
-1.981075615928653832e-01
-1.549440734287053090e-01
-4.112258403633416215e+00
-4.536939505465923950e-01
-2.241296495009580114e-01
-4.227117707329545837e+00
2.034589736620890377e-01
6.532180350716422224e-01
-3.304853333591862619e+00
-7.780413603843395753e-01
-4.153938088891601793e-03
-3.766522105001709697e+00
-1.183602076164761430e+00
4.284488390036252092e-02
-3.954274958562761899e+00
-1.277064368620976831e+00
4.270602284591562200e-03
-3.918864512245199272e+00
-1.501741900398377183e+00
-2.011528105783912945e-01
-4.135043127872424229e+00
-6.771698945731453589e-01
7.902721982863175620e-01
-3.174878908340307948e+00
-2.410432153902555552e-01
1.313422398196764318e+00
-2.671516061886156201e+00
-4.169422047020230893e-01
1.002738112363421363e+00
-3.055094112226652392e+00
-7.596837303549413001e-01
2.403884173504431399e-01
-3.736558565581800995e+00
-9.044056517553117347e-01
-3.426724724482326789e-01
-4.409272267460149664e+00
-1.580835140583445764e+00
-1.298336934139104448e+00
-5.253859354622773203e+00
-1.933706664944085940e+00
-2.101451793572012061e+00
-5.768737863666136612e+00
-1.165847852112344540e+00
-1.593570390223866484e+00
-5.471561976643683600e+00
-3.489375666351794414e-01
-6.886255966615663082e-01
-4.712248379300319812e+00
-2.096932152643442127e+00
-7.732416957707728411e-01
-3.868604843672157845e+00
-1.009239428575467779e+00
3.990888597331267995e-01
-2.744189053463835570e+00
-3.785719236359426088e-01
9.929328377313928478e-01
-2.118873109415826406e+00
2.512970928812429533e-02
1.550324409604243669e+00
-1.573673420058795180e+00
4.472225229171323813e-01
2.062904963374569078e+00
-1.265982384668203231e+00
4.847721134709480073e-01
2.337494275476464267e+00
-6.471023128313370121e-01
4.750728397861768704e-01
2.420438043040143761e+00
-1.696706624482013093e-01
6.318735308393794714e-01
2.814319417374763876e+00
2.167333908783235785e-01
7.905948337893606848e-01
2.835136110388578601e+00
2.682749836857890036e-01
1.245756363546173695e+00
3.424595965077015247e+00
1.319466483060692141e+00
7.975952033294683163e-01
3.031060371238929907e+00
7.881282506649127662e-01
-2.342416744774962756e-01
2.157202132774583614e+00
-1.480954201349118926e-01
-7.891921457517010463e-01
1.287697800446322427e+00
-7.128481420833132631e-01
-1.286879272891040982e+00
6.863548349821187999e-01
-1.187388887095802481e+00
-4.533748560684366380e-01
1.682084032136183627e+00
-3.191736021175098359e-01
1.572750931282536346e-01
2.395890474504363876e+00
4.663662774005282730e-01
2.040923689466259017e+00
2.810246567278892993e+00
1.114098459860574319e+00
1.410853142475443134e+00
2.166646847219552363e+00
4.661749845999420550e-01
3.345454510163336503e-01
1.271522347668580410e+00
-4.144629819288841444e-01
-1.453640581165115186e+00
-2.568165887335132624e-01
-2.089768727227996337e+00
-1.920330801044922264e+00
-5.531614662686190620e-01
-2.605810482325724209e+00
-5.955661821411203372e-01
8.329217753234360311e-01
-1.064364494913899950e+00
-1.526322570379592847e+00
-1.178415782584166238e-01
-1.698236468204817440e+00
-2.555753291116439563e+00
-1.110842652841107503e+00
-2.731411429568526117e+00
-3.477298738401510381e+00
-1.817449922107216231e+00
-3.071749143275018135e+00
-2.980637973256824225e+00
-1.321423532004141421e+00
-2.259373338008312082e+00
-1.250295658682256450e+00
4.489972070992212516e-01
-4.183328814666195661e-01
-4.560896495038161413e-01
1.115938977350550365e+00
6.429654054683393571e-01
-1.715201804522906048e+00
4.014361942849069970e-02
-1.957682272577016547e-01
-2.764045822564377808e+00
-9.509272409965817685e-01
-1.382415198200511952e+00
-1.685397601127391454e+00
2.859515665679666085e-01
4.647398689103711400e-02
-1.560539309694590537e+00
3.638850543526804815e-01
1.248205579972952312e-01
-1.143669458129606076e+00
-2.342316304939650873e-01
-2.018660358757376816e+00
-1.479322056937577123e+00
-7.111222770842309249e-01
-2.385524829452161821e+00
-1.010298256380688597e+00
-2.792642774273513262e-01
-2.080657213909321346e+00
2.258337646745083287e-03
4.563240555707355761e-01
-1.041198205439990199e+00
-3.196533949364847582e-01
5.269446161107036453e-01
-1.252974582045608631e+00
5.284529675048353914e-01
1.428627301976290731e+00
4.366843032192347512e-02
1.713476653621679668e+00
2.543657119116653487e+00
1.348642368822076332e+00
2.362506689440240226e+00
3.037713200820101100e+00
2.032663279488328811e+00
2.097711916860301340e+00
2.763577726294955905e+00
2.022012148405522236e+00
-2.051942504280780399e-01
5.897693062281788023e-01
2.484902403630822113e-02
-7.169182759685053252e-01
-1.877677270423507849e-01
-6.615291410294855678e-01
1.322055670964110030e+00
1.660520898262284550e+00
1.666581961703538672e+00
1.771960126639496425e+00
2.112472958100892306e+00
1.958619684328824162e+00
1.542417883189811434e+00
1.724791109483258866e+00
1.352689201957592902e+00
1.692037889128553907e+00
1.880705205716320050e+00
1.246632672756598614e+00
1.600770253631060402e+00
1.620724685022320477e+00
1.019363535349524286e+00
3.279066562008713381e-01
8.097826698502565979e-01
2.249015593414331327e-01
3.744450816243721780e-01
7.407805721401570231e-01
1.936914529512904493e-01
-6.275567439180325113e-01
-2.772240339783541563e-01
-1.005094007355304520e+00
4.374050612924380022e-01
8.280357817589721892e-01
-1.984813354105344485e-01
1.284913024202903431e+00
1.709464909877029370e+00
8.459398098768130536e-01
1.139634675842148503e+00
1.401426209411562818e+00
4.020064796400789064e-01
3.754119422238376413e-02
3.094822499458823040e-01
-7.786671523830188679e-01
-3.947131805919653624e-01
-3.320240365104788482e-01
-1.474165321821660823e+00
1.078634305362983437e+00
7.604642806889847506e-01
-2.351756937309485568e-02
5.527919479744801690e-01
4.101794752060461957e-01
-8.746081801739566952e-01
-1.253804015463301447e+00
-1.847576539756290215e+00
-2.989835762836954292e+00
-1.276768371797438961e+00
-2.639143173186638158e+00
-3.875481382712936629e+00
-1.057217134133650455e-01
-1.585692512601525772e+00
-3.120371978259834922e+00
2.278187478812989664e+00
4.665687675771728604e-01
-1.413683204193855625e+00
2.387738164076506298e+00
1.505794956632966752e-01
-2.042854142730913924e+00
8.528445443311654106e-01
-1.511072336205980582e+00
-3.887666503348626179e+00
8.174266643700268675e-01
-1.346339144833600843e+00
-3.196711386049342352e+00
7.613681830966680941e-01
-1.464021219425340359e+00
-3.247402318353569406e+00
2.016994426532264573e+00
-8.156403565009016920e-02
-1.889399798514186823e+00
3.169301732672513694e+00
6.859927095087892113e-01
-9.004114046532832871e-01
4.397040919214533439e+00
2.081569502676481331e+00
3.319560998741999946e-01
3.207621449806940195e+00
8.502859919374237130e-01
-6.853553711173245855e-01
1.369855389085991249e+00
-5.614967801404486814e-01
-2.286274631524483514e+00
-1.572270125976079624e-01
-2.128004001827466407e+00
-3.840467494066239773e+00
-4.094354093497749869e-02
-1.934738822358718080e+00
-3.617032061317884573e+00
-8.251869616914315753e-01
-2.480198855709110806e+00
-4.322598257692694013e+00
-1.254040278746016979e+00
-3.004776186462850607e+00
-4.564970674208584711e+00
-1.336350449541659380e+00
-3.154939742717022266e+00
-4.434588773275573104e+00
-1.572898343349721673e+00
-3.401384049603072945e+00
-4.324523148869958256e+00
-1.741958990927232165e+00
-3.483136268785966383e+00
-4.151500410518106143e+00
-1.085568045352995004e+00
-2.840952207687660103e+00
-3.578934087709775724e+00
-6.830774702604481829e-01
-2.277962807460664152e+00
-3.035921177132394622e+00
1.205265909746561670e+00
7.207093486347271316e-02
-5.120693460142397013e-01
5.824484185800967717e-01
-7.860829880226470889e-01
-1.321893199107514905e+00
-9.430083075841022566e-02
-1.524945274508665571e+00
-2.246443699753176926e+00
-1.384591881951795944e+00
-2.515794077478699098e+00
-3.314151141629349873e+00
-1.308019200769035439e+00
-2.410640806807221370e+00
-3.545467776744028576e+00
-2.117141502774790407e+00
-2.970905133557021571e+00
-4.445367083338451764e+00
-5.049396906463071710e-01
-1.209087668426197748e+00
-2.762855640922060374e+00
2.853770316164225274e-01
-1.710909355732278259e-01
-2.022595420995842996e+00
-6.811004380063294672e-01
-6.350277591152772017e-01
-2.808765850807252384e+00
-1.710397820187394835e+00
-1.887760095336900035e+00
-3.773200677238197631e+00
-1.966894504035832769e+00
-1.697689013197668739e+00
-3.487876346813814088e+00
-1.560688088993515965e+00
-1.231821089491186516e+00
-3.214685375568753667e+00
-1.489807554950628443e+00
-9.536080420581843908e-01
-2.546676967324841723e+00
-1.937951822319581296e+00
-1.664620454764033530e+00
-3.294769357054827097e+00
-2.058389305941568992e+00
-1.770638496087850067e+00
-3.229057114849875010e+00
-5.432256913748684246e-01
-1.414245803526936740e-01
-1.700856020496325227e+00
-1.458114288010747384e+00
-1.838570124884431944e+00
-2.259039349277861319e+00
-4.421571856914596581e-03
-4.362620164620023555e-01
-7.342882596527726680e-01
6.705579340642222608e-01
-1.394901604660765682e-01
-3.989225107455243169e-01
7.313252317033829275e-01
-1.213350114664527163e-01
-4.660323495050434639e-01
9.145703171516724739e-01
-2.264765696198790812e-01
5.009719960692735063e-02
9.621212243424805965e-01
-5.605312960851612999e-03
1.602210103011866560e-01
6.279024619279144348e-01
-3.887072482842504617e-01
4.714534153424439905e-02
5.873728124776638193e-01
-2.816874135773263510e-01
-8.105162832440118703e-02
-2.310091891280888099e+00
-2.981941166827909662e+00
-2.687440549526073141e+00
-1.503321931918353505e+00
-1.981279918753308555e+00
-1.938289552462771681e+00
2.864682876347069973e-01
3.660849374857851057e-02
-2.983016230092431220e-01
5.137283004212137572e-01
4.387918286237799115e-01
-2.088689402389829475e-01
3.481475642061704345e-01
9.893988664147307377e-01
-1.899827021547196015e-01
6.111988770876216615e-01
1.215657299956472315e+00
-3.159357754154150655e-01
7.107693573393486508e-01
1.210389375015994640e+00
-5.377732889625406187e-01
1.322446799124320949e+00
2.034383037881567269e+00
1.494922678558608942e-01
-4.630940914217376858e-01
2.012575421604321790e-01
-4.854922410006041744e-01
-9.383019157293863710e-01
-1.829272388267468852e-01
-8.737590803273538320e-01
-1.271648654331176020e+00
-4.474773249085202687e-01
-1.271519258652459072e+00
-3.789930078216541959e-02
9.823426977699731832e-01
5.490055976198719018e-02
-9.286759693576025487e-01
2.623015474140439895e-01
-1.030823167294343090e+00
-2.217800321757920745e+00
-2.796694223453545236e-01
-1.834077643148029901e+00
-3.303185763887752646e+00
-9.633072597634921852e-01
-2.739625778264271005e+00
-3.447471596834553065e+00
-1.119481330846751943e+00
-3.165636710614236904e+00
-1.675558961822196213e+00
6.489354142901221367e-01
-1.379635732136124338e+00
-2.009765578317116663e+00
3.700223808075233656e-01
-1.630796763046081566e+00
-2.160997801994906098e+00
-1.935067100357907577e-01
-2.210452641158083598e+00
-1.261514428397953802e+00
6.244256171317650317e-01
-1.215539957368799051e+00
1.357418401519577345e-03
1.202894026641290859e+00
-6.749544996634355698e-01
3.978355245488978120e-01
1.428029337946698396e+00
-2.249636299118958627e-01
-6.151241219354366407e-01
2.719032517881894359e-02
-1.524793741952045423e+00
-3.361592478613448787e-01
9.510336857605505845e-02
-1.328626171563432434e+00
8.753261174487552143e-01
1.086552463599672391e+00
-1.442013153599641662e+00
1.142423528230772645e+00
1.649872617221550319e+00
-7.461911299578437573e-01
8.272959040986117840e-02
7.936822276406122478e-01
-1.841823799233342607e+00
-1.231429437505886515e+00
-3.769823462624578569e-01
-2.553547756306525418e+00
-2.023377376017226226e+00
-8.954844278079460151e-01
-3.100908260958904705e+00
-1.373836129814173246e+00
-7.082706766867442882e-02
-2.094206923098555606e+00
-1.758638302623906968e+00
-3.345845450742317428e-01
-2.067007220358601849e+00
-1.671592365779829059e+00
7.899632246802469615e-02
-1.349320806143222473e+00
-1.558139462960103305e+00
2.439474535750163486e-01
-1.378734185710414950e+00
-1.192400300743910790e+00
4.095221469053060837e-01
-1.112857826739166001e+00
-1.505294721688487325e+00
2.275816649702706862e-01
-1.784096071208624901e+00
-1.874356102696034698e+00
-4.758820376821295550e-01
-2.705490293087083220e+00
-1.712983233078636092e+00
-7.231719970095791261e-01
-3.408740390901456419e+00
-1.710978909182621521e+00
-1.226594324310767314e+00
-4.034541554760794568e+00
-2.490000548220199228e+00
-2.155016791528908904e+00
-5.341132600813073061e+00
-1.879606562958270555e+00
-1.812336567021987532e+00
-5.015531616506391899e+00
-8.149783026321849588e-01
6.117133912072445640e-02
-2.901428906757160586e+00
-5.977959154053725799e-01
3.783879301689860863e-01
-2.346645022921280077e+00
1.578722504066004229e+00
2.389773697395601637e+00
2.262902256091362529e-01
7.223340622387779408e-01
1.245209102831564385e+00
-5.157422531916826536e-01
6.876717171204879131e-01
1.011165278249206212e+00
-2.055342033744329555e-01
1.480229627894101396e+00
1.715689906320700064e+00
7.305866071184147215e-01
3.124638238760641507e+00
3.212536784069977891e+00
2.059200476137137859e+00
4.119300264244682097e+00
3.827018034985818051e+00
2.735471589603962528e+00
5.363441252041980967e+00
5.124170860468178823e+00
3.694395818575070489e+00
4.591936023158215363e+00
3.974394621569865560e+00
2.289469183190036894e+00
3.570824810349246814e+00
2.507478630195877578e+00
4.144579340056287475e-01
2.901459572099964745e+00
1.568505554305406058e+00
-8.076156268117130610e-01
1.880649371344352172e+00
6.401847369040213342e-01
-2.333040158736166436e+00
2.720993631203277641e+00
1.464762765780418086e+00
-2.143993482241789650e+00
1.706441320274406204e+00
4.568056096982829883e-01
-3.484528450150651047e+00
1.327710072806615571e+00
-8.069301155915788171e-02
-4.156672937703796755e+00
1.216215794773037873e+00
-1.412865054540382026e+00
-2.613106061489810727e+00
1.082955011363140985e+00
-1.233831364876188497e+00
-2.536734382346430561e+00
1.825807240145967292e+00
-2.270052998993937476e-01
-1.673389731472686659e+00
1.417719818683166100e+00
-2.336394056525449570e-01
-1.805963417313100949e+00
2.636376717057151708e+00
1.899825997266574307e+00
-1.901140997594274462e-01
1.544154713899928977e+00
1.157948730113048885e+00
-8.930638058652863309e-01
1.883271811903557136e-01
4.983253088928117636e-02
-2.182390618119170789e+00
1.365969134955849373e+00
1.656498820193933019e+00
-7.318904669969733545e-01
2.369801969445587186e+00
2.691671487149197350e+00
-1.104514589239844191e-01
3.401944224832462282e+00
3.610173747362580343e+00
9.219906800892903043e-01
2.921643842653422141e+00
2.903202241079144041e+00
1.113630625846422084e-01
1.285883496727835418e+00
1.142087962222095632e+00
-1.440792358772089443e+00
1.325596657832420977e+00
8.715190496022695577e-01
-1.776742730379153645e+00
1.442092319632691577e+00
4.362436623239385192e-01
-2.066325569781027216e+00
3.078195206940447015e+00
1.692518060658057877e+00
-7.319930100248603910e-01
2.402066041434084198e+00
7.572859909010016821e-01
-1.658493329657176218e+00
1.731340163565595169e+00
1.351970285901474389e+00
-7.020347363789518624e-01
2.765881858441370689e+00
2.434508992504695435e+00
4.254501295347969947e-01
3.464323292089622530e+00
2.924139742692926980e+00
8.844865403614692312e-01
3.515333654235761163e+00
2.984547733668918568e+00
5.674986495972095257e-01
2.056601302302834444e+00
1.478159619129552738e+00
-8.868482815745736270e-01
1.012215493247320186e+00
8.092825429955106120e-01
-1.591289234972621092e+00
9.486769796084855155e-01
4.353526437237938973e-01
-1.929179514478725821e+00
5.046195493187152215e-01
1.700258420319284980e-01
-2.697042593486549400e+00
6.019349305026427954e-01
4.452797144654079831e-01
-2.475647316523429176e+00
1.735963493920341660e+00
1.640174272001081013e+00
-1.119271105018482038e+00
1.349276803900194333e+00
1.661752065320788674e+00
-1.455604564370152954e+00
-4.567437406550383348e-03
6.061875850220403983e-01
-2.663668655585175848e+00
-1.191036128294749724e-01
6.665596217306917204e-01
-2.678779487873916398e+00
5.722862639929403999e-02
1.354243869522345545e+00
-2.145360627176522428e+00
6.431285964287796197e-01
2.106464589282463606e+00
-1.382030612970364558e+00
1.343711869814737669e+00
2.883606414337354984e+00
-6.406165967743038259e-01
3.275094541505455537e-01
2.543842333655608190e+00
5.735319878107777991e-02
1.039516218021143551e-01
2.292727787407379481e+00
-3.443773490810892457e-01
8.416907140106438812e-01
2.677331599631285641e+00
-4.697133926396816761e-02
-2.816291080009095116e-01
1.408234118842712324e+00
-1.804143321809626999e+00
-1.083987122266394820e+00
1.746004929557623542e-01
-3.131454532656475997e+00
-7.496355666950648144e-01
4.856498566604409151e-01
-3.520795991597355901e+00
-7.067161338427256911e-01
4.940009750446511805e-01
-3.845483387094577932e+00
2.171363575813998747e-01
1.401902122818299068e+00
-3.131490214066741107e+00
6.631973908173686150e-01
1.736545171992708747e+00
-2.962182275133396381e+00
5.451084246864481564e-01
1.412314837929894207e+00
-3.047320588984399059e+00
-2.421001820764862866e-01
5.786848249582867698e-01
-3.947486729630548474e+00
-1.931138854643707492e-01
8.797564752498058249e-01
-3.763999091379830908e+00
-4.197050531336304902e-01
7.744685001043921657e-01
-3.710922535573209835e+00
-5.025659650665139644e-01
8.474711658281461890e-01
-3.612458678980996929e+00
-1.867615979215674571e+00
-3.977904532276588800e-01
-4.682299200073408940e+00
-1.284427971404894953e+00
8.878478859772916121e-02
-3.971789885310720969e+00
7.123901359150883739e-01
6.271944697432673133e-01
-3.201326934132196822e+00
3.098111006674996240e-02
2.119347167864935322e-01
-3.593291145668020103e+00
4.832435112038895725e-02
3.577628644721693729e-01
-3.493367234026938828e+00
-6.617606478526379954e-01
2.871968193060146085e-02
-3.680835536058716162e+00
-3.643983652172813614e-01
8.998738268333870138e-01
-2.916660928238353545e+00
-1.423997893754070099e-01
1.172415013810942375e+00
-2.724701360476677880e+00
-3.586207973342308009e-01
8.759229321513787303e-01
-2.954194586736711425e+00
2.255906282388706399e-02
1.581474878241339255e+00
-2.248782022586634621e+00
2.612658199886483401e-01
1.923630766391609459e+00
-2.007602950933771169e+00
-2.618207018340708570e-01
8.668230231601562474e-01
-2.992013093266190804e+00
-1.231897484894812544e+00
-2.355464750449763056e-01
-4.086352797570909523e+00
-8.197641375430168020e-01
-2.162724185436091240e-01
-4.172782535818067018e+00
-4.558880585835293209e-01
-2.194004101604000723e-01
-4.038748103684886459e+00
-4.337411541762428158e-01
-5.756800787349383164e-01
-4.213112225484498374e+00
-1.218842127121687158e+00
-1.624146013308880310e+00
-5.345477737330114998e+00
-1.324162462971942178e+00
-1.770537548551651685e+00
-5.432763734134709033e+00
-1.241964476450228894e+00
1.011995433401428196e-01
-3.011545644770834418e+00
-1.087637688351939191e+00
3.080468439006103232e-01
-2.849308056977553072e+00
-2.326351275779841576e-01
1.389589432987283768e+00
-1.806094047089065624e+00
1.274559308865573559e+00
2.860544554325544109e+00
-2.705434563872415876e-01
1.542361454108741370e+00
3.281410855085319600e+00
2.013232131255203450e-02
1.147207176812006235e+00
3.002983594713927840e+00
-1.421046321981666583e-01
2.218003490850924686e-01
2.155633539415770183e+00
-5.372143701150378092e-01
4.073233286738931480e-01
2.483987140023658391e+00
-2.457673873262549435e-01
2.975351279025043594e-01
2.471749095085986614e+00
-1.574536594625084718e-01
5.931883094088521435e-01
2.812920733026204712e+00
6.015769827504818812e-01
8.635096569111386788e-01
2.847472510411090063e+00
5.737481795875817303e-01
3.566804229099011514e-01
2.745403000854118147e+00
2.411896916767393428e-01
3.062322521832510636e-01
2.381294494825922925e+00
2.462401061634833521e-01
-1.155424942332529570e+00
1.063651062620931453e+00
-8.729686771009393942e-01
-1.356562902351554634e+00
7.727752379452784703e-01
-1.257784874654761964e+00
-7.271559155959296250e-01
1.390553755556901638e+00
-6.384856581266539211e-01
6.697206049156674279e-01
1.540215784372584551e+00
-2.119700440011877129e-01
4.756955418262678315e-01
1.377165853160439379e+00
-3.919145577131987745e-01
-1.024132877030806688e-01
7.143491824081349417e-01
-9.610466682647951231e-01
-1.945518338932333391e+00
-7.733079496137931219e-01
-2.600092043898419636e+00
-1.964435043946458181e+00
-6.002799073133492369e-01
-2.648744483652174520e+00
-1.055735977688350147e+00
3.087644273356223712e-01
-1.525784068054900855e+00
-1.871764813803944216e+00
-4.194208155575717134e-01
-2.013552176536895999e+00
-2.422286108313198127e+00
-1.040364100690423177e+00
-2.612467097504270974e+00
-2.754689221246746200e+00
-1.196523095692379579e+00
-2.491038204726315985e+00
-1.723559551257687117e+00
-1.370578014804766931e-01
-1.181269529991962219e+00
-5.919944650504967987e-01
1.112075667582296701e+00
1.680730173965923613e-01
2.254388380227382027e-01
1.657097575803175182e+00
1.147885678723020275e+00
-7.944328827159342632e-01
9.718011415010386900e-01
6.952642199279145396e-01
-1.419652040770796653e+00
3.058034622111147072e-01
4.292890568784817756e-02
-2.032548377809691775e+00
9.005670365811339895e-03
-2.756714908756060511e-01
-2.453841109959249867e+00
-4.049552618328785547e-01
-6.492587159192090285e-01
-1.058259419510005905e+00
-4.722210789026657363e-01
-1.997061625660823125e+00
-1.606810694798037398e+00
-9.225763538950608744e-01
-2.686778831835640258e+00
-1.437567872550082893e+00
-8.254064705272711189e-01
-2.638589897905202708e+00
-8.943295479693193217e-02
5.137310548603538640e-01
-1.154558120709643587e+00
2.631177236529136376e-01
1.022313287696928308e+00
-6.628707358388558069e-01
5.223229471609661667e-01
1.255580314603107261e+00
-1.108536942657852714e-01
1.100950048220812105e+00
1.728827185354088414e+00
4.705364070637813589e-01
2.258306285278530723e+00
2.862581752519764766e+00
1.944318914886977945e+00
2.109851377336239953e+00
2.857411344668494557e+00
2.164645676234899341e+00
3.087431828441292714e-01
1.347205224289943271e+00
6.675128850129079527e-01
-3.794642546166155372e-01
5.181742296046530638e-02
-3.787051583460857573e-01
9.107964291368956244e-01
1.363637192413115873e+00
1.146376350119792775e+00
1.195151634761313364e+00
1.729469113632350563e+00
1.340280325598325994e+00
1.875239955944940862e+00
2.113682692145966602e+00
1.665198464648746546e+00
2.158122356107722073e+00
2.404189865919954094e+00
1.531895649730667497e+00
1.961403397854561304e+00
1.985311267190146056e+00
1.123783507924661196e+00
8.441187811043123768e-01
1.291920945775754115e+00
8.642591617623294198e-01
1.369086728925338781e+00
1.708459447786554675e+00
1.245391002587635576e+00
7.539571726606507651e-01
1.211708924917605179e+00
5.576051199014743220e-01
1.292467447206565145e+00
1.636913205070104516e+00
8.882883160446863879e-01
1.484739381690940441e+00
1.831963443804165870e+00
9.629010663086350341e-01
1.278974447386580948e+00
1.585302414308731977e+00
6.304565769835170919e-01
7.471153102140516422e-01
1.047216478846868082e+00
5.030070764257758148e-02
7.617834678085367850e-01
8.635051519141326848e-01
-5.478420725362628807e-02
1.544550480448155794e-01
-1.390823273060873000e-01
-8.413660882420368470e-01
-3.164579657342577734e-01
-4.450300139670330113e-01
-1.698779225951031480e+00
-1.360219957648219902e+00
-1.708341342090240911e+00
-2.979019328593750959e+00
-7.117017448865484708e-01
-1.770452736989496234e+00
-2.978140212392044628e+00
8.918410656278633608e-01
-5.069399374012811821e-01
-1.981042328369532646e+00
2.543602240731437814e+00
8.718493015635881971e-01
-1.030667194781923479e+00
2.302369993006769811e+00
2.702241157445978703e-01
-1.927095109813041107e+00
1.341857539832395974e+00
-1.003425979267738688e+00
-3.181579693659141839e+00
2.630268949186189253e+00
3.867114590313460165e-01
-1.224575964270098627e+00
2.528855387653580866e+00
3.699270129948141750e-01
-1.299197231424738863e+00
2.793141699496529462e+00
8.200327534595582835e-01
-1.059410243631358606e+00
3.454504047267406452e+00
1.200497467119211237e+00
-6.536245550896164769e-01
4.203268315798660559e+00
2.009281126419089958e+00
2.760043719091130887e-01
3.426148589793063692e+00
1.233104149172763009e+00
-3.277980427609654135e-01
2.369516464008386780e+00
4.861394316621991396e-01
-1.181198671879191586e+00
1.249227723201151719e+00
-6.219421810635936687e-01
-2.363331233258703090e+00
1.241621042078716597e+00
-7.956621638310990008e-01
-2.283887522394433933e+00
-3.113411992766223491e-01
-1.780572460991219907e+00
-3.582342633853076830e+00
-1.096505906789777107e+00
-2.764580344593524419e+00
-4.264965516854133831e+00
-1.041480562885388483e+00
-2.917104691173652231e+00
-4.075574429137217791e+00
-1.265854224246974358e+00
-2.968293216702603043e+00
-3.840625004871623283e+00
-1.568952416779424652e+00
-3.233544414701720271e+00
-3.971826530724006155e+00
-1.135770679396268967e+00
-2.884033450586040104e+00
-3.427476392307464259e+00
-1.209237602526975319e+00
-2.859357909710840584e+00
-3.431641288877673279e+00
6.417332811283993355e-01
-4.030430901892491091e-01
-9.929847926643755596e-01
3.205352138944839169e-01
-1.041208972286956636e+00
-1.646784206055562416e+00
7.795514911655793133e-02
-1.327318511171615256e+00
-2.090377122687315126e+00
-5.064186358818301148e-01
-1.556372769735477668e+00
-2.586865899285314185e+00
-8.780124390567262127e-01
-1.979098020627151788e+00
-3.250178783129505700e+00
-1.659029410017378359e+00
-2.623824043485676771e+00
-4.080759199684361072e+00
-1.297603675278540036e+00
-1.997882683910891854e+00
-3.680057955516103707e+00
-2.839508764424520937e-01
-7.272519504310309690e-01
-2.712757383224436936e+00
-6.291673732691083210e-01
-6.077290787210000156e-01
-2.676167288918414933e+00
-1.042557489639825530e+00
-1.270298541631365019e+00
-3.056988326168566417e+00
-1.150793470413000508e+00
-1.027468670882889068e+00
-2.761930977721342106e+00
-7.184763220842009801e-01
-3.185479323614912595e-01
-2.038799416295386635e+00
-1.510272093983593189e+00
-9.103881977212224808e-01
-2.536405718367353845e+00
-1.996001900190353284e+00
-1.535888204752800412e+00
-3.202827015149037226e+00
-1.061686937580819778e+00
-8.097344809898281426e-01
-2.265974723286801051e+00
-1.325067162359750972e-01
1.368075362220708968e-01
-1.221494693837958945e+00
5.020867825377950400e-02
-3.137186677751129249e-01
-5.937545139481396061e-01
1.048155576044415449e+00
5.110470819153358768e-01
2.533374424029276595e-01
1.098648767892272282e+00
4.332856873125068287e-01
3.071944567931034209e-01
6.416210469592756871e-01
-3.197363934070723279e-01
-3.239407719981403644e-01
8.282478496537035717e-01
-2.883119121122434403e-01
-9.622091582011708943e-03
7.679196265931397258e-01
-3.067577667450022694e-01
-5.223799658754234992e-02
7.315075108257007575e-01
-5.593141464736010871e-02
2.810213767200885338e-01
6.707530706859210490e-01
-7.121194714412854010e-02
1.830624387964777666e-01
-1.767330989713826961e+00
-2.610362804541604298e+00
-2.239951493296011620e+00
-9.586681604436939619e-01
-1.436754416085692432e+00
-1.427097859401730062e+00
6.160442625205688749e-01
3.117499526815481481e-01
6.121927241888176080e-02
-2.388775324637231259e-02
-1.724969758172904544e-01
-6.479679111739142794e-01
-4.297731420291042159e-01
-5.736175047816210321e-02
-9.887069194632159830e-01
-6.511960892802157730e-01
-1.671715024860146240e-02
-1.414500130663146171e+00
-3.063503723092685371e-01
2.009150197232608681e-01
-1.411128466650412250e+00
-1.468576318212343468e-01
6.377834005438791642e-01
-1.096077597149170080e+00
-1.671324705124254129e+00
-1.093302512899813284e+00
-1.640929518981846469e+00
-1.610464867839733083e+00
-1.020106340676679268e+00
-1.673185341527477110e+00
-2.125671351498673367e+00
-1.365918403890636679e+00
-2.270126833345083472e+00
-1.135170034524230598e+00
-2.012555833100825864e-01
-1.084291948946656259e+00
-1.671626180403770867e+00
-4.214476054543116468e-01
-1.720190982515198863e+00
-1.953080008093088793e+00
-6.336469649167211782e-02
-1.729308110860674264e+00
-2.497312058738509144e+00
-3.102823374274711332e-01
-2.068518410720814771e+00
-2.396993463689825798e+00
-1.485092083793491946e-01
-2.080919796620636752e+00
-1.825852016649149645e+00
6.983730771700514817e-01
-1.261022705312369485e+00
-1.816157053319835457e+00
8.408390463616428612e-01
-1.004311912162832110e+00
-1.413686031326221393e+00
7.367695237391266305e-01
-1.189869747373953901e+00
-1.416234388584370896e+00
2.395057442171336093e-01
-1.638497234617026121e+00
-6.335737138823449577e-01
7.220658244188390418e-01
-1.030747270422490924e+00
-1.089795025127148653e+00
-1.692922352570020925e-02
-1.572567088886318798e+00
-1.290857038554619862e+00
-6.422095359031045891e-01
-2.048633951627611083e+00
-3.996515764473262400e-01
1.964280597414104212e-01
-1.290316079438104335e+00
-7.068280170675472762e-02
2.931413095067781915e-01
-2.185599977633734259e+00
1.640524482035294884e-01
6.796247237241386241e-01
-1.679384301449601935e+00
-3.133431573264270353e-01
4.413355297511670217e-01
-2.254786360782028432e+00
-1.804403691990342784e+00
-9.850540550259437866e-01
-3.178938836849145133e+00
-2.084587172892251594e+00
-9.227767890035309950e-01
-3.080132511917228477e+00
-1.593061619372874826e+00
-4.044684824104181065e-01
-2.367394911409736569e+00
-1.893593012929743358e+00
-1.970324584939356083e-01
-2.124157080830159749e+00
-1.860823975654677609e+00
4.247751996398664576e-02
-1.613739290688210204e+00
-1.302168052142255839e+00
3.630666851907738413e-01
-1.109551811109975805e+00
-9.245877445485156665e-01
8.206517368212322694e-01
-8.099244587293653597e-01
-3.119887561524435360e-01
1.276125374625107112e+00
-5.287507483766401561e-01
-4.783202793966013777e-01
7.710851930135815824e-01
-1.249786895384764840e+00
-8.202512843187439451e-01
2.536071700574281107e-01
-2.179568477950521554e+00
-1.336039230175512627e+00
-7.546750014899945569e-01
-3.577302072586689974e+00
-2.534601922752419245e+00
-2.174159464655671226e+00
-5.168516993173103202e+00
-2.695442617451545342e+00
-2.577328666479600461e+00
-5.852348909946964994e+00
-2.383458260143346275e-01
5.753897979711107835e-01
-2.091447913047501661e+00
-6.192516579675313437e-01
1.932120392327552616e-01
-2.483263655847173457e+00
4.400399409402055984e-01
1.077868421647358188e+00
-1.091102132818699610e+00
1.219286341370763305e+00
1.772597198842092325e+00
7.268098864881959720e-02
1.114107405904852133e+00
1.427521795487973089e+00
9.640954754577953090e-02
1.401760134904272537e+00
1.618350093346423213e+00
2.338771089148171944e-01
3.337121407790392347e+00
3.234371764738491972e+00
1.987713502351223571e+00
4.522594629190614945e+00
4.109975614338665650e+00
3.037989606556366962e+00
5.971021246153745743e+00
5.550532984886425325e+00
4.163428581897592906e+00
4.672505774055950134e+00
3.860342161041497189e+00
2.292100159512540092e+00
4.062416678068035303e+00
2.945437367622213642e+00
8.064375550634909073e-01
3.081509268102355037e+00
1.918496440674047676e+00
-5.107439289413785444e-01
2.175067143568138128e+00
1.008640246562942933e+00
-2.080567190846500214e+00
1.868834967378811607e+00
6.304382952842053633e-01
-2.893282806656046979e+00
6.349028884481530133e-01
-7.863332848172585043e-01
-4.779699434277334014e+00
1.128671988194643649e+00
-4.346297705328292516e-01
-4.422416606906539371e+00
6.363971307743239159e-01
-1.771848558978879939e+00
-3.068808365431081153e+00
1.061447492602198395e+00
-1.113806538326910234e+00
-2.568922657247026287e+00
9.128867500055911632e-01
-9.759785054427957407e-01
-2.381055366447722754e+00
2.063121884689838925e+00
6.774594073799485860e-01
-9.788780776236366554e-01
2.499193170032727451e+00
1.871792991953557417e+00
-1.871222535896545358e-01
2.302523186694057866e+00
2.018608359470773550e+00
-3.720166443097104592e-02
1.545644086358890279e+00
1.557010052056965188e+00
-6.367617975483241821e-01
1.137553892495641428e+00
1.452857723762260189e+00
-9.154146488167478335e-01
1.930324142758139461e+00
2.442666458149619135e+00
-4.086886913246680630e-01
3.373492006643731944e+00
3.724914550130419499e+00
1.048852636653474724e+00
3.215496651823388952e+00
3.236111608723886146e+00
5.578829911525876595e-01
2.914638937931977036e+00
2.807235782620232545e+00
2.997421896822721754e-01
2.758581591273890687e+00
2.342638552745230474e+00
-3.710244358773059359e-01
3.647123265597441488e+00
2.615921473239015249e+00
5.910224617422177307e-02
2.917202471291550747e+00
1.508058392716012719e+00
-8.712848988565189412e-01
2.458892067362188349e+00
9.792163692058516444e-01
-1.178601383809022352e+00
1.078720434520008320e+00
7.251324275990955748e-01
-1.325097957028377849e+00
2.128852973539506532e+00
1.771406478718541733e+00
-2.171783969858798458e-01
3.622696180732411175e+00
3.123005150043082434e+00
1.119467823915683447e+00
4.188212817278333056e+00
3.643962576732060921e+00
1.297302365020677861e+00
3.144858504925608589e+00
2.694374481363109197e+00
2.085273266524195757e-01
1.924606894757711295e+00
1.612236223360527188e+00
-9.233298718770133195e-01
1.022356549346118193e+00
6.252381315119571736e-01
-1.967254836005948748e+00
1.844166314601431433e-01
-1.972848515790761037e-01
-2.824460451930660643e+00
-1.848849813392446431e-02
-3.772412799067076938e-01
-3.076317595016809570e+00
7.509925448410932347e-01
6.186333649371507093e-01
-2.194024787200977933e+00
9.447926737671823449e-01
1.211778847390210023e+00
-1.840077462239850137e+00
-1.516375153744860538e-01
4.893148479950453211e-01
-2.621876764904853996e+00
-9.973170209327250069e-01
-7.228457701309591588e-02
-3.460756273455238841e+00
-4.958887514640122895e-01
8.141342068127671583e-01
-2.587671586802807067e+00
1.483962968856242792e-01
1.618741130333275047e+00
-1.772627853025299238e+00
1.356651308598648242e+00
2.952698449140195969e+00
-4.753432821746100267e-01
1.532702783959824622e+00
3.575249655129978166e+00
1.299285159404487411e+00
6.424838684169801306e-01
2.616356032441617963e+00
1.989535833851032998e-01
7.709620737323152895e-01
2.578583142905535031e+00
-1.155999703396720125e-02
1.722673927986814180e-01
1.969411750310641640e+00
-1.057057147112371975e+00
-8.556363942064585393e-01
3.757002303018490141e-01
-2.755440160709204278e+00
-1.585935786354448540e+00
-4.625243036672234687e-01
-4.029151465121023179e+00
-1.323747358707045407e+00
-1.388446140321087652e-01
-4.145949708994237426e+00
-9.391184838038429961e-01
4.453768303263972578e-02
-4.296496289916520439e+00
2.108955440436737494e-01
1.096595261732691284e+00
-3.294597619937418731e+00
3.358939096928039159e-01
1.205065018026097778e+00
-2.858362660267530053e+00
9.191032185932451748e-03
9.222480974386654262e-01
-3.274607500703250018e+00
3.919201115877449793e-01
1.343545498441877983e+00
-2.937768374925121773e+00
9.369013418657667902e-01
2.196344390903044896e+00
-2.125003026029794739e+00
1.213092655704730571e+00
2.729682264621220433e+00
-1.277765237604484350e+00
9.975128778520687689e-01
2.167678378548405949e+00
-1.641500798011438222e+00
9.577022933462185916e-01
2.180663215910189745e+00
-1.600672518090728857e+00
1.657584082304578876e+00
1.636251095017504209e+00
-2.112563517267182611e+00
5.531475448926754801e-01
8.513369294526191844e-01
-2.924491952809112671e+00
-2.025137198166387653e-01
3.637587635451862422e-02
-3.571967581172274642e+00
-6.602933307002736840e-02
4.679867812562302776e-01
-3.142968738793202821e+00
5.990327581175063365e-01
1.658894108109820076e+00
-2.050669760196212277e+00
6.199908171993464556e-01
1.953868340817908500e+00
-1.736927302138763229e+00
8.154708859648328589e-01
1.962413826495830627e+00
-1.600710340552168542e+00
1.638034464547152735e+00
3.018366676903701418e+00
-6.212054510441815669e-01
1.396801679828419740e+00
3.068230696941796953e+00
-8.009721038754139544e-01
6.498778950546610922e-01
1.961670976027019231e+00
-1.800042821904387358e+00
-1.831707556272352266e-01
5.565884186071146100e-01
-3.121038291530954467e+00
-9.628177568404071296e-02
3.430824881478563571e-01
-3.255851178259315137e+00
1.934938412138902109e-01
4.483525189602923788e-01
-3.127435865449064156e+00
1.081140154358247313e-01
9.695663343159199865e-02
-3.556617992971780939e+00
-4.229945133818515668e-01
-7.537370440189304910e-01
-4.357689971455446454e+00
-1.609787790517117179e+00
-1.971948159381970767e+00
-5.410154520647185272e+00
-1.775406265099663150e+00
-5.070947746362128861e-01
-3.650282464524454262e+00
-1.648069369163371878e+00
-2.808508298069344322e-01
-3.431526880739641960e+00
-8.919536866350448179e-01
7.218968217142300858e-01
-2.220830005250004735e+00
8.606003152597718753e-01
2.435980519916276510e+00
-7.964166445196806388e-01
1.706318403829038211e+00
3.471876516488675346e+00
1.883614353962660692e-01
1.605680019872271602e+00
3.503949092722625114e+00
5.805091382029061720e-01
1.109079946528222393e+00
2.882752071692578522e+00
3.365695460093307556e-01
1.209587082974511896e+00
3.210550254331904885e+00
4.328279026637661953e-01
3.037083396032592697e-01
2.390321072740263286e+00
-3.928294369089903593e-01
1.065872241601048126e-01
2.179785175954612964e+00
3.879989503606937756e-02
8.705787374782318899e-01
2.724052822703398213e+00
3.457313893610792777e-01
4.183025830719236948e-01
2.294650417942566634e+00
7.051940842038458002e-02
4.878673594324700602e-01
2.378662343796031031e+00
2.312264385897817298e-01
-8.545301665019620074e-01
1.202012639112586490e+00
-9.494206225705709157e-01
-1.799797892858726600e+00
2.673709642799030894e-01
-1.937107162482470724e+00
-9.680298092647955377e-01
1.197736234026875346e+00
-1.007563199289718270e+00
1.985442890519213410e-01
9.184403878886036043e-01
-4.295922338224666404e-01
5.215494835227488801e-01
1.292703858122098870e+00
-2.540210784545581246e-01
-7.470740722231472564e-02
7.090440715379053849e-01
-7.280853784928764671e-01
-1.508495283457361502e+00
-6.467483184026714405e-01
-2.321357415459118556e+00
-2.254012220243791553e+00
-1.423401474041349424e+00
-3.061784207276633474e+00
-1.570006300645605313e+00
-6.158116389062923135e-01
-2.298787223919749323e+00
-2.000436065458152779e+00
-8.958407298889381476e-01
-2.265774058487575626e+00
-1.600097006056606208e+00
-3.922283761482461828e-01
-1.972737106430640930e+00
-1.507613385608571610e+00
-4.509911008981836167e-01
-1.567893359419293198e+00
-1.075824664487415649e+00
2.384992017705278300e-01
-7.128988485675211706e-01
-1.074160317588908731e+00
3.647053808488099347e-01
-4.016268056880901161e-01
-6.460926720415475222e-01
7.521539354777170283e-01
3.975544324521409489e-01
2.934240272919268547e-02
1.515781691175720036e+00
1.301706953867319383e+00
-6.665352430582500709e-01
8.798334928402060662e-01
6.951896367212794248e-01
-1.917845115789065913e+00
-5.732118211066612734e-02
-1.492679301051601515e-01
-1.962748086911020762e+00
-1.439136502735321732e-01
-1.238170660261512929e-01
-2.196365820136156888e+00
-1.538273101272431553e+00
-2.986512573664680925e+00
-2.072749280202974553e+00
-1.456117973867366855e+00
-2.867235649879791737e+00
-1.017423877693666379e+00
-4.512623860472777526e-01
-1.879800138719356140e+00
-1.283036946829934910e-01
4.458183392499575626e-01
-1.094034319909272579e+00
4.140742572934016930e-01
9.745915648067656756e-01
-5.127305045128143224e-01
1.246888598012838356e+00
1.793623474771452564e+00
6.238496387223579909e-01
1.662158346169256173e+00
2.229153534006064419e+00
1.209631856205149791e+00
2.928149685785509604e+00
3.239260880155884426e+00
2.307034999270280107e+00
1.745314202446041296e+00
2.194439693789308254e+00
1.624318020199720047e+00
6.367656080047499056e-01
1.257548384675478470e+00
7.033150755927667364e-01
-1.370047966708664577e-01
3.818555207887170400e-01
-1.611028106348294242e-01
9.636915828636299919e-02
4.442729057478933541e-01
2.685904677462668810e-01
1.742122350906560035e-01
4.755831552827792241e-01
2.338583631206538616e-01
1.034162636862542728e+00
1.145300354319136460e+00
8.142603201297939908e-01
1.836952504612879178e+00
1.910035520050617830e+00
1.240920086055528726e+00
1.401174724830174245e+00
1.481804681868853724e+00
8.716443087714609295e-01
7.184713520799370645e-01
1.346865491420470962e+00
9.081019244209721508e-01
1.317117319908978734e+00
1.832489314339853292e+00
1.378979310025059579e+00
5.946902847092024880e-01
1.044590573400197231e+00
4.171747623318890485e-01
7.507882520817492633e-01
1.319240390504458293e+00
6.072482119965395553e-01
5.754103162157692131e-01
8.959474671702354343e-01
1.116174057070172705e-02
4.081686237749058144e-01
8.370384175038787511e-01
-1.606631631923654824e-01
2.914474288172067551e-01
7.587028507009840883e-01
-2.351883431477864161e-01
1.269124579951923293e+00
1.373412089647501944e+00
3.927825456112211677e-01
-4.981693742498118360e-01
-6.992998555334745125e-01
-1.515352982066513254e+00
-1.026721604193898685e+00
-1.069545177543498538e+00
-2.212319642067767322e+00
-1.224252628655532860e+00
-1.332261126776587590e+00
-2.542480151883921735e+00
-3.834340198767117180e-01
-1.265124800544736861e+00
-2.527093170540172906e+00
1.073806982810246557e+00
-2.078437423875176826e-01
-1.632252508552758608e+00
2.413144831765200671e+00
9.082121025043045082e-01
-7.744474293869820780e-01
2.017479891775808110e+00
3.316281306284284969e-01
-1.473956322910507266e+00
1.435510780879884152e+00
-4.918778399916655109e-01
-2.389317162291108687e+00
2.920969833276972238e+00
8.505556093232378156e-01
-7.756983534176468131e-01
3.264776498309205355e+00
1.153156619330813815e+00
-4.436373897792487697e-01
3.613550925335835551e+00
1.653748998237533074e+00
-4.173874620986058742e-02
3.448609263152984550e+00
1.543940903408007825e+00
-3.665241231630188001e-01
3.762447508009091557e+00
1.698643332068563216e+00
1.362422866310276093e-01
3.888252101050381881e+00
1.715594528982138822e+00
2.833082952856979531e-01
3.883949715283368853e+00
2.080586833605476471e+00
5.681246109196335103e-01
2.824284336417980157e+00
1.089805279916830072e+00
-4.796287270287714621e-01
2.631115615786018935e+00
7.399272005151423803e-01
-6.003141568853305188e-01
6.215054140096972768e-01
-9.932536528764471795e-01
-2.354689411275911137e+00
-8.444639344680127113e-01
-2.356737825701229916e+00
-3.790916357273035775e+00
-2.290675753563367056e-01
-2.042474775515893182e+00
-2.947933486778766099e+00
1.714597722802414514e-01
-1.673417526975509162e+00
-2.444151769760115389e+00
8.625530339966429316e-02
-1.689196208532073751e+00
-2.200213521614142742e+00
2.213267848581650377e-01
-1.569218923822239820e+00
-2.068028125248465354e+00
-1.562864495993901981e-01
-1.960391422364005320e+00
-2.353441073258359051e+00
-5.663825625800619212e-01
-1.544469178209644245e+00
-2.075887132876342189e+00
4.684036350720460068e-02
-1.012239397323298151e+00
-1.705759991401045728e+00
2.613605611991223765e-01
-9.912489398017805264e-01
-1.713530300677021501e+00
-3.752096297456606888e-01
-1.322912996783782269e+00
-2.191270153760918493e+00
-4.295781111563091725e-01
-1.413001749692896603e+00
-2.608786656971644025e+00
-1.425602799852264457e+00
-2.154805924921602500e+00
-3.642675305317468304e+00
-9.486801168509130244e-01
-1.491061343017231922e+00
-3.143189502492365506e+00
2.185606881808042912e-01
-1.842833404614550585e-01
-2.169725827326278722e+00
-1.192867375690974396e-01
5.825596378066139058e-02
-1.935413928426310770e+00
-5.448291699300390478e-01
-5.667583257417877496e-01
-2.275828307292128816e+00
-8.522284247434879223e-01
-6.355162891983565654e-01
-2.273730005531937159e+00
-5.284547253315386994e-01
-1.641456068037747823e-02
-1.605737963639381816e+00
-1.442353176228224454e+00
-7.641919033562118990e-01
-2.300602088697119463e+00
-1.957922844840799703e+00
-1.579048653852241468e+00
-2.935401377576028370e+00
-1.388800919782515075e+00
-1.026955018332473601e+00
-2.132013302203136007e+00
-9.894182035585266100e-01
-7.552211669595999544e-01
-1.877157720449137646e+00
6.313253717789797381e-01
4.178304927581413253e-01
2.419007539188559597e-01
1.039833994302019837e+00
6.684931017078992177e-01
5.671893767601295933e-01
1.091277207051502662e+00
7.040467371587560974e-01
7.888398413711957824e-01
6.492981189670481434e-01
-1.456523021404921014e-01
1.051765776614075887e-01
3.694534439740578269e-01
-4.444554425966773525e-01
-3.320040540825998365e-02
6.253091069733163199e-01
-3.313160599469245904e-01
2.738589501688093800e-02
5.362232773958346410e-01
-2.514981701546989412e-01
1.691748218008585769e-01
7.734326663505453059e-01
2.562388246098196848e-02
4.173162886390920923e-01
-1.155311933377134226e+00
-1.946421072073562408e+00
-1.357194045738241428e+00
-4.447064434905236285e-01
-7.373532873362484974e-01
-5.248170463798618179e-01
-1.029106158861700926e-01
-7.649948853371317525e-02
-3.194552133770453550e-01
-3.027446606663733997e-01
-2.277027290319306174e-01
-6.948204839929276178e-01
1.736217413117468467e-01
3.256757280289597212e-01
-3.964388501219856531e-01
-1.767207692585292256e-01
4.209288154047016728e-01
-6.360244849451023308e-01
-9.553408833086645124e-01
-1.494000762491105305e-01
-1.774347363384012111e+00
-7.441558424059184773e-01
1.224528312754866316e-01
-1.538336667453789941e+00
-1.004316544311878445e+00
-8.224347855149828357e-01
-1.213359652540652478e+00
-1.283179135331486309e+00
-8.600627501439375155e-01
-1.470584433708938432e+00
-1.798235968949648766e+00
-1.022775513932637992e+00
-1.856739600663662726e+00
-1.674466035043753243e+00
-7.366571495337345121e-01
-1.515826928996585776e+00
-2.023801519919264713e+00
-9.294399277330811504e-01
-1.884063350030839912e+00
-1.817050965612420077e+00
5.694029663448828965e-02
-1.462514474750264526e+00
-1.628112923939066814e+00
3.769983521000072613e-01
-1.261082373578901628e+00
-1.621265916639475169e+00
4.824774272653475915e-01
-1.245674359942798404e+00
-1.197420699862421722e+00
1.182887621426336633e+00
-7.683716803293298980e-01
-9.826889189790735113e-01
1.357533946627103694e+00
-5.803310996892988571e-01
-1.558682410432695731e+00
4.967333324052001786e-01
-1.366816336642931784e+00
-2.027263836887975401e+00
-3.585801502879149005e-01
-1.884658686786827131e+00
-8.603602085971108204e-01
6.988600813747947171e-01
-8.781077703111810351e-01
-1.002900722288231350e+00
1.068717973959670553e-01
-1.176357959672971409e+00
-2.879856334825199315e-01
5.138968334626223822e-01
-7.341285881154007154e-01
-1.193665037658260264e-01
5.284370864914924582e-01
-7.664162636280212881e-01
4.377134129814996277e-01
1.184504536433534039e+00
-1.671474778130605632e+00
7.641765520608641005e-01
1.611069796476538585e+00
-1.149966219405880397e+00
1.540180805862213786e-01
1.101579686162019067e+00
-1.527132784360572426e+00
-1.199291416670106525e+00
-4.494517036410011074e-02
-2.574295765270572023e+00
-1.863389552315371400e+00
-2.579963604870438854e-01
-2.801261980130566265e+00
-4.906659786041318028e-01
7.659674080413038100e-01
-1.407191505139635312e+00
-1.403845852445497533e+00
2.287935758149375332e-01
-1.878856950247385083e+00
-1.101899631135464297e+00
6.454397322112263025e-01
-1.245319610516123054e+00
-8.512691478608245266e-01
8.897012923113163385e-01
-7.272684742190833607e-01
-6.258439653876912701e-02
1.652136826385408819e+00
-2.656535950425155668e-01
4.639957814966910732e-01
2.218607353353087230e+00
3.045571938536684176e-01
4.284222478214769758e-01
1.799778557316426442e+00
-4.858373878310382477e-01
-1.632860457561670642e-01
8.963743125233835096e-01
-1.590256349430844818e+00
-1.570405220906048616e+00
-1.066526812478353570e+00
-3.851378842011039083e+00
-3.034952910779437296e+00
-2.651953410265265543e+00
-5.697830835998385801e+00
-2.668023582983217512e+00
-2.525159402653281759e+00
-5.505494532098412108e+00
-4.742675668087199536e-01
5.577699277377012876e-01
-2.108959107485497864e+00
-8.592413523749118376e-01
-1.190104034972852380e-02
-2.480546217559739031e+00
-3.342679644732539090e-01
3.923625928148706254e-01
-1.939685720796222368e+00
9.593597064262155971e-01
1.499844724486111502e+00
-4.121645576408441425e-01
9.984944146353199601e-01
1.427298451646037192e+00
-1.042161906024083318e-01
1.741233900846479665e+00
1.999646938923965056e+00
5.462110007016506286e-01
3.730194861410304874e+00
3.804342270478661359e+00
2.383437679721436719e+00
3.505608122817467809e+00
3.049831481562474078e+00
1.906785890032541175e+00
4.096188263037596755e+00
3.713851513662961956e+00
2.072834443864643994e+00
3.033964572384784564e+00
2.317393733566363245e+00
7.109959660199538511e-01
3.250624053671269831e+00
2.154279850698432419e+00
5.931852185679358652e-02
2.722587445220686853e+00
1.651275473326605514e+00
-7.923694094130934173e-01
1.202624387886227275e+00
1.032251470315319608e-01
-2.934110898905814668e+00
-9.626825881124884132e-01
-1.882702955229485386e+00
-5.475647236897167147e+00
-4.015682514209374943e-01
-1.631713784530827382e+00
-5.477885545076522256e+00
9.076878471119156355e-01
-3.611106834887994887e-01
-4.204708107695905639e+00
1.723179821541165557e+00
-7.494845644051361111e-01
-2.007911126995898687e+00
8.203082950387661221e-01
-1.527183623710627103e+00
-2.952060621523495243e+00
2.056655026736029068e+00
-1.347012108519571316e-01
-1.416140903740791934e+00
3.215548954665560899e+00
1.769149092100098297e+00
1.987627169313871400e-01
3.008629499612319069e+00
2.221088070590618635e+00
4.266185135566915587e-01
2.933748220289714048e+00
2.368677638188159129e+00
4.686674331321796227e-01
1.015190427322455458e+00
8.188085235642408310e-01
-1.089794763229041452e+00
5.955942252350301391e-01
8.403316295598958208e-01
-1.494892536277605988e+00
1.199314658375844722e+00
1.529493919663462709e+00
-1.132395651965479200e+00
3.317876094421070565e+00
3.444994027065859221e+00
9.890548533701889466e-01
3.874627295576957842e+00
3.930366468725582152e+00
1.386961330402127324e+00
3.657651820704604262e+00
3.269427307042016562e+00
1.015434996404556367e+00
3.160655427739503143e+00
2.517003431985688877e+00
1.910564274730181256e-01
2.771555914855122982e+00
1.583899009260252511e+00
-6.120767508125279921e-01
2.119967341771823222e+00
6.226939314663499925e-01
-1.235972473052051379e+00
3.706229980177672800e+00
1.980561843029782887e+00
5.837844538279707979e-02
2.001190004355208441e+00
1.865875563686745231e+00
-1.822693855436841037e-01
2.615689588206728811e+00
2.509309996115411945e+00
4.300224050591863745e-01
2.832506864160226900e+00
2.520430338570547768e+00
4.651052395084233071e-01
3.059702512008934061e+00
2.934739940981271999e+00
5.683830860203851199e-01
3.048544191024834316e+00
2.822501600246643427e+00
3.742120158620299009e-01
2.059975240727598855e+00
1.977543221387041195e+00
-6.467247903642500129e-01
8.609840143660973943e-01
5.963957408478312017e-01
-1.887294463397562128e+00
-1.100174046958878993e+00
-1.328245134902478641e+00
-3.902270336897398995e+00
-4.570589312839956619e-01
-7.407257481348963335e-01
-3.339101715204223275e+00
-6.641137172804592037e-01
-5.508560192294669200e-01
-3.279036866178673293e+00
2.500268882058873099e-01
5.831192322576058684e-01
-2.165229536041497926e+00
4.177071198189542534e-01
8.516474016002231195e-01
-1.758806168835693962e+00
-1.039598903351682591e+00
-2.294084266405744255e-01
-3.227848596509913737e+00
-1.185335923411783510e+00
-1.139552696218850553e-01
-2.967741764437344720e+00
3.055744605421085169e-01
1.819342570529282721e+00
-1.251575192888007670e+00
1.346298982165886171e+00
2.793483237726986701e+00
-1.581317441528945766e-01
1.501001216522727777e+00
3.594486679697146414e+00
1.242129912290838245e+00
7.736538522696935205e-01
2.916408963396580845e+00
2.900381772513673240e-01
4.433168355083417222e-01
2.364882901095847423e+00
-4.598743488045183847e-01
-4.560149479650455473e-01
1.276979885057257347e+00
-1.798970161517899902e+00
-1.175697345733853094e+00
3.151019009335887522e-01
-2.830992438212951878e+00
-7.273419852760324433e-01
6.455952646092459890e-01
-2.917485918034361525e+00
-4.839237159716078818e-01
8.147312207331240952e-01
-3.162216437716819151e+00
-4.335370439707825763e-01
7.025817390448777511e-01
-3.416467423833179584e+00
4.487954900604940178e-02
1.293356436933227549e+00
-2.977661182611841095e+00
3.346777768273481724e-01
1.407482373017575394e+00
-2.601238199817625496e+00
8.452978895788141322e-01
1.780632112619448648e+00
-2.252062392716250638e+00
7.216762692941596224e-01
1.766374096935910520e+00
-2.234016378683494786e+00
9.121568323868303185e-01
2.216741925686986914e+00
-1.728498735203200409e+00
8.632897824940025666e-01
2.249624022283572167e+00
-1.570173692862607773e+00
9.715363693043463922e-01
2.583274519385546419e+00
-1.225327799110489835e+00
6.618338037895831194e-01
2.073291476616694329e+00
-1.880948114342987143e+00
1.613463501002168066e+00
1.744809209715958431e+00
-1.535534564664739365e+00
1.477916678228721636e+00
1.378911977455444138e+00
-2.068316995908253464e+00
9.693319832788134249e-01
1.082628576434242484e+00
-2.224202053126316247e+00
5.223328306201180382e-01
9.135169146940874674e-01
-2.159856900345813457e+00
1.238729017892839845e+00
2.079393173443949028e+00
-1.387393301926742373e+00
8.047009072860303869e-01
1.895687847383942026e+00
-1.394718343330032306e+00
1.156707535827279365e+00
2.073071484672231346e+00
-1.245314923896545745e+00
1.467243669900728298e+00
2.784228201058573049e+00
-4.997567350480274229e-01
1.217618846908388175e+00
2.485043548516509659e+00
-8.936250930943114845e-01
1.357954477456509101e+00
2.496144968553457577e+00
-9.186274146591478784e-01
1.163935416010911217e+00
1.934401173742444469e+00
-1.297542891364780182e+00
-2.171928714482327938e-01
3.255698745912475878e-01
-3.077494736269644093e+00
-2.589762391748780535e-01
8.451509110499377808e-02
-3.340265122172084489e+00
-2.103858812576823722e-01
-1.700169847502009945e-01
-3.521027044660080652e+00
5.497021417403363114e-02
-2.321291541538033909e-01
-3.554098274956793979e+00
-1.128402335141544255e-01
-6.053609011824505615e-01
-3.807284594862457183e+00
-1.661131664970789235e+00
-3.433402280575775234e-01
-3.128765581133632345e+00
-1.416725313366038685e+00
2.318504574998594622e-02
-2.563948773728565556e+00
-1.070570541519332952e+00
4.414526372631241702e-01
-2.370256118258619704e+00
-2.596352307266152140e-02
1.556547827596732603e+00
-1.324028067256828756e+00
1.053161975114847992e-01
1.952124882082617585e+00
-7.655061717193153425e-01
5.163516042988647303e-01
2.579721150099036464e+00
-1.687533097791793502e-01
5.318422324460772010e-01
2.636132130669048390e+00
1.521503310320379276e-01
9.456122021651740539e-01
2.926977710374150998e+00
4.232573941181700938e-01
4.324716036513314710e-01
2.284412134857305876e+00
-5.987226954503149096e-02
5.223645468691232585e-01
2.353747525399282559e+00
2.860885550856305803e-01
3.572111076586202971e-01
2.237207411019749959e+00
-2.307514365829045622e-01
-1.022750101699332337e+00
9.470890385022797675e-01
-1.232815841533947854e+00
-2.812820381028303673e-01
1.482690238995777454e+00
-7.051175227277776125e-01
-8.555547278671418732e-02
1.751732051759141262e+00
-3.213983899981970871e-01
-1.202229620282933453e+00
8.026481115448588222e-01
-1.308576755618283016e+00
-9.511654526410660004e-01
8.531565316824341050e-01
-1.311434382809004928e+00
4.377183531552908402e-01
1.247144720574375754e+00
-1.819635816612907853e-01
6.810616483403402199e-01
1.502150776765295737e+00
4.172076206553570338e-02
7.255575894842168916e-01
1.694578711988714570e+00
3.324373543932078734e-01
-8.652245850575646102e-01
1.493385297191701655e-01
-1.539420194387515650e+00
-2.312517927392869321e+00
-1.505320763112737215e+00
-3.173013013044585495e+00
-2.010067661724565191e+00
-1.194824667869807566e+00
-2.712227990617567919e+00
-1.182534542781147557e+00
-3.158306133188710785e-01
-1.771774281841516308e+00
-2.855096203716820935e-01
6.577261005590064880e-01
-9.734845193860034440e-01
-4.890868853848811537e-01
3.533458455290708899e-01
-9.696809450113783591e-01
-1.624568323892852106e+00
-6.060777246166573207e-01
-1.773199610129273518e+00
-1.242154528609616282e+00
-1.502018116222538779e-01
-1.054525632589651263e+00
-8.816786813750036034e-01
3.209942757703021510e-01
-3.074457852136376901e-01
6.105241605747637745e-01
1.939395394541967521e+00
1.755958223719031208e+00
-4.432539159203134349e-01
7.683614937641511933e-01
6.409111425217295377e-01
-1.537188721001003788e+00
2.569771452964805108e-02
2.199777573710676518e-02
-1.847121755839445045e+00
-1.066920114652793738e-01
-1.257164074042828594e-01
-1.842907265326393373e+00
-1.218112886700788433e+00
-2.612300045458446629e+00
-1.496490467032113747e+00
-9.246400228155072787e-01
-2.419634243947559771e+00
-3.639082028385579592e-01
2.847589044835522332e-01
-1.352915084352291020e+00
-6.749656512732227220e-02
4.926139856511723147e-01
-1.026735699629963694e+00
7.338396139537191054e-01
1.018138588198789884e+00
-3.439781153346357367e-01
1.256457551975573850e+00
1.722975817105507179e+00
4.322368260392703831e-01
1.807968259012415979e+00
2.162904311777410715e+00
1.032122614142170658e+00
3.083460149298576258e+00
3.248803400838593092e+00
2.381718649470454530e+00
1.731365568042068537e+00
1.953632026478151484e+00
1.243643292209380968e+00
6.291552965143214493e-01
9.672240887377403507e-01
4.617057246669454273e-01
-2.780253870569506236e-01
3.341450617177323806e-02
-4.962516121538244063e-01
-4.309886850578709128e-01
-1.334277389063716623e-01
-6.656442283467099985e-01
-2.870887784388061470e-01
-1.999657311085283884e-01
-7.120132704170100135e-01
6.579160883215846578e-01
5.850032312952200275e-01
-7.116410692192066956e-02
1.221178927152833715e+00
1.394890992541172103e+00
5.569612877927490047e-01
1.096054690553500466e+00
1.055373676408801309e+00
2.835431278056578797e-01
-7.702652851096636333e-01
-6.721410418140894016e-02
-4.351482644984450698e-01
-5.533084369093040911e-01
3.658859985938635595e-01
-2.568711949071572631e-01
-1.042030390330286327e+00
-9.442829634783822534e-02
-7.937997941689870496e-01
-2.129952583530698162e-01
4.707839647331037436e-01
-3.630355236110361372e-01
-6.183676078644637641e-01
-1.170252108269380087e-01
-8.176975800815530215e-01
-2.601582471222650683e-02
4.457405247932124670e-01
-5.538797963379986644e-01
-2.152215328897268132e-02
6.025290396358657929e-01
-3.493224989614951981e-01
8.847719485075887791e-01
1.104033971855010510e+00
3.778606534898220626e-01
-3.367800651586456695e-01
-2.603076025874437316e-01
-1.111413381325661920e+00
-7.671972730470466573e-01
-6.600097408036117441e-01
-1.528782099282259166e+00
-7.313552356811114930e-01
-4.843540240679921616e-01
-1.784157998349472418e+00
-8.223500881129239826e-01
-1.143472835528792197e+00
-2.361958425849493004e+00
4.792703654567080362e-01
-4.452262396513380072e-01
-1.726158786953632118e+00
1.588935148410573817e+00
4.768898011123642866e-01
-1.148972866520320046e+00
1.642015801314370860e+00
4.196121292099583289e-01
-1.445984981923900348e+00
1.857395625138853035e+00
5.511845875404342010e-01
-1.272025947212030106e+00
2.334900619888363060e+00
6.448662386953989412e-01
-9.605077159522685815e-01
2.666280016264708674e+00
1.203015757422940979e+00
-5.281069920345732305e-01
3.220929833764790473e+00
1.591681784122126464e+00
1.699444018178584287e-02
3.736943331164586546e+00
1.918140042048750882e+00
3.755125732525078641e-01
3.130491498846223575e+00
1.506098276956602922e+00
-1.888982861877810671e-01
4.243188549693473810e+00
2.425100348305024411e+00
1.181116061522778926e+00
4.894519763755996067e+00
3.358038975013475369e+00
1.863166674529372902e+00
3.916119911044602109e+00
2.585226146343100329e+00
1.046458243073426608e+00
2.963290789810460346e+00
1.221824740308402379e+00
9.529039181885883003e-02
1.359520701019570899e+00
-9.391591210878912077e-02
-1.397324156657541172e+00
4.495772446505346132e-01
-7.938236674634882029e-01
-2.044057392145821606e+00
9.860911873791597948e-01
-6.449352471388587471e-01
-1.662165466801907909e+00
1.322689679749576186e+00
-3.262595728016487451e-01
-1.050779934955144546e+00
1.845759975094785954e+00
2.379489606773333987e-01
-1.385276525251064039e-01
1.634604117448811733e+00
1.102807481521958788e-01
-3.230512939975053177e-01
1.044113295059585278e+00
-7.827664533483424947e-01
-9.341587470041543551e-01
-9.402502828846467375e-01
-1.721393607776348089e+00
-2.279970126464924363e+00
2.041789467480278897e-01
-7.352270018526809725e-01
-1.407754351512602531e+00
-1.318259705096166967e-01
-1.113033429328647239e+00
-1.957635341044923871e+00
-1.264694394830635282e+00
-1.943802240654167957e+00
-3.098607819218546666e+00
-1.639074691504660120e+00
-2.528276961438276516e+00
-3.540764561568991553e+00
-1.782777346269704077e+00
-2.574082854967552070e+00
-3.970460414011456329e+00
-4.855082066148259101e-01
-1.198427814350614184e+00
-2.847713315172127668e+00
-5.408013700920631939e-01
-6.841543391019309084e-01
-2.565103191083387024e+00
-1.007030982291504256e-01
-1.558184080736661481e-01
-1.908742460453424439e+00
-6.980431062162711919e-01
-6.983810399614717168e-01
-2.339135391857704249e+00
-2.224117374138737946e-01
3.152117400110470147e-01
-1.235312854812443240e+00
-2.845896255815221210e-01
4.042390756949211794e-01
-8.873950663549200479e-01
-1.447999731219014929e+00
-7.172477655707326649e-01
-1.872439699189853091e+00
-2.260258746953185405e+00
-1.741505529843865752e+00
-2.864003377354146895e+00
-1.988895386632504314e+00
-1.665429890529736889e+00
-2.547371561639276916e+00
-2.019297558149749428e+00
-1.673673599142666779e+00
-2.595964667112379498e+00
-4.486385894734645774e-01
-7.479462740264147813e-01
-8.133067929744232094e-01
3.214952396602234197e-01
-9.818817945002161762e-02
-4.403496219597981959e-02
1.493521513392583877e+00
1.123990406867779068e+00
1.317317745528267414e+00
1.612370892257827260e+00
9.425507204455213506e-01
1.181017073959319097e+00
8.894994904305590921e-01
1.847451560594386144e-02
6.386549521978281962e-01
1.403239665496699429e-01
-6.600600811595577211e-01
-2.078562970173426228e-01
5.452447018850906796e-02
-8.240497620070762474e-01
-1.678553434573098191e-01
4.362150106602013522e-01
-5.748050446683687920e-01
2.188894592453136390e-01
-2.842680265531335460e-01
-9.739892516180527204e-01
-2.946950870637979336e-01
8.893434910797858028e-02
-3.264251926985041741e-01
1.115663350761842421e-01
-4.052782293617717690e-01
-5.987362193398123589e-01
-4.496339065097771370e-01
-5.253715641473696296e-01
-5.088145772098101594e-01
-7.789200065320277533e-01
4.229592348774672272e-01
8.063000550701052704e-01
1.000546366220324557e-01
-9.106405676700507490e-02
5.682019724812152894e-01
-5.076807583257590961e-01
-1.320781602376539521e+00
-7.894428366700524391e-01
-1.928233186042922931e+00
-1.432004710536117997e+00
-7.796319736887568075e-01
-2.022847782850082154e+00
-1.237906951961190272e+00
-7.785698723692484613e-01
-1.248581833283964437e+00
-1.428206600024899853e+00
-6.773378087317994956e-01
-1.226927808161068389e+00
-1.621040724120644372e+00
-9.813876245795797315e-01
-1.616064132374683382e+00
-2.190063103136620004e+00
-1.190644018508032254e+00
-1.886763758121277501e+00
-2.123313899985473707e+00
-8.830144313649553878e-01
-1.757720031266919669e+00
-2.141504778754080629e+00
-4.091816705139924015e-01
-1.854628910798650665e+00
-2.516239404247297529e+00
-3.138272133012066090e-01
-2.030907473896041537e+00
-3.015916108154613529e+00
-8.425417915371152811e-01
-2.539685747743372524e+00
-1.308429968566222623e+00
1.192899171676991887e+00
-6.076305386071136905e-01
-6.663542912617150815e-01
1.750898994726029612e+00
6.036372282876486389e-02
-1.289889913600444027e+00
9.543655630066223416e-01
-7.742864590406035585e-01
-1.311093780727469627e+00
8.420748003773389501e-01
-8.988479648232450270e-01
-5.640703038758855259e-01
1.319942985215993625e+00
-2.741445509205734932e-01
-2.050092383310465546e-02
1.573395380530384413e+00
1.458522791984988298e-01
3.314475794365438488e-01
1.604531276971291831e+00
3.192356795078651333e-01
-1.085734179732138899e-01
1.011221438682506912e+00
-2.080354915795988580e-01
-1.151955632994784429e-01
8.254269036084092015e-01
-1.925635381690629755e+00
2.359994214184791550e-01
1.318052930497901842e+00
-1.478043945996539321e+00
3.015073959675348414e-01
1.582354748553938872e+00
-1.077769402611658434e+00
-5.790523150322977042e-01
7.362389379143899903e-01
-1.850882595233364070e+00
-7.351340628995910453e-01
8.022803359135888268e-01
-1.638279238660195425e+00
-8.948927470352932567e-02
1.343436559416472109e+00
-6.998843291477357953e-01
-1.061128171466338310e+00
7.824110780330701953e-01
-1.287536683124773207e+00
-5.439228797154623818e-01
1.159072904722948216e+00
-7.191576973396321959e-01
6.216198583352580131e-01
2.441490673519494337e+00
6.852715580186335975e-01
1.191055181309156996e+00
3.000519390750199467e+00
1.220922672280629229e+00
1.603369737788308269e+00
3.281658489647319765e+00
1.482256303435784517e+00
1.520781489617150095e+00
2.840229649928908806e+00
8.965643746525828739e-01
1.105584139014492262e+00
2.141650345722481585e+00
-6.637559329774245231e-02
-8.806737235055225321e-01
-2.899469611855298723e-01
-2.813177561246071434e+00
-2.043872922463922936e+00
-1.517003938275606201e+00
-4.301718516844958984e+00
-1.787814506714936913e+00
-1.365150689401114059e+00
-4.152324757114136844e+00
-4.427339655010201769e-01
4.265574806191094193e-01
-1.978619368672838386e+00
-3.090311594178505317e-01
4.942757952861921988e-01
-1.839436753702623939e+00
-9.053777003937241163e-02
4.951468640520735320e-01
-1.653214501248491120e+00
7.600998210454119608e-01
1.211097255629728808e+00
-6.047148017493572114e-01
9.012827167522422522e-01
1.266374174880175563e+00
-2.804638709062448054e-01
2.597127077779445958e+00
2.715901649004551999e+00
1.344082619916425081e+00
2.455496852976238653e+00
2.389137744860970525e+00
1.013137502557379444e+00
1.185649175322199600e+00
7.279814146836331989e-01
-5.160598795201982725e-01
1.715115553337587029e+00
1.094640028677833721e+00
-5.351505699605191291e-01
1.825410159223251894e+00
1.009321857431821901e+00
-5.664888849856168918e-01
2.046568945989020616e+00
8.203496114764826652e-01
-1.194313945194395821e+00
2.246533538539535080e+00
8.787838385308781586e-01
-1.479263980442886206e+00
-5.316853929524044675e-01
-1.758289797573628910e+00
-4.597237236650871139e+00
-1.832068241882633286e+00
-2.995345995313285936e+00
-6.056366534738479857e+00
-9.539929217131331018e-01
-2.123912446802195042e+00
-5.602117865268885666e+00
1.127339251613112436e+00
-1.340866437389956756e-01
-3.654144833612988474e+00
2.835748906425156868e+00
3.210457792193643356e-01
-5.737265397535696865e-01
1.812079451502124572e+00
-4.318002428171236473e-01
-1.581773652554572251e+00
1.583417991435247307e+00
-2.971082606070086229e-01
-1.640671899866557037e+00
2.008902022597709447e+00
6.036245949192563520e-01
-7.704710840785194970e-01
3.120098961435042284e+00
2.326603434438160978e+00
6.976302884917604530e-01
2.049233990176962283e+00
1.653512777251584298e+00
-9.883962707076121568e-02
-3.017876014572029586e-01
-2.398786009359549498e-01
-2.124350491479454650e+00
-2.752940572122843377e-01
-2.597174019148295633e-03
-2.086867678098013545e+00
1.916387318539166440e+00
2.495782841238355587e+00
2.066516408940356486e-01
2.684208451129583839e+00
3.005418844717165694e+00
7.940582652814510700e-01
2.522889360001246306e+00
2.717357702975317313e+00
3.202390748349189242e-01
1.860292269423218903e+00
1.703511151211815955e+00
-3.692809638714044107e-01
1.623736250824428851e+00
1.130744896444427772e+00
-8.005338793495522243e-01
1.436685823826826081e+00
4.269728937151330839e-01
-1.257886103067145100e+00
1.992471662979109270e+00
5.831241780465381552e-01
-9.125621906422853868e-01
2.873605092495032487e+00
1.332383933600512327e+00
-2.722658384895363937e-01
2.663604549665388621e+00
2.798845332555502274e+00
5.619710497108422187e-01
3.190482002062316358e+00
3.404607112497911814e+00
1.321229059509029247e+00
2.832951730588908923e+00
2.925728956241259837e+00
8.765677726963811978e-01
2.093349558393588605e+00
2.139752177911907527e+00
-8.384127710147355750e-02
1.230202365535401077e+00
1.313382180201468685e+00
-1.038184331156877471e+00
1.302861108201987805e-01
3.095894108721247151e-01
-2.326353308200976411e+00
-3.690615469995361941e-01
-5.003525717441267284e-01
-2.780741986138044464e+00
-2.035761623448163693e+00
-2.087225375550415318e+00
-4.569774956258038756e+00
-5.360006415368389066e-01
-4.995097854509182311e-01
-3.080121204823353054e+00
-4.495562743330854261e-01
-2.115770235362398610e-01
-2.844410893664826023e+00
5.514260190216940805e-01
8.907090060792375308e-01
-1.770664058548470754e+00
8.440886622927551430e-01
1.386916574827097293e+00
-1.385819493015452153e+00
5.620878700248724963e-02
9.335431931094178015e-01
-1.782989226133420368e+00
-6.145335777504902508e-02
1.199451623963303293e+00
-1.649380254491155995e+00
1.763786620353713364e+00
3.399445488295207429e+00
6.181925640466078287e-01
1.745839749966129117e+00
3.332169483007788369e+00
6.218323367249241063e-01
1.633927708629570263e+00
3.810061115673031740e+00
1.396692401022075147e+00
5.822227934389968551e-01
2.764031554922458334e+00
2.306409842240182417e-01
6.098011772438668432e-01
2.560528363933255669e+00
-2.039101765420624213e-01
6.505263672526661045e-01
2.402330997321995731e+00
-5.959740290983492894e-01
-4.940294416586650250e-01
1.186333243804952753e+00
-1.940788086648506328e+00
-1.153379258062338764e+00
2.725587303565674691e-01
-3.065882651973185880e+00
-6.496281309893003897e-01
6.939480779356348439e-01
-3.005782493180580772e+00
-1.889360988987344170e-01
1.059520740644588788e+00
-2.625090325394721535e+00
5.142410862673018057e-01
1.737590976857055214e+00
-2.092081263726422335e+00
9.150243483454314486e-01
2.194525335340401728e+00
-1.681905260677925451e+00
1.391398402140215484e+00
2.721887649332138004e+00
-1.070625882795062545e+00
9.781958111211693785e-01
2.483391985219525200e+00
-1.453928433153343969e+00
1.385692391130387335e+00
2.896864140498403906e+00
-7.493861398091108406e-01
2.166164996496461881e-01
1.669473826362024793e+00
-1.907324171708852711e+00
-5.471151722392174621e-01
1.000143976692894121e+00
-2.639900781932996487e+00
-6.682460284170529397e-01
8.411015160204766694e-01
-2.779007078471448455e+00
8.543588807249690165e-01
6.477051261512268843e-01
-2.635685574005704801e+00
5.679333953072011054e-01
2.827241822130391879e-01
-2.853703207564338928e+00
3.808093229751056685e-01
3.227786994053653546e-01
-2.720574958961032852e+00
2.937393699385290602e-01
4.276454731454580327e-01
-2.533026500474896636e+00
1.336074134132664737e+00
1.878473314323609422e+00
-1.144205888659576731e+00
9.657793320189832498e-01
1.659072341767192205e+00
-1.459649165428897666e+00
1.108697598613882951e+00
2.076875170957250383e+00
-9.536404052715853341e-01
1.151353000603866361e+00
2.395553183063411584e+00
-6.091761524532840477e-01
9.841941018862898627e-01
1.902284772559438286e+00
-1.075731865242536278e+00
1.213103752368589250e+00
2.102577209156596183e+00
-1.057399188514758448e+00
1.836421888602692398e+00
2.751292544542191632e+00
-2.312688173737124653e-01
4.195237559076430700e-01
1.096555624787354244e+00
-2.113925762819229615e+00
-5.429628002248406693e-01
-2.826096190006927578e-01
-3.403647047580699248e+00
-2.907710294849615851e-01
-3.506476150060627295e-01
-3.548891747404695707e+00
1.378458247214476018e-01
-3.714409220418370128e-02
-3.367848223337666980e+00
5.770844052588475215e-01
3.136440688360301876e-01
-2.829111075310337231e+00
-1.359096697757038896e+00
-1.416586441127898888e-01
-2.853541204449550950e+00
-1.811696804963462970e+00
-5.330069690715212305e-01
-3.046911478775458093e+00
-1.680974763029354335e+00
-2.451426993064149407e-01
-2.911385027923039548e+00
-1.033442323255868489e+00
5.110340656396520354e-01
-2.002865958808060398e+00
-4.788144517933992650e-01
1.261193794675759206e+00
-1.443519467813610069e+00
7.608175224428850303e-01
2.631253561706878852e+00
-3.197579822875806776e-02
9.931130727138930414e-01
3.055609287769385674e+00
4.951064541609809799e-01
9.160989940505696039e-01
2.744548326928947013e+00
1.650777828312074424e-01
9.321044830856207719e-01
2.623929665919070953e+00
1.210078197208799833e-01
7.891645393628925476e-01
2.456162234059500182e+00
2.239302464081464328e-01
6.425796451876286675e-01
2.098298488736952461e+00
-2.416728355279870732e-01
-8.993477974321042456e-01
5.008995035807175533e-01
-1.660909940606162705e+00
-6.685834229361328207e-01
7.481086226784019466e-01
-1.547649378219301264e+00
-3.109155859596541283e-01
1.126318847091532849e+00
-9.618245945506318506e-01
-9.002602321832160470e-01
7.901491154410469342e-01
-1.535223507134757526e+00
-9.022486543213789068e-01
8.081460484935185651e-01
-1.598981009893407412e+00
1.665201432665425474e-01
1.074228886421535467e+00
-3.798065070041145574e-01
7.890504649870160314e-01
1.712822242916731907e+00
3.452162929877802822e-01
1.456970344566897779e+00
2.370005548471297185e+00
8.294807303390160369e-01
1.052759532768383910e-01
8.580221940869242614e-01
-8.923370852338067261e-01
-1.495313664102545514e+00
-5.806943422306124480e-01
-2.517608548990862616e+00
-1.268287956628946889e+00
-4.053334597625269375e-01
-2.320558243738932269e+00
-5.708171933645113105e-01
2.715686151988405683e-01
-1.443042310589302435e+00
-6.152965002684189499e-02
7.906268796926199105e-01
-9.508753128058744508e-01
-4.772297436915734492e-01
3.310607213835974338e-01
-1.042773463595435990e+00
-2.511061553236864530e+00
-1.612925904303460056e+00
-2.886074540956627743e+00
-1.821153326205248391e+00
-9.191779328013759409e-01
-1.888158063283505550e+00
-3.992940813301489866e-01
6.374543115581561281e-01
3.204949301465778722e-02
-7.695221192194981463e-02
9.751270669477540842e-01
6.630748626734974671e-01
-8.536489099686788151e-01
6.485521540490086778e-01
2.374775771416082482e-01
-4.223233007136287798e-01
9.593428772211107791e-01
7.266178201183595142e-01
-1.084626570584417804e+00
3.488997027644005766e-01
2.243992208460980908e-01
-4.922481922133893906e-01
1.253355658626093272e-01
-1.306490450951395266e+00
-8.045346483038026131e-01
-1.602480010707094948e-01
-1.650054119467302405e+00
6.745535376572497910e-02
6.255445882763062126e-01
-8.168376071246041814e-01
-1.411514369286955839e-01
1.842367912328348178e-01
-1.260989636413052395e+00
8.235517799056091270e-02
3.573847666111402699e-01
-1.026845655508336952e+00
3.982978795899966284e-01
5.837710064556103084e-01
-7.866677735955248663e-01
3.549338233581856850e-01
5.630719395710938047e-01
-5.960213672859695500e-01
9.509426854351517022e-01
1.178844441485666694e+00
9.953784361140263770e-02
1.110778560171729490e+00
1.083872346550917021e+00
4.059991695507520482e-01
-4.298263667404509381e-01
-1.039394113829606447e-01
-7.158509494411292584e-01
-4.994450820289956239e-01
-2.628124443469406213e-01
-1.092107222682005663e+00
-1.004684525737570139e-01
7.463271528751345973e-02
-6.741197130143103955e-01
8.131043602633253320e-01
7.478982454615624720e-01
2.027620676671662292e-01
1.287549011600234605e+00
1.360123815090954924e+00
7.024273313693203402e-01
1.323474560341613593e+00
1.533966991037504224e+00
4.462735335988672336e-01
5.850601738908799421e-01
7.633794891901138913e-01
-2.117959994174271332e-01
-2.637615975637427890e-01
6.106423205580510105e-01
3.758525985059601449e-01
-3.126160337066736239e-01
6.508455474894170312e-01
2.035399491816111683e-01
-9.723420049229299922e-01
-1.457361335594101748e-01
-7.091022660676082889e-01
-4.537688056799934477e-01
3.001077679750324689e-01
-1.251586087922773038e-01
-9.875106105642845744e-01
-3.478476569894726755e-01
-1.035013805375927465e+00
-1.333894064248433153e-01
5.380989111127058022e-01
-2.192722419709199899e-01
1.630851882435376266e-01
7.695909843177313192e-01
-1.264743514387274004e-01
6.461026546791751590e-01
1.181780221214420834e+00
2.542383163901161813e-01
9.806149900131554409e-01
1.323909897365990185e+00
6.181616492532976403e-01
7.475610738599313132e-01
1.171756161893383386e+00
7.892838800259947829e-02
4.737128899143788763e-01
6.495308542816873310e-01
-2.009198773262647342e-01
-7.735215481482731192e-01
-9.715089921010130469e-01
-1.956521759410698502e+00
-4.164389261059868175e-01
-7.824734780980073801e-01
-1.963079761912168042e+00
7.629055586975713732e-01
-4.685453902227697948e-02
-1.367401670099851696e+00
1.291615912172672909e+00
4.898820076203031504e-01
-9.886306009082341806e-01
2.310845321563749444e+00
1.348305514339428246e+00
-3.566846582240374430e-01
3.046835328253870490e+00
1.587948303611817824e+00
1.599376983934872043e-02
3.123718038213812331e+00
1.716148070230216982e+00
2.463984967282127278e-02
2.645092141944293207e+00
1.212919506644521972e+00
-3.159723531615737935e-01
3.219834127322565021e+00
1.903949888081603925e+00
2.978355179525173368e-01
2.923723388152049463e+00
1.528594989861004505e+00
2.601730010968728544e-03
4.335876047649652065e+00
2.813611228661049957e+00
1.541206835424783428e+00
5.123526719721385625e+00
3.837935977299800072e+00
2.432343063782155479e+00
4.729371561121531009e+00
3.652499927238734845e+00
2.342729433455093879e+00
2.658931258931373165e+00
1.180925347980099627e+00
2.097486722016017324e-01
1.788907930153941228e+00
5.911568373260788212e-01
-5.875459372593238028e-01
1.369790494319506502e+00
3.310622373348181546e-01
-8.916251813980883290e-01
1.468258816347753015e+00
-1.030892395579066506e-01
-6.597801934053811879e-01
1.770557526241243629e+00
1.002136157542829614e-01
-4.109838934574499558e-01
2.866206991821261152e+00
1.166666228181803655e+00
7.627109469909117978e-01
2.537617917503490084e+00
8.080637949013933508e-01
5.432708824774259426e-01
1.280221668612135488e+00
-4.390559541019304901e-01
-5.790356508952347880e-01
-8.055378017055482287e-01
-1.584375925390694606e+00
-2.045338594318105940e+00
-1.505445293480308921e-01
-9.669896479338624395e-01
-1.642138328209042930e+00
-3.630224439097469169e-01
-1.227830795278431086e+00
-1.984106737263914733e+00
-1.276699231620437747e+00
-1.991439390096213291e+00
-2.775299198025846348e+00
-1.933212031736519343e+00
-2.885141389899063658e+00
-3.880685727957041475e+00
-1.990531632309464394e+00
-2.930075964713276360e+00
-4.005665502919902643e+00
-2.918955189962200159e-01
-8.480118066012374278e-01
-2.408269144521669070e+00
-4.144475287653720530e-01
-7.542595309590822694e-01
-2.129558534304797135e+00
-4.413957860105093833e-01
-5.655171792338995473e-01
-2.067337608683421646e+00
-1.055128462068469997e+00
-1.028597818026189215e+00
-2.308934056347416330e+00
1.667692523069446223e-02
4.150645284740067664e-01
-6.011673686559669827e-01
3.258304539769373842e-01
9.202930046138145803e-01
-2.633577716394367926e-02
-9.103397186001070951e-01
-2.729549683170784946e-01
-1.035946249468287839e+00
-1.391619366842602012e+00
-8.395603980764709817e-01
-1.681625471839954367e+00
-1.239649330256922477e+00
-6.071474674248977799e-01
-1.447660166460867037e+00
-1.460754689697875586e+00
-8.950018296628051706e-01
-1.515279676267378139e+00
2.486315520445215033e-01
-6.394507428577797525e-02
1.983267533244368469e-02
1.430452795447545722e-01
-2.286111934490587250e-01
-5.988338307236566738e-02
8.274332657103146138e-01
2.067226033100148797e-01
7.515270657705572788e-01
6.459728949417543609e-01
-1.457762021053971013e-01
2.422400494212287314e-01
8.787144252056552918e-02
-8.156176614885973786e-01
-2.105154471369209412e-01
-2.007176932896288235e-01
-1.025729970428653548e+00
-3.276002353241609932e-01
-2.895135794997194534e-01
-1.189010338800641220e+00
-2.306072713716968980e-01
-2.667966754374501148e-01
-1.065274889503543099e+00
-2.884935797456512629e-01
-5.776998829411483793e-02
-6.864555220093645493e-01
-8.264801606248446675e-02
1.132134368227394605e-01
-3.148495553042160999e-01
2.322543830575512225e-01
-7.719941244971767480e-01
-8.673175501866793313e-01
-7.269359177044851794e-01
-1.666586780472973262e+00
-1.518035559289674596e+00
-1.766761347201535992e+00
-7.294028311646745255e-01
-4.031563400691871024e-01
-1.028465415894785240e+00
-5.727901748686698991e-01
-5.300276232943322563e-02
-7.422392146696440429e-01
-2.332831850986434308e+00
-1.753551155220361091e+00
-2.766423787064562934e+00
-2.714754097719522807e+00
-1.974631119394029799e+00
-3.081829660073124977e+00
-2.067910132595214723e+00
-1.438514707877976528e+00
-1.873008098703098590e+00
-1.863358243263708136e+00
-1.249793059171494303e+00
-1.717421858556105629e+00
-1.510366735490513257e+00
-7.090354076174640863e-01
-1.349663168965206772e+00
-1.925029311752077588e+00
-8.760904438610542799e-01
-1.547905830763470103e+00
-2.113077863131318956e+00
-7.695256033659714223e-01
-1.831404990834163637e+00
-2.224963892023051226e+00
-4.290898502662637837e-01
-1.596894439908930208e+00
-2.667105470662421762e+00
-7.426548503974650384e-01
-2.134819503142463937e+00
-3.921238881075687299e+00
-1.747668562856952823e+00
-3.331104380221808992e+00
-2.154897388722710527e+00
3.936699525381079923e-01
-1.289187692845427113e+00
-1.168290200007581436e+00
1.256456151541571975e+00
-4.437275602468281344e-01
-7.630668369031995413e-01
1.726185852366662443e+00
-2.036764846571238463e-01
-6.968971552204585862e-01
1.475845640591549213e+00
-2.040230151662435210e-01
-4.597550948705803608e-01
1.779212673667219802e+00
2.596574735492083175e-01
7.022116865693469601e-01
2.585245189208958294e+00
1.167540124042042660e+00
5.846419658239250250e-01
2.404283016054543864e+00
1.045968892107426385e+00
8.461699857690143656e-01
2.493375026848198228e+00
1.203790865829186707e+00
-3.254348517357514847e-01
6.059676536946054792e-01
-2.178383302174515812e+00
-5.867665482163627599e-01
5.373008023641030473e-01
-2.025661140266947324e+00
-6.513162070629674449e-01
4.945509326558208407e-01
-2.110798902070361915e+00
-5.249036979153461902e-01
7.274696822590613898e-01
-1.748393718177109646e+00
1.493850418472152608e+00
2.907703953909859251e+00
7.164614635537405185e-01
1.647076167805817892e+00
2.998786414569643899e+00
9.793035591768107784e-01
9.153274544592339135e-01
2.555037795158541680e+00
6.111640450709506789e-01
1.178321987997328568e+00
2.848473419914801852e+00
1.002596149373258694e+00
1.719255529351085832e+00
3.390158514119900879e+00
1.572013935373500981e+00
1.851049218747520264e+00
3.529935814654954651e+00
1.926119885239020446e+00
1.940816402991285550e+00
3.514018476361917109e+00
1.738405818489925592e+00
1.703422685457895991e+00
2.832349928894410951e+00
1.099030092239053236e+00
1.644731257878422337e+00
2.553652561554848877e+00
3.218203105999800639e-01
-8.209209183587154457e-02
6.415640315432719065e-01
-1.707286738790488423e+00
-1.277694412558918247e+00
-5.665750102193508608e-01
-3.033209980455619625e+00
-1.876194843212914742e+00
-1.226784801494807953e+00
-3.806298868312488093e+00
-3.221869792930343590e-01
6.318289722739173220e-01
-1.776069355388641302e+00
-1.709094197763460499e-01
5.876812948112265511e-01
-1.770158397887585000e+00
2.954268069337164793e-01
1.025306989186231643e+00
-1.034272063765001803e+00
5.392809019549562599e-01
1.302078201554757619e+00
-4.643268875684659069e-01
1.583812109927245304e+00
1.891025776321442864e+00
2.437629885377625427e-01
2.273759210396309349e+00
2.350963655309717293e+00
8.203826514917210710e-01
1.076313389187250058e+00
1.042103614230246666e+00
-5.379994634295711675e-01
5.674968884805635660e-01
3.483161751551041019e-01
-1.248471710893676700e+00
8.490699827776846398e-01
1.775460563527260505e-01
-1.545939062913689099e+00
1.523586656715975485e+00
5.946189013264591150e-01
-1.106034906004817131e+00
2.962602147182118895e+00
1.888745661797367470e+00
-1.960431673326166191e-01
1.373220249991373265e+00
2.173549498370274391e-01
-2.134314235599976239e+00
-7.669103704616071493e-01
-2.014892640821352998e+00
-4.657289175421728267e+00
-6.735664162215146966e-01
-1.799295310582312402e+00
-4.707722360612828005e+00
-1.608156067288414592e-01
-1.212873334925294255e+00
-4.366970756198510273e+00
1.361573182622027867e+00
2.801331602802215603e-01
-2.837874977477281568e+00
2.934015842508398197e+00
9.777570328213529560e-01
-5.877051707969683791e-01
1.970199661778200273e+00
1.553448570381165406e-01
-1.326329885175425716e+00
5.470142654150452755e-01
-1.194987634284830680e+00
-2.453180490350453713e+00
1.143755856229597523e+00
-5.706104358000614607e-02
-1.586329289051531699e+00
1.629716762808638642e+00
9.543871655072655447e-01
-6.329875046798382199e-01
6.985080203030121782e-01
2.765405181225767395e-01
-1.307470487991650332e+00
-4.350108805785471988e-01
-3.849424857520551413e-01
-2.246611171179247357e+00
1.919897628657750044e+00
2.463095399011206776e+00
3.790245148089890770e-01
4.966647611040840182e+00
5.610509658677944600e+00
3.497894686162320799e+00
2.706261381141800815e+00
3.437986901149382213e+00
1.184733986499944658e+00
1.142420765822381279e+00
1.342268528209669132e+00
-8.449887217193038369e-01
-1.633053272716060086e-02
-1.770719546260107191e-01
-1.885274277137015231e+00
1.595531360669919518e-01
-3.589283983775923836e-01
-2.152448689557423300e+00
6.679171565900308138e-01
-1.086444981299916485e-01
-1.758502376178812332e+00
1.986195212725251125e+00
8.763910181994454263e-01
-6.805751892244644718e-01
1.170784729986317219e+00
7.795394621781402689e-02
-1.656572118792080994e+00
1.998195796742190389e+00
2.314120733143851805e+00
2.628391748973287756e-01
2.611588780764063422e+00
2.855851702276675397e+00
8.661874129287432389e-01
2.376678835696462766e+00
2.682081516266003440e+00
5.284799549587119172e-01
1.573323121107045530e+00
1.719917050650038304e+00
-4.935817986835733806e-01
3.697396491379719152e-01
5.885608895338038105e-01
-1.693425359845056821e+00
-6.728089663006553423e-01
-4.917799626178809835e-01
-2.773965201482087473e+00
-9.785848438519340053e-01
-7.694784482062104747e-01
-3.175781285368977080e+00
-1.499941273092616267e+00
-1.588803448568107513e+00
-3.959606432993742153e+00
-1.469328827481298783e+00
-1.244767112178036150e+00
-3.824510838008733593e+00
-7.496527937723056478e-01
-4.834388130506829251e-01
-2.969854292571920684e+00
-6.860855516493153949e-01
-4.999423823375959697e-01
-2.872654360512933547e+00
-8.650858576107637310e-01
-3.069612256106666326e-01
-2.735430350244399733e+00
-3.610736918075413415e-01
4.467346042560908503e-01
-2.096859555534418273e+00
7.072165298821403434e-02
1.228874907481215306e+00
-1.226254678230586759e+00
1.284866414551030900e+00
2.671961190168515632e+00
-4.560980367134574720e-02
3.377974122836106818e-02
1.500844457489705963e+00
-1.060318764684605286e+00
1.044139977208122128e+00
3.228918516022988072e+00
7.345423995236345371e-01
9.376522604017983875e-01
3.041643157127484898e+00
4.732822213594113925e-01
1.156743339796220793e+00
3.078476248159589979e+00
4.477490970753710831e-01
8.358084671031129620e-01
2.626082092288003267e+00
-4.003464231501766557e-01
-5.857749400811596702e-02
1.616859290784534053e+00
-1.564729519505217548e+00
-1.752619639684581898e+00
-2.395343032581907228e-01
-3.548275932287790368e+00
-2.240238748056270435e+00
-5.014749175687512883e-01
-4.119204251442387665e+00
-7.247777333968092872e-01
8.206563597010956279e-01
-2.786125381720021110e+00
1.072982057248174220e-01
1.452100151984957899e+00
-1.970882253537904250e+00
4.175593252427808877e-02
1.620632250748542891e+00
-2.055895939923851223e+00
8.210698171064744200e-01
2.341214064593605482e+00
-1.227371713747954951e+00
1.008889687271298463e+00
2.388935107805624458e+00
-9.111612072960549868e-01
1.310604414643010029e+00
3.097037352691429213e+00
-4.558302831113700826e-01
7.220304468042454404e-01
2.335234530027794797e+00
-9.738399643503885539e-01
5.383366112897783884e-01
2.188063733027977520e+00
-1.074535367223972138e+00
8.238953319602568826e-01
2.554653053425278042e+00
-8.139191159772291018e-01
1.565665162750779382e+00
1.161018253752536644e+00
-1.898521575975880005e+00
1.060672100170828358e+00
9.177611242177813322e-01
-2.026467097828922537e+00
1.951681055399132059e-01
1.912155146490271962e-01
-2.768263486462910983e+00
4.179349268402020312e-02
8.710185826360324068e-02
-2.480262818711944650e+00
4.115551884755934142e-01
9.529628031602900284e-01
-1.858973779859373066e+00
-1.580264227581230224e-02
5.746920815736576982e-01
-2.206097789763136419e+00
-2.874381196125547766e-01
5.809435008832166680e-01
-2.211013747695178999e+00
-2.722686260643424061e-02
1.048952305066504831e+00
-1.671732380160024567e+00
-8.777511690684084572e-03
1.060094502008299022e+00
-1.865960253573425209e+00
7.167217018145992657e-01
1.556157992503528487e+00
-1.226235300450853938e+00
1.288464722665857654e+00
2.004735200117609306e+00
-9.240487835285287055e-01
5.287134592948314893e-01
1.119251970071158730e+00
-1.854607156883734564e+00
-3.488485439850423364e-01
-9.513178429021265647e-02
-3.059177947141868081e+00
-1.040977179121072571e-01
-2.951402182023251108e-01
-3.021103801565336422e+00
1.074534338466695688e-01
-9.599649728546821859e-02
-2.988381659318579242e+00
4.584026777373331751e-01
-1.553295959762577595e-02
-2.809349672675904852e+00
-8.422858495750649155e-01
4.204611840476417117e-01
-1.948630350634668273e+00
-1.485354929621786280e+00
-2.058113620271874444e-01
-2.474720218448543285e+00
-1.437368033224822650e+00
-8.947695215771211963e-02
-2.368478397355752829e+00
-1.236771848023957343e+00
1.728710921436016623e-01
-2.216016624634514098e+00
-1.194340392342983170e+00
3.605829730948524880e-01
-2.265995538776277574e+00
1.196837068847927954e-01
1.759816613971153521e+00
-8.068537847414561925e-01
8.262702529428094245e-01
2.656861505111657973e+00
2.856956597973001055e-01
1.469511896503702619e+00
3.308120709400692139e+00
7.224870821148152711e-01
1.064030942490117981e+00
2.391641967440625738e+00
1.038785414170614735e-01
9.960304369431518534e-01
2.072761171217428533e+00
-1.878394540182371994e-02
7.765559209089385462e-01
1.799199073588849895e+00
-4.078956673565388713e-01
9.770991106251974978e-02
1.209859698778509518e+00
-8.255552173421150108e-01
-6.472337489046930958e-02
9.332967730928057870e-01
-1.460771214447277755e+00
-1.869333268015470617e-01
8.931553666430376293e-01
-1.410658337924153516e+00
-1.542345225024887578e-01
8.683471975869678783e-01
-1.451858033828075989e+00
2.204215953214294921e-01
1.424731490384700372e+00
-9.596980431533581601e-01
2.759862944779736260e-01
1.308484916123385133e+00
-1.613346657075764579e-01
1.450179300688628548e+00
1.977109872903439092e+00
6.633996419522792953e-01
1.468069650276857985e+00
2.075349436042551066e+00
7.862904029398439798e-01
6.577854306992718392e-02
6.845015571815338262e-01
-6.278431377311149975e-01
-8.493225326764095584e-01
-2.913849825419686512e-01
-1.953878694633271573e+00
-9.089300600192120605e-01
-7.372520803530049904e-02
-1.842738933140149360e+00
-7.834852690768614458e-01
-5.582931309941255305e-02
-1.952698665777597320e+00
-3.761293714777145802e-01
1.873400321939202029e-01
-1.399932220232301683e+00
-1.045324761369467614e+00
-5.803968868830665651e-01
-1.856956526997072920e+00
-1.993030092170445355e+00
-1.399644271398559292e+00
-2.728033152786834670e+00
-1.472499502333110222e+00
-7.310619616763039952e-01
-1.727248057588917085e+00
9.575142033017268461e-02
1.012579471553029409e+00
4.152335689255352014e-01
-6.234863080331042307e-01
3.058811748524228324e-01
-9.517294609481734974e-03
-2.276300385292842898e-01
1.003318403361936006e+00
5.439829208537089178e-01
8.021829732373100263e-01
1.812102250539647130e+00
1.648090209054437372e+00
-1.088249132393735441e-01
1.141994794035172900e+00
1.082044403188151316e+00
-1.247867676593646058e+00
-9.279426956311338515e-01
-1.814062301007849820e+00
-1.256669049094715662e+00
-8.385761040953341183e-01
-1.978231043658549515e+00
-8.490552272462198458e-01
-6.732387034833868800e-01
-1.824275697528465079e+00
-7.069956582646935717e-01
-5.113900395023297518e-01
-1.780317976868594165e+00
3.816608579516032364e-03
-1.862845487519727188e-03
-1.031547291384182330e+00
3.381198435899389065e-01
1.992769539463336292e-01
-8.691532032452820022e-01
2.774938361067198489e-01
4.200458255881983627e-01
-8.426614474001451471e-01
2.627262878312308092e-01
2.513639162262826798e-01
-6.816124765246053263e-01
6.869960833358633723e-01
7.612601319090036567e-01
-6.630324691276603954e-02
-3.767791846451504223e-01
-4.323532913497987740e-01
-1.118221741568233840e+00
-2.412823752740924643e-01
-2.125520043101279399e-01
-8.049528629680949843e-01
6.499594684433281089e-02
1.148025803996932936e-01
-3.553783368036638191e-01
7.825111915368024862e-01
8.914044727294401227e-01
3.483147316645485159e-01
1.009887933968819151e+00
1.075586261777148112e+00
4.140300283142071547e-01
9.839389596200559529e-01
1.017494662159994734e+00
9.730398776966359131e-02
5.689084262932688763e-01
6.142844615409345232e-01
-1.780790351308694230e-01
4.054554861102540597e-01
1.258690818526259081e+00
1.554431024965018393e+00
-6.121213588139794437e-01
1.363315869120266810e-01
3.399978407082680509e-01
-1.291298797673390730e+00
-6.095817570187233025e-01
-4.079235822291903957e-01
-5.551485765194474897e-01
8.282872785321511444e-02
7.772240094234363073e-02
-7.975684166660268470e-01
-9.577393731448011205e-02
-3.843303757836014078e-01
-1.500829070875781511e-02
5.969412586105532492e-01
6.123041876932773867e-03
-5.432143705848681975e-02
6.186101249855784356e-01
1.109008823314799469e-01
8.767095786719204531e-01
1.221996071486297852e+00
6.289458523518178801e-01
1.082819158579034768e+00
1.377195540559746689e+00
8.919060961356440886e-01
8.050335580099818866e-01
1.287607641080536602e+00
6.878888424362279430e-01
8.705235746814243836e-01
9.807387952766908334e-01
3.143759962320310519e-01
-4.788909286480472760e-01
-5.001678613403096607e-01
-1.067025304905347305e+00
6.880009327299241306e-02
-1.362243903207215612e-01
-8.191373724381177945e-01
4.673573994424488620e-01
9.268648169519287661e-02
-7.880153414131528811e-01
9.673413153232371942e-01
2.935728756391254857e-01
-6.151740018560554191e-01
2.034949383953273294e+00
1.407022315690487746e+00
4.599124695637916704e-01
2.645973871133787902e+00
1.473598467143379054e+00
3.921871368811025854e-02
2.276073480107050795e+00
1.223746623578605863e+00
-2.912354380573751733e-01
2.166472929000029524e+00
1.088359998659489847e+00
-1.267268161462050020e-02
3.094690410282454174e+00
1.734234311334248657e+00
6.317941832491218435e-01
3.165005496432245380e+00
1.932986188602944244e+00
8.918663393247959759e-01
3.756558244122471635e+00
2.504217523233360332e+00
1.465636182167505908e+00
3.758307520653500600e+00
2.720402377374321556e+00
1.620989032182269307e+00
3.611821609631023833e+00
2.568391308298201281e+00
1.458547206431545673e+00
1.869021495412012568e+00
7.614982864340016366e-01
-2.364053776032417342e-01
1.438360743069284187e+00
4.659633655720696876e-01
-4.086807776036695539e-01
8.605846593293642321e-01
-1.167079167395080747e-01
-9.518370541785655670e-01
4.079273804391438385e-01
-8.732563656014277198e-01
-1.324794678611097565e+00
1.452584202620242682e+00
5.091001324085125956e-02
-2.676129358679629755e-01
2.715530965738474745e+00
1.359160107348803326e+00
1.214995465369938854e+00
2.774516105711341218e+00
1.387274945393123016e+00
1.290526678094661372e+00
1.403607292956288610e+00
-5.688852009814249905e-02
2.863624934747126954e-02
-8.138310006987488077e-01
-1.384088836759387986e+00
-1.786576131098013276e+00
-9.087549493535627132e-01
-1.545793948255638428e+00
-2.124340712812012200e+00
-2.335694324422453172e-01
-9.999571524426995595e-01
-1.621483951761957254e+00
-4.344208187867357740e-01
-1.136394141844885963e+00
-1.858539962676068802e+00
-8.207688441689653391e-01
-1.613078396516685054e+00
-2.586901347698293829e+00
-1.492034814125869469e+00
-2.214704584030942947e+00
-3.420203009607368116e+00
4.252759823730217215e-01
-2.210986633111466579e-02
-1.381895670140114829e+00
1.044292389358798256e-01
-2.273709690754660007e-01
-1.596110557135300700e+00
-1.967441286964495828e-01
-2.841121037407089434e-01
-1.515102863980863690e+00
-4.447570926687904325e-01
-3.183757413052729079e-01
-1.462910257539743908e+00
2.373025032048001748e-01
6.468370540459386087e-01
-2.676500319041713594e-01
6.962891570516455131e-01
1.098760811844230689e+00
4.359093729755366131e-01
-2.329392051926315599e-01
3.779184830270760909e-01
-4.222625936683213621e-01
-4.231219072250475555e-01
2.875991892190141730e-01
-1.527124875136376958e-01
-3.304119977610474601e-01
3.310856254291890677e-01
-5.275469233510449857e-02
-5.151275820718387299e-01
-2.802517686508547434e-02
-2.701950321855809412e-01
9.218722537565016140e-01
9.195797187647698490e-01
1.204314914929846658e+00
4.663095595709645380e-01
3.140968484778811631e-01
7.771179112064595662e-01
8.616656407829929032e-01
6.629277870704550768e-01
1.039939895230706179e+00
1.024021677807016584e+00
6.266746313541576852e-01
1.192757164387495017e+00
5.004224975783756468e-01
-1.655765424278433651e-01
6.561082198713347191e-01
1.735327875771782435e-01
-3.214745775790292526e-01
5.791843697126615176e-01
1.793065341505156729e-01
-6.394969640457396354e-01
3.879646931087731287e-01
2.081757723874420596e-01
-5.500189222946385570e-01
3.730236616713480946e-01
3.779836242724173290e-01
-1.387518266195422179e-01
8.385287486102694920e-01
7.808022616339389543e-01
6.323792552209209772e-01
1.366106847225566412e+00
-4.814090582602867929e-01
-5.929234917031163121e-01
-1.956196740225235042e-01
-1.409725329467116373e+00
-1.427492616206230691e+00
-1.276980318955965643e+00
-2.344510304288269786e-01
1.722735804202181475e-01
-1.169426820708404646e-01
-1.929941808046748974e-01
6.865116534714047480e-01
1.307259745083907687e-01
-1.700865109624521754e+00
-9.295129896303953032e-01
-1.565068575072667834e+00
-2.605095938296009273e+00
-1.603161260328532345e+00
-2.514014047142782982e+00
-1.093473010746506047e+00
-7.406456726087354836e-01
-1.034168340397384256e+00
-1.103489741310551775e+00
-3.587730893915249131e-01
-8.105145073345750850e-01
-7.028601266869267672e-01
8.314277517018711650e-02
-3.789082854102810982e-01
-9.466457780539193623e-01
4.817069252570103932e-02
-7.039135847744514285e-01
-4.814482200420036606e-01
5.460231484918822709e-01
-3.428604561600835932e-01
-9.353070054042865733e-01
5.672554720032457753e-01
-4.043137661034282848e-01
-1.584733372731141454e+00
2.453524568856589039e-01
-8.982253719048765017e-01
-2.687820267313831835e+00
-7.100980959195497544e-01
-2.011003336481108406e+00
-2.014956759410050147e+00
1.879490965415102077e-01
-1.440654885068241020e+00
-1.677384919395319196e+00
8.570711043956531494e-01
-7.509250693612740113e-01
-1.198642148970771482e+00
1.432915818226224269e+00
-2.477459253265766048e-01
-3.283121919176933967e-01
2.051240131228690977e+00
3.847273771682161447e-01
3.106544871976746336e-01
2.333361896104551025e+00
1.074617580964233987e+00
1.731922408550816250e+00
3.568425193165805087e+00
2.502216090584798547e+00
1.244851775117935544e+00
3.190188583372977060e+00
2.137564406697887165e+00
9.702934239726000998e-01
2.853668896193864324e+00
1.774372649573695782e+00
-2.973081820913358042e-01
5.853762969646629788e-01
-1.991889284176385999e+00
-6.171324542231430010e-01
3.291874795241173102e-01
-2.223567191303518875e+00
-1.208903019998443851e+00
-1.566271006016704270e-01
-2.694690446352250746e+00
-3.831288475686522865e-02
1.046905511033373815e+00
-1.185193293268943293e+00
1.708855468080581863e+00
2.863905452461889212e+00
7.290292705673742102e-01
1.439151523369213592e+00
2.612116450088649344e+00
6.840536695321710603e-01
1.538385382673697954e+00
2.678220864510016064e+00
7.533109487157962914e-01
2.574890967758128646e+00
3.982431665621240402e+00
2.211768435761744644e+00
1.652997719594954784e+00
2.937078562344738408e+00
1.618479527888201153e+00
7.401347897803220999e-01
1.846605338617491654e+00
