1.884406310753427016e+00
3.129816870316462829e+00
3.036923781169127423e+00
2.336503600373226686e+00
8.648338473820208483e-01
1.005467650991474171e+00
1.035316070961045387e+00
4.090050367250289143e-01
1.497690314786602472e-02
9.839151156992923530e-01
7.502564822978035064e-01
-1.748449481302454811e-01
-3.799571474914096858e-01
-9.186217974101404948e-01
-1.244377286434191210e-01
2.929040571943277715e-01
1.764370574478004716e-01
-6.410282650875896993e-01
-7.081639423328411898e-01
-1.304915067351802849e+00
-1.292088596568583769e+00
-5.544857475799387370e-01
-7.918800826998870571e-03
6.800116269948579539e-01
-1.248696101623765070e-01
-5.690927677597608092e-01
-2.363000788296137356e-01
-9.403069276513175145e-01
-1.247733263977369944e+00
-1.893174433110381027e+00
-2.717377389969570789e+00
-1.327862651003794747e+00
-2.932407396183041026e-01
-4.734511300753185825e-01
5.026202430202730831e-01
-1.980198576932671595e-01
-4.976129988917076807e-01
-9.093227964602309532e-01
-1.250925895701221702e+00
-6.241946608442031641e-01
-3.004334604991394930e-01
-6.116962229792832773e-01
-7.998292154875242810e-01
-6.379209943077076561e-01
-1.289559237851956919e+00
-1.685533913329422928e+00
-1.173470382224282682e+00
-4.822405330918065336e-01
-2.503519107117222475e+00
-1.765476098438311992e+00
-8.285444945113417115e-01
-4.720090287374670290e-01
-2.266083017387869603e-01
-1.921026894697393239e-01
-1.071220776033667554e-01
1.126400885729926804e-01
7.354284964779627121e-01
1.075584020393221873e+00
9.893539245909438451e-01
2.056392634390012686e-01
-2.418360936659617322e-01
-4.053074978211212431e-01
2.054243615775558085e-01
9.287623216237933521e-01
2.320417236963332464e+00
1.565428837454032829e+00
4.316446343806489838e-01
-1.319642019909599062e+00
-1.867284207915762329e+00
-6.572821727611778408e-01
-1.420046607901358504e+00
-2.679897072169449945e+00
-3.428219314717653621e+00
-3.435674591420693424e+00
-1.913103677922364909e+00
-1.313558416285834474e+00
-2.040643675099242493e+00
-3.318140408529885121e+00
-2.355457004713961133e+00
-1.782322076116587661e+00
-1.437857292371567119e+00
-1.847232619186965907e+00
-1.444038288302907258e+00
-1.215054187985327022e-01
-4.039379570504960659e-01
3.258723793338636487e-01
1.557596298313915106e+00
2.325065324306862191e+00
1.985505885297356388e+00
-2.465636471549403630e-01
-9.913350293054078444e-01
1.261019247530120735e+00
1.723516538212353399e+00
1.216773456409610876e+00
1.367587686134226432e+00
1.562118760428440112e+00
2.059818816447021306e-01
5.981881627197993545e-01
-3.476966918178599486e-01
2.552415640377222461e-01
1.120786874669386091e+00
1.054960912996801170e+00
1.829165157755880955e-01
-1.595772744431768128e-02
2.548720615087611385e+00
1.816876929266752372e+00
-1.650707528536796143e-01
5.043949508168359130e-02
1.150323009201980273e+00
2.987452726766822497e+00
3.054740007918827160e+00
1.256984239363232669e+00
1.389637306656600346e+00
1.229286638338559667e+00
2.347625091285381771e+00
3.592545580387226156e+00
4.654207015023310134e+00
3.018467520835065976e+00
1.256632014458813673e+00
-1.531974328914096350e-01
1.909543936503180495e-01
-7.008925221558351959e-01
-8.956785825307199689e-01
-7.475658730652325890e-01
-9.589576810493398717e-01
-1.209505935815828881e+00
-6.205474880917096758e-01
-4.157952323006091633e-01
1.267547685605408869e+00
7.115098072041406985e-01
3.618735833692876330e-04
-1.030779047329647202e+00
-9.376898237229597255e-01
-1.582493229138977497e+00
1.506538282991394806e-01
9.193033269942109120e-01
1.882428906913763758e-02
-1.239681192602966497e+00
-2.035178352633781440e+00
-1.916807596749084741e+00
-1.951233827844830904e+00
-2.493519729729994694e+00
-2.856275260912109815e+00
-1.013909284133818423e+00
-1.694800615705293056e+00
-2.749724160130480044e-01
4.581899606206549791e-01
4.112031394782351690e-01
5.971596253397787324e-01
6.880371551253827711e-01
-1.791247601267777489e-01
-2.082489382519816801e-01
-2.916131006138555470e+00
-1.884398672001381225e+00
-7.067398789340670340e-02
5.064887830531301649e-01
4.913884537466139957e-01
9.501974328098101719e-01
1.465869460614109832e+00
2.142715952021283954e+00
1.982086646706492372e-01
-5.061011731227100796e-01
-8.336017579262444688e-01
1.998664859186030096e-01
-6.245191997352466107e-01
-1.722730161941529392e+00
-2.951573272757621158e+00
-2.832978704566043060e+00
-1.906708821377113505e+00
-2.167059306229283777e+00
-2.199453337589735380e+00
-1.094655929175811115e+00
1.163011605153263517e-01
4.748196517061313848e-01
-4.331905366722178519e-01
6.787375771262788449e-04
5.775932282288581687e-01
7.367782093509798180e-01
-1.920673079740592704e-01
-1.774777336088815272e+00
-2.493526665708154955e+00
-1.215714764875543530e+00
-1.174994427127624697e+00
-9.889918533581740778e-01
-1.252887181588793863e+00
-8.883642500832419353e-01
-1.506817593650408016e+00
-2.147282153993517628e+00
-1.873778235113729318e+00
-1.795492727740833239e+00
-2.337505228882714725e+00
-1.609805069762185736e+00
-1.063670093125687055e+00
-8.202820917583846239e-01
8.489087565937610824e-01
1.276215261482629704e-01
1.504799347515868302e-01
9.123787707682640136e-01
2.692219759135742851e+00
3.581450505673572149e+00
4.631035195770350832e+00
3.890892100170052270e+00
3.303914160462505301e+00
2.637389183927151048e+00
1.717698208530640036e+00
3.033696660961922920e+00
2.567304705493921535e+00
2.359118998502920839e+00
1.639254780160470215e+00
1.534870432956059405e+00
1.925381193716045214e+00
1.360436820809466596e+00
1.889461171545082419e+00
1.231677955635038568e+00
-3.982935610820224626e-01
7.757310661637342175e-01
1.787918800450525314e+00
2.780460319070539921e+00
2.431292893194354932e+00
1.260804042007132031e+00
1.371805499465349909e+00
1.330654527259965914e+00
2.212437834974513073e+00
1.448494142050108513e+00
1.993763900083376450e+00
3.048103751107683390e+00
3.440313473784591292e+00
3.344105638512437473e+00
2.204418052098255476e+00
1.571630978794232636e+00
1.391912996580759287e+00
6.079974601682426316e-01
-3.936929428128608556e-03
1.639816242604797747e+00
1.702415568377702026e+00
5.351926873939558682e-01
3.409703648276947718e-01
2.274194398110557930e-02
4.923828787397064310e-01
1.683681053795021754e+00
7.727540110319380817e-01
2.941636700375880320e-01
4.307900798823118826e-01
-5.037592048192875982e-01
-1.563217938263870233e+00
-1.624562096828915836e+00
-1.494103656020208115e+00
-5.504186683372774835e-01
2.548686285545418428e-01
1.593999243986606307e-01
-1.420582357325478329e-01
1.514974272786492049e-01
-3.515362257056800499e-01
-5.172300062794086273e-01
-1.681342749178211138e+00
-1.059401035698981586e+00
3.790929437383335210e-01
-3.667451165510156041e-01
-6.916441862500893878e-02
-6.047882831995644581e-01
-1.399736620843147206e-01
-1.201700743028966401e-01
-3.278884646019486482e-01
2.265961123122083032e-01
4.702625369715504600e-02
-3.742072538328098941e-01
-1.343385816225461937e+00
-8.972682670008040873e-01
-4.209745531650639916e-01
-4.788005048709691458e-01
-1.251018784544014606e+00
-1.107917835164521136e+00
-1.397932497245899075e+00
-1.393308404302539438e+00
-4.482265691471653546e-01
7.759717467487915465e-01
7.525710318763063622e-01
4.817734264709980785e-01
-1.028562776828373521e-01
7.857037285028647955e-02
3.805382300514915106e-01
5.069039900632151818e-01
9.363184020658376072e-01
5.234682452315689849e-01
5.572173553656207812e-01
-6.651665563516101498e-01
-1.167551035179692942e+00
-5.738751505947083942e-01
3.071125174974390082e-01
2.828415496374628302e-01
-1.272655356390288706e-01
-1.756993111833249799e+00
-1.674333027911278027e+00
-8.776459058617173126e-01
-1.695890099997566569e+00
-2.449310821672121996e+00
-2.772191661608284452e+00
-2.185200264855604591e+00
-1.098273353592119417e+00
-4.657315137187171272e-01
-1.107506373731771854e+00
-2.067628579720709681e+00
-2.432720263841054997e+00
-2.517272113429792846e+00
-1.008856401520046520e+00
-1.522718378698095121e+00
-1.469126227739468327e+00
1.900715898939175919e-01
5.856067005757934485e-01
4.098285662259396056e-01
1.022159720184987464e+00
2.265189069767539198e+00
2.210656696698951151e+00
4.911173629977286792e-01
-4.162912323486749888e-01
9.515899408940232673e-01
1.168773370788202426e+00
1.679461330959120646e+00
2.111916548385804671e+00
2.244343329375287688e+00
1.119295558173520444e+00
1.648046366151899367e+00
1.029108180329260103e+00
1.231944803431495261e+00
1.448180701581108565e+00
1.426106680613784095e+00
8.984436244791087489e-01
1.007293491006872932e+00
9.446136482867942830e-01
5.381988679378831852e-01
-5.621924962193370900e-01
3.632190920945549406e-01
1.977714426975318407e+00
3.382430102134049932e+00
3.235172934893571384e+00
2.044979214870335849e+00
2.766480303482331760e+00
2.953326233617672880e+00
3.183482801833896314e+00
3.716686245020106139e+00
4.279367803682183613e+00
3.276044411144749979e+00
2.305382649660617123e+00
1.285933098798556662e+00
1.282773901338304157e+00
-3.690011468660581717e-01
-9.917921576039084863e-01
-8.939853912302586636e-01
-1.117242418708428442e+00
-1.461845912960823890e+00
-8.067625057397824762e-01
-9.565265803745998108e-01
3.998251055140951138e-01
1.734386823766638497e-01
-1.221231328911732694e-01
-1.965439360499098009e-01
-4.217701624222542911e-01
-1.176674256139418118e+00
-7.259441848472515391e-01
2.100884054386244204e-01
-2.422493792741989629e-02
-5.876041646232252891e-01
-8.940679039115773108e-01
-5.904143192565481923e-01
-1.476284568267387298e+00
-2.318116379707165553e+00
-1.371173104958578248e+00
2.913443844934547264e-02
3.379320915290684457e-01
9.456127735933731460e-01
8.252175174283683523e-01
3.672352841359463049e-01
3.503011647730405742e-01
3.675129157093535714e-01
2.154205320899918105e-02
2.314179702850881759e-01
-2.579168008347995755e+00
-1.518409954795854278e+00
2.505160177651510889e-01
-1.923457533337033232e-01
-3.532813140406622088e-01
-2.989220851833143122e-01
1.788607534940034327e-01
1.690929059276084778e-01
-1.238119096549327169e+00
-1.236580071934360481e+00
-1.597936351098128149e+00
-7.191586639317523177e-01
-1.234183336528031916e+00
-1.583472583708294357e+00
-2.301281004386245055e+00
-2.069020807343380230e+00
-1.523930681598795189e+00
-1.547895424788855889e+00
-1.052678455805949209e+00
-1.025482392024055667e+00
-3.568186087473445567e-01
-9.860733803503585193e-01
-1.393109816612616569e+00
-3.749848995609799673e-01
-9.091377664886073073e-02
-3.753592846922373244e-02
-7.057486082304490482e-01
-2.375184121432572848e+00
-2.463212126039947325e+00
-1.403249162335073130e+00
-1.492300267953119430e+00
-1.288650751948308359e+00
-8.073948842094184064e-01
-5.918548247233983428e-01
-1.346737884342316949e-01
-5.992614419365692724e-01
-9.173028789786682458e-01
-1.171357203535200009e+00
-2.287205279204698627e+00
-2.518852706439322464e+00
-6.910318545257253531e-01
-7.187898604804542346e-01
3.331496397509829954e-01
7.863941679503809734e-01
3.639294263304076460e-01
7.594092806912371429e-01
2.751024684537629383e+00
4.200294308459239012e+00
5.636264400423503851e+00
4.298438419779627928e+00
3.823839213800794834e+00
2.944345060466765585e+00
2.089431532265189961e+00
2.195622592000617601e+00
1.210380386180176737e+00
1.410372407544359108e+00
9.310886963817502915e-01
1.489542804460324499e+00
1.035990953614394305e+00
1.924700550673021926e+00
2.150884365467491843e+00
1.904619938756091813e+00
1.180354052493161943e+00
6.600129587307682621e-01
1.436500975176853379e+00
2.860155635636031146e+00
3.028166287306942817e+00
3.092258121012759542e+00
2.972532549179144556e+00
3.175637882131411516e+00
1.998151132399688779e+00
1.835931496112962913e+00
1.289698381349416056e+00
2.351365785182045087e+00
3.659412594429404475e+00
4.244630775145206592e+00
3.371849749647994887e+00
2.355112212117039583e+00
1.364547278778493133e+00
5.095620181566075102e-01
-3.484909036577300556e-01
8.690201472364131874e-01
1.499928732336490045e+00
4.964650936168877871e-01
-2.233896826894299081e-01
-3.220255883475314218e-01
1.489161061739784075e-01
1.553112408620137996e+00
2.009477996335395034e+00
1.023968463004687246e+00
7.978922247963178283e-01
1.089520997410978603e-01
-1.106982772386704728e+00
-2.126168679136630324e+00
-2.028532520032099828e+00
-1.795398177932355344e+00
-7.615001477377310313e-02
3.177114415263253278e-02
1.893283853898937164e-01
5.734055854528787854e-01
1.007384455987863747e+00
1.200278002499919117e+00
6.539656102977146057e-01
7.844507204263033717e-01
1.143972748392730443e+00
4.537551614377675901e-02
-7.285710479165660169e-01
-3.319103630282481121e-01
2.032217236023242390e-01
4.929820692200176380e-01
6.338895497324327222e-01
1.543470382688840736e+00
1.047960026742967399e+00
4.432991741222451210e-01
-2.190131206144384224e-01
-1.572485003091112776e-01
-6.924864412136846892e-02
-5.285733947293670687e-02
-6.415673553672692764e-01
-1.478966101410036149e+00
-1.497120732611484595e+00
-1.361802635278797968e+00
-6.621267360692475457e-01
7.165258803098094598e-01
1.152634414434383636e+00
1.119821801196306588e+00
7.958765833855855343e-01
8.965547956405176544e-01
5.026055541545420002e-01
2.365984969316294872e-01
8.612812728611349833e-01
5.397776686923805300e-01
3.709637519712411513e-01
-8.068190507965272706e-01
-1.655530867372348780e+00
-8.721470330464664578e-01
-3.608944585729031984e-01
1.454682627046471610e-01
-2.354047697048790022e-01
-1.325378854868297429e+00
-1.936974896347239516e+00
-1.402086044443316748e+00
-1.756788548624824475e+00
-1.636967606382229379e+00
-1.749111863812147671e+00
-1.223305790872528886e+00
-1.452328753520599536e+00
-1.082123084153643111e+00
-3.159505289309397780e-01
-1.163871548517461774e+00
-2.138134344595519654e+00
-1.617130786606193693e+00
-1.674818793698502173e+00
-1.854207173934430353e+00
-7.831969978444366376e-01
2.125349554874210734e-01
7.472960363405858342e-01
8.603962176170089071e-01
1.207329930336062507e+00
2.453855899166863974e+00
1.728976953608625022e+00
7.502092024411229909e-01
-1.528700260977359504e-01
2.656835169152267917e-01
2.238471022005574795e-01
8.829062615253219226e-01
1.919956867432811798e+00
1.925335857576096377e+00
5.617859698679906755e-01
1.314791717855623210e+00
6.888640869275816092e-01
8.127330940250385716e-01
5.083064788883914220e-01
8.399440726723927941e-01
5.812307930118312260e-01
1.283382093353085285e+00
5.723056272475371409e-02
-4.466899784266317730e-01
-3.667793914026068469e-01
5.364812652475853261e-01
1.979285429923850259e+00
3.236681484165330414e+00
2.828229259457536227e+00
2.153543509863580674e+00
2.827093543068964543e+00
3.496044808204341159e+00
4.130560677177756546e+00
3.665502859843234873e+00
3.864062221724151591e+00
3.767893531140587005e+00
3.850545331266236548e+00
2.916715650947388383e+00
2.645175200259962889e+00
4.005692991070717301e-01
-9.618839500440041768e-01
-4.765290096178897428e-01
-1.504798302728899695e-01
-2.304518450806105068e-01
1.091481932390990367e-01
-1.532352111894740854e-01
-6.540084615334430529e-01
-6.949285391349062369e-02
-8.196156058741873793e-03
-2.503413466834273349e-01
-3.280946057760226742e-01
-1.269568826410047091e+00
-6.186459747758495942e-01
4.800510327281713452e-01
1.287583781245120462e-01
-4.390867954558720920e-01
-7.448410145925743464e-01
-3.198058983214567830e-01
-1.239870664273335699e+00
-2.105185540999472416e+00
-1.444323937398439783e+00
-6.784515787789238139e-01
1.242282629011048467e+00
1.074325689858955490e+00
6.991051759739145277e-01
2.706793526885271223e-02
-3.998393201844820388e-01
2.720086850142137136e-01
8.536508066893425117e-02
5.762233108805223658e-01
-1.383674811170955588e+00
-6.210456126098754526e-01
-1.874439608077687058e-01
-3.453666340664011680e-01
2.618691546769162382e-01
2.908892249580447564e-01
-8.471556351463044310e-01
-9.421890727429714785e-01
-8.448087113653203195e-01
-1.037079379861779005e+00
-1.190398784464397952e+00
-1.080837476776964623e+00
-1.447183114160792261e+00
-1.367108902758698230e+00
-1.310717548716489045e+00
-1.222869529156650259e+00
-6.526795329409582624e-01
-5.929684829573591553e-01
-1.190906834894431832e+00
-1.589310816717037778e+00
-7.062760171375354057e-01
-1.114285255983757494e+00
-6.209609869639720614e-01
-8.417369573790524362e-02
4.994658684766257184e-01
4.417574935783687984e-01
-4.617150635149736559e-01
-1.996128198478743343e+00
-2.118871286609361526e+00
-3.939968873611585098e-01
-1.139767975586986504e+00
-7.089543614584610243e-01
-3.803923088419957632e-01
1.177877576651544939e-01
5.610904913510778025e-01
4.713746514966728474e-01
-2.083743976234662953e-01
-1.294207021575929595e+00
-2.884150967985506409e+00
-2.680633927043316156e+00
-8.215872029316310110e-01
-9.551897184042584810e-01
-8.386532105701265116e-02
7.778945224242361789e-01
3.377741603862508546e-01
9.507537507986454361e-01
2.980180717054526696e+00
3.110458240979246280e+00
4.071329769634686180e+00
2.756063237431531476e+00
2.971322865475787722e+00
2.602336796118999374e+00
1.347457716896007129e+00
-3.881481155196819799e-01
7.782264329933813451e-03
1.092466969500910823e+00
1.951057909499564591e+00
9.738962734341231053e-01
2.068354534597450112e+00
2.778263588392319239e+00
2.613952928343084015e+00
2.734711507957881871e+00
9.542765826784324057e-01
6.732406106862016681e-01
1.255771141533586821e+00
3.206674195126181459e+00
4.020669999640158920e+00
4.085320800748639236e+00
3.248469973843878034e+00
2.383537218758379428e+00
1.672736217353775201e+00
3.769139416596989367e+00
1.928393165695644784e+00
2.598510388190602427e+00
2.946922551764828757e+00
3.294517433033126164e+00
3.252440698508731742e+00
2.107488838270508591e+00
7.807500644501477183e-01
-1.051215263777310449e+00
-5.365487125012988745e-01
-4.014052092333830757e-01
8.510700021512129787e-01
8.388205684935409190e-01
-4.259132113331138836e-01
-7.492154811441331663e-01
5.371033549638527527e-01
1.661427090415628305e+00
1.881477393551574950e+00
1.122828236828313342e+00
5.959738655392857742e-01
-4.866660508874408597e-01
-1.268996160791179273e+00
-8.856331209157389805e-01
-8.208512839577430942e-01
-7.407773237080930162e-01
-2.361105101978437093e-01
-3.209097544565123888e-02
7.527358643177743946e-01
7.831200730345236893e-01
1.074758909693484865e+00
1.087551295605836410e+00
8.388234521943904731e-01
4.691639885841119018e-01
1.077395210426220995e+00
9.711516184096211646e-01
4.135063944794144519e-01
1.828749508086090492e-01
6.667723419703168730e-01
6.926653523698648174e-01
1.042826393115240169e+00
1.388211861330665986e+00
1.033083081979075502e+00
1.026063871368353198e+00
1.209491964102238581e+00
-1.698173216202991664e-01
-4.750767309801622318e-01
-4.388973519296004433e-01
-2.168423640571520428e-01
-1.614330100733787632e-01
-1.524639102857931583e+00
-1.258270446394537556e+00
-6.796034666260373225e-01
1.808635586191105482e-01
5.937459198097780333e-02
2.824065518431685962e-01
1.960859208121998598e-01
6.164397988743479662e-01
7.424497873246110879e-01
8.345247706652563213e-01
5.236860216214954677e-01
-7.971833724154773204e-01
-2.408551646526441714e-01
1.630489285763553065e-01
-9.142934088213618971e-01
-8.829711035117991935e-01
-1.112020923811559148e-01
2.563814892232471054e-01
5.061995531472691656e-01
-6.193581819391579257e-01
-2.100704273593230198e+00
-1.623951523474068015e+00
-8.595845579472087827e-01
-2.296528066523091660e-01
-6.634575335680961139e-01
-1.512227232425862544e+00
-1.394165486542556120e+00
-1.077662404466822377e+00
3.364185540969896748e-01
-7.429475944185239822e-01
-1.813394754864146918e+00
-1.419437433358788470e+00
-1.456962538726884526e+00
-1.483797622480364620e+00
-3.224346823055563305e-01
-1.339125806207990812e-03
6.101445328704717674e-01
5.637771236358265492e-01
9.841550095641180551e-01
2.289470348728375626e+00
1.224054245330872481e+00
2.924902245214220931e-01
-4.646312706282347826e-01
-3.308130793060697905e-01
-1.485764912098410662e-01
4.771546226652740308e-01
1.174246156266761432e+00
1.382088092379212485e+00
-7.650866275829008023e-01
-4.909927548712190726e-01
-8.957528231695985887e-01
-1.092183221251013664e-01
-5.009200083503748679e-01
2.820642903143385505e-01
1.385093070809046145e-01
4.879759875129166535e-01
-8.991557658015800203e-02
-1.497982680195567018e-01
7.738539856212624246e-02
-3.297022439824522089e-02
1.209684970738751586e+00
1.871602512721698197e+00
2.035080140956949002e+00
2.233987434761492530e+00
2.193683773337094411e+00
2.941306225741023628e+00
3.953196448906246108e+00
4.092326266526423062e+00
3.283463651187537025e+00
3.987904928032292684e+00
4.635744922944926572e+00
3.853472846401753582e+00
2.909052110277813963e+00
1.080980721727546001e+00
2.398282599012698801e-01
6.979354507743549263e-01
1.048091375964746996e+00
1.529710958183003067e+00
1.276629145091944917e+00
8.796430461209380214e-01
-1.092560798102426123e+00
1.853605610715958474e-01
-5.904247711747569877e-02
-9.736627585673568452e-01
-1.553399690054137583e+00
-1.859886118386188780e+00
-7.442358263460964185e-01
-9.730960592150488253e-01
-4.792949915751958945e-01
-9.112408067380302068e-01
-2.964834354493433577e-01
-9.625418194297384600e-02
-1.233146831164193769e+00
-2.273861960080864275e+00
-1.975285420975455342e+00
-1.755070265550024322e+00
-5.863962548834808497e-02
2.928518982712710605e-01
9.661572556429192105e-01
6.758666826779491377e-01
2.345032620124276879e-01
2.959664809575579536e-02
-5.452279845832992689e-02
3.909830102957826403e-01
-3.119690489129393618e-01
-4.699955656956891076e-02
-5.736481631478761445e-01
-4.542502249321163643e-01
7.988290046639113795e-01
4.079527236328522322e-01
-1.303997364986021257e+00
-1.943867508997024318e+00
-1.318405473706884656e+00
-1.254738309129262097e+00
-1.128454343536703375e+00
-1.447799415949568624e+00
-1.366174414008358928e+00
-1.547456540285619964e+00
-2.010421742928947708e+00
-2.324376283652246133e+00
-9.422083547321861152e-01
-2.932995369555470577e-01
-9.100447746012626515e-01
-1.001370935222602787e+00
-5.491581914530004882e-01
-3.922529633149861028e-01
-2.622743811339015366e-02
-1.282203209668278943e-01
-3.487332130269609198e-01
-3.105679788591714230e-01
-4.557462752939537842e-01
-1.321200278964819175e+00
-1.186094544014154151e+00
-1.464276040401486789e-01
-1.076160817333976727e+00
-3.858941364675768093e-01
8.242688440467942357e-01
1.295659092934491108e+00
1.454642032616155989e+00
1.590347490226144300e+00
1.299503034155422121e+00
-5.483031891079012121e-01
-1.978493171266343387e+00
-1.992728297182634778e+00
-7.263780661553197460e-01
-4.838315443266842930e-01
9.867243838397801725e-02
8.407998302389363410e-01
7.699913992030112952e-01
1.966547710301875362e+00
1.819101927314936251e+00
6.837695307394013877e-01
1.593047609024269340e+00
1.493411844640064823e+00
1.559626599737833352e+00
2.172973498849277707e+00
-9.277965475776066284e-02
-1.394617411955167530e+00
-8.047387895756729081e-01
1.228666313031621105e+00
2.920738060026395910e+00
1.859229555378559606e+00
1.345441940914080314e+00
1.468210467357613513e+00
2.930126951360836784e+00
2.235698647204487077e+00
1.676737933214099696e-01
-7.233527901577252971e-03
1.943361283250671923e+00
2.789943035257335779e+00
3.178793568769368694e+00
2.425941664027803757e+00
1.777383467680316631e+00
1.812980789221546596e+00
2.662098986214810559e+00
3.308725350811461574e+00
2.254229565023932569e+00
2.943885296848823163e+00
2.648683288112396284e+00
2.074939961598113669e+00
1.139088121312156421e+00
4.506457239598422176e-02
-4.166146447335644654e-01
-1.759348295155964692e+00
-4.235762666294654033e-01
-8.464907998278045978e-03
1.234812470111203986e+00
1.232015382203293319e+00
5.513113582311938154e-01
5.437006227043623685e-01
1.993805030825180236e+00
2.029922348103199159e+00
1.768521952076563153e+00
7.898772988990616639e-01
8.528600637070132828e-01
9.661722514404808004e-01
-3.620008796724539790e-01
-1.106125105754167448e+00
-8.215515824672302569e-01
-4.551691420477563255e-01
6.450170980971549339e-02
4.399199980248345576e-01
8.920245752122011318e-01
7.307584199165886307e-01
1.441689854992388664e+00
5.239765842557554398e-01
-5.428928976761261405e-01
-6.751726937900660586e-01
6.690899283815822107e-01
2.290612264178559787e-01
-1.375537908318103242e-01
6.522245058118683603e-02
1.148408722068041454e+00
1.011926827795024186e+00
9.353065700342910738e-01
8.826004270789473694e-01
7.758317245822237140e-01
7.436939764171417444e-01
1.561721996158636161e+00
3.782258128819367404e-01
-7.682790146492726180e-01
-4.552285445366878736e-01
-7.408210510636840940e-02
3.701674116553456129e-01
-1.235326457847102599e+00
-1.682603547848002146e+00
-1.424573663162866932e+00
-7.712068054202655398e-01
-3.591939351933538527e-01
4.343508763569189912e-01
3.503979551570468032e-01
1.048452254416497587e-01
1.072740182996768654e+00
1.083497342021138454e+00
9.521836019545182328e-01
-6.505708853896786659e-01
-4.016081550838251912e-01
9.145020178192551918e-02
-4.032119940812411429e-01
-7.126109957555970542e-01
2.639929197204878009e-02
5.702623288263022339e-01
1.231044911901520988e+00
1.070942911265055225e-01
-1.508998077943985772e+00
-9.591728808036075193e-01
4.196032048300351452e-02
2.354440239471557172e-01
-3.379938269852335586e-01
-2.340470554546425941e+00
-1.817540263279675106e+00
-3.511426751820332370e-01
-9.807541158911910195e-02
-8.914725705639613418e-01
-7.194313913656852355e-01
-8.683497973319963537e-01
-3.027463136574070623e-01
-9.597661395236163351e-01
-3.263569030383685621e-01
-5.025821840916973038e-01
-4.314655347149649600e-01
-4.126682674796487010e-02
2.440822207539930788e-01
3.952982037629678147e-01
8.675670988527652838e-01
-4.924783520138207304e-01
-4.388882374718343637e-01
8.988290646689128804e-02
8.500344872482341607e-01
1.117673147785522625e+00
1.191437859461733417e+00
6.770648318002439048e-01
-1.317646522502119444e-01
-2.549551958639776905e-01
-8.496581601453989663e-01
3.858718930763434946e-02
-7.679267879181217449e-01
5.987492007239442887e-02
2.414993591136217060e-02
-3.386324033967771929e-02
1.112598059006475903e+00
1.360681475744479396e+00
1.309769200957799917e+00
-1.853214697468141270e-01
-4.437279046073956852e-03
8.132003912208601859e-01
1.334148886882589258e+00
2.526448317595291648e+00
2.847514586326072017e+00
3.382006484538842894e+00
3.219857247818117330e+00
3.512530390700206784e+00
2.804919749176990162e+00
4.012297648580704035e+00
4.948741731188801118e+00
4.795767750888236591e+00
2.876687797051274753e+00
1.647036997153077387e+00
1.219808342410911850e+00
1.238408997962668456e+00
1.606632891375895156e+00
2.693159766890868667e+00
2.306408027336244615e+00
1.030476889386562345e+00
-8.757559283471745282e-01
-1.360646212461594229e-01
-3.407659789590083976e-01
-1.231406289182658265e+00
-1.771923257316963651e+00
-2.007196812641583339e+00
-7.281096822281093450e-01
-9.755338954484732428e-01
-1.209254750188685668e+00
-1.469137943046121109e+00
-2.272818629691580605e-01
6.000651059479513716e-01
-6.992998337843595591e-01
-1.295968299398778667e+00
-1.169069683556631212e+00
-1.197658478593357501e+00
4.228545582345678566e-01
-6.590377497977586985e-02
3.020482293356207548e-01
-2.280907179969312581e-01
-3.128045060108516351e-01
-2.768435975760698553e-01
-3.612163187219393223e-01
-1.837221778268266215e-01
-3.720470688878410037e-01
-1.591135363719814177e-01
-1.051726983183075781e+00
-1.867375308536799006e+00
-6.649573583732454329e-01
-4.792705540769920391e-01
-2.262876089137295654e+00
-2.762385669629501717e+00
-1.864868299271151164e+00
-1.677350081770698553e+00
-1.166765184787741161e+00
-1.236477127310608326e+00
-1.380786613382491979e+00
-1.514301833703325384e+00
-2.182240565097703477e+00
-3.396071106469624290e+00
-2.086339967003141727e+00
-8.848776494072565502e-01
-4.100205776215100628e-01
-6.495929096380780310e-01
-6.414881365860929385e-01
5.463432115650159737e-01
5.358632218420790183e-01
9.273948085153584930e-01
-4.164276371604128668e-01
-1.019326589484559786e+00
-1.241261702141936540e+00
-9.967922141648963841e-01
1.127521595830824230e+00
1.688079245406474360e+00
9.160568309236044593e-01
1.172083810508562918e+00
1.645040186995553100e+00
1.952617815457586836e+00
1.866100058530320016e+00
1.783149265181036336e+00
1.938253616073118968e+00
3.413914856609245319e-01
-9.736877752454954349e-01
-2.027449408080748583e+00
-6.014697590716792108e-01
-6.529755023147906789e-02
4.608993972632073333e-01
7.340614082905144722e-01
1.682234078160480983e+00
2.058275352992322560e+00
7.755022386480114882e-01
3.515668035586588247e-01
6.669830015271370760e-01
1.232857074211057169e+00
2.479241615469131688e+00
1.347718341576681578e+00
-3.508497569604583921e-01
-5.153635060789421019e-01
-7.142382142737604966e-02
1.398704104908628398e+00
2.926978137160320514e+00
1.767182313692702733e+00
6.120647739815164579e-02
7.906768597058190240e-01
1.617521945071089373e+00
8.351455337770750109e-01
7.259037145181844453e-02
2.141792290301979484e+00
4.795102384200482071e+00
3.374506849816187870e+00
2.042405826820580028e+00
5.982082646315609598e-01
8.285223765862035350e-01
1.604391014855173214e+00
2.687394477670546067e+00
1.416668891626699178e+00
1.551226424534164039e+00
2.274071386837748232e+00
1.989547858948515602e+00
1.240167259434685088e+00
8.516218357375276993e-02
-7.183117893160857470e-01
-6.749998973868457375e-01
-1.115585225459375218e+00
-1.214747301662050916e+00
-1.085077659851400589e-01
2.133017621835561206e-01
-4.006232739383104591e-02
3.210099914637594698e-01
5.040334479708327153e-01
1.391400130108289224e+00
3.492158300503074853e-01
1.175085086418362179e+00
1.073474524072692393e+00
1.467493511875045620e+00
1.108650238888998718e+00
1.944216483154557751e-01
-1.633650993449695665e+00
-2.281639866950272211e+00
-1.096350242564686717e+00
-6.050090931663818505e-01
-6.554715751510373778e-01
2.623518504715653954e-01
6.121758565228233584e-01
1.229715909699707677e+00
6.675962170954026220e-01
1.998725591289051973e-01
3.864919234303624274e-01
1.279321659584459425e+00
8.675935283022638833e-01
1.463217647392215381e-01
2.144180741277909585e-01
6.229009508356730951e-01
1.270855406451557729e-02
-3.817265021793549984e-01
-9.402288756764955180e-02
-1.763180909986601097e-01
5.354171406035750369e-01
1.119651282221997279e+00
4.865072107853691818e-01
-2.882778622955294301e-01
4.520353704138725670e-02
1.837334024708900948e-01
4.187170485339611337e-01
-9.178832900624640523e-01
-1.478407006616660802e+00
-1.195038874816169994e+00
-9.871618286269698839e-01
-1.146996788616136964e+00
-4.691026041901019683e-01
2.583014670429080173e-01
8.696740446636771482e-01
1.061430579345198577e+00
9.693189596166876809e-01
8.188447813423114230e-01
-1.190607007524687316e-01
-1.585092483985665185e-02
2.192823468665222320e-01
4.794831987543740071e-01
7.041402352210970328e-01
3.120421181743512906e-01
1.434328088294520409e+00
1.301170136202100425e+00
-6.698818315671736801e-02
-8.526890010527801156e-01
-7.567072895555491119e-01
-3.963797413696443783e-01
-4.860911948944906386e-02
-9.820032630539936580e-01
-1.966732252012949100e+00
-1.642741433065315837e+00
4.219591404657046380e-02
-7.102816012262455070e-01
-3.355609621836076473e-01
4.622535302391153622e-01
-1.210620268464551591e-01
-9.163203196672653483e-01
-1.361229994973739421e+00
-1.248351936011697916e+00
-9.938520137774107255e-01
-3.090828098429386772e-01
1.570979924036813302e-01
3.535413621165710563e-01
6.890968778463492372e-03
6.130565989046589115e-01
-4.121358293615601243e-01
-2.597559250491486282e-01
2.950997248701125453e-01
9.125580743424371866e-01
1.243215270533005512e+00
1.066508708556309193e+00
6.401578825736478073e-01
5.635507341773912104e-01
-6.163793788900623349e-01
-8.049674882805185616e-01
3.632694435187135973e-01
-1.691792338442618393e-01
-4.264746163837517152e-03
-8.369674476680255548e-02
4.525531270163680730e-01
1.110638290325089317e+00
1.458009360834987334e+00
1.646721625076808193e+00
-2.483378965863389937e-02
2.539890139170136729e-01
6.547802651722758327e-01
1.148854990080684368e+00
2.279480666709929437e+00
2.478204883794554725e+00
2.436646019448046374e+00
2.755672032249549819e+00
3.615936782281408579e+00
3.228470380908065707e+00
3.881849346194337524e+00
4.189525488611784532e+00
4.231469987371635710e+00
2.459253400820236468e+00
1.677978831549286065e+00
8.629511703992374105e-01
3.102435411665570575e-01
1.387195819570620658e+00
2.509050540025166587e+00
2.414460288960103007e+00
8.900576506324942017e-01
-9.520359614824442929e-01
-7.959575566002018432e-01
-2.014183935864261310e-01
-5.426782504349727532e-01
-8.650752962404042457e-01
-1.676152653314167962e+00
-1.611448864403133008e-01
-5.102814532259480895e-01
-7.852138640395673885e-01
-8.813127497386804565e-01
-2.910725858900471974e-01
2.718230928301714200e-01
-7.324892723323337407e-01
-7.951305827692753958e-01
-4.887915478166530714e-01
-3.110716091037720732e-01
9.412879926599300173e-01
3.575406706614452368e-01
7.959771236886180601e-01
7.928151244257202190e-01
2.488025312356240970e-01
-8.529368535718474809e-02
-4.106130053035145222e-02
2.728649176633007323e-01
2.098605441988632692e-01
9.672879320452159035e-01
-5.913807159157419280e-01
-1.599244411367203966e+00
-4.700261034955978690e-01
-4.375263019058069358e-01
-1.512794000611132672e+00
-2.215697755963449644e+00
-5.769475891714235249e-01
-7.525597129514033368e-01
-4.376495494964220967e-01
-4.205909913673369638e-01
1.857396171263326901e-01
-4.780333426115560558e-01
-1.661656674473955375e+00
-2.887924127285597997e+00
-2.377902631964865954e+00
-1.676185911036862430e+00
-1.204642334931850467e+00
-5.952516474462632434e-01
-1.888417274292409909e-01
1.360769038729431557e+00
9.211397298252339549e-01
5.906277515459559257e-01
-5.068064441637198936e-02
-8.012684881217359001e-01
-1.216844844340920773e+00
-2.245648342972875466e-01
1.508307548341148996e+00
1.495748904420499237e+00
1.701412233575426924e+00
2.540598254587344229e+00
1.539620320352919736e+00
7.897596135234150605e-01
-2.166195266135941683e-02
4.345164609901445638e-03
7.729342444748089624e-01
9.718265303309610026e-01
-6.352443908899189084e-01
-1.209729531045546480e+00
1.023946377043024741e-01
-3.742919555844162471e-01
-2.661379971037690084e-01
5.597353470857495683e-01
2.321901254321281804e+00
1.162047361752913011e+00
5.856386975005972717e-01
8.974138191566943812e-01
1.010652351490701761e+00
8.163671316928927668e-01
2.152630861253893357e+00
8.428634303441923104e-01
1.597782608730789200e-01
5.366299616151566365e-01
1.243774918459953138e+00
2.092633092981706966e+00
1.599814152956910540e+00
6.417221386196080291e-01
6.656665735543942919e-01
8.519428810469866775e-01
9.642766621289821094e-01
1.406178887927644228e+00
1.706731862679991441e+00
4.107807357623328492e+00
3.157442712387299011e+00
1.524093258268637952e+00
6.649318059946566217e-01
3.939950537811211517e-01
6.354653356089269289e-01
1.852077718673010853e+00
2.080859700957122360e+00
1.834856842399163579e+00
9.787592902874774348e-01
1.133195572231655124e+00
1.411269451673738518e+00
9.197647983158905305e-01
-2.046311396145554240e-01
-7.624434629333821656e-01
-7.976926673952940972e-01
-8.342400238402872814e-01
-8.603121498349598495e-01
-2.418973138418772373e-01
-3.901038446472606114e-01
-6.084101688248056972e-01
-6.434596942704561007e-02
2.863124061489257244e-01
2.576800863269176345e-01
-2.986769297172365278e-01
-5.568610518962837513e-02
1.010132207944061333e+00
8.328825150514288511e-01
3.523380216881515370e-01
5.273905620912694436e-02
-1.617625748449052159e+00
-1.925467268719851965e+00
-1.173329310255942115e+00
-6.907237578190918992e-01
-6.534489823172305867e-01
2.075144663825379265e-01
8.159495230402140364e-02
5.350883834885407087e-01
5.061571271401656968e-01
4.556590508898268888e-01
7.023540405851180779e-01
6.199996387193551506e-01
1.179164210820019987e+00
1.390380294807088468e+00
1.189324618861852922e+00
3.665355088629577707e-01
-3.903220377948717346e-01
-8.744495962357083929e-01
-2.042270895740995462e-01
1.725203140910539501e-01
6.343659268755300618e-01
1.078851788479598284e+00
2.101254184796078894e-01
1.748859334690174294e-01
1.301897810716538539e-01
6.550262807969291501e-01
1.488892717814845890e-01
-3.674066465387201275e-01
-1.000515045271176628e+00
-1.027518761464507380e+00
-1.331098445985762879e+00
-1.635926897324729845e+00
-5.434588693784150326e-01
4.164728512514912495e-01
8.788506203430379582e-02
-6.856231946548210776e-02
4.110135390286496215e-01
1.204254126986928464e+00
5.405815374817752872e-01
5.115659285263323558e-02
3.767239694312613518e-01
8.163654080326064877e-01
8.823441601508543730e-01
5.703101563702461796e-01
1.274800566660718726e+00
8.802823932965768705e-01
6.924260892115894350e-01
-3.193171880894988268e-01
-3.683332400569213627e-01
-7.899967612525687910e-01
-1.508376093266669216e+00
-1.878549710664199734e+00
-1.362633790430895608e+00
-4.152320580015276819e-01
4.162977818007815856e-01
-1.212448501798542994e-02
-2.541139233714633794e-01
-3.011012786203113301e-01
-4.280519984206656581e-01
-1.455955701549179471e-01
-9.995663670586104610e-01
-8.915084697836743732e-01
-1.046602801443838437e+00
-1.137170640924018983e+00
-5.811891696597212276e-01
9.343005050615340590e-01
1.179389608961978642e+00
3.952830159856306480e-01
-2.229347649492208761e-01
4.295105266941525723e-01
1.785834559013858014e-01
-5.395446393689833087e-02
-4.706841195334590666e-02
2.835931949548107789e-01
8.990864405136613779e-01
2.388363063781605011e-01
-4.783176339727166493e-01
-3.940855015002541761e-01
4.728775643350114355e-01
4.519484648035912988e-01
8.652911897474708791e-01
2.030143903395876803e-01
-6.424365122675033124e-01
8.598015963576990384e-01
1.404620390553431353e+00
1.309828357398311161e+00
7.479380977906535666e-02
1.885774749489791402e-01
-3.402183518202702567e-03
3.951455688220741891e-01
1.465125653973137876e+00
2.648291488797013926e+00
2.481844952136661231e+00
2.630224242369803456e+00
3.415166612255339906e+00
3.404870823310564454e+00
3.205535919446039550e+00
2.841045149278030646e+00
2.587648508452520257e+00
2.704937597651698056e+00
1.397675612856733807e+00
2.331368527952693837e-01
-6.761782976439399684e-02
9.123286724840131701e-01
2.380604288887764763e+00
2.208190537650895902e+00
2.547202640897875403e-01
-3.403911875229351930e-02
-1.074756160801629390e+00
-6.968447787291390805e-01
2.130405766644553195e-02
-6.202378634563795456e-01
-8.796055311813270050e-01
-1.913834422340457975e-01
2.021570744250832941e-01
3.208138106974517401e-01
9.575384730606141259e-01
-3.397750769034178775e-02
6.037724059825761991e-01
-5.126282145071038299e-01
-4.840726412502155407e-01
-7.501795297084457026e-01
-1.154672137057585646e+00
8.863631906682711836e-02
8.762709977640159575e-01
1.935029085642422597e+00
1.741515158760320148e+00
1.261718710714322844e+00
1.129902313374353984e+00
8.899131204449726162e-01
1.598040236362662903e+00
7.714298188779532550e-01
1.177568374289707176e+00
-1.894869207559827518e-01
-9.646726099953001343e-01
2.233116295499120163e-01
9.379504054997350737e-01
3.262519943337251482e-01
-8.784688669050841892e-01
-3.653265948112339179e-01
-5.188638768924355160e-01
-7.840330034763397238e-02
5.028323345778752396e-01
9.545020986150891673e-01
1.423095986113004363e-01
-1.260505579145390298e+00
-2.434987649586972225e+00
-2.883730046035942518e+00
-2.169641221963858335e+00
-1.756574327029890581e+00
-1.072274438907362404e+00
3.444582414516483837e-01
1.132476276237050383e+00
1.327051856064404012e+00
8.569712870953617723e-02
3.702550940570171201e-01
-8.795221902556427107e-01
-1.020076348489066920e+00
-1.341720077142112000e-01
1.918542346013913047e+00
1.026977417116139657e+00
8.883927399904528732e-01
1.423531160754566427e+00
1.072085313943733853e+00
5.188373258141367739e-01
2.501021809250038586e-01
-2.383269847921880291e-01
9.019343133732411477e-01
-4.905824189788290240e-02
-1.274540562006648781e+00
-3.584758318661495080e-01
4.953489335222419077e-01
-4.808552453045012581e-02
5.370128283705507405e-02
1.297649477836373189e+00
1.523397362434041113e+00
2.410441890186501013e-01
6.507158236277892360e-01
5.387115819413763607e-01
7.669091499351187169e-01
7.139969998899770021e-01
1.111650681787922368e+00
1.082911331620213247e+00
1.598654145720261321e-01
9.019847402152852966e-01
1.561668999958831128e+00
1.875397660357988272e+00
1.383634218675700689e+00
1.806009523675961903e+00
1.874763537381864076e+00
1.249223506601326417e+00
2.021333716253777446e+00
2.682003225825379644e+00
3.175337565830190112e+00
2.038269883471729216e+00
1.530711128547517674e+00
1.683340402312212269e-01
4.470654847637906548e-01
2.206806913723409203e-01
1.238017058512566715e+00
1.387601152091319845e+00
1.316961976083431018e+00
1.682598559105287217e+00
1.590430182516953117e+00
1.421774663663173399e+00
1.796131858691491390e+00
7.845869509927684282e-01
2.703368108123563873e-01
-1.541633497791030372e-01
-7.917795713248645395e-01
-7.049491219761476746e-01
-6.428825622442636556e-01
1.153934116278148569e-01
8.631390078945508915e-01
7.352000082830761896e-01
-3.615757953716442485e-01
-9.543182771282576748e-01
-1.731006349068304195e-01
9.427544232749311970e-01
-2.800323244158434838e-02
2.148510537913982943e-01
-8.850873390698076049e-02
-2.945761736242037965e-01
-8.201650337797318502e-02
-1.007782096908338199e+00
-1.846891130283154325e+00
-3.337979468663344607e-01
-1.064507586901322078e-01
-5.942484518853361486e-01
-6.183738297423193586e-01
-6.549692190771924105e-01
-2.857945661198843523e-01
3.729885010170105875e-02
4.141059146711355554e-01
1.134810905791527658e+00
1.130712483919269928e+00
1.608927510293153951e+00
1.542339720222100974e+00
7.552776458335794807e-01
1.218044341734600744e+00
1.607498546537910133e+00
4.402451457245911137e-01
-3.298796843213531726e-01
6.681781162846266442e-01
5.185063880886293664e-01
9.391251040043769871e-01
6.869275259917364540e-01
5.833191982798201503e-01
2.763495573299036279e-01
8.156039211595343952e-01
9.554273252069444000e-01
-5.273404450352561085e-02
-1.192894810172287601e+00
-1.104391679767441570e+00
-8.796922389386040431e-01
-1.277239061293642175e+00
-3.494364378823336947e-01
-3.729488131995011696e-02
-7.204574501990110846e-01
-9.571341919854593483e-01
-3.586272397538576295e-01
1.176379278419592112e+00
8.522095820402613153e-01
7.908468021491708855e-02
3.257375215334712970e-01
1.548314520719673792e+00
2.279811491102918808e+00
1.532401175040676522e+00
1.795436828683516062e+00
8.642499572543448361e-01
8.547340639738404411e-01
1.059077022755554182e-01
9.037159403875605346e-02
-2.550129218576556167e-01
-1.922530422584086240e+00
-2.493199636647483786e+00
-1.431797540481205777e+00
1.023899330170229827e-01
3.237547104411054311e-01
-3.803801773897780847e-01
-6.800335068787234372e-01
-4.969254063122046650e-01
1.660403106020986175e-01
2.675727602042214381e-01
-1.246715349290295816e+00
-1.588773743345733847e+00
-8.933243836364331836e-01
-4.269622985980736640e-01
-3.449820425324642836e-01
1.090078920555817010e+00
2.176623223816312791e+00
7.577691222575408947e-01
-1.761920653429775996e-01
7.544248777262799743e-01
-1.245380775326433709e-01
8.153512487475519932e-02
-2.748995326404457540e-01
5.765479823835850670e-01
1.066465082340294357e+00
-9.336171335861054299e-02
-1.041674118034869867e+00
-9.971217127163052307e-01
1.534112086456254631e-01
1.026011334774332928e+00
5.735361449888737306e-01
-4.766647470690141275e-01
-7.234368033356768368e-01
-7.884323954181146621e-02
6.015136668867272496e-01
1.050588134531614815e+00
6.077877239984526003e-01
3.838566646261668547e-01
1.432480738409868878e-02
-1.175093747301153707e-01
3.976418943802458306e-01
4.083150611184101386e+00
2.872807684440632059e+00
2.840689777531685056e+00
3.091115121580565450e+00
3.570875920196189934e+00
3.207613740729703178e+00
2.515239154139377487e+00
1.583783722894166246e+00
2.033089319116932359e+00
1.602868687883999721e+00
5.664926565271775072e-01
5.901921481761359667e-01
1.548457502075656578e+00
2.539784279790167965e+00
1.308766143120659642e+00
-1.114504369007574880e+00
5.872743908982391847e-01
-1.521005184703285051e+00
-4.781816329059824233e-01
2.176159746975420417e-01
4.563897031151445405e-01
6.656996923770946983e-01
7.692450984436167982e-02
1.377897249254436796e+00
1.668357477388628496e+00
1.385288365554454337e+00
6.842297287158867203e-01
1.181430760652349976e+00
-7.644933787529472058e-01
-1.153371456796182581e+00
-1.188727028163544031e+00
-1.257168473893448324e+00
4.874005792804876336e-01
2.150609119333869668e+00
2.561151890271611720e+00
1.492347523130125531e+00
1.190497508001093108e+00
1.371129004233062165e+00
1.398272032001418363e+00
1.323417455730657721e+00
1.992565814174759087e+00
2.708161047422639633e+00
6.983643654608906459e-01
1.587410414607599018e-01
-3.373263857772919594e-01
1.313364437012808361e+00
1.269244980492606034e+00
-5.389845690045477755e-02
-3.366235751468369952e-01
-6.181014525474086696e-01
-8.423428759232594321e-02
1.195794651369803008e+00
1.520252472795990739e+00
7.461668078021145289e-01
-8.574862038422556010e-01
-1.263728739841375903e+00
-2.484130055271530413e+00
-8.215668209474511485e-01
-8.375048396628987923e-01
-5.672710852682489868e-01
-4.581360918198472409e-02
7.500811057180053476e-01
1.030188553833367937e+00
2.952533317113059663e-01
3.742726748854021540e-02
-5.736693393141441000e-01
-1.245958384265699825e+00
-1.208803385332945624e+00
3.424026679974527809e-01
1.314271173460575537e-01
1.287596943570609720e-01
1.013877191319475957e+00
1.908879455917927848e+00
1.430144650730225120e+00
-5.145559330685599980e-02
1.619740280819236822e-01
1.339084957206152282e+00
-2.479667469612776842e-01
-1.317984968497792675e+00
-1.787595145892803550e-01
-1.779647322324952319e-02
-2.234778535825221180e-01
4.731221554233452919e-01
1.380734395079487031e+00
2.775695917996794382e-01
-9.920272492066575798e-03
3.060124726963112107e-02
-2.867614894971857314e-02
9.751376184088227372e-01
1.213408670313560700e+00
1.450501028063797104e+00
1.939649865565855613e+00
1.312090995729856102e+00
1.663483108203152705e+00
1.541700308356257709e+00
9.495078822586758838e-01
2.683060206835015671e-01
3.110460937333997533e-01
1.171356774333099926e+00
1.927381107481554556e+00
2.430881281933727323e+00
3.103960824092604209e+00
2.713691357668776227e+00
2.158315650041767453e-01
1.812102691523026055e+00
4.209858954947535148e-01
-4.335543154852123937e-01
5.332211753852971192e-01
1.116816541453468314e+00
1.466823930372008533e+00
9.053150785095132047e-01
2.477515161220127382e-01
9.638317809122831648e-01
1.085238617940801120e+00
9.522464303655640006e-01
1.389000211417196873e+00
9.462409506511056945e-01
2.501759839810908104e-01
-5.899182565573248826e-01
-7.991484538154025596e-02
-5.740091964813492931e-01
-2.868339788783552669e-01
1.078824397003146141e+00
1.445546199395602027e+00
8.970150149522057026e-01
-1.128751853367684577e+00
-1.135997722471504767e+00
1.452874486368005147e-01
-2.552100324868797343e-01
-7.418750716042936677e-01
-1.117341755084755084e+00
-5.557159234805306713e-01
5.885548121448417325e-01
6.777082899782035375e-01
6.764422960645541938e-01
-5.272252317614287837e-02
8.108073693132559212e-01
-1.024870905605176352e-01
-8.823609117309989536e-01
1.987907079393755327e-01
7.642082170795584384e-01
8.977608871032424220e-01
1.172694722014022917e+00
5.390146386307959059e-01
1.557378722126479875e+00
1.101502740314683759e+00
-1.613989301089820139e-01
7.487556204576684138e-02
2.584460685770785804e-01
1.053487413493966685e+00
1.475538362204949605e+00
1.812649578798413430e-01
1.600958351865280127e+00
1.469740668914385040e+00
6.226014899164179495e-01
-1.368939799806414004e-01
-3.439457139124495466e-01
-3.228325403224104329e-01
2.510400688116914414e-01
5.419903526675934335e-01
1.227728749717458233e-02
4.702481384177657764e-02
-1.718492117672057173e-01
-3.836597252679322945e-01
3.765622799867413689e-02
7.010525492488205446e-01
1.987715131178995898e-01
-1.409130955719437805e+00
-1.316114317292134128e+00
-1.015501586571846637e+00
7.389010309225401141e-01
8.864032517938992273e-01
-2.854330077270593805e-02
1.020351538686780524e+00
2.762594727313025800e+00
3.270847054596183412e+00
2.970094413341200834e+00
2.591962986525676360e+00
1.942799461886517864e+00
1.489233427050058678e+00
1.291175047145138421e+00
1.440225066747725879e+00
-9.097649464863928337e-01
-2.269670512369888371e+00
-1.297879469775620187e+00
-6.527024511281169783e-01
1.673761868969881605e-01
7.682380248111822518e-02
4.211389392925578568e-01
9.664414905556668600e-01
1.483615589150864000e+00
5.903501325157600732e-01
-8.283816424595981387e-02
-1.420909327325508009e+00
-1.168215896711527035e+00
-8.707524806870731160e-01
-8.801571331761148809e-01
-1.002034239878424993e+00
9.128085991605608962e-01
1.027292567478141239e+00
-7.240469582646685831e-02
-9.790886601735858674e-01
-7.217891582266261485e-01
-5.784044908293770604e-01
1.500479015697617907e-02
4.491508461553013754e-01
-3.171259126484524821e-02
1.150660357909497833e+00
-1.605299529300704187e+00
-1.607198926135149586e+00
-3.652461974600095251e-01
2.366738607020879848e-01
1.812109898205957581e+00
1.513077230688252950e+00
7.257010813790385484e-01
-3.968468690436180446e-01
1.977705183161554692e-01
3.262944260393738638e-01
8.980457814135213157e-01
1.141098869171808250e+00
1.536576563704454390e+00
7.166246664348080442e-01
5.361838667125095048e-01
4.515287158873133033e-01
3.153271784701300984e+00
1.730178409054719202e+00
1.031186548059342734e+00
2.636136775696234391e+00
3.407498822214118039e+00
2.888823034478888996e+00
2.101209720072185316e+00
6.608797438673414959e-01
3.345491014991428980e+00
2.036295092194677636e+00
1.420028309932132027e+00
1.791285281501475479e+00
1.920428930246445232e+00
1.904570599470579939e+00
1.540284823103034162e+00
6.255415769870459330e-01
-6.061083902798309886e-01
-8.965944267760554975e-01
-1.725982371092691092e-01
5.645764964279975651e-01
1.297426260148744737e+00
9.047912719486053135e-01
1.613192441033405311e+00
1.928893096192134005e+00
1.873003564176926927e+00
2.747915224905127740e+00
1.478337371601902150e+00
3.369304829754086739e-01
-7.631660036819285509e-01
-2.292641016550411415e+00
-5.601602862257546445e-01
-6.911791691957559491e-01
1.655113793483622642e+00
1.930913647123261967e+00
1.016300700576368676e+00
1.115279146896917206e+00
8.880373438795827745e-01
1.024333182946443266e+00
1.318243498710756301e+00
1.560312916481987555e+00
1.571872540952513608e+00
-1.830308539462230932e-01
-7.165735513231272780e-01
-7.818674913011898209e-01
-2.634080195586321893e-01
1.809558521696342792e+00
1.517690298204692700e+00
-1.737317626926822289e-01
4.514070342638210054e-02
-9.750867811761860793e-01
-1.006711010156950747e+00
-1.626900279476274983e-02
3.979594089452697520e-02
-5.626577319818728551e-01
-8.435638300996279870e-01
-1.279273676022801287e-01
1.787184225949935756e+00
3.374389499196192022e-01
-1.855433248902273527e-02
-5.851534383328184097e-01
-5.477022677103696724e-01
5.706592040139992772e-01
1.028347177862805495e+00
-1.123240040611553220e-01
-3.476871323241703116e-01
-6.707632031263615069e-01
-1.567408342419186751e-01
6.483535008863676452e-02
1.096810654386674910e+00
8.899360735372449094e-01
1.372791438584031853e+00
2.493327424397687508e+00
6.975787378011122364e-01
-3.675781215178989259e-01
-7.396502178988899612e-01
4.899125246141084467e-01
1.614746691607281459e+00
5.941237300167260260e-01
-1.014823191921946366e-01
4.537025453589659252e-01
8.970019533620343655e-01
5.304274573196554599e-01
2.541043918792053047e-01
1.558321243382886079e-01
-5.010651008483724134e-01
-6.251251312940354632e-01
-5.643083676874961485e-01
1.300143087310099865e+00
2.630305887081649807e-01
5.053835787569094240e-01
2.967595500212235060e-01
1.235104295139535679e+00
2.383153773307391088e+00
2.080230144041759210e+00
5.594650204271036653e-01
3.406587995816868775e-01
1.159010698402490602e+00
1.246255623657279488e+00
1.102808978344467894e+00
5.300937949700599283e-01
9.591470856737731587e-01
1.027011807938887689e+00
7.266444640568818780e-01
8.506635613821478259e-01
-2.928060669493409707e-01
6.694087826817781695e-01
1.387769457027953957e+00
1.394575380637969264e+00
4.536187200063508951e-01
-2.005097405173301706e-01
1.071591314008424750e-01
1.736900401095265556e+00
2.732899989128863449e+00
2.430078901362497046e+00
1.981886166016860518e+00
1.849707475451505267e+00
1.328415954421532374e+00
4.555124422300379505e-01
-2.539657025012098321e-02
4.683357036721179645e-01
-4.834429822854262593e-01
-7.056832676150072148e-01
-2.558024951931383018e-01
9.173878613258512615e-01
1.355730259344708033e+00
-1.174407273329666213e+00
-1.581087449532553313e+00
-8.621402757088535429e-01
-5.271177548316007266e-01
-8.020279944962664942e-01
-9.120418923090719554e-01
4.566309378051618822e-02
1.244484833808497948e+00
1.766374885631730285e+00
1.064197529791497399e+00
2.889025190501379181e-01
-1.379861644033807400e-01
-3.635843703370428837e-01
-5.232305846315605802e-01
3.650424745984103270e-01
1.746809910120622034e+00
1.137436836448493915e+00
8.153465644837176729e-02
-1.510326605675111900e-01
3.365726060960059218e-01
-4.302628861701072727e-01
-7.965541293500768560e-01
-5.454095797828703018e-01
-3.778084726689152073e-01
6.292372624048110374e-01
7.229614141748780254e-01
1.460717660554212982e-01
1.614587355709772964e+00
1.261430084410757768e+00
6.892038166735617866e-01
1.698809265935777302e-01
3.298445105867587324e-01
-1.130969013245785582e-01
2.784364603073853917e-01
3.825338544555967890e-01
2.103586681158561289e-01
6.444660007415599079e-01
5.493581543453426308e-01
1.219707341009287072e-01
8.757298981597989584e-01
1.456815929191302539e+00
7.145653682557455699e-01
-3.056541558595670671e-01
-8.901604991257281441e-01
-1.000387475458436759e+00
6.487020784473090940e-01
1.285388797149333406e+00
3.341009443467443663e-01
6.903119221306173170e-01
1.908137543610828990e+00
2.850628612044710852e+00
1.625474474656640078e+00
2.593277866812806920e+00
2.427487690256631137e+00
1.446957472669969880e+00
8.161034092708148169e-01
3.521117893415304789e-01
-5.877259052303152043e-01
-1.509668427251784850e+00
-6.065335466491056371e-01
-2.748224642551082009e-01
3.827664532465520075e-01
-1.980045781646234265e-02
2.888773377739251580e-01
6.979268472683275437e-01
1.064039563131069288e+00
9.953384501984925414e-01
7.587004019035028524e-01
-5.827532534290792432e-01
-9.302222786761320528e-01
-1.241549110088223884e+00
-1.202680179889699108e+00
-8.061859791932793895e-01
5.974350688949169319e-01
8.074589187058848205e-01
2.683165723152838855e-01
-1.346187287409754685e+00
-1.498227636457690970e+00
-1.126038839421975357e+00
-7.228966270653788273e-01
-3.832692604617737864e-01
-6.795413100654912331e-01
9.314510222888413571e-01
-6.684222317744138442e-01
-1.009084208757911716e+00
-7.448487271098830353e-01
-7.427511462094233963e-01
5.956679893299661188e-01
8.286560830984044390e-01
4.269564278550161962e-01
-4.802797232499627644e-01
-4.986085877270490796e-01
-1.962867071092312121e-01
-2.235868414098697021e-01
1.996773588033701752e-01
3.992164173620771361e-01
2.684374461550705360e-01
8.263226972779278423e-01
1.162806570190438205e+00
2.493235578590391910e+00
8.648123023563928369e-01
-3.925502556204382154e-01
4.037041012150597852e-01
1.827204866733135313e+00
2.302099689115916004e+00
1.918750466551346179e+00
1.497399247055174021e+00
2.387384230015913822e+00
1.057623608991173469e+00
2.087112406622725069e-01
1.139678004526283761e+00
1.505385869980634395e+00
1.470136287595254165e+00
1.495423719070567481e+00
6.110364732844288937e-01
-1.019839048605736931e+00
-7.551693586130747704e-01
-2.010644554819668306e-01
2.677021205143766402e-01
8.756108426418524049e-02
1.016826158964889482e+00
1.786154163511526560e+00
2.597177116409696396e+00
1.583117394937826994e+00
2.725300312924427537e+00
2.263194022221314494e+00
1.589000544638443424e+00
-3.798850593682476795e-01
-1.664980904894196367e+00
-7.071920317856681404e-01
-1.019213973010578922e+00
2.783774047886206082e-01
1.259328433850991136e+00
1.063538214454956554e+00
1.427539886775010869e+00
1.236325003344722173e+00
1.212810320750042026e+00
8.560452188212259728e-01
1.295801728233881400e+00
1.419649560148787293e+00
-4.776190899650300387e-02
-8.421867270614355472e-02
-9.000343521902867128e-01
-3.343383592220457445e-01
1.325287074546477539e+00
1.445851040390600861e+00
6.349543001250604890e-01
9.494336590965872791e-01
3.632767127646979732e-02
-6.578100576240339392e-02
3.689803186575887906e-01
4.974864261015941591e-01
-5.911662419239144262e-01
-6.892609336506373419e-01
-2.885452768794594669e-01
2.440292552352509581e-01
-1.116175845824300961e+00
-1.976037872692346653e+00
-1.593698822355952061e+00
-1.253667863887869993e+00
-6.474688187940470518e-01
-4.932072316698336012e-01
-1.144878153363095841e+00
-3.484541145069841583e-01
-7.591265273715429585e-01
-3.824399109763399474e-01
-1.329902770274767887e-01
-3.475076140171015626e-02
1.466515832671071717e-01
1.129814757805533976e+00
2.115745357548366012e+00
1.165590342966060788e+00
7.127893638175310242e-02
-6.683437687515593195e-01
-1.368871314453254939e-01
1.186873250894888709e+00
4.699309809518280034e-01
2.163568172008787510e-02
1.091879228898420706e+00
4.469824325647953622e-01
2.029136432939974144e-01
-1.122002283119000708e-02
-2.693183736255976291e-01
-9.749664622434797145e-01
-1.325448163625818410e+00
-7.336212216815086729e-01
7.284527598977016405e-01
1.205117363953476461e+00
1.153386302755904369e+00
8.134626980575881960e-01
1.590394016730720672e+00
1.755371130400194213e+00
1.425047338276729691e+00
1.804093127422892184e+00
1.881008022934863799e+00
2.217762166720678607e+00
2.114819196749514685e+00
1.700764268677100288e+00
3.962818938144587189e-01
-1.766009461080834397e-01
-2.401512233009903130e-01
-1.555347425753754453e-01
-1.525191438816297484e+00
-7.158594678193742622e-01
-3.011929418647250056e-01
4.536797716810272996e-01
5.590046571793066965e-01
-3.110235325958368713e-01
-4.778589681219907459e-01
1.275228807580945034e+00
1.707022795101222679e+00
3.330731009950086641e+00
2.372337751726029786e+00
1.280854135165851559e+00
6.793538419061334599e-01
8.473239318598702052e-01
6.078614784832063744e-01
3.626094697858861515e-01
6.850488857386900499e-01
-2.274520905729167930e-01
-1.463221372343994631e-01
-7.594432132271080604e-01
1.796723564841850584e-01
9.327694111388842302e-01
-6.857041576518168036e-01
-1.184477363202309341e+00
-9.223497474916710903e-01
-4.736684638564874206e-01
-4.079451710154668453e-01
-3.435539766962891206e-01
-4.045732170695474639e-01
2.560968007812383651e-01
8.847507749304228675e-01
1.308773727231119288e+00
1.239301874552146465e+00
5.217640216438748091e-01
-4.550654768740517581e-02
-3.832658155278421686e-01
1.394840991854442436e+00
2.563908223764866712e+00
1.473896682524724389e+00
-1.953298291499177761e-02
-6.362993359399921056e-01
-6.436970411846439089e-02
1.120066003363896778e-01
-1.937347652610939552e-01
-4.550657209244812762e-01
-5.829857573791704661e-01
2.133096305622612654e-01
1.060111661564231644e+00
7.207251424119581751e-01
2.921881476361737895e-01
1.189326790927951738e-01
-4.579161556582052039e-01
-3.828292548510362492e-01
1.389958598932685037e-02
-5.592784699357494782e-01
-5.739637563051882552e-01
-2.663360806922004942e-01
4.318367053584500903e-01
7.238665244077756578e-01
4.119891618937855382e-01
6.016148651412910747e-02
6.859938060248272906e-01
1.323743262998492654e+00
1.342122575261794459e+00
1.022485820248533406e+00
2.077643952596719135e-01
-1.259905694715795388e+00
-5.079419520786064846e-01
2.242214791147107700e-01
2.717941069438841173e-01
8.633916707376307897e-01
1.230925104376277224e+00
2.445791425426774079e+00
9.172980408359096005e-01
2.194402706673967085e+00
2.644545400829689363e+00
1.848895567238350246e+00
4.004421511827076507e-01
-5.591687805896878860e-01
5.640154794622882495e-01
7.754251487338600923e-02
3.809675422821720003e-01
9.287298396397849487e-01
1.331931651062182365e+00
5.058733121438092617e-01
2.149690237546153515e-02
6.652063959792374748e-01
2.253195917241393731e-01
-1.811305238902791714e-01
1.597107611551443207e-01
-8.048076827967509672e-01
-1.185863972161278701e+00
-1.913621922631016048e+00
-2.090322678259336264e+00
-1.316740113627159703e+00
-2.596907188701750302e-01
1.660537287207310975e-01
6.230868501018345107e-01
-8.697181255951995649e-01
-5.473630430324991636e-01
2.750610938013402507e-01
5.985814732758606427e-01
1.763731210613190270e-01
3.480936894327069792e-02
8.510454419009622073e-01
-1.030807028012823284e-01
-5.684423695165006230e-01
-1.068034689476276222e+00
-1.174628667331251597e+00
-4.944077676244296726e-01
-9.668674375262695797e-01
-1.606958086492408677e+00
-1.769334019122948076e+00
-8.377221115432685883e-01
-2.059821004835347413e-01
-1.111186312076842597e+00
-1.239076475076513306e+00
-5.416717628726804845e-01
-7.780324877310367260e-01
-1.646080008010531448e-01
2.620867981346354236e-01
1.751541523660687716e+00
-4.299299926423612583e-01
-1.299545350046643399e+00
-6.357682314636261545e-01
7.336255761285821464e-01
1.337041589366308347e+00
1.611962696052653410e+00
2.155740452676155883e+00
1.327031073104109948e+00
4.480336155151208866e-01
5.874618201559554942e-01
9.086928833264477090e-01
1.581257867340965406e+00
1.648950834098663165e+00
2.047930865982221960e+00
1.630202468947574923e+00
-3.164201459131059102e-01
-1.868315119701140781e-01
4.107464667003883907e-01
5.119649620089632425e-01
-6.291404384148694406e-01
1.012169542546550671e+00
2.228015427264069537e+00
2.672328538034593581e+00
1.630030743702027163e+00
2.363179014378537168e+00
1.942977287116202989e+00
2.064274041167801332e+00
-3.480611041563849706e-02
-1.608802563033387145e-01
6.026309012951009958e-01
-1.267813186680270265e-01
-6.008690282511979230e-01
4.613868823557931154e-01
9.591082990716981449e-01
1.696319659722140605e+00
1.506160453875780902e+00
1.954306766923600058e+00
1.721930012075407745e+00
2.005634402667748617e+00
1.411857944412960864e+00
1.265432355600004888e+00
1.583151411647946594e+00
2.905050855381604014e-01
7.176952892031371878e-01
1.324602218180902513e+00
7.943324794273365352e-01
4.565460484894682258e-01
2.133678857463274237e-01
-1.142243745869924304e-01
-3.001704019845995441e-01
-2.260377824928994639e-01
-5.851889648428164614e-01
-1.641813396233771760e+00
-1.063111826873427201e+00
-6.146259654028103370e-01
-1.256767996031509238e+00
-1.912087755337912753e+00
-2.529548524679298804e+00
-2.061736274299790672e+00
-1.197533739477349091e+00
-6.874828990180276156e-01
-1.201777374082419358e+00
-1.773640960008550316e+00
-5.042199722392093353e-01
-8.718244690425693832e-01
-5.704166282823969203e-01
2.687830350817201341e-01
-3.019700078904934831e-02
-4.545648204496853251e-01
4.248886922405270550e-01
1.036374941441726705e+00
4.933175689896406868e-01
-6.047622880247515154e-01
-1.350170045160300480e+00
-4.685537293436334849e-01
1.202871881718215352e+00
5.127962318816765563e-01
-1.300991859555827579e-01
3.008158417077814173e-01
-3.038517649732752277e-02
-3.338952299648600408e-01
-5.459399318523203704e-01
-8.576932205124442321e-01
-1.445910588181957834e+00
-9.000922224587796228e-01
1.180542951525074685e-01
8.706763896353200138e-01
1.316455400755924154e+00
7.061707216221418948e-01
6.321148841034210930e-01
8.066293652525285962e-02
-2.418902072587323857e-02
1.873511660495178921e+00
2.241874342867439918e+00
2.534415757578444062e+00
1.417803961341569829e+00
1.149983744396077645e+00
1.318090850123565083e+00
1.440157132673288931e+00
4.099316452873082439e-01
-1.297683548710016899e+00
-1.971146458109975130e+00
-2.566991901273167898e+00
-1.587231345402837057e+00
-3.950644846281899936e-01
-3.660308090603886511e-01
-9.492799538784397750e-01
-1.041519753713991303e+00
-7.230658201917807004e-02
1.094811668084398892e+00
1.481390802089625591e+00
1.596935552913378409e+00
1.027060618125038571e+00
-4.991716938937468956e-02
-1.659737897336272805e-01
-2.523047938543513391e-01
-1.408140182960856690e-01
-6.806732887255141987e-03
8.212644528096668672e-02
5.218671849764866533e-01
2.495776612828752850e-01
-9.284666508460527323e-01
-8.451584360663885187e-01
-9.661130764430938545e-01
-9.402696209124020710e-01
-2.316422746397824861e-01
-4.519088883008291063e-02
2.791534159225620426e-01
-6.672373918626220424e-02
6.099597165159234002e-01
4.625818473998706271e-01
4.331137596070599449e-01
7.575950009429256449e-01
1.146492088599477377e+00
1.044709843625371226e+00
1.019832167932420264e+00
4.951963901518985356e-01
3.471574579034253545e-03
1.667715357091025252e+00
2.572404031624571541e+00
1.238450455100184033e+00
3.030933341360755873e-01
-6.509039733002434103e-01
5.235335212637444169e-01
4.050218219354897453e-01
3.763586094326882292e-01
2.099277318797754810e-01
-1.513143804075200161e-01
6.406744833287288943e-01
1.433203311046103545e+00
1.568765316594352921e+00
-2.750004282628965568e-01
-4.647888206600589434e-01
-4.666621472277256433e-01
-6.993679562892705925e-02
4.723474960233384201e-01
3.032865658111489893e-01
-4.549659934999539801e-01
-1.291974937013566464e-02
-4.275194059971832578e-03
-1.046759003063848642e-01
-3.467719985420414930e-01
-3.524841239279462579e-01
2.126849558849237820e-01
1.014915358986779648e+00
9.059835863022457358e-01
6.010523709635374745e-01
9.835653024164924263e-01
1.127586277522518443e-01
3.199306978829767889e-01
8.908598498762936302e-01
1.199186682800911452e+00
9.415370873727028078e-01
1.113272173329907133e+00
1.700852335115809355e+00
7.186659066333532797e-01
1.243327709252749491e+00
1.311119196933418829e+00
8.496945110759580588e-01
1.931450941229085824e-02
1.440304142839276436e+00
2.371969993241278996e+00
1.731639008595755147e+00
9.229863616300064688e-01
1.354533475868846759e+00
1.046591503826998393e+00
8.761411703725803246e-01
1.458652415664596080e-01
5.498779381219820461e-01
2.838592528139309845e-01
2.198291155861567814e-01
1.103481481524581642e-01
-6.015591417258946416e-01
-1.836108882961363431e+00
-2.255445877427844525e+00
-2.637872949500226216e+00
-1.615690430119378407e+00
-9.172976703050331748e-01
-6.547775073539165991e-01
9.995973043355015353e-01
3.646906901044686955e-01
1.152230383313076478e+00
2.077770146548735486e+00
2.747338790760102789e+00
9.694052192958498848e-01
-4.712191217386030861e-01
5.168243526550778677e-01
6.608672490612194084e-01
4.186383132297691323e-01
-2.865965404568966424e-01
3.864337968800738571e-02
3.557790855075410041e-02
-1.385015174313096065e+00
-2.049624928452399075e+00
-1.897740457298540795e+00
-1.115612029704295516e+00
-7.089432108576074754e-01
-8.070023647597719396e-01
-9.114960352645102848e-01
-3.383166986509275609e-02
-8.782426360592910930e-01
-1.274573944570378536e+00
-1.332389355207799664e+00
7.776010418442916849e-01
-1.721941526133573985e+00
-1.434241793778414875e+00
1.550098409200945382e-01
1.609769208071513136e+00
8.802931297278835387e-01
8.502621497306694920e-01
1.887239630009581060e+00
1.133729201609072756e+00
1.100579241119427953e+00
1.106875511217874974e+00
1.567616097203038183e+00
2.071552205936772140e+00
1.426188170040815217e+00
1.482949475074385903e+00
1.527229569908748585e+00
1.158609778929742040e+00
1.779083179156161432e+00
1.172413512852222839e+00
9.525011377105855326e-01
-1.001499703518185236e-01
1.492630427088486478e+00
2.886056566991168637e+00
1.763341267295984727e+00
1.381724722477082778e+00
1.119330223848873596e+00
5.962134847966499285e-01
1.431126162792444978e+00
2.271631106589294402e-01
7.393984795764204643e-01
1.579817615325843416e+00
1.103392864795758932e+00
5.807048575794330203e-01
8.356936982183208462e-01
8.527854288012133299e-01
1.803086524356704912e+00
1.750362877562125608e+00
1.859898031077688918e+00
2.006578738785262939e+00
2.694519921511478788e+00
1.530626851122057319e+00
1.808264068847484918e+00
1.945493530790712855e+00
1.600182590556147977e+00
1.220840331669325707e+00
1.566196206479619324e+00
8.442454614391263490e-02
-1.064533261096222372e+00
-8.081551962744479845e-01
-1.199841592670976675e+00
-9.907526566182816019e-01
-5.226603796436992688e-01
-7.903101262296796659e-01
-1.299396479093037904e+00
-9.338333342800392289e-01
-2.999370434209211456e-01
-1.872396545627239117e+00
-1.866690747896244673e+00
-1.602459649700526567e+00
-1.290816142468853789e+00
-5.891809299904465780e-01
-4.265624786139282643e-01
-1.649721235264403285e+00
-2.503287417488733624e+00
-1.462710917378004627e+00
-1.666692031460630830e+00
-7.332182284633137481e-01
1.774030319000809430e-01
4.368411455227372842e-01
2.094606777124400354e-01
-1.282586393926418988e-01
-3.801240408081821287e-01
-6.970302774242677080e-01
-1.152400499153496849e+00
-1.212347800385619179e+00
3.880013323953763749e-01
1.231725539685156301e+00
9.021708026601189534e-01
1.928409088248462799e-01
8.916195702433754589e-01
-5.170768135635953611e-01
-3.553744054504541783e-01
-1.824014867778648852e-01
-3.171780254171363000e-01
-1.892804386015517759e-01
5.165947967715268652e-01
9.600442918519397351e-01
9.231404198670034589e-01
2.354420339433961618e-01
7.984001678047689676e-01
-1.968978622013632662e-01
-1.259664606785053431e+00
3.177746937384193227e-01
1.494816649183610124e+00
2.259106349102791622e+00
1.851806462381295759e+00
3.699288731065143998e-01
7.952487401989889459e-01
1.130278372529021080e+00
1.386547914986698826e+00
9.845264656724066477e-01
-5.245668914846234321e-01
-1.610226883421133959e+00
-1.383471114272408986e+00
-4.615204307680776386e-01
-6.461515906737130832e-01
-1.157016747105180432e+00
-1.454335569605384348e+00
-1.144620305979481056e+00
8.715436977151375109e-01
1.247668000262680543e+00
7.690114726432308867e-01
-4.269462390681498243e-01
-8.799147771323265754e-01
-6.347692409208706144e-01
3.998303044144127516e-01
2.527894291461341147e-01
-2.554351325511276527e-01
2.623550040735185274e-01
9.331771647547550952e-01
2.686145613554883904e-01
-9.917330052018805131e-02
-4.059877697436092836e-01
-9.873940452336723572e-01
-8.024488191308800644e-01
-1.469013872162817091e-01
9.723444428887119129e-01
9.731373047647224883e-01
1.281551247054130593e+00
7.236290029678003055e-01
1.099190775321386315e+00
1.925563295921832951e+00
1.561235539500544833e+00
1.750271917007346412e+00
8.821589285697435390e-01
8.716240017226264403e-01
1.036099717842917434e+00
-8.082894249149862043e-02
-3.074593905011402950e-01
1.163207302146709976e+00
1.897546781597749810e+00
1.449104011228578459e+00
1.260107084736096672e+00
2.245898554323924878e-01
8.130209927340699139e-01
9.846984855684861593e-01
4.943080984135395095e-01
5.097800654716576618e-01
-4.737967424517856158e-02
-1.848812996158011035e-01
7.426644344236340567e-01
1.082664890682137893e+00
3.078590394940141500e-02
-5.567996384095792450e-01
-5.760496428238626176e-01
7.420364884758498536e-02
1.250573341640730529e+00
7.721937309849539188e-01
-3.149312579667496587e-02
-2.816550426881224700e-01
-1.033934172755996084e+00
-4.310325082567139088e-01
-1.183833493286332583e+00
-1.286301687160039231e+00
-3.233041376821994550e-01
1.142051385164828181e+00
1.320452293129205978e+00
1.018163465486329189e+00
1.589578057277870604e+00
1.629757875291429681e+00
1.345093495148397711e+00
1.446826104153739134e+00
8.168141678748754853e-01
-3.125380147831169353e-01
-3.376379701322564930e-01
8.224716398343091539e-01
-1.848310646995307005e-01
2.511335047459104519e-01
1.340850657501147514e-01
6.441862196912004901e-01
5.521160327146616975e-01
2.582979248489526203e+00
3.052183333752388261e+00
1.947472095853357787e+00
1.680402942940350863e+00
1.739649624617183976e+00
6.545236611941789295e-01
7.058185239477193784e-01
2.758192749080899953e-01
-4.266954213677406904e-01
5.894851616850738107e-01
1.283822132418885209e+00
1.338092362898659404e+00
2.521643184855511532e-01
-1.450696081776527091e+00
-2.115748833268965790e+00
-1.858534547862606301e+00
-6.309211542451592658e-01
-1.122156850545416862e-01
-2.992603404447325977e-01
5.469746150088180547e-01
1.618173602989245174e-01
1.218832380820302985e+00
2.245781215311079215e+00
2.862687815566333338e+00
1.491980254197439182e+00
5.848187584641167946e-01
7.595842885793048227e-01
7.201026681405992003e-01
8.901623948992458679e-01
2.875474972245986582e-01
1.136874189193600060e+00
1.515153076526875475e+00
-3.228177123469311849e-01
-1.326894692818129995e+00
-9.289065049582257982e-01
-1.093923417178199298e+00
-4.551191999165241642e-01
-2.098661942331542518e-01
5.036595667839072199e-01
8.642816881349955072e-01
2.793822838670645403e-02
-7.316698454731754842e-01
-1.076117519911909515e+00
7.022475909930151472e-01
-1.042821304184533560e+00
-1.054815317596112134e+00
4.805775178854222451e-01
1.279768671798181767e+00
1.352094171012630519e-01
2.517144152164053628e-01
1.149369356318182600e+00
1.267227465487789972e+00
1.103622286408512343e+00
1.512662223567133868e+00
2.267068257445920221e+00
2.588210796690327609e+00
1.159322576982290132e+00
5.554315577996887798e-01
8.930943961799149289e-01
1.821940372869636171e+00
2.060883675614031407e+00
1.748500549695139572e+00
1.063749714469742758e+00
4.451934374829263352e-01
1.657454132101405797e+00
2.746374900754219084e+00
5.642648193780543942e-01
-8.290532644131114529e-03
-9.738000327425565539e-01
-1.078246420463964572e+00
-9.124372410674591594e-02
7.215424277471179648e-01
8.659154255989143234e-01
1.753221769552420817e+00
1.030851132966213557e+00
1.822094487804590157e+00
1.505752598698606004e+00
5.077543734154063015e-01
1.229437523640082075e+00
9.921697372156763617e-01
1.086413952336607203e+00
7.600981632540505517e-01
1.065524073696021867e+00
6.278218575392938705e-01
1.365323795389136841e+00
1.183216924037634010e+00
1.463653248815562913e+00
1.512513248017504974e+00
1.843303649167884473e+00
4.822855896722112456e-01
-7.126396133620310769e-01
-3.490363773463606711e-01
-1.016430621590706407e+00
-1.802817636759623809e+00
-1.172330758407290618e+00
-8.123338492999130356e-01
-6.442142348947949015e-01
-7.635025534965156346e-01
-5.762241149339268897e-01
-1.678205335116017771e+00
-1.788834918037301325e+00
-1.654614498494597630e+00
-9.185970729291941250e-01
-5.628591985846841395e-01
-6.391108196026935584e-01
-2.035983631927946291e+00
-3.183710310744429339e+00
-2.896978723089683072e+00
-2.676626788460168438e+00
-1.647522253315124141e+00
-6.499283138522466974e-01
-3.643184872332163593e-01
4.522617810691468287e-01
9.819600397344373510e-01
2.321273643646096507e-01
-2.632064392484192439e-01
-1.395737859036489281e+00
-1.492669399930589780e+00
-1.341207547857378723e-01
8.659022938355249721e-01
1.131578089244912100e+00
1.166093016819951672e-01
5.640458948332323086e-01
1.318858970848259815e-01
2.856902291578594100e-01
-4.248826841192581555e-02
-2.451799730726672011e-01
3.007855738424236591e-01
5.252249651065227232e-01
1.629226985614736500e-01
1.181958469523420180e-01
-9.153732185825591561e-01
-1.254554967017777134e+00
-2.133908254875056976e+00
-1.264476807212055576e+00
5.455136051408472353e-01
1.239924926486685397e+00
1.176092060544975393e+00
1.149701881013211358e+00
1.250261929547638706e+00
8.832686249453988170e-01
-1.452810909575270593e-01
-1.748297065749739032e-01
7.696654762695523955e-01
8.052355481227683187e-01
-1.864022483478625924e-01
6.442285126747583635e-02
-9.036791790909278754e-01
-9.152243945733640196e-01
-1.024982814894572769e+00
-3.001254489118140301e-01
4.716375110762586198e-01
1.489983731693024449e+00
1.952210297097436875e+00
1.339656346930629960e+00
2.560060157803246694e-01
-2.689338049225191707e-01
-5.223299039162088153e-01
7.810682210981702289e-02
4.354794426028185672e-01
1.761827742270787867e-01
1.208202681909708476e+00
1.930013546047566031e+00
7.627887782122856342e-01
1.904988667167526739e-01
-6.351794015623289935e-01
-1.441971942759893155e+00
-8.616315028039011059e-01
1.837499829770811513e-02
8.743723523245181539e-01
1.725936383211162939e+00
1.652166697324409350e+00
8.807988875836287868e-01
6.231951578167375105e-01
8.654973995663953756e-01
1.443884637689331951e+00
1.186089277209666282e+00
4.978888815975217597e-01
1.029263844326962163e+00
1.216348702165494622e+00
6.550216692377237582e-01
1.793082929543132198e-01
3.193355284929995652e-01
1.638988918186708443e-01
5.601286510334116953e-01
9.428420748047481315e-01
1.475121046859036111e+00
8.742942737797087388e-03
4.491010039482405958e-01
2.896425014241092999e-01
-1.470880968054258109e-01
-4.955315492886980810e-01
-4.736912489873427723e-01
-1.717502772444730319e-01
-1.007124037005170808e-01
-1.359972385974514419e-01
-2.284899583606764262e-01
2.686960491019957722e-02
-3.892442515130372094e-01
1.423848017318037618e-01
2.400566269155122445e-01
2.188098555985561744e-01
2.066040792518218094e-01
-1.867592742992300936e+00
-6.849934676819359192e-01
-1.148622782096585748e+00
-1.437237342072197999e+00
-8.492360861814158834e-01
4.033328893358116285e-01
1.552406265390699813e+00
1.955824215986231129e+00
7.921610719267809797e-01
1.682526869415788662e+00
1.883874568025141860e+00
1.161533382700904449e+00
1.701617043548396824e-01
-6.463332259086541631e-01
-1.692875996622906498e-01
7.985393938975338113e-01
3.842896782192357086e-01
2.677063056496691851e-01
2.365524258713653516e-01
9.294169459752481544e-01
1.938812164508251668e+00
3.462959166972547909e+00
2.936259908826516885e+00
2.651624301686196006e+00
1.653439820296014995e+00
1.200212877251479515e+00
6.726131993848277757e-01
1.532538418436196093e+00
1.549993904774013664e+00
-6.699084724758255782e-02
2.723248524179039398e-01
6.075870716394270454e-01
1.229123261572862225e+00
7.313325279088435105e-01
-6.953160945787104086e-02
-3.578076522721271857e-01
-1.876656421791216556e-01
5.701924299730735113e-01
1.628308113630755616e-01
-4.001454545232805970e-01
5.854450886621357375e-01
1.109659338815018881e+00
1.313307413179126026e+00
9.015580517997890952e-01
2.193866921911287626e+00
2.262683941777697161e+00
1.421807127188840392e+00
7.269027465550567113e-01
1.036565996654157606e+00
1.133300512525763359e+00
3.762311114222439690e-01
1.515267515807606546e+00
1.997630839025017702e+00
-1.667997496090490306e-01
-9.636482325531154913e-01
-3.729960923944302675e-01
-3.847766821587305652e-01
2.596548790553779851e-01
2.914984633893037969e-01
8.384940847545764298e-01
9.752912818934618144e-01
1.073379278164543704e+00
2.897744299944043922e-01
-9.396691463666462241e-02
1.710559160739656415e+00
3.429960796112758725e-01
-2.996849185809652427e-01
8.328843624890704955e-01
8.986104920533721785e-01
-4.520534392920885769e-02
6.822644191675186764e-01
1.183844469894802076e+00
8.923122834119483482e-01
1.212918131011244460e+00
1.494770625541404163e+00
2.469096441348315629e+00
2.404658304864185858e+00
1.084949949219339738e+00
5.712850513936921226e-01
6.615328255559709270e-01
1.915412460819549301e+00
1.825514719170895361e+00
1.091105379139557519e+00
4.247365664933900331e-01
6.364306960530579094e-01
1.712817650810529724e+00
1.388011391923972937e+00
7.196876587994464058e-01
-3.781411101004500397e-01
-1.939240648929525968e+00
-1.723132921846077581e+00
-5.134872458364033720e-01
1.650682927640857889e+00
1.870590987187677134e+00
2.123901419370676891e+00
1.538792610373447944e+00
1.756192545030986762e+00
1.165747861646204253e+00
9.425390086100481346e-01
8.758616610710260320e-01
-1.964776938189175814e-01
2.724524070287211511e-02
2.221818096902033191e-01
-2.772127118389730027e-01
7.505692478159923242e-01
6.239465771933263571e-01
1.141745536670660144e+00
1.170034402030530218e+00
1.444469109979029220e+00
1.813560870171025297e+00
1.647035243178535557e+00
6.455240980560977837e-01
8.441124527293776270e-01
-8.214651294892951761e-01
-1.159274225136683656e+00
-1.147650569607011839e+00
-2.483722171295599246e-01
7.753200219201431542e-01
3.582618187082611816e-01
3.521576900704175006e-02
-8.295901377953147637e-01
-1.628137497686336532e+00
-1.475448160311712442e+00
-1.056825534977735570e+00
-1.220747501000744917e+00
-1.067246245711140462e+00
-1.931089169688764429e+00
-3.313996015484134805e+00
-4.003001679831887039e+00
-3.973926184709849263e+00
-2.335546056075079147e+00
-1.474027536930693660e+00
-5.662188903491330860e-01
2.170200105645653799e-01
1.382888268215690664e+00
1.387081544308838704e-02
-9.537972574471222931e-01
-1.710016837040357229e+00
-1.850394692862834534e+00
-1.241960272765523454e+00
-2.361423063664304101e-01
-2.682958844969460799e-01
-1.319972791920466682e+00
-1.479252942318107333e+00
1.155606743412837645e+00
1.060534773668402098e+00
6.587589030627415410e-01
-3.465903770598285222e-02
2.223202044886974926e-01
-1.003882263290599264e+00
-9.070585579454061298e-01
-8.054425642587518253e-01
-2.359788327309475520e+00
-2.788335941036118371e+00
-2.012044821968649533e+00
-1.612417703143270931e+00
-8.165488049121308878e-01
-2.228322443847875756e-01
6.429414442311968125e-01
4.752420299271798987e-01
2.683452107154917332e+00
3.823542364851366115e-01
-1.173379135707220744e+00
-8.522579435659587421e-01
1.525173278077364802e+00
1.557111693880574910e+00
3.977783521527371580e-01
-4.462607894112867180e-01
-2.624180370259526995e+00
-1.296502264528377468e+00
-5.576100599258908552e-01
4.552717176794365828e-01
1.197242910095087876e+00
1.395868837800010809e+00
2.222610955578397718e+00
2.443693319057512969e+00
1.417311751690356170e+00
1.275625152988731470e+00
4.804347467588815368e-01
-9.550566803819825479e-01
-6.648809530838929449e-01
-6.677663504296596497e-02
7.837435157499562655e-01
1.611137590475875125e+00
5.041757889420206418e-01
2.716140833763065476e-01
-4.461744765257401324e-02
-1.097826963554835888e+00
-4.569165259795931466e-01
-3.299241462706571926e-01
-6.419025470620368656e-01
8.021032064930123662e-01
1.284800212807548192e+00
1.001114926338012578e+00
-2.520147858857421097e-01
-3.072155501816341561e-01
8.736426542209395629e-01
1.253700174822676594e+00
7.092619655629646136e-01
1.410031411942530122e+00
1.437068386437043488e+00
4.905212084096104430e-01
-1.149730729933371581e-01
-8.090571272862602248e-01
-8.438480786735635952e-01
-1.032730758392595538e+00
-6.491707085822715495e-01
-2.215183638924867263e-02
-8.387996387321113856e-01
-1.099794049311906552e-01
-8.032051825035488313e-02
1.762048493058710752e-01
-3.451662760060788537e-01
-1.256795859114625546e-01
5.557423546929789460e-01
-6.213443337395454513e-01
-1.192123179756453322e+00
-1.021686016873583958e+00
-6.772105532039507381e-01
-8.674853881069184425e-01
-3.416656082344051160e-01
1.239620163789078994e-01
8.650616872267705704e-01
6.938789275050971650e-01
-1.832642977541812934e+00
-4.735586602670652789e-01
-3.743209968155780665e-02
-8.835942666290882985e-02
2.307058742245088057e-01
1.624022786754038272e-01
8.335671999847501512e-01
1.189810504452140538e+00
-1.875651781944228935e-01
4.927741436407105935e-01
8.589302167203760607e-01
4.400027236071176739e-01
-3.491555883286389106e-01
-6.331356594833337237e-01
6.279627912029097647e-01
1.277497944994094192e+00
1.704039996642901511e-01
2.619419107630648891e-01
4.236582126520404556e-01
2.079773537008319462e+00
2.343269330032943909e+00
2.846332523882912469e+00
2.013206494855226403e+00
1.953847413824628232e+00
1.610766983243485662e+00
3.762040183740950616e-01
2.772245370119107433e-01
9.119775063653335900e-01
8.741244601550282045e-01
6.334051044566335609e-01
1.695481438214713421e+00
2.353651102144165286e+00
2.061017856519001601e+00
1.736491547218973475e+00
1.244996230636953083e+00
9.771883115796512476e-01
8.150963467797344153e-01
1.085388498488636388e+00
9.525739389835120585e-01
4.756291432384113782e-01
1.274289069033793353e+00
9.012480813749994546e-01
5.992234603765411727e-01
-1.405918830510520801e-01
1.063003581408728859e+00
1.673306385774991467e+00
1.826220446462706315e+00
1.442952788592385405e+00
1.161577643775073110e+00
7.999654505252041803e-01
3.270947775353765796e-01
1.044362270559949790e+00
3.586883542535613256e-01
-8.205487471542997069e-01
-8.583248379157020214e-01
-2.089909215547338384e-01
-5.008059223939039795e-01
2.047525610708179622e-01
7.335342183477769895e-01
1.510357662918909272e+00
1.349320626492809927e+00
1.051560407327249091e+00
7.310025584392149112e-01
4.771287595709471918e-01
2.233526747766223508e+00
1.527904086196135935e+00
5.769485151545811902e-02
6.440586793319131864e-01
3.329551827229130234e-01
5.348551264652493531e-01
9.264376931132779491e-01
1.034843460725570763e+00
5.603118787845532411e-01
4.096034309513816862e-01
4.213313796409497436e-01
8.240581991145417007e-01
1.005090490803133507e+00
9.312748817599979523e-01
-6.099608084708576516e-01
-9.443614630789400888e-01
8.955127389147281569e-01
6.378156309840427030e-01
7.410033955251400517e-01
9.398044886233447581e-01
1.215643313057640063e+00
1.819116956905024951e+00
1.386986145920840574e+00
1.339023101417260664e+00
1.450022131242850731e+00
2.084982388848866108e-01
-7.896008358257884385e-01
-1.527934451359448664e-01
1.814097736244645764e+00
2.233471403430997260e+00
2.729063447382508389e+00
2.426191041420327821e+00
1.638181442453709558e+00
2.138822746324017032e+00
1.347977146644872670e+00
9.589027428014896826e-01
1.024810299598186925e+00
1.964890277138894581e-01
-5.310645707554365741e-02
-3.062810176150770891e-01
7.931285768769592570e-01
2.102829720425355708e-01
1.269567590233650733e+00
1.465601265222157057e+00
1.319159976804691103e+00
8.930754063001108412e-01
5.910046469872467512e-01
3.286959407379568265e-01
-1.485617398720906202e-01
-8.140588022909108767e-01
-8.029992840151304323e-01
-1.129037636950687373e+00
-9.386203447486711482e-02
1.238217396591254182e+00
1.259328411613166221e+00
1.130985554953908512e+00
-1.165048363529617853e-01
-8.631241679683844259e-01
-7.459347651793269973e-01
-1.181658343690092261e+00
-1.073448169165838850e+00
-7.695437300705556538e-01
-1.408983100849049652e+00
-2.745038044136849820e+00
-3.323443933891112145e+00
-2.746613592625120503e+00
-1.750465739755273864e+00
-7.839119466084313315e-01
-7.493986362763134235e-01
1.956712262313496653e-01
1.038813384451535260e+00
-5.924835508144150192e-02
-1.105495404447827568e+00
-1.462896203735565948e+00
-1.168792031411320487e+00
-1.019875165951463769e+00
-7.664860045324468629e-01
-6.174983626564960471e-01
-2.115185097052262098e+00
-1.538305034812037730e+00
3.681431463373671664e-01
2.897552335485081287e-01
4.770075718391320052e-01
1.447440656161135819e-01
-4.319095902429180844e-01
-1.481875134886146528e+00
-1.080179086414692291e+00
-1.166588276990317308e+00
-3.197758041215332803e+00
-1.776500678235261477e+00
-1.273435793992425236e+00
-8.903180622694764068e-01
-1.601553692719978939e+00
-1.336790790498766146e+00
-1.133778978704777785e-01
1.550023855805260087e-01
2.014187138888514639e+00
1.833855550379083210e-01
2.614195667534870426e-01
2.157629665304540423e-01
1.938537310853757800e+00
1.676446190247881107e+00
2.939324956584137838e-01
-1.130029777068739749e+00
-1.971339109650884547e+00
-1.369122220189891159e+00
-3.020620006228599275e-01
4.816038063268374692e-01
5.816384408620000057e-01
1.433981764399203218e+00
2.431596247379081088e+00
2.659632166214449089e+00
2.447171830696589279e+00
2.429266007568887886e+00
1.379531769297386745e+00
-1.219628111880613153e+00
-1.294499896831184937e+00
-4.147667786599125161e-01
4.606964571268621356e-01
7.548897900194625477e-01
7.685477881334918937e-01
3.931453926789175712e-01
3.073420636742322243e-01
-1.274596461618090482e+00
-6.926619409196471677e-01
-1.793906259192091235e-01
-5.736377160190259117e-01
6.285915273476132548e-01
2.466946980087980357e-01
8.105930584535222527e-01
-2.278198011377391072e-02
-6.047455292833542329e-02
1.089440842220683159e+00
1.694462240168905787e+00
1.845778235257512945e+00
2.220341168284302835e+00
1.415287525815870140e+00
-6.955995418562604948e-02
-1.340211218925679182e+00
-2.280021148288626787e+00
-1.927954314295038607e+00
-1.816280994016803652e+00
-1.279006042768469742e+00
-9.083115707634386027e-01
-1.694373418694841371e+00
-6.280612230426518838e-02
-2.413568704914584306e-01
6.337654485834802454e-02
2.637073445383808501e-02
-1.189101077128479483e-01
2.315446011934529646e-01
-7.576235833647744222e-01
-1.274211888162964712e+00
-8.439318312565772251e-01
-7.758107527387941849e-02
4.482271176798556245e-01
1.063564362251825601e+00
1.119440484314625062e+00
1.827865745325535363e+00
1.904243460662045084e+00
-3.227316243975731358e-01
1.104033067108910610e-01
1.207566336637509175e-01
4.723692726592499946e-01
9.717875182127690969e-01
8.240905037812156220e-01
5.797751646874241827e-01
3.942258364942927140e-02
-2.149263569137810082e-01
2.961110726267829341e-01
8.738865634107428892e-01
1.891627977607165112e-01
-1.077041726921604409e-01
-2.883690227861423483e-01
5.456352791547179892e-01
5.279089561799945596e-01
1.350802769121500990e+00
4.360634785263675095e-01
1.810617232120778519e+00
2.728499711872392375e+00
2.887081246871517237e+00
2.331530647457505268e+00
1.767462031156646241e+00
6.231022151749646687e-01
9.700552656828351772e-01
-1.257261414162695323e-01
3.420994704406354336e-01
1.488846408226405904e+00
1.224832163204149005e+00
1.174611681576237521e+00
2.028292154699276040e+00
3.390938059304966501e+00
2.828093535372857570e+00
1.592415499015100711e+00
1.542186351934056177e+00
1.180201700451550595e+00
8.481896049457151587e-01
6.151116728407582945e-01
1.357186237664856909e+00
1.210904373651195076e+00
6.789197150650125856e-01
2.903087409656914808e-01
3.745965725503870303e-01
1.478689311308447607e-01
2.975038208256068351e-01
3.348623634628766221e-01
9.059250545031235502e-01
5.545498863691626923e-01
1.426620260738308499e+00
6.030255977943654866e-02
-6.733008682827987257e-02
3.071548817055791969e-01
-4.920443918036438991e-01
-1.205602362920516063e-01
4.083771000198590517e-01
8.309285665130238252e-01
-1.368745101505666639e+00
-2.286029100608606701e-01
1.375890118445595833e+00
2.671825116295361013e+00
2.039019187215686646e+00
9.443296448599669546e-01
1.119065133757654040e+00
1.181408210868969827e-01
1.363215814998526287e+00
1.376045518678091106e+00
-8.430130585475252569e-02
3.367068700950656690e-01
-1.252668774675370911e-01
1.295306518578992927e+00
2.434078968139430366e+00
2.601452540859394258e+00
8.062737510016995124e-01
2.827714969918541099e-01
-1.029008647921175468e-01
7.623534810735839440e-02
6.613769147888421962e-01
-2.792390708183609127e-01
-1.972649233030967952e+00
-2.930659926154488559e+00
-1.810237525580807305e-01
-8.209177798736946863e-02
1.678854969012452791e+00
1.628739159412407211e+00
2.336302522156460171e+00
1.540470912135543768e+00
1.890632664123893969e+00
1.705803109712679788e+00
2.344141280391019322e+00
1.215421628599365089e+00
-8.721422239247057506e-01
-1.184197112670589025e+00
-4.256693759877349104e-01
7.683100212196832812e-01
2.168259517785561918e+00
2.915394934398054527e+00
2.552720730458298615e+00
3.328690984014705645e+00
2.863108430422532713e+00
2.046481588222811343e+00
1.338044240523335260e+00
4.048826813774920041e-01
-1.904031126045884273e-02
-1.315658514570305249e+00
5.142287507925848988e-01
5.103941885856342342e-01
2.258926662518522477e+00
2.242712449392458396e+00
6.066993404463927320e-01
-3.936296793902429036e-01
-7.316070083594572449e-01
-1.611013812718970595e+00
-2.101842633212404610e-01
-5.183077058440942464e-01
2.983168479908136494e-01
-5.195499957627184306e-01
-2.655542582227226611e-01
1.283648771719877013e+00
9.551702507446516721e-01
5.970758902183407324e-01
3.861272284247851960e-01
-1.273336816332071297e-01
-4.361985161536894862e-01
-1.805150052823457640e+00
-1.437289837400061776e+00
-1.099096916426012260e+00
-1.330444168713637021e+00
-2.078547383276936333e+00
-2.392339676512189595e+00
-1.738645776463407788e+00
-7.187499232088575551e-01
-4.997669953767752693e-01
-5.823210549077917353e-01
-1.691644020567956708e-01
8.066108826276774391e-01
2.809262122985029531e-01
-6.441762639182702088e-01
-4.529641262312545935e-01
-8.232747491328688827e-02
4.419308326977873513e-02
3.076739890122607846e-01
3.259797506817485035e-01
-1.188493834617504463e+00
-4.059849470858325482e-01
-9.493657648167125318e-01
-6.165012531072239232e-01
7.151942543540193986e-01
4.211146067242835800e-01
-7.680417504092811321e-01
-1.641618316014536116e+00
-1.461232321359475339e+00
-1.813073996722391668e+00
-2.579137234540965107e+00
-1.343643313585962673e+00
-4.604838923974750586e-01
-4.981713970821824433e-01
-1.547892119358471597e+00
-1.832744762513199177e+00
-6.950798282131126493e-01
-6.284970945245345053e-01
5.445085737764320255e-01
8.249234156329341427e-01
4.942673621330865297e-01
1.465422000880918230e+00
2.020150076241201909e+00
1.008612993443330774e+00
1.376965723232765060e-01
-5.956526459311025645e-01
-1.629864841397144382e+00
-1.168386774450393267e-01
3.566407580045540815e-01
-2.688211703738808966e-02
4.937397902594379828e-01
1.919740908544747660e+00
2.593461887455207115e+00
1.762060772362651129e+00
2.385777556414446554e+00
2.848399669422346570e+00
2.248694951229742944e+00
2.801859829893145193e-01
-1.082011354368092038e+00
-1.206222672580051114e+00
4.819670912009760833e-01
7.935916258283413072e-01
1.799717449500749966e+00
4.315912573234870209e-01
-5.039314694035391257e-02
3.232690575005481848e-01
-3.939261896597254786e-01
6.343504401474403531e-01
2.994560820876587814e-01
3.418171766523111499e-01
-6.964766350416722318e-01
-5.225739107404665518e-01
-6.578258208250102879e-01
-2.777959412027574126e-01
1.330988357766471064e-01
6.486970712475542689e-01
1.877214685124715787e+00
2.861155715845824066e+00
1.328862997473325258e+00
4.170094397313365842e-01
-5.593026529028067850e-01
-7.593489637233729050e-01
-1.302224993186141377e+00
-4.321007106865503711e-01
7.124841151695721075e-01
7.502303127329860155e-01
-9.099766158215388812e-01
3.766065913311443698e-03
9.377554483791304962e-01
3.717682202479252185e-01
-3.108153119263104558e-01
-1.608833774896372582e+00
-1.888482327327616117e+00
-1.055475304262692093e+00
-2.647539356360423923e+00
-1.408331838190985730e+00
-2.031106259878021902e-01
9.330293303594598964e-01
1.152327014000680938e+00
8.171983051610198778e-01
2.518114718468670521e+00
3.396453230825032588e+00
2.953783384836628390e+00
1.857020027453346822e+00
2.219298759367403395e+00
7.338226864372876523e-01
-3.566287882094436590e-01
4.524395996418276167e-01
8.837142247267263384e-01
6.451446548533998904e-01
6.300486842278254507e-01
3.740353667199520227e-01
3.310754599338838200e-01
6.842057772636563895e-01
7.977799453935441321e-01
1.135602125319766342e+00
4.869936803373806633e-01
3.543694982975135188e-01
1.952961573287433250e+00
1.629831230272231757e+00
2.467439169317550363e+00
3.167128616406326813e+00
2.935852651519355927e+00
3.308646966985453464e+00
2.024023714843808719e+00
9.678959643821243297e-01
-3.971229516290817330e-01
-1.245017205877412964e-01
-8.943872661518555978e-01
-6.593944027291308574e-01
-4.322039394635254217e-01
5.729139164577491394e-01
1.573998874137257031e+00
2.261644351930907071e+00
1.468630081126231168e+00
6.224335523492492417e-01
7.246116775236467467e-01
3.090202771091996592e-01
3.521381567532208545e-02
-1.945474277336477209e-01
-2.360678213713563178e-01
5.493415354881537871e-01
-1.451021136546787327e+00
-1.493768167427243831e+00
-1.403017905668248133e+00
-1.165050558338985992e-01
-1.640772970488139304e+00
-1.930398791928402691e+00
-1.223859962641413723e+00
-5.980218956879822523e-01
4.339592857196575837e-01
-7.840715065232171932e-02
-7.286342171780225696e-01
-1.175024707935117707e+00
-1.057379925165025769e+00
-7.594733088557639178e-01
5.947964849135118914e-01
1.900228063399926004e+00
1.977453323261749163e-01
-2.253245986776178378e-01
1.134685945942003338e+00
1.365020459058857938e+00
1.061921333173533766e+00
1.638854260225687032e+00
1.192826144951653733e+00
-1.291958464186868799e-02
1.596099398447089035e+00
4.203937079623971118e-01
-1.104405022626419708e+00
-7.271148748317141086e-01
3.156140563765744145e-01
8.098822211917986458e-01
1.010242458624024176e+00
2.573887229300630519e+00
3.336449683671603328e+00
2.668803701016570606e+00
1.224334462740206186e+00
2.314475872476941809e-01
1.474709330435014287e+00
2.862536091176065556e-01
-3.483400849546651745e-01
-1.116285023582014979e+00
-1.613727159862240468e+00
-5.260863861123130647e-01
-3.553184204593436424e-01
-9.832270968686419588e-01
-2.471708758382986926e-01
-3.041943363073379980e-01
6.027329135358403846e-03
7.733389347351639076e-01
1.058082432684741558e+00
7.809285700178568712e-01
-9.380388377645793030e-01
-1.297969156418515624e+00
-3.811088311096828551e-01
4.854120248658317927e-01
8.255726436793756617e-01
2.221695692591288129e-01
3.138510125862048472e+00
2.361212583255873909e+00
1.038399957065310630e+00
9.598399830037884772e-02
6.360587687234915411e-01
2.104060775516043980e-01
-2.970274956340622774e-01
-2.575886571157113766e-02
2.754853541102165182e-01
3.828122384413529256e-01
1.296039378640808204e+00
1.034480508127759935e+00
1.281219704708802809e-01
-5.570463495086473982e-01
-8.648608535970193634e-01
-1.409402384435988198e+00
-2.038430483051427267e+00
-2.742199119039024247e+00
-1.328006673175211594e+00
-6.141943838479018147e-01
6.167674756375945977e-01
1.720541567358364166e+00
1.036918499969872842e+00
8.978325120580199492e-01
-5.471916764215625228e-01
-1.341501960675120175e+00
-9.929388537562101602e-01
-5.257750912733750309e-02
-1.822216961655311607e-01
-1.711865086490964361e+00
-1.934448917446678573e+00
-2.002511652833387945e+00
-1.405071310889878244e+00
-8.542606156783407734e-01
-2.246672925191692538e-01
-1.167123023970992435e+00
-1.301526250731193990e+00
3.558274842074606870e-01
1.312547815269818008e+00
1.404748283191853409e+00
-3.681281528398392955e-01
-9.565718206717750416e-01
-8.174559280402919903e-01
4.114068839913804371e-02
7.916252280145853748e-02
-1.178742354388813002e-01
-7.979740516183063681e-01
-5.909573134591681320e-01
7.928042160224869628e-01
1.169327227741314562e-01
6.217502227759562350e-02
-1.666812658328008734e+00
-1.748389165910610332e+00
-2.588372592972777220e+00
-2.299756174153710475e+00
-1.670654851608891711e+00
-9.746012869774448029e-02
-9.658867869334883949e-01
-1.371206110832094316e+00
-1.086359873655761588e+00
-1.662381023385742562e+00
-4.778255933944764999e-01
3.178807185402062196e-01
-9.686422295711048791e-02
-4.430916512258119000e-01
-9.468383172159608452e-02
4.171850287086327769e-01
7.743519162235374953e-01
1.293057285427891834e-01
-1.145155898184946341e+00
-6.946320738280133966e-01
-6.984738997839717856e-01
-6.553974955404068270e-01
-4.044045636557719869e-01
-1.675871549262460958e+00
-1.864909627850938723e+00
3.547617703301503278e-01
1.398181220523754709e+00
1.185316266774554039e+00
7.456471758032442443e-01
1.109815205123514170e+00
1.267142724334007209e+00
1.928193526624404130e+00
1.032154162372445727e+00
4.952187943322047814e-01
1.266976999574130347e-01
6.795656634658381323e-01
1.294190270982669810e+00
1.009586116536869582e+00
9.230841781232467236e-01
5.042506322604669577e-01
1.024475401895049487e+00
3.286786986817353817e-01
6.834932472657889724e-01
6.663616314029584542e-01
1.019364789981437092e+00
4.734393619736427805e-01
-4.248174950549711837e-01
-5.081243947584735965e-01
-4.548421101175582626e-01
-1.742739528355274209e-02
1.334182853724133588e+00
1.339316336923702222e+00
1.626618868433770571e+00
1.999879297147597157e+00
1.400193664003790195e+00
8.526674356529715393e-01
1.863498337168009722e-01
-1.049587954671100221e+00
-9.661017501394152385e-01
-4.582340275896962800e-01
-8.015936208291559728e-01
-8.857048356505887732e-01
-1.994986467740512970e-01
7.611361327725622017e-01
-5.217853642679633197e-02
-8.138776097754545358e-01
-2.101967095941283947e+00
-3.123740942539658949e+00
-3.512391389924388818e+00
-3.566735639828717108e+00
-1.069407342884636902e+00
-1.051723672666977194e+00
-6.665496202555776240e-02
5.602136793712694240e-01
7.620031294998741433e-01
1.603752090653917328e+00
2.045786980423900836e+00
1.877691295548652883e+00
1.736136236772475527e+00
2.345035790144155641e+00
1.409195399850263319e+00
4.423608189510308542e-01
1.210213648592155522e+00
1.446898275896352448e+00
1.422495244551477578e+00
2.923298524874452520e-01
2.674695884102054957e-02
6.015519335412276153e-02
6.361424492723636304e-01
1.228776270786098301e+00
1.249979177825570220e+00
1.030007500444545920e+00
4.366899482320763526e-01
1.183755382788769683e+00
1.631590643272232022e+00
2.780666505067566519e+00
2.392055486746228699e+00
2.097504061695672828e+00
1.800024947634139227e+00
9.141927477106730482e-01
1.212699484402307126e+00
-4.653575585707195317e-01
-4.740881602285991203e-01
-4.558448090102035222e-01
9.918864736629089129e-02
-5.200200033333367972e-02
1.992999686205703391e-01
1.258446403322279472e-01
-4.069849465131000765e-01
1.444217637866323400e+00
7.871421803210979506e-01
6.832022574787380842e-01
4.552215185025264566e-01
-7.176052554633902125e-02
-4.642486936384059293e-01
2.031000332714154866e-01
5.990765848713532904e-01
-7.313508582693977189e-01
-1.230484562276497273e+00
-1.320221909977762786e+00
-7.344671924883554581e-01
-1.939502057899068488e+00
-1.562627995829208638e+00
-1.330688184646393601e+00
-7.995559749019428564e-01
-4.219742266673001119e-01
-2.883440571112662054e-01
-1.225151767644253875e-01
8.828135857031177425e-02
3.193644203671783255e-01
-9.445188073812545160e-02
2.505643678867927604e-01
5.050481092967677998e-01
1.776891326298570828e-01
1.096568059822959018e+00
1.963006548832877396e+00
1.931764548250743951e+00
1.628368183272349112e+00
2.099554042609624638e+00
1.261567141169536388e+00
1.193209461891555911e-01
1.514359302719034073e+00
1.005568701998387215e+00
-1.630014758190874713e-01
-3.166022845433871247e-01
1.745126807240669764e-01
6.571770640771703587e-01
1.138381188890809081e+00
2.642291605026828361e+00
2.359518943551058179e+00
1.725347829172677594e+00
9.567996352035819108e-01
1.653882735099955648e+00
2.249874212360557291e+00
9.120529602482166931e-01
